pattern,dim_0,dim_1,dim_2,dim_3,dim_4,dim_5,dim_6,dim_7,dim_8,dim_9,dim_10,dim_11,dim_12,dim_13,dim_14,dim_15,dim_16,dim_17,dim_18,dim_19,dim_20,dim_21,dim_22,dim_23,dim_24,dim_25,dim_26,dim_27,dim_28,dim_29,dim_30,dim_31,dim_32,dim_33,dim_34,dim_35,dim_36,dim_37,dim_38,dim_39,dim_40,dim_41,dim_42,dim_43,dim_44,dim_45,dim_46,dim_47,dim_48,dim_49,dim_50,dim_51,dim_52,dim_53,dim_54,dim_55,dim_56,dim_57,dim_58,dim_59,dim_60,dim_61,dim_62,dim_63,dim_64,dim_65,dim_66,dim_67,dim_68,dim_69,dim_70,dim_71,dim_72,dim_73,dim_74,dim_75,dim_76,dim_77,dim_78,dim_79,dim_80,dim_81,dim_82,dim_83,dim_84,dim_85,dim_86,dim_87,dim_88,dim_89,dim_90,dim_91,dim_92,dim_93,dim_94,dim_95,dim_96,dim_97,dim_98,dim_99,dim_100,dim_101,dim_102,dim_103,dim_104,dim_105,dim_106,dim_107,dim_108,dim_109,dim_110,dim_111,dim_112,dim_113,dim_114,dim_115,dim_116,dim_117,dim_118,dim_119,dim_120,dim_121,dim_122,dim_123,dim_124,dim_125,dim_126,dim_127,dim_128,dim_129,dim_130,dim_131,dim_132,dim_133,dim_134,dim_135,dim_136,dim_137,dim_138,dim_139,dim_140,dim_141,dim_142,dim_143,dim_144,dim_145,dim_146,dim_147,dim_148,dim_149,dim_150,dim_151,dim_152,dim_153,dim_154,dim_155,dim_156,dim_157,dim_158,dim_159,dim_160,dim_161,dim_162,dim_163,dim_164,dim_165,dim_166,dim_167,dim_168,dim_169,dim_170,dim_171,dim_172,dim_173,dim_174,dim_175,dim_176,dim_177,dim_178,dim_179,dim_180,dim_181,dim_182,dim_183,dim_184,dim_185,dim_186,dim_187,dim_188,dim_189,dim_190,dim_191,dim_192,dim_193,dim_194,dim_195,dim_196,dim_197,dim_198,dim_199,dim_200,dim_201,dim_202,dim_203,dim_204,dim_205,dim_206,dim_207,dim_208,dim_209,dim_210,dim_211,dim_212,dim_213,dim_214,dim_215,dim_216,dim_217,dim_218,dim_219,dim_220,dim_221,dim_222,dim_223,dim_224,dim_225,dim_226,dim_227,dim_228,dim_229,dim_230,dim_231,dim_232,dim_233,dim_234,dim_235,dim_236,dim_237,dim_238,dim_239,dim_240,dim_241,dim_242,dim_243,dim_244,dim_245,dim_246,dim_247,dim_248,dim_249,dim_250,dim_251,dim_252,dim_253,dim_254,dim_255,dim_256,dim_257,dim_258,dim_259,dim_260,dim_261,dim_262,dim_263,dim_264,dim_265,dim_266,dim_267,dim_268,dim_269,dim_270,dim_271,dim_272,dim_273,dim_274,dim_275,dim_276,dim_277,dim_278,dim_279,dim_280,dim_281,dim_282,dim_283,dim_284,dim_285,dim_286,dim_287,dim_288,dim_289,dim_290,dim_291,dim_292,dim_293,dim_294,dim_295,dim_296,dim_297,dim_298,dim_299,dim_300,dim_301,dim_302,dim_303,dim_304,dim_305,dim_306,dim_307,dim_308,dim_309,dim_310,dim_311,dim_312,dim_313,dim_314,dim_315,dim_316,dim_317,dim_318,dim_319,dim_320,dim_321,dim_322,dim_323,dim_324,dim_325,dim_326,dim_327,dim_328,dim_329,dim_330,dim_331,dim_332,dim_333,dim_334,dim_335,dim_336,dim_337,dim_338,dim_339,dim_340,dim_341,dim_342,dim_343,dim_344,dim_345,dim_346,dim_347,dim_348,dim_349,dim_350,dim_351,dim_352,dim_353,dim_354,dim_355,dim_356,dim_357,dim_358,dim_359,dim_360,dim_361,dim_362,dim_363,dim_364,dim_365,dim_366,dim_367,dim_368,dim_369,dim_370,dim_371,dim_372,dim_373,dim_374,dim_375,dim_376,dim_377,dim_378,dim_379,dim_380,dim_381,dim_382,dim_383,dim_384,dim_385,dim_386,dim_387,dim_388,dim_389,dim_390,dim_391,dim_392,dim_393,dim_394,dim_395,dim_396,dim_397,dim_398,dim_399,dim_400,dim_401,dim_402,dim_403,dim_404,dim_405,dim_406,dim_407,dim_408,dim_409,dim_410,dim_411,dim_412,dim_413,dim_414,dim_415,dim_416,dim_417,dim_418,dim_419,dim_420,dim_421,dim_422,dim_423,dim_424,dim_425,dim_426,dim_427,dim_428,dim_429,dim_430,dim_431,dim_432,dim_433,dim_434,dim_435,dim_436,dim_437,dim_438,dim_439,dim_440,dim_441,dim_442,dim_443,dim_444,dim_445,dim_446,dim_447,dim_448,dim_449,dim_450,dim_451,dim_452,dim_453,dim_454,dim_455,dim_456,dim_457,dim_458,dim_459,dim_460,dim_461,dim_462,dim_463,dim_464,dim_465,dim_466,dim_467,dim_468,dim_469,dim_470,dim_471,dim_472,dim_473,dim_474,dim_475,dim_476,dim_477,dim_478,dim_479,dim_480,dim_481,dim_482,dim_483,dim_484,dim_485,dim_486,dim_487,dim_488,dim_489,dim_490,dim_491,dim_492,dim_493,dim_494,dim_495,dim_496,dim_497,dim_498,dim_499,dim_500,dim_501,dim_502,dim_503,dim_504,dim_505,dim_506,dim_507,dim_508,dim_509,dim_510,dim_511,dim_512,dim_513,dim_514,dim_515,dim_516,dim_517,dim_518,dim_519,dim_520,dim_521,dim_522,dim_523,dim_524,dim_525,dim_526,dim_527,dim_528,dim_529,dim_530,dim_531,dim_532,dim_533,dim_534,dim_535,dim_536,dim_537,dim_538,dim_539,dim_540,dim_541,dim_542,dim_543,dim_544,dim_545,dim_546,dim_547,dim_548,dim_549,dim_550,dim_551,dim_552,dim_553,dim_554,dim_555,dim_556,dim_557,dim_558,dim_559,dim_560,dim_561,dim_562,dim_563,dim_564,dim_565,dim_566,dim_567,dim_568,dim_569,dim_570,dim_571,dim_572,dim_573,dim_574,dim_575,dim_576,dim_577,dim_578,dim_579,dim_580,dim_581,dim_582,dim_583,dim_584,dim_585,dim_586,dim_587,dim_588,dim_589,dim_590,dim_591,dim_592,dim_593,dim_594,dim_595,dim_596,dim_597,dim_598,dim_599,dim_600,dim_601,dim_602,dim_603,dim_604,dim_605,dim_606,dim_607,dim_608,dim_609,dim_610,dim_611,dim_612,dim_613,dim_614,dim_615,dim_616,dim_617,dim_618,dim_619,dim_620,dim_621,dim_622,dim_623,dim_624,dim_625,dim_626,dim_627,dim_628,dim_629,dim_630,dim_631,dim_632,dim_633,dim_634,dim_635,dim_636,dim_637,dim_638,dim_639,dim_640,dim_641,dim_642,dim_643,dim_644,dim_645,dim_646,dim_647,dim_648,dim_649,dim_650,dim_651,dim_652,dim_653,dim_654,dim_655,dim_656,dim_657,dim_658,dim_659,dim_660,dim_661,dim_662,dim_663,dim_664,dim_665,dim_666,dim_667,dim_668,dim_669,dim_670,dim_671,dim_672,dim_673,dim_674,dim_675,dim_676,dim_677,dim_678,dim_679,dim_680,dim_681,dim_682,dim_683,dim_684,dim_685,dim_686,dim_687,dim_688,dim_689,dim_690,dim_691,dim_692,dim_693,dim_694,dim_695,dim_696,dim_697,dim_698,dim_699,dim_700,dim_701,dim_702,dim_703,dim_704,dim_705,dim_706,dim_707,dim_708,dim_709,dim_710,dim_711,dim_712,dim_713,dim_714,dim_715,dim_716,dim_717,dim_718,dim_719,dim_720,dim_721,dim_722,dim_723,dim_724,dim_725,dim_726,dim_727,dim_728,dim_729,dim_730,dim_731,dim_732,dim_733,dim_734,dim_735,dim_736,dim_737,dim_738,dim_739,dim_740,dim_741,dim_742,dim_743,dim_744,dim_745,dim_746,dim_747,dim_748,dim_749,dim_750,dim_751,dim_752,dim_753,dim_754,dim_755,dim_756,dim_757,dim_758,dim_759,dim_760,dim_761,dim_762,dim_763,dim_764,dim_765,dim_766,dim_767
Strategy,0.5223167538642883,-0.5124691128730774,-0.6444784998893738,0.15073055028915405,0.22011344134807587,-0.09933827072381973,0.5797188878059387,-0.35029876232147217,0.011770130135118961,-0.3181319534778595,0.41277003288269043,0.06436152011156082,-0.49279046058654785,0.10770004987716675,0.020016072317957878,0.586061418056488,0.48486173152923584,-0.5202825665473938,0.12266957014799118,0.44183874130249023,-0.14687375724315643,0.6306992769241333,0.09951966255903244,0.11925134807825089,-0.3897068202495575,0.28756165504455566,0.29552319645881653,-0.013219869695603848,0.5381156802177429,0.15170104801654816,-0.23908965289592743,0.17368288338184357,0.39488139748573303,-0.14440403878688812,-0.3352709710597992,-0.0170060396194458,-0.4147203862667084,0.0924893394112587,0.7746919989585876,-0.12555870413780212,-0.40703102946281433,0.05705806612968445,-0.011818848550319672,-0.4464970827102661,0.11767550557851791,0.6450079679489136,0.1188158392906189,-0.029958078637719154,-0.1435847133398056,-0.312610387802124,-0.5434795022010803,0.556509792804718,0.26689019799232483,0.13635624945163727,-0.30261558294296265,0.1826229840517044,0.241460382938385,-0.2753864526748657,0.1975257843732834,-0.39568278193473816,-0.45589375495910645,-0.4331859052181244,0.12416666746139526,0.07780440896749496,-0.05468316003680229,-0.14674992859363556,0.5279235243797302,0.07716253399848938,-0.35614755749702454,0.202749565243721,-0.3963552415370941,0.389999657869339,0.1248871311545372,-0.7852280735969543,0.13686148822307587,0.17491070926189423,-0.43391549587249756,0.18518507480621338,0.5271923542022705,0.3037567138671875,-0.033716779202222824,0.2918229103088379,-0.21065159142017365,-0.036424148827791214,-0.11933992058038712,-0.39089611172676086,0.5796132683753967,-0.11013790220022202,0.10992882400751114,0.4147531986236572,-0.31419944763183594,-0.7598593235015869,-0.04601941630244255,0.38472530245780945,-0.3301876187324524,0.3461512327194214,0.18411223590373993,0.23253579437732697,-0.10851168632507324,-0.06425968557596207,0.34840333461761475,-0.05401007458567619,-0.17821139097213745,0.1539100557565689,0.6119915843009949,-0.26279035210609436,-0.2601909637451172,-0.12455051392316818,0.0653252899646759,-0.15013785660266876,-0.00978538766503334,0.6613451838493347,0.3713216781616211,0.370969295501709,0.024476131424307823,0.10378005355596542,-0.4652804434299469,-0.3838930130004883,0.30861619114875793,-0.3691979646682739,0.4320897161960602,-0.07642873376607895,0.16147075593471527,0.3496231138706207,-0.30959513783454895,0.09884434193372726,0.08765006810426712,0.22640110552310944,0.12765870988368988,-0.3055536150932312,-0.025245292112231255,-0.08708678930997849,-0.18293267488479614,0.11281486600637436,-0.020854854956269264,-0.029298804700374603,0.1904403567314148,-0.7671076655387878,-0.3473995625972748,0.5228779911994934,0.8440986275672913,0.10373116284608841,0.4419783353805542,0.14562369883060455,0.5629199147224426,0.6122592687606812,0.30558452010154724,-0.40916386246681213,0.14472170174121857,0.24973857402801514,-0.24419806897640228,-0.20336341857910156,-0.3233696222305298,-0.6511491537094116,-0.6522660255432129,0.0526302307844162,0.4395610988140106,-0.002499883295968175,-0.04296863451600075,0.5707478523254395,0.1585019826889038,-0.5301773548126221,-0.16315436363220215,-0.1371251344680786,-0.251483678817749,-0.4434264004230499,-0.09256947785615921,-0.03289429843425751,-0.42997050285339355,-0.2508185803890228,-0.20760126411914825,-0.5371536612510681,-0.06069419905543327,0.41862761974334717,-0.4540278911590576,0.573250949382782,-0.3999381363391876,0.09374692291021347,0.5044342279434204,-0.565952479839325,0.050821851938962936,-0.6569333076477051,-0.004178307484835386,0.4699644148349762,-0.07738832384347916,0.12418999522924423,-0.07482708245515823,0.433672159910202,-0.13854318857192993,0.11924581974744797,0.20098769664764404,-0.12353163212537766,-0.21856479346752167,0.6067041754722595,-0.2986181676387787,0.08741559833288193,-0.25254467129707336,-0.22155798971652985,-0.4167933464050293,-0.4947318136692047,0.1258583813905716,-0.7720629572868347,-0.632983386516571,-0.26655521988868713,-0.3548433780670166,0.06646779924631119,-0.08240766078233719,-0.04829739034175873,-0.05413642153143883,-0.30446672439575195,0.36971497535705566,-0.38669514656066895,0.20417344570159912,0.01829531602561474,-0.08172949403524399,-0.16286630928516388,0.33619141578674316,0.4613206684589386,0.42383912205696106,-0.3548536002635956,-0.36348167061805725,0.002811665879562497,0.3735775649547577,-0.014600018970668316,0.6484383940696716,-0.09865211695432663,-0.06485093384981155,0.04494556412100792,0.09528031200170517,0.12439066916704178,0.6221628785133362,-0.27817413210868835,-0.0682433545589447,-0.028882773593068123,-0.4557761251926422,-0.17082248628139496,-0.14897063374519348,0.19930601119995117,0.5184414982795715,0.18139766156673431,0.07512333244085312,0.5953955054283142,0.4748619496822357,-0.3723061978816986,0.45228061079978943,-0.2134026139974594,0.19003523886203766,-0.5509653687477112,-0.11051390320062637,-0.662212610244751,-0.1281624734401703,-0.2947840988636017,0.634188711643219,-0.4626024663448334,0.5531572699546814,0.5513870716094971,-0.3488016426563263,-0.2279178351163864,0.3064438998699188,0.07057438790798187,0.3086949586868286,-0.05208355188369751,0.1378854513168335,-0.008534812368452549,0.1727316975593567,0.23220354318618774,0.6544713973999023,0.09571018815040588,0.440534383058548,-0.004454269073903561,-0.005309708882123232,0.6082553267478943,-0.22386057674884796,-0.34918293356895447,-0.1839832216501236,0.14826039969921112,-0.24592457711696625,-0.3655799329280853,0.00908136460930109,-0.03964700177311897,0.657593846321106,0.13244567811489105,-0.3048902451992035,0.38253411650657654,0.25934067368507385,-0.5984396934509277,0.030274974182248116,0.21019315719604492,0.1866752952337265,-0.40092381834983826,0.04974356293678284,-0.19851535558700562,0.08338996022939682,-0.5624310374259949,-0.527678906917572,0.5630263686180115,-0.0035708502400666475,0.307460218667984,0.28683730959892273,-0.339695006608963,-0.4398309886455536,0.7567353248596191,-0.2176511436700821,-0.5537529587745667,0.23219572007656097,0.3394789695739746,0.40436312556266785,0.1772199273109436,0.40167176723480225,0.335197776556015,-0.2492128163576126,0.4644550383090973,0.22690783441066742,-0.6028364300727844,-0.5182693600654602,0.029151061549782753,0.051075711846351624,0.04758627712726593,-0.42899250984191895,-0.6361383199691772,-0.11197423189878464,0.17158222198486328,-0.05874211713671684,0.2876650094985962,0.16645441949367523,0.36642932891845703,0.03550715371966362,0.3591090440750122,-0.35206520557403564,0.6660295128822327,-0.010372836142778397,0.5824323296546936,-0.5056678652763367,-0.18833301961421967,-0.13599266111850739,-0.12954972684383392,-0.0986306294798851,-0.003307018429040909,0.48820027709007263,-0.31897303462028503,-0.4118947982788086,0.22001387178897858,0.2244960069656372,0.16736215353012085,0.332478791475296,0.4341723620891571,0.1374962478876114,0.15956442058086395,0.18418395519256592,0.2589957118034363,0.2738748788833618,-0.2641964554786682,-0.6516813635826111,0.5230758190155029,-0.4730950891971588,-0.12278666347265244,-0.4333314001560211,-0.47773608565330505,0.6191717982292175,-0.4944770336151123,0.15161889791488647,0.4651928246021271,0.23587225377559662,0.1699599176645279,0.10907203704118729,0.4933675527572632,0.0475141815841198,-0.09742840379476547,0.19386033713817596,-0.0075959800742566586,-0.3532506227493286,-0.3026011884212494,-0.1861671656370163,0.13691206276416779,-0.325285404920578,-0.5921717882156372,0.09954225271940231,0.6718176007270813,0.0037148066330701113,-0.2179521769285202,0.40993213653564453,0.3834706246852875,0.22424723207950592,-0.23561517894268036,-0.25522124767303467,-0.10796951502561569,0.6375724077224731,-0.1094701811671257,0.059951189905405045,0.7331810593605042,0.3019086420536041,-0.4824381172657013,-0.05994637683033943,-0.28515103459358215,0.21492113173007965,0.1606811285018921,-0.49529314041137695,-0.024748390540480614,0.4897795617580414,0.23705065250396729,0.7302586436271667,0.05900445207953453,0.12570956349372864,0.2579057514667511,0.1179170310497284,-0.07894986122846603,0.21268971264362335,0.07408599555492401,0.43825986981391907,0.6208546757698059,-0.4210450351238251,0.22472763061523438,-0.11202818900346756,-0.16010452806949615,-0.14028163254261017,-0.314310759305954,-0.22450858354568481,0.5057687759399414,-0.46699288487434387,-0.029615012928843498,-0.012300941161811352,0.2578241527080536,-0.06579088419675827,-0.009735275991261005,-0.1309039443731308,-0.37942948937416077,0.6572364568710327,-0.13089406490325928,-0.08740075677633286,-0.5798549652099609,-0.26851364970207214,-0.021428467705845833,0.42957910895347595,-0.4567103683948517,-0.09421414881944656,0.6302765011787415,0.08611953258514404,-0.11126530170440674,-0.15965045988559723,0.36396524310112,-0.30821314454078674,0.20997141301631927,0.5262079834938049,-0.03230234980583191,-0.25238415598869324,0.07793813198804855,-0.33310768008232117,-0.15934060513973236,-0.38467374444007874,0.4876185655593872,-0.3618147075176239,-0.2441004067659378,0.009118746034801006,-0.6736982464790344,-0.18622128665447235,0.3070489168167114,0.49350976943969727,-0.02822541445493698,0.2137611359357834,0.8220372200012207,0.16142423450946808,-0.36602869629859924,0.09392323344945908,0.3562541902065277,0.09949493408203125,0.6638579964637756,0.485336571931839,-0.04264604672789574,0.20868687331676483,0.6608138084411621,0.1311795711517334,0.17902159690856934,-0.32128217816352844,0.4431523382663727,-0.23597417771816254,0.04273061826825142,0.0073336041532456875,0.04552624747157097,0.16695009171962738,-0.20130877196788788,0.35797619819641113,0.376882404088974,-0.7361379265785217,-0.08302026987075806,0.3392519950866699,-0.11178307980298996,-0.17766283452510834,-0.5283635258674622,-0.25710609555244446,-0.14770084619522095,-0.11899000406265259,-0.13578814268112183,-0.27080777287483215,-0.45771434903144836,-0.07500878721475601,0.1843332201242447,-0.5075666308403015,0.14912180602550507,0.4950493574142456,-0.0484737865626812,0.16247718036174774,-0.1670413464307785,-0.045218680053949356,0.31253376603126526,-0.19190116226673126,-0.33401110768318176,0.14230698347091675,0.8869542479515076,-0.2909213602542877,-0.7948601841926575,-0.16545701026916504,0.353630930185318,0.1715383678674698,0.1200665831565857,-0.026157865300774574,-0.3347463607788086,0.006621208507567644,0.06531546264886856,0.17058531939983368,-0.18924133479595184,-0.6272521018981934,-0.10922364145517349,0.5272721648216248,-0.6929158568382263,0.06030232831835747,-0.24346555769443512,0.11241788417100906,-0.46633052825927734,0.3749646246433258,-0.3469265401363373,0.5437393188476562,0.007961648516356945,-0.6168593168258667,0.3557867109775543,0.13139460980892181,-0.043934326618909836,-0.14675043523311615,-0.18797624111175537,0.7389590740203857,-0.5204753279685974,-0.8546187877655029,-0.045930419117212296,0.1330779641866684,0.6242069602012634,-0.23007191717624664,-0.07652148604393005,-0.008061815053224564,0.2266562581062317,0.15979525446891785,0.06495758891105652,-0.26921936869621277,-0.14055083692073822,-0.46675336360931396,-0.2579153776168823,-0.37882640957832336,0.12026702612638474,0.1728041172027588,-0.5934044122695923,0.401274174451828,-0.1825728565454483,0.22417868673801422,0.18646949529647827,-0.2836543619632721,-0.01339497696608305,0.2870829999446869,0.4692143499851227,0.23787985742092133,0.47471538186073303,0.20114339888095856,0.3963353931903839,-0.13774408400058746,0.16188465058803558,0.1498195379972458,-0.07978300005197525,0.3857085406780243,0.19331365823745728,-0.5879027247428894,-0.07698994874954224,0.7326690554618835,0.2488141655921936,-0.47263768315315247,-0.03161637857556343,0.5773638486862183,0.15842345356941223,0.06021643057465553,0.2522556483745575,-0.43502119183540344,-0.1414128690958023,-0.19476757943630219,-0.12167007476091385,-0.41553595662117004,-0.24842984974384308,0.002581971697509289,-0.1003103256225586,-0.1694546490907669,0.08025263249874115,-0.20408476889133453,0.5336869359016418,-0.4883570373058319,-0.3513992130756378,-0.22779232263565063,-0.17616063356399536,-0.17928564548492432,0.39359596371650696,0.11763542145490646,-0.06467796862125397,0.10396303981542587,0.6971248984336853,-0.19129015505313873,-0.3356351852416992,-0.21320569515228271,0.0020207695197314024,0.134745255112648,-0.12967224419116974,0.12098627537488937,-0.0938384160399437,0.36663389205932617,-0.7489185929298401,-0.238738015294075,-0.11437662690877914,-0.15737392008304596,-0.4695989787578583,0.4131271541118622,0.2899480164051056,0.17608921229839325,0.6314162015914917,0.13637466728687286,0.12739014625549316,-0.513024091720581,-0.5321563482284546,-0.07667290419340134,0.46171677112579346,-3.438442945480347e-05,-0.5051326751708984,-0.32133838534355164,0.46007040143013,-0.5782639384269714,-0.1347987800836563,0.5137732028961182,0.15712006390094757,0.0010926822433248162,-0.29229217767715454,-0.12119382619857788,-0.650236964225769,-0.02130828984081745,0.23917321860790253,0.06026424840092659,-0.15150809288024902,0.06324533373117447,0.021682970225811005,0.03528090938925743,0.3361867666244507,0.07276095449924469,-0.0550144724547863,-0.4611710011959076,-0.4702589511871338,-0.30141711235046387,0.3591792583465576,0.5444884896278381,-0.26785174012184143,-0.3027220070362091,0.32415470480918884,0.5764243602752686,-0.13513238728046417,0.16009965538978577,0.1404498964548111,-0.802595317363739,-0.25522658228874207,0.02737083099782467,0.27785980701446533,0.13420484960079193,-0.18396390974521637,-0.5335597395896912,0.4175015985965729,-0.11313693970441818,-0.28310009837150574,0.576546847820282,-0.22443778812885284,0.3006505072116852,0.04061754420399666,-0.32858899235725403,0.0003490497765596956,0.51216721534729,0.05504268407821655,0.38999953866004944,0.15304137766361237,-0.5665820240974426,-0.07171285152435303,-0.0680413544178009,-0.5563132762908936,-0.14566947519779205,-0.09371784329414368,-0.0647629126906395,0.37315359711647034,-0.5870288014411926,0.2975073754787445,0.2744126617908478,0.32158759236335754,0.37082639336586,-0.5135511755943298,-0.22176365554332733,0.39567244052886963,0.36193832755088806,-0.15750424563884735,-0.4447273313999176,-0.3619120419025421,-0.38023969531059265,-0.42980289459228516,-0.05092725157737732,0.5922430157661438,0.10959958285093307,-0.4585511386394501,-0.3353310823440552,0.45749250054359436,-0.018590085208415985,0.14542768895626068,0.30616968870162964,0.07738271355628967,0.2713513672351837,0.18731655180454254,-0.7857701778411865,0.40936580300331116,-0.4819522202014923,-0.02556277997791767,-0.1973031759262085,0.1731184870004654,-0.12218710035085678,0.030331337824463844,-0.20750342309474945,0.09307321906089783,0.334334135055542,-0.3182344138622284,-0.03605009242892265,0.15673474967479706,0.21630771458148956,-0.18782366812229156,0.1142200455069542,0.2553715407848358,0.5123526453971863,0.17039255797863007,0.22321321070194244,0.5339933037757874,-0.44023260474205017,-0.0012166249798610806,-0.3356441259384155,-0.5413499474525452,0.0976407527923584,0.22184056043624878,0.37504079937934875,-0.07311945408582687,-0.33117786049842834,0.7151842713356018,0.11810585111379623,-0.15795694291591644,0.288760244846344,0.13025207817554474,0.14769071340560913,-0.23335731029510498,0.4011141061782837,0.6932956576347351,-0.08971315622329712,-0.26335856318473816,0.6348386406898499,-0.5207670331001282,0.33787086606025696,-0.09612533450126648,-0.05274702236056328,0.08835431188344955
Strategy,0.5464480519294739,-0.5150129795074463,-0.6282840967178345,0.12375301122665405,0.242672398686409,-0.14095401763916016,0.5683708190917969,-0.3561761677265167,-0.031581856310367584,-0.3118174374103546,0.43350791931152344,0.025541439652442932,-0.5022425055503845,0.12322993576526642,-0.020015887916088104,0.5864027738571167,0.5042471885681152,-0.5124647617340088,0.14751283824443817,0.4221082627773285,-0.1251528263092041,0.6619971990585327,0.06671669334173203,0.12154629081487656,-0.3876471221446991,0.30324772000312805,0.2672155201435089,0.06515203416347504,0.5573475360870361,0.12841467559337616,-0.18565800786018372,0.20796124637126923,0.43513932824134827,-0.15291151404380798,-0.3846166729927063,0.006839528679847717,-0.45554208755493164,0.08903710544109344,0.80607670545578,-0.1396920084953308,-0.36891084909439087,0.01008650753647089,-0.03507336229085922,-0.49380961060523987,0.0984346866607666,0.6310660243034363,0.07779774069786072,-0.04267001897096634,-0.13995517790317535,-0.3347189426422119,-0.5557219386100769,0.5686215758323669,0.27444493770599365,0.17115147411823273,-0.3037995994091034,0.168788343667984,0.2858639657497406,-0.27153855562210083,0.15998625755310059,-0.44449567794799805,-0.43969112634658813,-0.4517180323600769,0.09592641890048981,0.1471857875585556,-0.09536978602409363,-0.08861935138702393,0.5267170071601868,0.08300755172967911,-0.34025949239730835,0.20902332663536072,-0.41093412041664124,0.3885337710380554,0.08229256421327591,-0.7830856442451477,0.07821114361286163,0.17702516913414001,-0.4717596173286438,0.16179844737052917,0.5535833239555359,0.353064626455307,-0.04274424910545349,0.30882951617240906,-0.18208804726600647,0.003836198942735791,-0.12314625084400177,-0.37375015020370483,0.5786077380180359,-0.10298844426870346,0.1344880610704422,0.40394431352615356,-0.29934436082839966,-0.756325364112854,-0.05703346058726311,0.3886776864528656,-0.35395270586013794,0.3822340667247772,0.13812457025051117,0.19659225642681122,-0.14672939479351044,-0.037208713591098785,0.3678208291530609,-0.07742078602313995,-0.1481766402721405,0.15947940945625305,0.6313921213150024,-0.26975107192993164,-0.24666710197925568,-0.10594899952411652,0.09309785813093185,-0.18908339738845825,0.007856620475649834,0.6768512725830078,0.3632141351699829,0.3725913166999817,0.05846301466226578,0.13034746050834656,-0.47277316451072693,-0.3661697208881378,0.298772394657135,-0.3519696593284607,0.42343083024024963,-0.08626849949359894,0.1731194108724594,0.38964083790779114,-0.30876797437667847,0.07471923530101776,0.11951522529125214,0.30800342559814453,0.13644935190677643,-0.3382928967475891,-0.053630370646715164,-0.09521894156932831,-0.1691669076681137,0.12084035575389862,-0.02450934611260891,0.0050515709444880486,0.22086675465106964,-0.7948278188705444,-0.3246023952960968,0.5342091917991638,0.8475273251533508,0.10574054718017578,0.49284130334854126,0.07485664635896683,0.5475584268569946,0.6518205404281616,0.30161163210868835,-0.41552573442459106,0.1712384670972824,0.3027065098285675,-0.215396910905838,-0.23291563987731934,-0.2980436384677887,-0.6815513372421265,-0.6593186259269714,0.0734759047627449,0.4454856514930725,-0.046191055327653885,-0.05774165317416191,0.5487868189811707,0.17390775680541992,-0.516412079334259,-0.2068364918231964,-0.09790614992380142,-0.28987056016921997,-0.47952786087989807,-0.10262887179851532,-0.04206507280468941,-0.4225247800350189,-0.254225492477417,-0.22623780369758606,-0.5228949189186096,-0.09387282282114029,0.4133221209049225,-0.4216088354587555,0.5912457704544067,-0.39245930314064026,0.09875675290822983,0.4864429831504822,-0.6197549700737,0.01965920813381672,-0.6575109958648682,-0.015853269025683403,0.5106613636016846,-0.12723451852798462,0.17967450618743896,-0.03211914375424385,0.4192156195640564,-0.11352124065160751,0.10836181789636612,0.1786450445652008,-0.06297653913497925,-0.22973373532295227,0.6045685410499573,-0.32240721583366394,0.11174001544713974,-0.2215539962053299,-0.2595078945159912,-0.4063897132873535,-0.501185953617096,0.14369094371795654,-0.7657811045646667,-0.6649171113967896,-0.3011507987976074,-0.3571467995643616,0.007579311728477478,-0.10984440892934799,-0.05399506166577339,-0.0269460566341877,-0.3011268675327301,0.36719781160354614,-0.3855011463165283,0.24892206490039825,-0.01099298894405365,-0.1165902391076088,-0.17898130416870117,0.314937949180603,0.41321176290512085,0.46089690923690796,-0.35362330079078674,-0.3861820101737976,0.01975475251674652,0.3532620966434479,-0.03733815997838974,0.661942183971405,-0.11134763807058334,-0.04476473480463028,0.0422125980257988,0.08271467685699463,0.10945968329906464,0.6403467655181885,-0.2713492512702942,-0.1056482344865799,-0.0542992427945137,-0.4756464958190918,-0.2466840296983719,-0.10863323509693146,0.2560090720653534,0.546053946018219,0.17942766845226288,0.057062022387981415,0.6317784190177917,0.4862977862358093,-0.3884410262107849,0.46856385469436646,-0.18817993998527527,0.1751151829957962,-0.5281607508659363,-0.13415297865867615,-0.6935479044914246,-0.13886891305446625,-0.34628087282180786,0.638271689414978,-0.46581754088401794,0.5456476211547852,0.581175684928894,-0.35371720790863037,-0.28397536277770996,0.3463873267173767,0.07713951170444489,0.328277051448822,-0.036784783005714417,0.14154547452926636,-0.08646030724048615,0.17700588703155518,0.19463935494422913,0.6835684180259705,0.10064353793859482,0.4327254295349121,-0.00558775570243597,-0.01001244317740202,0.6204149723052979,-0.23600530624389648,-0.3267831802368164,-0.17649273574352264,0.1256321668624878,-0.25137239694595337,-0.3852000832557678,0.0040258197113871574,-0.032941777259111404,0.6505001783370972,0.12004022300243378,-0.32674935460090637,0.38969287276268005,0.26628199219703674,-0.5859147906303406,0.03717239573597908,0.19188599288463593,0.2271505892276764,-0.4368056654930115,0.08046548068523407,-0.2445010393857956,0.11781474202871323,-0.6120392084121704,-0.5105835795402527,0.558029055595398,0.0019118220079690218,0.32870912551879883,0.24728898704051971,-0.3488198518753052,-0.43408697843551636,0.7622727155685425,-0.2449955940246582,-0.5909043550491333,0.21933336555957794,0.3573888838291168,0.3958771228790283,0.1878388226032257,0.4162875711917877,0.4141320288181305,-0.26327377557754517,0.4620574116706848,0.24213197827339172,-0.6361913681030273,-0.544233500957489,0.05230415612459183,0.015415494330227375,0.05005674436688423,-0.3828579783439636,-0.6225417852401733,-0.12810418009757996,0.14182148873806,-0.04933938384056091,0.2852852940559387,0.1579609215259552,0.3339315950870514,0.026573341339826584,0.3518224358558655,-0.374846875667572,0.6587781310081482,-0.01175702828913927,0.5993649959564209,-0.5265303254127502,-0.19937662780284882,-0.1367667317390442,-0.10295786708593369,-0.060268890112638474,-0.007310435175895691,0.5278258323669434,-0.3234465718269348,-0.3910056948661804,0.20278792083263397,0.1885627806186676,0.17662081122398376,0.3120836019515991,0.42444998025894165,0.17716969549655914,0.20148329436779022,0.17313505709171295,0.2645595669746399,0.2714032530784607,-0.2896008789539337,-0.6702306270599365,0.5105768442153931,-0.4586566090583801,-0.10465049743652344,-0.4076307415962219,-0.4722817838191986,0.5908147096633911,-0.5356295704841614,0.17443828284740448,0.47488337755203247,0.20441174507141113,0.2097311019897461,0.09927459806203842,0.4896070063114166,0.07455925643444061,-0.05050567537546158,0.2365300953388214,0.028421685099601746,-0.4047021269798279,-0.3266335129737854,-0.20078544318675995,0.17971548438072205,-0.2990424633026123,-0.6039846539497375,0.0892522782087326,0.6633020639419556,-0.03648941591382027,-0.2531352937221527,0.3610909581184387,0.36689168214797974,0.2262917459011078,-0.3105739951133728,-0.2359739989042282,-0.10241758823394775,0.645289421081543,-0.1027878075838089,0.052085887640714645,0.7231277227401733,0.3048870265483856,-0.493023157119751,-0.07209811359643936,-0.2474343478679657,0.23633095622062683,0.15930797159671783,-0.49728354811668396,0.004845154471695423,0.4861556887626648,0.2212103307247162,0.7198931574821472,0.10269324481487274,0.11440470069646835,0.2638796865940094,0.09724994003772736,-0.058569908142089844,0.19191984832286835,0.07964581996202469,0.494621604681015,0.6456173658370972,-0.40867456793785095,0.25931575894355774,-0.1624811589717865,-0.17087163031101227,-0.14159360527992249,-0.3118554651737213,-0.2525477707386017,0.5054170489311218,-0.46802154183387756,0.012341851368546486,-0.016715625301003456,0.2848767042160034,-0.06554162502288818,-0.047266073524951935,-0.14248928427696228,-0.34599289298057556,0.6647546291351318,-0.08390352874994278,-0.08574573695659637,-0.5988468527793884,-0.2672460079193115,0.022311583161354065,0.46050959825515747,-0.5018715262413025,-0.12557585537433624,0.6454789042472839,0.08252258598804474,-0.14013171195983887,-0.11382688581943512,0.39345407485961914,-0.30839699506759644,0.20679569244384766,0.4771091043949127,-0.021445179358124733,-0.2781011462211609,0.03427278250455856,-0.3222852051258087,-0.16677576303482056,-0.4181249737739563,0.4963309168815613,-0.4015941023826599,-0.24621060490608215,0.05143452808260918,-0.6759040355682373,-0.13756385445594788,0.32252004742622375,0.5243297815322876,-0.017876800149679184,0.2313683032989502,0.855129599571228,0.13465839624404907,-0.36626574397087097,0.08611913025379181,0.31918153166770935,0.12977316975593567,0.6752379536628723,0.4654458165168762,-0.030568435788154602,0.1618567258119583,0.6782296299934387,0.10187438875436783,0.23963956534862518,-0.3412718176841736,0.396961510181427,-0.22030946612358093,0.06889573484659195,0.006283660419285297,0.05171484872698784,0.16636648774147034,-0.16265660524368286,0.3966241180896759,0.39470574259757996,-0.7083444595336914,-0.056179482489824295,0.35571974515914917,-0.1317806988954544,-0.1746324747800827,-0.5126177072525024,-0.26777076721191406,-0.16002626717090607,-0.11734400689601898,-0.12231402099132538,-0.24598820507526398,-0.4390679895877838,-0.09171054512262344,0.16691921651363373,-0.49850645661354065,0.1174808144569397,0.5431069135665894,-0.07554185390472412,0.13089604675769806,-0.15807440876960754,-0.07957649230957031,0.344260036945343,-0.17917469143867493,-0.38592857122421265,0.14535477757453918,0.8941695094108582,-0.22366580367088318,-0.8115184903144836,-0.20604674518108368,0.37279757857322693,0.14601793885231018,0.07313234359025955,-0.0366872102022171,-0.38127246499061584,-0.016351010650396347,0.07223591953516006,0.15533709526062012,-0.23094359040260315,-0.626717746257782,-0.13598451018333435,0.5334030985832214,-0.6931023597717285,0.020373228937387466,-0.19188936054706573,0.09646185487508774,-0.5303980708122253,0.394496351480484,-0.34594032168388367,0.5594555735588074,0.03838502988219261,-0.6369156241416931,0.362711638212204,0.13860540091991425,0.04477717727422714,-0.16704562306404114,-0.18198375403881073,0.7536040544509888,-0.550727903842926,-0.8630164861679077,0.05393420532345772,0.1538027822971344,0.6677192449569702,-0.18965016305446625,-0.027264293283224106,-0.05422288924455643,0.23774337768554688,0.19763872027397156,0.06195581704378128,-0.3160977363586426,-0.20796039700508118,-0.4954284727573395,-0.23082473874092102,-0.3996843695640564,0.15183541178703308,0.15057618916034698,-0.6128522753715515,0.4225921630859375,-0.2122243344783783,0.23803558945655823,0.21703770756721497,-0.2540353238582611,-0.025549525395035744,0.29091495275497437,0.4883750081062317,0.17436636984348297,0.4956687390804291,0.1925831139087677,0.3811912536621094,-0.13821525871753693,0.1847357451915741,0.15462300181388855,-0.11214347183704376,0.4344078004360199,0.19083848595619202,-0.6432358026504517,-0.07884678244590759,0.753840446472168,0.29308125376701355,-0.4528796672821045,-0.05698951333761215,0.5632429122924805,0.21438293159008026,0.047812338918447495,0.19862911105155945,-0.4486662447452545,-0.1762591451406479,-0.136290043592453,-0.13183702528476715,-0.3887273371219635,-0.23179614543914795,0.014816733077168465,-0.16781362891197205,-0.22414593398571014,0.09171140193939209,-0.17576482892036438,0.5397018790245056,-0.4974861741065979,-0.3626614809036255,-0.2307654321193695,-0.18249772489070892,-0.16177931427955627,0.32558688521385193,0.14760041236877441,-0.03562429919838905,0.033322013914585114,0.7264367341995239,-0.2544887661933899,-0.34792178869247437,-0.1940733939409256,0.032347600907087326,0.15822072327136993,-0.14576442539691925,0.11007851362228394,-0.09714923799037933,0.318499892950058,-0.7223320603370667,-0.267437607049942,-0.11686877906322479,-0.223448246717453,-0.45562830567359924,0.42997273802757263,0.2764558792114258,0.13877585530281067,0.6746715307235718,0.14427898824214935,0.12502142786979675,-0.5506542325019836,-0.5228189826011658,-0.1184748038649559,0.4412115216255188,-0.024902988225221634,-0.4919355511665344,-0.3061479330062866,0.45640331506729126,-0.5887207388877869,-0.18932831287384033,0.5110026597976685,0.13548120856285095,0.012609872035682201,-0.2382727563381195,-0.10158141702413559,-0.6781267523765564,0.011222588829696178,0.19995763897895813,0.03826938569545746,-0.11940701305866241,0.07967572659254074,-0.05973184108734131,0.010437896475195885,0.31969931721687317,0.08624294400215149,-0.025834739208221436,-0.5283335447311401,-0.45994725823402405,-0.31957584619522095,0.3517454266548157,0.5547542572021484,-0.29217329621315,-0.34978291392326355,0.351544052362442,0.5734675526618958,-0.15411844849586487,0.14576056599617004,0.15412069857120514,-0.792809247970581,-0.27166152000427246,0.05392767861485481,0.28666892647743225,0.1383044421672821,-0.14006517827510834,-0.53412926197052,0.4619463384151459,-0.10991799831390381,-0.3070330023765564,0.578129768371582,-0.22817757725715637,0.3134119510650635,0.005667721386998892,-0.3705451488494873,0.014531625434756279,0.5402456521987915,0.03181775286793709,0.3602846562862396,0.1403782069683075,-0.5941883325576782,-0.10254506021738052,-0.1156022921204567,-0.563866138458252,-0.15935662388801575,-0.12409452348947525,-0.05821270868182182,0.3810712993144989,-0.5901004076004028,0.35540157556533813,0.3066326379776001,0.3323976993560791,0.3541122078895569,-0.48402100801467896,-0.2479209005832672,0.3784913718700409,0.4156051278114319,-0.20834462344646454,-0.4694080948829651,-0.3579455316066742,-0.4304474890232086,-0.463949978351593,-0.13472430408000946,0.5831521153450012,0.057602446526288986,-0.44731369614601135,-0.29129403829574585,0.46033626794815063,0.006072399206459522,0.060484956949949265,0.30835771560668945,0.08129540830850601,0.2528955340385437,0.18898163735866547,-0.809910774230957,0.37967777252197266,-0.512529194355011,-0.07821427285671234,-0.23712077736854553,0.1933639943599701,-0.07855838537216187,0.002764292061328888,-0.2636224329471588,0.0950278788805008,0.3469764292240143,-0.2891843914985657,-0.008889035321772099,0.23404064774513245,0.21137210726737976,-0.1613803654909134,0.06615275144577026,0.3071717619895935,0.5242028832435608,0.12359647452831268,0.24988269805908203,0.5930835604667664,-0.4736136794090271,-0.00318128545768559,-0.3235090970993042,-0.5832958817481995,0.07706055790185928,0.20994868874549866,0.37422168254852295,-0.1005086898803711,-0.3159826695919037,0.7237887978553772,0.08072151988744736,-0.11002080142498016,0.22347760200500488,0.11968221515417099,0.13668929040431976,-0.23518648743629456,0.40408945083618164,0.7164384126663208,-0.09428849071264267,-0.31217342615127563,0.623681366443634,-0.550747275352478,0.3681231141090393,-0.12052716314792633,-0.05400951951742172,0.11202995479106903
Strategy,0.5121095180511475,-0.499363511800766,-0.6163259744644165,0.15406300127506256,0.2623140513896942,-0.0896405503153801,0.5772169828414917,-0.3320600390434265,-0.004808987025171518,-0.27418261766433716,0.3923064172267914,0.028387457132339478,-0.4310273230075836,0.1088828518986702,-0.023152170702815056,0.583035409450531,0.4987863600254059,-0.48051372170448303,0.13801051676273346,0.45551028847694397,-0.17073719203472137,0.6245409250259399,0.09227710962295532,0.07361632585525513,-0.3401454985141754,0.3146957457065582,0.2579028308391571,0.04247419163584709,0.5528003573417664,0.1072998121380806,-0.15940457582473755,0.11930490285158157,0.350662499666214,-0.1340741217136383,-0.35756146907806396,-0.01768312230706215,-0.4627247750759125,0.049101125448942184,0.7664778828620911,-0.16750991344451904,-0.3897317945957184,0.009970767423510551,-0.03352472186088562,-0.47599872946739197,0.14291474223136902,0.6134766936302185,0.11384781450033188,-0.029153386130928993,-0.15498492121696472,-0.31931841373443604,-0.5486940741539001,0.5560840964317322,0.28423652052879333,0.16393804550170898,-0.28928276896476746,0.14685972034931183,0.2702925205230713,-0.2934343218803406,0.16774886846542358,-0.42247462272644043,-0.4305431544780731,-0.4222414791584015,0.14783844351768494,0.14085893332958221,-0.11515875905752182,-0.12435201555490494,0.522055983543396,0.052498552948236465,-0.3929844796657562,0.2582344710826874,-0.3890775740146637,0.40839576721191406,0.12252386659383774,-0.7643585205078125,0.05635225772857666,0.1294623762369156,-0.4483060836791992,0.13296785950660706,0.5577815175056458,0.33224403858184814,-0.017591726034879684,0.2928906977176666,-0.152481347322464,-0.0011609882349148393,-0.14530909061431885,-0.37870803475379944,0.5777246952056885,-0.0929114818572998,0.14720787107944489,0.425555944442749,-0.3144424259662628,-0.7404072880744934,-0.03775126114487648,0.373874306678772,-0.31782105565071106,0.34873446822166443,0.14157460629940033,0.2225666493177414,-0.15602949261665344,-0.04507243633270264,0.33963778614997864,-0.044117435812950134,-0.18412579596042633,0.17562218010425568,0.5847987532615662,-0.2605125308036804,-0.30197545886039734,-0.10879453271627426,0.11848341673612595,-0.19371528923511505,-0.040779586881399155,0.6736088395118713,0.3807433843612671,0.3460700511932373,0.08859303593635559,0.16132931411266327,-0.43321630358695984,-0.3467382490634918,0.31920984387397766,-0.39062628149986267,0.44593545794487,-0.09566818922758102,0.1434776782989502,0.3445894420146942,-0.31880614161491394,0.05683411285281181,0.09031230211257935,0.29073366522789,0.13678912818431854,-0.2926020622253418,-0.015496446751058102,-0.09255343675613403,-0.14283260703086853,0.09556906670331955,-0.06808774173259735,-0.023213179782032967,0.20327287912368774,-0.7839887738227844,-0.3488099277019501,0.5242213606834412,0.8353533744812012,0.11001696437597275,0.4260960519313812,0.10326743125915527,0.5570470094680786,0.6397792100906372,0.28766170144081116,-0.40600478649139404,0.15040163695812225,0.30914947390556335,-0.18677423894405365,-0.23855465650558472,-0.2977433204650879,-0.6339243054389954,-0.6473999619483948,0.06224846467375755,0.401143878698349,0.006013322621583939,-0.004395681899040937,0.5505025386810303,0.1772642880678177,-0.5266988277435303,-0.20115119218826294,-0.08788768202066422,-0.27966803312301636,-0.4409215450286865,-0.11133106797933578,-0.040353793650865555,-0.4332362115383148,-0.25242725014686584,-0.21957485377788544,-0.5028314590454102,-0.08681413531303406,0.3613872528076172,-0.4398125410079956,0.6214146018028259,-0.3643439710140228,0.06191655993461609,0.530610203742981,-0.6009023189544678,0.03979186713695526,-0.6310660243034363,-0.021293306723237038,0.4757425785064697,-0.08900955319404602,0.177190363407135,-0.03825625777244568,0.419548362493515,-0.1137179434299469,0.10146491974592209,0.20379680395126343,-0.024300256744027138,-0.2254009246826172,0.583505392074585,-0.3108872175216675,0.07268274575471878,-0.22860823571681976,-0.28294822573661804,-0.3962582051753998,-0.4580055773258209,0.15923374891281128,-0.7838646769523621,-0.6389974355697632,-0.2317197471857071,-0.31414759159088135,0.038799602538347244,-0.10141890496015549,-0.03474007546901703,-0.034958820790052414,-0.30305013060569763,0.3132653832435608,-0.3604695796966553,0.2472095638513565,0.007160082459449768,-0.1297130137681961,-0.15741443634033203,0.3410177528858185,0.4154832065105438,0.42309626936912537,-0.3467262089252472,-0.38412049412727356,0.021399354562163353,0.3581903278827667,-0.06095484271645546,0.6482648849487305,-0.12054920196533203,-0.06953033059835434,0.04107339307665825,0.11849600076675415,0.11872295290231705,0.638372004032135,-0.2537619173526764,-0.09564873576164246,-0.004901341628283262,-0.4678877294063568,-0.2118026167154312,-0.11533194780349731,0.18822568655014038,0.5450661778450012,0.14437489211559296,0.0703243836760521,0.6139857172966003,0.43846821784973145,-0.3514103591442108,0.46188220381736755,-0.22400431334972382,0.17737923562526703,-0.559948742389679,-0.16498760879039764,-0.66143399477005,-0.1523108035326004,-0.3225785791873932,0.6237464547157288,-0.44915804266929626,0.5534667372703552,0.5681191086769104,-0.40880993008613586,-0.2764921486377716,0.29781123995780945,0.0893707200884819,0.320552259683609,-0.03318598493933678,0.1235467717051506,-0.021298201754689217,0.13773436844348907,0.21633224189281464,0.6671242713928223,0.07023012638092041,0.4279005825519562,-0.005489193368703127,-0.009882114827632904,0.5851187705993652,-0.2142419070005417,-0.29029586911201477,-0.203612819314003,0.11580166220664978,-0.2603907883167267,-0.3938145339488983,-0.020304156467318535,-0.006853828672319651,0.6462036967277527,0.11117187887430191,-0.2995762526988983,0.3492558002471924,0.26553085446357727,-0.5771650671958923,0.029726123437285423,0.18159978091716766,0.18110768496990204,-0.42377153038978577,0.02114126645028591,-0.20898829400539398,0.07347111403942108,-0.5655097365379333,-0.4879673719406128,0.5483003854751587,-0.05211359262466431,0.32734403014183044,0.2538539171218872,-0.35687434673309326,-0.41702941060066223,0.7445229887962341,-0.19195212423801422,-0.552476167678833,0.2517692744731903,0.3551671504974365,0.36417117714881897,0.1560458242893219,0.3988332450389862,0.34745660424232483,-0.2811407744884491,0.4383176565170288,0.25447365641593933,-0.6004570126533508,-0.5717513561248779,0.08259587734937668,0.06652262061834335,0.07455965131521225,-0.3790069818496704,-0.5974400043487549,-0.1420411318540573,0.14623957872390747,-0.06290234625339508,0.3007516860961914,0.1889873743057251,0.33956965804100037,0.038343217223882675,0.348190575838089,-0.3231339752674103,0.6525230407714844,-0.008805138058960438,0.612170934677124,-0.5567429661750793,-0.2234119325876236,-0.10821633785963058,-0.07243364304304123,-0.04287102818489075,-0.060914378613233566,0.5098158717155457,-0.30732905864715576,-0.37021008133888245,0.16416509449481964,0.2848421037197113,0.2386741191148758,0.26479995250701904,0.4294614791870117,0.1974024921655655,0.2272220402956009,0.17275534570217133,0.29567644000053406,0.2734464704990387,-0.2700749337673187,-0.6712139248847961,0.5032371878623962,-0.43646082282066345,-0.1246655210852623,-0.3858002722263336,-0.4550836384296417,0.6279300451278687,-0.4818909466266632,0.17450033128261566,0.48019155859947205,0.25100746750831604,0.19243955612182617,0.08524113893508911,0.4631175994873047,0.07533930987119675,-0.008626911789178848,0.19046936929225922,0.007685317192226648,-0.39761674404144287,-0.3294399678707123,-0.14763562381267548,0.13528947532176971,-0.354988694190979,-0.5784958004951477,0.12124071270227432,0.644534707069397,-0.0032365445513278246,-0.23564857244491577,0.42076778411865234,0.3758552074432373,0.2074221521615982,-0.2521626949310303,-0.23727752268314362,-0.11853987723588943,0.6566467881202698,-0.07638876140117645,0.05994173884391785,0.7033845782279968,0.28347986936569214,-0.4716247022151947,-0.053879886865615845,-0.22527152299880981,0.21633915603160858,0.16174648702144623,-0.4964812994003296,0.019447466358542442,0.4840329587459564,0.2182827591896057,0.7161017060279846,0.120033860206604,0.15021830797195435,0.21880443394184113,0.12583701312541962,-0.056591007858514786,0.20493566989898682,0.06442370265722275,0.4789884388446808,0.6199254989624023,-0.4796504080295563,0.22880612313747406,-0.15192683041095734,-0.19610393047332764,-0.11473587900400162,-0.2532016932964325,-0.23069454729557037,0.4877878725528717,-0.4507633447647095,0.022020889446139336,-0.012493595480918884,0.24219293892383575,-0.073507159948349,-0.10569307953119278,-0.1552002727985382,-0.3563576936721802,0.6511303186416626,-0.12490440160036087,-0.11426761746406555,-0.5737083554267883,-0.2632187604904175,0.034357283264398575,0.4109831750392914,-0.45661890506744385,-0.11182659864425659,0.605729341506958,0.048073019832372665,-0.1591552048921585,-0.17224948108196259,0.4209063947200775,-0.2654378116130829,0.22568641602993011,0.4912610948085785,-0.021433591842651367,-0.18332059681415558,0.053467392921447754,-0.3108569085597992,-0.18039993941783905,-0.4252908229827881,0.4978761672973633,-0.3695727586746216,-0.22225701808929443,-0.026847586035728455,-0.667353630065918,-0.11568259447813034,0.2930941879749298,0.48252806067466736,-0.04134383425116539,0.2491132766008377,0.8284568786621094,0.15398959815502167,-0.36095190048217773,0.06515807658433914,0.3465462923049927,0.061093758791685104,0.6666451692581177,0.4626845121383667,-0.051339324563741684,0.18210317194461823,0.6694594025611877,0.07263471931219101,0.213853120803833,-0.3417492210865021,0.43217733502388,-0.1776038408279419,0.04529993236064911,0.012977479957044125,0.1322094053030014,0.10542955994606018,-0.15052194893360138,0.3311549723148346,0.400577574968338,-0.7149677276611328,-0.04614265635609627,0.34570395946502686,-0.1373993307352066,-0.176747128367424,-0.505918025970459,-0.2709064781665802,-0.14708846807479858,-0.12595930695533752,-0.1066555455327034,-0.22173400223255157,-0.450196236371994,-0.13057993352413177,0.17774641513824463,-0.5061871409416199,0.11995629221200943,0.5398250222206116,-0.04059825837612152,0.17966650426387787,-0.19829656183719635,-0.08929390460252762,0.3183559775352478,-0.15860973298549652,-0.3592104911804199,0.12589479982852936,0.875404417514801,-0.26734623312950134,-0.7942111492156982,-0.21970146894454956,0.3950258791446686,0.14498381316661835,0.06776153296232224,-0.03078329563140869,-0.34446969628334045,0.003727578790858388,0.07695884257555008,0.2007264345884323,-0.2375764101743698,-0.6360744833946228,-0.1285330206155777,0.5400156378746033,-0.6778380870819092,0.08849158883094788,-0.21764682233333588,0.09824976325035095,-0.45884907245635986,0.37194332480430603,-0.32062992453575134,0.5567905902862549,0.07793913036584854,-0.637805700302124,0.37304627895355225,0.1688428670167923,0.02318645268678665,-0.1879795789718628,-0.22464436292648315,0.7509147524833679,-0.5403422117233276,-0.8420413136482239,0.06989280134439468,0.1634170264005661,0.6227659583091736,-0.19764892756938934,-0.0679008960723877,-0.04226086661219597,0.22945453226566315,0.17054425179958344,0.0715358629822731,-0.30174019932746887,-0.18740420043468475,-0.5065381526947021,-0.2616504728794098,-0.3769495189189911,0.08950802683830261,0.09320735186338425,-0.6174564361572266,0.4142840802669525,-0.21848325431346893,0.22871500253677368,0.20327426493167877,-0.299877792596817,-0.01164246816188097,0.2690105438232422,0.48272284865379333,0.2007439136505127,0.47501423954963684,0.19049935042858124,0.36128854751586914,-0.13412171602249146,0.2101178914308548,0.20486563444137573,-0.09023384004831314,0.40718188881874084,0.16032443940639496,-0.6298980116844177,-0.10188471525907516,0.7451486587524414,0.23023837804794312,-0.40460577607154846,-0.010145293548703194,0.550284206867218,0.16743536293506622,0.008381499908864498,0.20629620552062988,-0.4447179138660431,-0.16287347674369812,-0.1174047663807869,-0.10971904546022415,-0.413201242685318,-0.2726260721683502,0.014045433141291142,-0.12185581773519516,-0.19337426126003265,0.046877045184373856,-0.1564549207687378,0.5504351854324341,-0.5036292672157288,-0.3328756093978882,-0.24237774312496185,-0.14028652012348175,-0.17704296112060547,0.3436930179595947,0.13561369478702545,-0.051244672387838364,0.08869632333517075,0.6753644943237305,-0.1856057047843933,-0.3495466709136963,-0.2295622080564499,0.006363190710544586,0.16134704649448395,-0.13153328001499176,0.1257292628288269,-0.11741762608289719,0.3456549346446991,-0.7171159386634827,-0.24104875326156616,-0.13025186955928802,-0.24037539958953857,-0.4443250596523285,0.42330655455589294,0.2594621479511261,0.1697443127632141,0.6546521186828613,0.15500010550022125,0.127970889210701,-0.48000726103782654,-0.5173456072807312,-0.09339284896850586,0.4067654609680176,0.0028219681698828936,-0.4968951940536499,-0.302593469619751,0.45679256319999695,-0.5745375156402588,-0.13372372090816498,0.4804181158542633,0.10534144192934036,0.0011101476848125458,-0.2418692260980606,-0.12641148269176483,-0.6500539183616638,0.0018679853528738022,0.24892346560955048,0.017514223232865334,-0.16555555164813995,0.09645959734916687,-0.035451922565698624,0.015027194283902645,0.3052545487880707,0.05584266781806946,-0.07182981818914413,-0.4643472731113434,-0.4386751353740692,-0.24219651520252228,0.343338280916214,0.5411686897277832,-0.24475626647472382,-0.24686801433563232,0.3586585819721222,0.5353381037712097,-0.12034989148378372,0.11588726192712784,0.15822578966617584,-0.7737781405448914,-0.25397270917892456,0.01329222321510315,0.2844371795654297,0.08887854218482971,-0.16114093363285065,-0.5235682725906372,0.4417841136455536,-0.1025409922003746,-0.31580618023872375,0.5571891665458679,-0.242584690451622,0.27974453568458557,0.08017385751008987,-0.3667551279067993,-0.008978612720966339,0.4983784854412079,0.05491131544113159,0.4022543132305145,0.13725684583187103,-0.5776419639587402,-0.11503145843744278,-0.09693770855665207,-0.5095685124397278,-0.1658809930086136,-0.1630823314189911,-0.08594641089439392,0.35225221514701843,-0.5752046704292297,0.3425510823726654,0.30043157935142517,0.2329377681016922,0.3084307312965393,-0.4687771499156952,-0.25940874218940735,0.3627852499485016,0.41592979431152344,-0.17643719911575317,-0.4814714193344116,-0.34124234318733215,-0.38691845536231995,-0.4487704336643219,-0.05072729289531708,0.5567269325256348,-0.004692520946264267,-0.403934121131897,-0.3042263090610504,0.45358607172966003,0.013040113262832165,0.0838877260684967,0.250652015209198,0.11868201941251755,0.26616793870925903,0.22420722246170044,-0.7785865664482117,0.35083067417144775,-0.4739595949649811,-0.06964678317308426,-0.1872987598180771,0.21808548271656036,-0.11098482459783554,0.01741737313568592,-0.24810421466827393,0.12818576395511627,0.3405839204788208,-0.27973440289497375,-0.025374939665198326,0.1955600529909134,0.2618221938610077,-0.17148219048976898,0.08651179820299149,0.27270278334617615,0.48794007301330566,0.12659582495689392,0.2583620846271515,0.5708684325218201,-0.4231874644756317,0.0018083458999171853,-0.2806602716445923,-0.5236966609954834,0.1175607368350029,0.2124311476945877,0.3961617648601532,-0.10659748315811157,-0.35862448811531067,0.6978611946105957,0.12518467009067535,-0.10390936583280563,0.26773330569267273,0.12543460726737976,0.09488818794488907,-0.20660553872585297,0.4012947976589203,0.7069928050041199,-0.07454850524663925,-0.24034984409809113,0.5958101749420166,-0.5285831689834595,0.3744238317012787,-0.10649725794792175,-0.030767573043704033,0.09328878670930862
Strategy,0.5224377512931824,-0.5057937502861023,-0.6161496043205261,0.15487967431545258,0.270445853471756,-0.10264021158218384,0.5751278400421143,-0.35023656487464905,-0.007656970527023077,-0.2793721556663513,0.47019484639167786,0.04015514999628067,-0.4588676393032074,0.13906161487102509,-0.0574171282351017,0.5686078071594238,0.4954564571380615,-0.4814523160457611,0.14371930062770844,0.4317869246006012,-0.13300110399723053,0.6496145129203796,0.047183338552713394,0.07844410091638565,-0.38915231823921204,0.29232433438301086,0.2632640600204468,0.01986595056951046,0.5370140671730042,0.1630709320306778,-0.18653106689453125,0.10032957047224045,0.3865925967693329,-0.15489378571510315,-0.3691123425960541,-0.028822869062423706,-0.44834813475608826,0.04650898277759552,0.7743430137634277,-0.1606500893831253,-0.3942028284072876,-0.014323725365102291,-0.03297640383243561,-0.4667111337184906,0.14001280069351196,0.5989816784858704,0.1221230998635292,-0.07178547233343124,-0.1130053773522377,-0.3139795958995819,-0.52099609375,0.5447971224784851,0.33132386207580566,0.1398543417453766,-0.31252291798591614,0.15922419726848602,0.25434553623199463,-0.3026326596736908,0.17098434269428253,-0.40756484866142273,-0.4555334150791168,-0.4308168888092041,0.17022836208343506,0.20161686837673187,-0.09362492710351944,-0.07984127849340439,0.5249696373939514,0.0700581967830658,-0.3469919264316559,0.22713936865329742,-0.399870365858078,0.4092683494091034,0.1296817511320114,-0.77772456407547,0.1247628927230835,0.16965293884277344,-0.4612109661102295,0.1137714609503746,0.5276152491569519,0.3125278353691101,-0.017130957916378975,0.2910369634628296,-0.1704920530319214,-0.017091836780309677,-0.16819924116134644,-0.39249512553215027,0.611478328704834,-0.07029151171445847,0.15214426815509796,0.4010173976421356,-0.32330670952796936,-0.7203834056854248,-0.07478354126214981,0.3570661246776581,-0.322742760181427,0.3428449332714081,0.10874366760253906,0.2622387707233429,-0.17000429332256317,-0.08409113436937332,0.3892500400543213,-0.055814385414123535,-0.1546340137720108,0.15709199011325836,0.6211249232292175,-0.23049743473529816,-0.2715646028518677,-0.1618821620941162,0.09516817331314087,-0.19012250006198883,-0.00611134385690093,0.6602919101715088,0.3366645276546478,0.36003878712654114,0.0832028016448021,0.15598291158676147,-0.4693799912929535,-0.33613693714141846,0.2922725975513458,-0.3815396726131439,0.4472931921482086,-0.04983024671673775,0.11627926677465439,0.3681102991104126,-0.33191829919815063,0.0065723322331905365,0.11314288526773453,0.28708547353744507,0.11608659476041794,-0.33578547835350037,-0.06668683886528015,-0.12313345819711685,-0.1508902758359909,0.10150974988937378,-0.05306376516819,-0.01695963740348816,0.16526950895786285,-0.7867467403411865,-0.321720153093338,0.5158733129501343,0.8430100083351135,0.059119537472724915,0.4549691677093506,0.10351476818323135,0.5391812324523926,0.6398717761039734,0.2945842742919922,-0.4071965515613556,0.17438329756259918,0.30180978775024414,-0.21839259564876556,-0.2498619705438614,-0.3351545035839081,-0.6409404873847961,-0.6467334628105164,0.025617903098464012,0.43421950936317444,-0.05727260932326317,-0.029940947890281677,0.525970995426178,0.15956784784793854,-0.5348434448242188,-0.2219579815864563,-0.05840711668133736,-0.29445508122444153,-0.4540134370326996,-0.14901871979236603,-0.05727789178490639,-0.39741814136505127,-0.2479458451271057,-0.25118914246559143,-0.4989761412143707,-0.06832483410835266,0.35796356201171875,-0.44488874077796936,0.6188604235649109,-0.3803790509700775,0.10600153356790543,0.5445942282676697,-0.6132903099060059,0.03445053473114967,-0.6471865177154541,-0.0045661465264856815,0.47736021876335144,-0.14240418374538422,0.1520508974790573,0.006401220802217722,0.429458349943161,-0.0949237272143364,0.13163059949874878,0.1789308339357376,-0.04778117313981056,-0.2636747658252716,0.5874161720275879,-0.309374064207077,0.07512249797582626,-0.23389530181884766,-0.2895052433013916,-0.4098775088787079,-0.46389612555503845,0.15556156635284424,-0.7523835301399231,-0.6671268939971924,-0.24065625667572021,-0.3512550890445709,0.06605961918830872,-0.11341281980276108,-0.03370680287480354,-0.023693382740020752,-0.3149099051952362,0.33475565910339355,-0.34773313999176025,0.2580607235431671,0.02806415595114231,-0.1522531360387802,-0.17248308658599854,0.32606640458106995,0.40996265411376953,0.4157523810863495,-0.3411911725997925,-0.39559653401374817,0.04059624299407005,0.3589763343334198,-0.01842682436108589,0.6495587825775146,-0.1284361332654953,-0.021500661969184875,0.04473303258419037,0.10859031230211258,0.09719040244817734,0.5895190834999084,-0.26251640915870667,-0.09821522980928421,-0.0070246136747300625,-0.4401170313358307,-0.2068074494600296,-0.14777453243732452,0.2092031091451645,0.5400410890579224,0.1431347280740738,0.07788117974996567,0.6225845813751221,0.47993004322052,-0.33539310097694397,0.4364638328552246,-0.1993042379617691,0.19769763946533203,-0.5567712783813477,-0.16495086252689362,-0.6512594819068909,-0.1475667953491211,-0.32307448983192444,0.647394061088562,-0.45649972558021545,0.5718965530395508,0.5541667342185974,-0.4386403560638428,-0.2655918300151825,0.30302390456199646,0.11954329162836075,0.317184180021286,-0.003647703444585204,0.07139038294553757,-0.020936982706189156,0.1469973474740982,0.17820797860622406,0.6755988597869873,0.12102020531892776,0.4577823579311371,0.024563493207097054,-0.02326340414583683,0.6007003784179688,-0.17736083269119263,-0.3073059022426605,-0.20986342430114746,0.08992981910705566,-0.2723379135131836,-0.4148414134979248,-0.047571662813425064,0.004731768276542425,0.6515824198722839,0.10158015042543411,-0.2770329415798187,0.3189264237880707,0.2691953480243683,-0.5737504959106445,-0.00017233814287465066,0.19139838218688965,0.22294922173023224,-0.3702106475830078,0.0030387910082936287,-0.18790243566036224,0.09733984619379044,-0.5599400997161865,-0.5030438303947449,0.5719404816627502,-0.03314517065882683,0.31762292981147766,0.2596319019794464,-0.3353804647922516,-0.46064814925193787,0.7115440368652344,-0.18253646790981293,-0.5378386974334717,0.21211697161197662,0.36692535877227783,0.3894098997116089,0.19751672446727753,0.39539775252342224,0.3475888967514038,-0.265919953584671,0.43547728657722473,0.26982080936431885,-0.5928463935852051,-0.5533571243286133,0.10936557501554489,0.043056052178144455,0.08725640922784805,-0.3879406154155731,-0.6061721444129944,-0.16345533728599548,0.1209544762969017,-0.07510120421648026,0.2669806480407715,0.20186443626880646,0.3397754728794098,0.08766619116067886,0.3756750524044037,-0.35398831963539124,0.6463401913642883,-0.013704483397305012,0.6070230007171631,-0.5201902985572815,-0.19208621978759766,-0.11808817833662033,-0.07435164600610733,-0.034175124019384384,-0.0430605411529541,0.5036081671714783,-0.33272621035575867,-0.33562132716178894,0.14382492005825043,0.2589888274669647,0.23349690437316895,0.29482993483543396,0.4537447988986969,0.22244076430797577,0.2131914347410202,0.17553727328777313,0.2738020718097687,0.2200980931520462,-0.2706117331981659,-0.6793659329414368,0.48417019844055176,-0.4876765310764313,-0.12948882579803467,-0.36738625168800354,-0.4256301820278168,0.6249107718467712,-0.5007145404815674,0.1562989354133606,0.5001155138015747,0.2257218211889267,0.1597432941198349,0.11046981066465378,0.5046088099479675,0.06647944450378418,-0.026460351422429085,0.2379528135061264,0.04221160709857941,-0.4169791042804718,-0.30785298347473145,-0.16226471960544586,0.1414736956357956,-0.31842339038848877,-0.582358181476593,0.12036490440368652,0.6336066722869873,-0.017986582592129707,-0.26615166664123535,0.37567153573036194,0.3734431564807892,0.2221125364303589,-0.31360527873039246,-0.28220638632774353,-0.10235641151666641,0.6508554816246033,-0.07319652289152145,0.04344455525279045,0.6969338059425354,0.26048269867897034,-0.4965524673461914,-0.04696441814303398,-0.22953324019908905,0.27546146512031555,0.10916178673505783,-0.5099849104881287,-0.004588407929986715,0.43131259083747864,0.23318572342395782,0.7086227536201477,0.11259403824806213,0.13707636296749115,0.23578505218029022,0.09986662119626999,-0.10860715061426163,0.2171338051557541,0.07742299884557724,0.4726616144180298,0.6263686418533325,-0.44821253418922424,0.24546407163143158,-0.10366415232419968,-0.1376396268606186,-0.1048031821846962,-0.23165346682071686,-0.19937723875045776,0.49140462279319763,-0.4487755298614502,0.022684676572680473,-0.001776218763552606,0.24983392655849457,-0.10508615523576736,-0.09779608249664307,-0.11040874570608139,-0.36378535628318787,0.6572842001914978,-0.09882571548223495,-0.1337183266878128,-0.5897552371025085,-0.2554313838481903,0.022604497149586678,0.4125698506832123,-0.4999351501464844,-0.1527407020330429,0.6006379127502441,0.041519664227962494,-0.16377009451389313,-0.19527208805084229,0.4103128910064697,-0.25777286291122437,0.18127648532390594,0.4773140251636505,-0.058065664023160934,-0.20248037576675415,0.06198057159781456,-0.3039640486240387,-0.2118409126996994,-0.38573339581489563,0.4949343204498291,-0.4001997411251068,-0.2760610282421112,0.005708932876586914,-0.666102945804596,-0.12497761100530624,0.305302232503891,0.49241626262664795,-0.0365840382874012,0.28810441493988037,0.8287233710289001,0.1626681089401245,-0.32352423667907715,0.07517098635435104,0.32734349370002747,0.08734578639268875,0.6611840128898621,0.444406121969223,-0.03474263474345207,0.21721260249614716,0.6796717643737793,0.09624654799699783,0.1968681812286377,-0.3344557285308838,0.40186962485313416,-0.1898524910211563,-0.006302888039499521,-0.013211600482463837,0.11374510079622269,0.1608278900384903,-0.10901317745447159,0.3197627067565918,0.4018087387084961,-0.6920795440673828,-0.034190718084573746,0.3460337817668915,-0.13453137874603271,-0.16420069336891174,-0.5196890830993652,-0.3031668961048126,-0.1228874921798706,-0.16147159039974213,-0.11973637342453003,-0.2644742429256439,-0.42643842101097107,-0.12079478055238724,0.16503512859344482,-0.5032456517219543,0.09134206175804138,0.5132355690002441,-0.00186338706407696,0.17664648592472076,-0.19290049374103546,-0.07690443098545074,0.3100168704986572,-0.15617217123508453,-0.3697262704372406,0.13916067779064178,0.8799021244049072,-0.27206364274024963,-0.8097846508026123,-0.24308162927627563,0.38595709204673767,0.11202973127365112,0.03220316767692566,0.006999372970312834,-0.35369881987571716,-0.021831901744008064,0.07262521982192993,0.17248694598674774,-0.22204548120498657,-0.6390097737312317,-0.0906633660197258,0.5314520001411438,-0.6700620651245117,0.07566496729850769,-0.1916213482618332,0.1185939684510231,-0.47463181614875793,0.37579047679901123,-0.3238491714000702,0.5485462546348572,0.06141199171543121,-0.6438331604003906,0.3740392029285431,0.16245776414871216,0.05225484445691109,-0.17880070209503174,-0.20775221288204193,0.7487967014312744,-0.5376336574554443,-0.8477161526679993,0.034979190677404404,0.16584083437919617,0.6378778219223022,-0.24018514156341553,-0.07196386903524399,-0.010768674314022064,0.1967688947916031,0.14914032816886902,0.06503556668758392,-0.31412142515182495,-0.20423203706741333,-0.4869326055049896,-0.2644035220146179,-0.37557563185691833,0.1014842689037323,0.14528094232082367,-0.6047070026397705,0.40483391284942627,-0.1933126449584961,0.26238521933555603,0.22330977022647858,-0.2617829144001007,-0.042925503104925156,0.24079088866710663,0.479941725730896,0.19060128927230835,0.47786757349967957,0.17112894356250763,0.3668569028377533,-0.12758862972259521,0.164286270737648,0.15760697424411774,-0.07845311611890793,0.42981770634651184,0.17224283516407013,-0.6148774027824402,-0.07789140939712524,0.7437089085578918,0.26340150833129883,-0.4268217086791992,0.03530419245362282,0.5856102705001831,0.15085719525814056,-0.033644456416368484,0.20824886858463287,-0.45387616753578186,-0.1327357292175293,-0.12232623249292374,-0.1352033168077469,-0.4045852720737457,-0.24072076380252838,0.02320718765258789,-0.11756789684295654,-0.16830845177173615,0.10725722461938858,-0.15436089038848877,0.5496655702590942,-0.4945286810398102,-0.3601187765598297,-0.25446662306785583,-0.16757136583328247,-0.16883812844753265,0.3988741934299469,0.14066128432750702,-0.022303089499473572,0.09209024161100388,0.6735518574714661,-0.20775632560253143,-0.3758983910083771,-0.2282090038061142,0.021917155012488365,0.1507788449525833,-0.10172823071479797,0.12641723453998566,-0.1177762821316719,0.31210216879844666,-0.7150296568870544,-0.23377884924411774,-0.14040909707546234,-0.19757358729839325,-0.4242969751358032,0.41178956627845764,0.2543029487133026,0.20404052734375,0.66007399559021,0.1399414986371994,0.12519127130508423,-0.48725709319114685,-0.5343735218048096,-0.09623518586158752,0.4172450304031372,0.025011306628584862,-0.5171481370925903,-0.23939348757266998,0.4520430564880371,-0.5746611952781677,-0.1248273253440857,0.4853992164134979,0.13060593605041504,-0.005643032491207123,-0.22927670180797577,-0.11982844024896622,-0.6655918955802917,-0.0217415913939476,0.22933471202850342,0.03889642655849457,-0.1373598575592041,0.07778418809175491,-0.03239251673221588,0.035640694200992584,0.32000353932380676,0.04858793690800667,-0.03446906805038452,-0.47771742939949036,-0.43933534622192383,-0.2749674916267395,0.3226807713508606,0.5310111045837402,-0.2730727195739746,-0.27370378375053406,0.3381498157978058,0.5823025107383728,-0.10537171363830566,0.1224009096622467,0.17287223041057587,-0.7892665863037109,-0.2605055868625641,0.03221287950873375,0.33646002411842346,0.09605571627616882,-0.13197322189807892,-0.5244988203048706,0.47418224811553955,-0.09118801355361938,-0.32687994837760925,0.543326735496521,-0.2551668584346771,0.26718059182167053,0.06707514822483063,-0.3532402515411377,0.010968809016048908,0.494033545255661,0.050539106130599976,0.39486953616142273,0.13691753149032593,-0.5682837963104248,-0.10171971470117569,-0.12491930276155472,-0.5587143301963806,-0.13239608705043793,-0.1261376440525055,-0.05305437371134758,0.3243030905723572,-0.5933063626289368,0.31877633929252625,0.2874116003513336,0.2493681162595749,0.30843213200569153,-0.463655024766922,-0.25018906593322754,0.3883627951145172,0.39138615131378174,-0.182099387049675,-0.5034152269363403,-0.35947462916374207,-0.40003249049186707,-0.4453061819076538,-0.06621644645929337,0.5620792508125305,0.021041393280029297,-0.4193868935108185,-0.32173022627830505,0.41667985916137695,-0.006937446538358927,0.08335161954164505,0.2608189880847931,0.12635892629623413,0.3063252866268158,0.22416599094867706,-0.7855017781257629,0.40227022767066956,-0.48628103733062744,-0.07370738685131073,-0.20970560610294342,0.21097682416439056,-0.10551833361387253,0.01537398248910904,-0.2351306825876236,0.09866777807474136,0.3456243574619293,-0.31552812457084656,-0.033973097801208496,0.19827167689800262,0.2588258683681488,-0.12349603325128555,0.0998888611793518,0.2623755931854248,0.47597184777259827,0.16745133697986603,0.2742701470851898,0.571757972240448,-0.3943381607532501,0.061174165457487106,-0.24521666765213013,-0.5500776767730713,0.1322905421257019,0.22600547969341278,0.40022674202919006,-0.08603117614984512,-0.3411053419113159,0.6747978329658508,0.1433272659778595,-0.11264409869909286,0.24876581132411957,0.11966466158628464,0.09866150468587875,-0.20777924358844757,0.3452998697757721,0.7153882384300232,-0.04991801455616951,-0.25706514716148376,0.5775638222694397,-0.5137830972671509,0.3445530831813812,-0.13606660068035126,-0.02605772204697132,0.11772184818983078
Strategy,0.48988956212997437,-0.512570858001709,-0.6221559047698975,0.15505057573318481,0.23975375294685364,-0.10694622993469238,0.574245810508728,-0.3147217333316803,0.0036050165072083473,-0.2839205861091614,0.4289373755455017,0.0669565424323082,-0.4301897883415222,0.1490415781736374,-0.034567877650260925,0.5595749616622925,0.5104278922080994,-0.4859631359577179,0.12968003749847412,0.4263961911201477,-0.1402372568845749,0.6197623610496521,0.10650035738945007,0.10593201965093613,-0.37095046043395996,0.32216504216194153,0.2554277181625366,-0.006484878249466419,0.5676232576370239,0.12624692916870117,-0.18695570528507233,0.18171273171901703,0.36957037448883057,-0.12873099744319916,-0.3682228922843933,0.020700620487332344,-0.435780793428421,0.04870676249265671,0.7688536047935486,-0.13142657279968262,-0.4088052809238434,0.01757713593542576,-0.051366135478019714,-0.4425986707210541,0.11657379567623138,0.6216685175895691,0.12917505204677582,-0.06229546293616295,-0.1513574719429016,-0.31473663449287415,-0.5660196542739868,0.5631002187728882,0.29545000195503235,0.1417926400899887,-0.3141222596168518,0.13840314745903015,0.25367262959480286,-0.2867284417152405,0.16284191608428955,-0.37767791748046875,-0.43387335538864136,-0.4295869767665863,0.1432851403951645,0.10649698227643967,-0.079507976770401,-0.12046267092227936,0.5245316624641418,0.09052583575248718,-0.32810187339782715,0.23747055232524872,-0.3929426968097687,0.3867591917514801,0.12989968061447144,-0.771186113357544,0.06880354881286621,0.15047813951969147,-0.44539153575897217,0.14570850133895874,0.5556471347808838,0.3113028109073639,-0.00098029850050807,0.2988625466823578,-0.21013841032981873,-0.026491448283195496,-0.13094808161258698,-0.40041929483413696,0.580411434173584,-0.06880922615528107,0.1245255097746849,0.4306478202342987,-0.29289743304252625,-0.7596222758293152,-0.08863937854766846,0.3768780827522278,-0.3246481120586395,0.3465244770050049,0.14348456263542175,0.22953541576862335,-0.16876576840877533,-0.03858456388115883,0.3687931299209595,-0.036958206444978714,-0.1385854333639145,0.17544355988502502,0.6041267514228821,-0.22388222813606262,-0.27760550379753113,-0.1398930847644806,0.09962107986211777,-0.19902920722961426,0.021403519436717033,0.6341128349304199,0.3977843225002289,0.34895020723342896,0.08947893232107162,0.1269470602273941,-0.45298391580581665,-0.3585406541824341,0.3094939589500427,-0.37399721145629883,0.4029746651649475,-0.0983918085694313,0.12412817031145096,0.3507651090621948,-0.32816120982170105,0.07277974486351013,0.06660471111536026,0.2954727113246918,0.15370206534862518,-0.29159653186798096,-0.0448264516890049,-0.11330906301736832,-0.15699657797813416,0.12282437831163406,-0.04191761836409569,0.0011301245540380478,0.20056669414043427,-0.7872905731201172,-0.3689511716365814,0.5112943649291992,0.8483828902244568,0.09225379675626755,0.39651554822921753,0.13879433274269104,0.5292328596115112,0.6394471526145935,0.2911728620529175,-0.41376161575317383,0.17204810678958893,0.3166809380054474,-0.23920504748821259,-0.22008536756038666,-0.3307808041572571,-0.639894425868988,-0.6529216170310974,0.06342148035764694,0.400739461183548,-0.02072686143219471,-0.052351705729961395,0.5517649054527283,0.1274404078722,-0.5722264647483826,-0.20367947220802307,-0.11698594689369202,-0.29552093148231506,-0.44591087102890015,-0.13669434189796448,-0.0421987809240818,-0.4312945604324341,-0.2750173509120941,-0.19181479513645172,-0.5219005346298218,-0.100735604763031,0.39587295055389404,-0.4698529839515686,0.6190233826637268,-0.3973104655742645,0.08819784224033356,0.5363103747367859,-0.5749601125717163,0.033028408885002136,-0.6628267765045166,-0.015139209106564522,0.47933605313301086,-0.07963414490222931,0.15895254909992218,-0.05483536794781685,0.4548398554325104,-0.17558567225933075,0.13777261972427368,0.19997486472129822,-0.09689483791589737,-0.2572529911994934,0.5727375149726868,-0.3358003795146942,0.07284357398748398,-0.22898922860622406,-0.24473923444747925,-0.3997880518436432,-0.5079044699668884,0.12934988737106323,-0.7807015180587769,-0.6468808054924011,-0.24438674747943878,-0.3414500653743744,0.031456105411052704,-0.14762400090694427,-0.04430491477251053,-0.03738486021757126,-0.29393520951271057,0.33609282970428467,-0.36530500650405884,0.2567487955093384,0.0044524185359478,-0.1549093872308731,-0.12687081098556519,0.34362316131591797,0.44282838702201843,0.41777053475379944,-0.3455767035484314,-0.37136608362197876,0.024921933189034462,0.3961219787597656,-0.04142743721604347,0.6337379217147827,-0.1088600680232048,-0.05378374457359314,0.05258103087544441,0.10415492206811905,0.0935300961136818,0.60844886302948,-0.30289047956466675,-0.10714365541934967,-0.010039451532065868,-0.48172181844711304,-0.2046608328819275,-0.15305691957473755,0.23635612428188324,0.5751641392707825,0.1896631270647049,0.059856969863176346,0.5817630290985107,0.45384401082992554,-0.3439966142177582,0.4389377534389496,-0.1957801878452301,0.1961946189403534,-0.5499756336212158,-0.12784187495708466,-0.6688385009765625,-0.13054926693439484,-0.3019886016845703,0.6341855525970459,-0.43119385838508606,0.5442308187484741,0.5272307991981506,-0.3625764846801758,-0.28039979934692383,0.304023414850235,0.11993090063333511,0.3007064461708069,-0.003906513564288616,0.11796794831752777,-0.010190987028181553,0.06455149501562119,0.15123429894447327,0.6538404822349548,0.0925178974866867,0.44186338782310486,0.003054339438676834,-0.015357266180217266,0.5684119462966919,-0.25854814052581787,-0.33928924798965454,-0.20656472444534302,0.1153331845998764,-0.30768662691116333,-0.3983047306537628,0.01419443916529417,0.0035634594969451427,0.6516387462615967,0.050351664423942566,-0.30127236247062683,0.3601197898387909,0.2607226073741913,-0.5849118828773499,0.03833123669028282,0.1721377968788147,0.21975645422935486,-0.39834943413734436,0.019444122910499573,-0.23905982077121735,0.09397098422050476,-0.5706602931022644,-0.5002914071083069,0.5584110021591187,-0.02953401207923889,0.3118587136268616,0.22432726621627808,-0.33729687333106995,-0.4055340588092804,0.743044376373291,-0.19079041481018066,-0.5435901284217834,0.23236089944839478,0.36279118061065674,0.3657311797142029,0.16359968483448029,0.4148494005203247,0.3644769489765167,-0.27449798583984375,0.4343360364437103,0.2236572951078415,-0.5807971954345703,-0.5434923768043518,0.08484344184398651,0.03606952726840973,0.05245009809732437,-0.35734620690345764,-0.6032331585884094,-0.1315605491399765,0.1687352955341339,-0.024599386379122734,0.3189644515514374,0.18836697936058044,0.37842950224876404,0.06279508769512177,0.4095836579799652,-0.3358140289783478,0.6510294675827026,0.017776213586330414,0.6169970631599426,-0.5021446347236633,-0.19412070512771606,-0.11080988496541977,-0.10129731148481369,-0.0319184847176075,-0.0678849145770073,0.5103359222412109,-0.32638290524482727,-0.3915557563304901,0.2182859480381012,0.24996788799762726,0.2567730247974396,0.3111274242401123,0.4549758732318878,0.18845432996749878,0.18638473749160767,0.208637535572052,0.3209417164325714,0.253968209028244,-0.26031768321990967,-0.6764132380485535,0.5159490704536438,-0.4641941785812378,-0.08686517179012299,-0.3860512971878052,-0.430277943611145,0.6246950626373291,-0.50999516248703,0.17412811517715454,0.4809991419315338,0.2391912192106247,0.18306823074817657,0.07744202017784119,0.4595624506473541,0.059918954968452454,-0.07027804851531982,0.22743362188339233,-0.00819424632936716,-0.4048444926738739,-0.31865936517715454,-0.13364242017269135,0.1363019347190857,-0.325020968914032,-0.5718188285827637,0.1427486687898636,0.6514429450035095,0.014097359031438828,-0.24680855870246887,0.4224928915500641,0.3780163824558258,0.21746161580085754,-0.27590659260749817,-0.22137761116027832,-0.12258800864219666,0.6742036938667297,-0.04869011044502258,0.07454966008663177,0.7149363160133362,0.285514235496521,-0.4859250783920288,-0.05408557876944542,-0.2628897726535797,0.2549326419830322,0.1579309105873108,-0.47138670086860657,0.0008615751867182553,0.47287246584892273,0.2579337954521179,0.7321643233299255,0.12213551998138428,0.11351960152387619,0.2280047982931137,0.1033935546875,-0.07997377961874008,0.16707521677017212,0.06144700571894646,0.4829399883747101,0.6249285340309143,-0.4592321217060089,0.204781636595726,-0.1412319540977478,-0.14296454191207886,-0.13561874628067017,-0.26344865560531616,-0.185129776597023,0.5109338164329529,-0.4534338414669037,-0.02288593165576458,-0.050215885043144226,0.23013506829738617,-0.07612118124961853,-0.013837076723575592,-0.11645910143852234,-0.35574591159820557,0.6522117257118225,-0.1256607472896576,-0.09928709268569946,-0.5707079172134399,-0.24646899104118347,0.02104966528713703,0.4108884632587433,-0.45752519369125366,-0.15963169932365417,0.6173670887947083,0.08681024610996246,-0.15241488814353943,-0.18137508630752563,0.38381004333496094,-0.2759847342967987,0.20986729860305786,0.4966028034687042,-0.0224045030772686,-0.2548758089542389,0.08161778002977371,-0.3138636648654938,-0.19784444570541382,-0.43808895349502563,0.49496617913246155,-0.37785065174102783,-0.2428649216890335,0.010354004800319672,-0.6559427976608276,-0.15587478876113892,0.2924741208553314,0.47032037377357483,-0.07410304248332977,0.1995970904827118,0.8329624533653259,0.12037890404462814,-0.3932139277458191,0.07572761178016663,0.3613954782485962,0.1135539636015892,0.6621363162994385,0.46275126934051514,-0.03679057955741882,0.17590521275997162,0.6680063605308533,0.07545697689056396,0.17500096559524536,-0.2973235547542572,0.4382604658603668,-0.21425014734268188,-0.0011788250412791967,-0.0031413999386131763,0.08946549892425537,0.1482899785041809,-0.2076089084148407,0.35877254605293274,0.40365421772003174,-0.6987226009368896,-0.04708816111087799,0.32594728469848633,-0.09834447503089905,-0.19571544229984283,-0.5308229327201843,-0.26146402955055237,-0.1473265290260315,-0.15089291334152222,-0.09329148381948471,-0.2468690127134323,-0.43762508034706116,-0.10834231972694397,0.17803063988685608,-0.4796336591243744,0.11114132404327393,0.5504375696182251,-0.035622142255306244,0.23705917596817017,-0.15795625746250153,-0.08057700097560883,0.3034495711326599,-0.18322701752185822,-0.3639167547225952,0.1338798701763153,0.8761368989944458,-0.23909518122673035,-0.7950029373168945,-0.22153083980083466,0.3838115334510803,0.1668235957622528,0.0317687951028347,0.0003079167800024152,-0.3784077763557434,-0.00015136848378460854,0.057549137622117996,0.15704983472824097,-0.2184380441904068,-0.6377332210540771,-0.16099463403224945,0.5198404788970947,-0.6704524159431458,0.05200495570898056,-0.22053663432598114,0.12711966037750244,-0.48021814227104187,0.315647691488266,-0.28778326511383057,0.5737099051475525,0.07040563225746155,-0.6396989822387695,0.3524608314037323,0.15723742544651031,0.02078763209283352,-0.14795315265655518,-0.2201220691204071,0.747839093208313,-0.5588095784187317,-0.8349123001098633,0.050380244851112366,0.14132744073867798,0.6260454058647156,-0.2376941293478012,-0.08651220798492432,0.00672614062204957,0.19313499331474304,0.16834165155887604,0.07145099341869354,-0.3100583255290985,-0.169570192694664,-0.4794212579727173,-0.25674793124198914,-0.4063795804977417,0.1418820023536682,0.1290183663368225,-0.6359452605247498,0.4157320261001587,-0.13787543773651123,0.23939500749111176,0.21058689057826996,-0.3142535090446472,-0.0231215450912714,0.2902751564979553,0.48329243063926697,0.16997450590133667,0.4719347357749939,0.16786809265613556,0.37935665249824524,-0.11079391092061996,0.19459478557109833,0.17699767649173737,-0.05611066147685051,0.446767657995224,0.2259809970855713,-0.598842978477478,-0.07451222836971283,0.7494596242904663,0.2956618070602417,-0.42552778124809265,-0.03894282504916191,0.5903637409210205,0.11185654997825623,-0.022041313350200653,0.24626091122627258,-0.46214187145233154,-0.14761947095394135,-0.14124411344528198,-0.11742023378610611,-0.3758702278137207,-0.23856192827224731,-0.04180449619889259,-0.15793773531913757,-0.20589542388916016,0.07269575446844101,-0.14450497925281525,0.5274086594581604,-0.5037000775337219,-0.3710184693336487,-0.22638347744941711,-0.17295359075069427,-0.20638510584831238,0.35832956433296204,0.10866975784301758,-0.07165363430976868,0.08003857731819153,0.6640896201133728,-0.22852151095867157,-0.32299625873565674,-0.1928202211856842,0.02147866226732731,0.19831982254981995,-0.12600600719451904,0.12028961628675461,-0.14466959238052368,0.3114425241947174,-0.7427712082862854,-0.23589618504047394,-0.12164032459259033,-0.19515982270240784,-0.46833980083465576,0.4196263551712036,0.3053383231163025,0.17607738077640533,0.6685801148414612,0.13224782049655914,0.1081327497959137,-0.4975040853023529,-0.5060864090919495,-0.08304835110902786,0.4426230490207672,-0.024034574627876282,-0.459586501121521,-0.28579357266426086,0.4657338559627533,-0.5789163112640381,-0.14839734137058258,0.4919775426387787,0.12207472324371338,-0.024201594293117523,-0.23418627679347992,-0.12475952506065369,-0.6644880771636963,-0.01479455828666687,0.19952630996704102,0.032851919531822205,-0.19298186898231506,0.07307211309671402,-0.02287423238158226,0.045468349009752274,0.32452619075775146,0.09924611449241638,-0.02587174065411091,-0.48348915576934814,-0.45448270440101624,-0.25712087750434875,0.35719573497772217,0.5239795446395874,-0.29527366161346436,-0.29158085584640503,0.35424235463142395,0.5720561146736145,-0.14088958501815796,0.11746688932180405,0.14987853169441223,-0.7831565737724304,-0.2662529945373535,-0.03408638760447502,0.34131157398223877,0.13345009088516235,-0.14257796108722687,-0.5306071043014526,0.4549788236618042,-0.11285579204559326,-0.3138805031776428,0.5522844791412354,-0.2960728406906128,0.29584911465644836,0.09117849916219711,-0.3718514144420624,-0.024874670431017876,0.5029154419898987,0.07157585769891739,0.38043728470802307,0.1515943855047226,-0.5926045179367065,-0.13155539333820343,-0.11944038420915604,-0.5313288569450378,-0.1395106017589569,-0.12046957015991211,-0.034551311284303665,0.37871432304382324,-0.5697357654571533,0.32123634219169617,0.3283112347126007,0.2692505419254303,0.32586637139320374,-0.47745662927627563,-0.2027440071105957,0.35795462131500244,0.4094299077987671,-0.18009011447429657,-0.45379579067230225,-0.42279964685440063,-0.4005807638168335,-0.4402335286140442,-0.04727902635931969,0.5654383897781372,0.031133724376559258,-0.4121423661708832,-0.3301094174385071,0.4458276033401489,-0.019032474607229233,0.0867934301495552,0.28374889492988586,0.08087578415870667,0.29455670714378357,0.19215524196624756,-0.7740671634674072,0.38616615533828735,-0.4982392489910126,-0.02563009038567543,-0.22517129778862,0.16228488087654114,-0.06648016721010208,0.03166700154542923,-0.23263263702392578,0.12388499826192856,0.34456250071525574,-0.29660287499427795,0.004860930144786835,0.19624754786491394,0.2664959728717804,-0.14901919662952423,0.10681194812059402,0.2562640607357025,0.5172606706619263,0.14554251730442047,0.23427587747573853,0.5511417984962463,-0.4164235293865204,0.0032421168871223927,-0.25169628858566284,-0.5615159869194031,0.12409035116434097,0.20612215995788574,0.3821636736392975,-0.07077375799417496,-0.3444823920726776,0.688913106918335,0.1283831149339676,-0.13433612883090973,0.3085886836051941,0.15084831416606903,0.13602620363235474,-0.2072097659111023,0.3947797119617462,0.6908364295959473,-0.11985979974269867,-0.26653438806533813,0.6041122674942017,-0.5669847726821899,0.36072611808776855,-0.06768306344747543,-0.017470629885792732,0.105130136013031
Strategy,0.4860774576663971,-0.5170336365699768,-0.618708610534668,0.14023356139659882,0.23266679048538208,-0.10151597112417221,0.569449245929718,-0.3158218562602997,0.004490783903747797,-0.29530206322669983,0.4222797453403473,0.08536726236343384,-0.4692227840423584,0.116737961769104,-0.010812405496835709,0.5874460339546204,0.47290968894958496,-0.5108667612075806,0.1691001057624817,0.42265868186950684,-0.1535249948501587,0.6290145516395569,0.10351071506738663,0.11059781908988953,-0.3972197473049164,0.25594672560691833,0.25613173842430115,0.027555033564567566,0.5568780303001404,0.14843498170375824,-0.17954951524734497,0.18067026138305664,0.394282728433609,-0.1514510065317154,-0.3471527099609375,-0.04399813339114189,-0.4191187918186188,0.06198270991444588,0.772166907787323,-0.10572221875190735,-0.40517115592956543,-0.016282878816127777,-0.03148737922310829,-0.4296239912509918,0.11313650757074356,0.630255937576294,0.13627411425113678,-0.07043199241161346,-0.1522398442029953,-0.3185177743434906,-0.5254555344581604,0.5565417408943176,0.2570478618144989,0.14568275213241577,-0.30834266543388367,0.153925821185112,0.21435894072055817,-0.2869759202003479,0.13914792239665985,-0.408481240272522,-0.4479341208934784,-0.40692996978759766,0.13996486365795135,0.1278395652770996,-0.11676924675703049,-0.1026129350066185,0.5401318669319153,0.06346414238214493,-0.33995434641838074,0.2224392145872116,-0.3558840751647949,0.3693958520889282,0.12815271317958832,-0.7815578579902649,0.11286929249763489,0.14184586703777313,-0.4373544454574585,0.15284518897533417,0.5291323661804199,0.3238830864429474,0.0059939478524029255,0.2597624957561493,-0.19884590804576874,-0.038044314831495285,-0.13513173162937164,-0.3907948434352875,0.6038649678230286,-0.1394309103488922,0.11144590377807617,0.41000744700431824,-0.33231285214424133,-0.7542845606803894,-0.03146326541900635,0.39720258116722107,-0.31481149792671204,0.3396734297275543,0.15790243446826935,0.21117985248565674,-0.14076076447963715,-0.05169912800192833,0.3626997768878937,-0.051052916795015335,-0.16210903227329254,0.15387243032455444,0.58538818359375,-0.2476518750190735,-0.2558368742465973,-0.1249600276350975,0.10464271903038025,-0.15970270335674286,-0.0039130039513111115,0.6653524041175842,0.4042588472366333,0.34835490584373474,0.03929636627435684,0.10746457427740097,-0.4520101845264435,-0.36796998977661133,0.3332362473011017,-0.356909841299057,0.38985541462898254,-0.061291683465242386,0.10699386149644852,0.36107608675956726,-0.32569414377212524,0.12038636207580566,0.08241471648216248,0.2760563790798187,0.1484519988298416,-0.28284358978271484,-0.03924878314137459,-0.11478724330663681,-0.17314064502716064,0.15668638050556183,-0.01499592512845993,-0.02667079120874405,0.20487786829471588,-0.7799603343009949,-0.33978280425071716,0.5114061832427979,0.8467867374420166,0.07980307191610336,0.426379531621933,0.11984378099441528,0.5636603236198425,0.6133748888969421,0.27659687399864197,-0.420912504196167,0.15155987441539764,0.3284924626350403,-0.23538918793201447,-0.2063591480255127,-0.3109177052974701,-0.6698208451271057,-0.6628315448760986,0.06050529703497887,0.45318663120269775,-0.050679102540016174,-0.04659949615597725,0.550451397895813,0.1772739440202713,-0.5401413440704346,-0.17385844886302948,-0.0696982815861702,-0.26455560326576233,-0.4263937473297119,-0.11081912368535995,-0.04821396991610527,-0.4508706033229828,-0.25626859068870544,-0.1935214400291443,-0.49577856063842773,-0.05710533633828163,0.41900256276130676,-0.4635997712612152,0.5931658148765564,-0.37885820865631104,0.10197249054908752,0.53012615442276,-0.5867545008659363,0.045304205268621445,-0.6805711388587952,-0.0012873312225565314,0.5052698254585266,-0.11135947704315186,0.12225230783224106,-0.056327950209379196,0.42881932854652405,-0.16137628257274628,0.11575212329626083,0.17892593145370483,-0.11413422971963882,-0.2550823390483856,0.6031219959259033,-0.3144225478172302,0.07482944428920746,-0.23855458199977875,-0.2561597526073456,-0.4281795024871826,-0.48198220133781433,0.15129204094409943,-0.7880783081054688,-0.6788234114646912,-0.2266721874475479,-0.325124055147171,0.011560891754925251,-0.09791722893714905,-0.01742277853190899,-0.06011269614100456,-0.2949415147304535,0.3575591742992401,-0.3644217252731323,0.259622186422348,0.021074509248137474,-0.15114939212799072,-0.17445820569992065,0.34554925560951233,0.44101205468177795,0.4539189338684082,-0.3507407605648041,-0.37451401352882385,0.00042073181248269975,0.3721345365047455,-0.024390777572989464,0.6210486888885498,-0.11615657806396484,-0.059210438281297684,0.06100604310631752,0.08701533824205399,0.11806637048721313,0.6044886708259583,-0.264119952917099,-0.1369246393442154,-0.033375874161720276,-0.5038028955459595,-0.228109672665596,-0.10830215364694595,0.20927925407886505,0.5256547927856445,0.16211466491222382,0.085014708340168,0.6274617314338684,0.4590846300125122,-0.3517788350582123,0.4860459566116333,-0.19577638804912567,0.20539502799510956,-0.5286247730255127,-0.10920452326536179,-0.6726704239845276,-0.13606750965118408,-0.32608410716056824,0.6232813000679016,-0.44856610894203186,0.5450172424316406,0.5464887022972107,-0.3765166103839874,-0.23906390368938446,0.3135531544685364,0.09153219312429428,0.3088155686855316,-0.03592954948544502,0.10249944776296616,-0.03242119774222374,0.13992513716220856,0.18690985441207886,0.6837883591651917,0.11110808700323105,0.450180321931839,0.021324768662452698,-0.003212415613234043,0.6140634417533875,-0.23505204916000366,-0.3157084882259369,-0.1604568064212799,0.1170298382639885,-0.26275503635406494,-0.38211750984191895,0.008342709392309189,-0.03190377727150917,0.6381078362464905,0.0856524184346199,-0.2997387945652008,0.3688640296459198,0.25102901458740234,-0.5995689034461975,0.04753600433468819,0.1716442108154297,0.2179778665304184,-0.40011247992515564,0.013829120434820652,-0.21617181599140167,0.12368834018707275,-0.557864248752594,-0.5168245434761047,0.5411374568939209,-0.021799834445118904,0.3157753646373749,0.2677311897277832,-0.38384556770324707,-0.4592937231063843,0.7585586905479431,-0.22452016174793243,-0.5887581706047058,0.22656774520874023,0.35434162616729736,0.3660881221294403,0.16990959644317627,0.42031124234199524,0.35564854741096497,-0.2666890621185303,0.45411375164985657,0.2086404711008072,-0.5998941659927368,-0.5061900615692139,0.07404085993766785,0.030315324664115906,0.07474324107170105,-0.40629687905311584,-0.6106928586959839,-0.1225351020693779,0.16715985536575317,-0.03434603288769722,0.3127090632915497,0.19495101273059845,0.3694542348384857,0.05750064179301262,0.33651259541511536,-0.36888208985328674,0.6633084416389465,-0.016986124217510223,0.6174768209457397,-0.5146872997283936,-0.20478664338588715,-0.14309899508953094,-0.07526674121618271,-0.12630198895931244,-0.05041556432843208,0.4975477457046509,-0.3349930942058563,-0.39948615431785583,0.20798151195049286,0.23438113927841187,0.20001129806041718,0.32897064089775085,0.40870556235313416,0.1690477579832077,0.226918026804924,0.1815810203552246,0.3223525583744049,0.30783453583717346,-0.26644572615623474,-0.6674644351005554,0.5100274085998535,-0.4791710674762726,-0.09152176231145859,-0.41272595524787903,-0.48003914952278137,0.6242824196815491,-0.4960290193557739,0.12994384765625,0.48052799701690674,0.1866074800491333,0.19393421709537506,0.07264667004346848,0.49836012721061707,0.051724035292863846,-0.08774194866418839,0.22363565862178802,-0.002713174792006612,-0.3925984799861908,-0.3223436176776886,-0.15567068755626678,0.15554766356945038,-0.29788994789123535,-0.5474303364753723,0.10246136039495468,0.6700904965400696,0.017166810110211372,-0.2418607473373413,0.39154067635536194,0.4030703008174896,0.2423877865076065,-0.2960059940814972,-0.24758388102054596,-0.06659972667694092,0.6508700847625732,-0.09902328252792358,0.07801468670368195,0.7216925024986267,0.3105573356151581,-0.4812403619289398,-0.08026096224784851,-0.23861080408096313,0.23746258020401,0.1601548194885254,-0.49880507588386536,-0.01961815543472767,0.49764835834503174,0.19788235425949097,0.7258300185203552,0.1118859127163887,0.10397052764892578,0.1944359540939331,0.05227145552635193,-0.1087309941649437,0.18139319121837616,0.0797383263707161,0.47550973296165466,0.6295306086540222,-0.4435880184173584,0.22706229984760284,-0.14040152728557587,-0.10441052913665771,-0.15940266847610474,-0.26695945858955383,-0.19879961013793945,0.5070967078208923,-0.43647149205207825,-0.0005525726010091603,-0.007924224250018597,0.2545676529407501,-0.06136992946267128,-0.010026868432760239,-0.08797501772642136,-0.3703744113445282,0.6702713370323181,-0.10695884376764297,-0.11420687288045883,-0.5825664401054382,-0.25741374492645264,-0.007768291514366865,0.4340747892856598,-0.49073758721351624,-0.12389817088842392,0.6200428605079651,0.07844720035791397,-0.14559201896190643,-0.1684916466474533,0.4121071994304657,-0.2759832441806793,0.19362016022205353,0.5062482953071594,-0.030927365645766258,-0.24276749789714813,0.05354684963822365,-0.3046029508113861,-0.15778692066669464,-0.40093255043029785,0.4867706298828125,-0.4037163257598877,-0.2562554180622101,0.0021994065027683973,-0.6713020205497742,-0.1556350439786911,0.2813566327095032,0.513047993183136,-0.0526435561478138,0.24000243842601776,0.8281762003898621,0.13228757679462433,-0.3794136941432953,0.09234877675771713,0.3056151866912842,0.10185694694519043,0.6634502410888672,0.48463478684425354,-0.013819575309753418,0.1815841794013977,0.6673696637153625,0.09226208180189133,0.2028597593307495,-0.3418560326099396,0.44127950072288513,-0.22152966260910034,0.04434895142912865,-0.036935415118932724,0.07606528699398041,0.1488274335861206,-0.2105441689491272,0.3717987835407257,0.3762635886669159,-0.7010956406593323,-0.04488849639892578,0.3523916006088257,-0.12551407516002655,-0.18816125392913818,-0.5295466184616089,-0.2968481481075287,-0.08982950448989868,-0.14663532376289368,-0.09356772899627686,-0.2504941523075104,-0.44560956954956055,-0.1059853658080101,0.17360873520374298,-0.5237398147583008,0.0998435840010643,0.5072197318077087,-0.08176329731941223,0.13459515571594238,-0.14542226493358612,-0.05543413758277893,0.29772791266441345,-0.1458379328250885,-0.3782777488231659,0.1292441040277481,0.8893892765045166,-0.28907081484794617,-0.8036414980888367,-0.1945744901895523,0.3697187602519989,0.14219500124454498,0.08972703665494919,0.010591205209493637,-0.39776453375816345,-0.0034387398045510054,0.09119126945734024,0.1492862105369568,-0.20304228365421295,-0.6381738781929016,-0.12172281742095947,0.5297653079032898,-0.6737856268882751,0.03938989341259003,-0.21372230350971222,0.10974472016096115,-0.48197880387306213,0.36082348227500916,-0.3135821521282196,0.5347095131874084,0.04292602464556694,-0.618793785572052,0.3647071123123169,0.1585591584444046,0.002146777929738164,-0.15274466574192047,-0.2054937332868576,0.7519369721412659,-0.5365510582923889,-0.8586344122886658,0.0371435172855854,0.14748771488666534,0.6432721018791199,-0.2655613124370575,-0.061396386474370956,-0.017129598185420036,0.2323617935180664,0.1696586161851883,0.04437849298119545,-0.2942351698875427,-0.16095882654190063,-0.49373912811279297,-0.23814757168293,-0.38933253288269043,0.1232767328619957,0.14863859117031097,-0.6114286780357361,0.41893044114112854,-0.16986554861068726,0.25972887873649597,0.19848866760730743,-0.30744901299476624,-0.009197596460580826,0.279930979013443,0.46260109543800354,0.17707140743732452,0.47103843092918396,0.21656948328018188,0.375954270362854,-0.13960257172584534,0.18001824617385864,0.13877567648887634,-0.08498972654342651,0.44258880615234375,0.2013775259256363,-0.6105895638465881,-0.09713683277368546,0.7585609555244446,0.264649897813797,-0.4453548192977905,-0.026395177468657494,0.5877716541290283,0.16782331466674805,0.026181431487202644,0.19694890081882477,-0.4773760735988617,-0.15307177603244781,-0.15250633656978607,-0.13616158068180084,-0.40578386187553406,-0.22855202853679657,0.015264841727912426,-0.1547490805387497,-0.18560440838336945,0.08779427409172058,-0.16759784519672394,0.5403542518615723,-0.4935811460018158,-0.35925042629241943,-0.2380855828523636,-0.19434654712677002,-0.22447295486927032,0.343375563621521,0.1126389279961586,-0.07296129316091537,0.03156815096735954,0.7117929458618164,-0.22452028095722198,-0.31840893626213074,-0.18889619410037994,-0.0008621488814242184,0.1262514591217041,-0.13107828795909882,0.1309000849723816,-0.08338654786348343,0.3217528760433197,-0.7293056845664978,-0.26801827549934387,-0.14286601543426514,-0.14875084161758423,-0.4600895345211029,0.41186022758483887,0.2931808531284332,0.17254918813705444,0.6547459959983826,0.14134810864925385,0.12284129858016968,-0.5077628493309021,-0.49741604924201965,-0.055858612060546875,0.45508983731269836,-0.021161386743187904,-0.5030215382575989,-0.281098872423172,0.4518255889415741,-0.571607768535614,-0.20969589054584503,0.49702322483062744,0.15355968475341797,-0.030566319823265076,-0.2373952865600586,-0.11921605467796326,-0.6655541062355042,0.01052046287804842,0.22844336926937103,0.020626530051231384,-0.16543559730052948,0.0981382355093956,-0.02707085944712162,0.016842884942889214,0.32628709077835083,0.0594925694167614,-0.04524786397814751,-0.48690295219421387,-0.4712270200252533,-0.2883070707321167,0.38913679122924805,0.5229780077934265,-0.24871285259723663,-0.2867613732814789,0.3521226644515991,0.574209451675415,-0.1441343128681183,0.141437828540802,0.15122240781784058,-0.7986482977867126,-0.28206866979599,-0.028248941525816917,0.30516311526298523,0.10041438788175583,-0.12858688831329346,-0.5530431866645813,0.45538854598999023,-0.09948402643203735,-0.29073289036750793,0.5540273189544678,-0.27828654646873474,0.271736204624176,0.06451237946748734,-0.3471342623233795,0.0027255266904830933,0.5171087980270386,0.0403159074485302,0.37296852469444275,0.14018689095973969,-0.5629510879516602,-0.0818367600440979,-0.10134261846542358,-0.5421933531761169,-0.13848264515399933,-0.0834120512008667,-0.06806555390357971,0.38765397667884827,-0.5713651776313782,0.32103902101516724,0.2831277549266815,0.3225111663341522,0.3492896556854248,-0.5042315721511841,-0.23525358736515045,0.3644913136959076,0.40951263904571533,-0.16398559510707855,-0.4540693759918213,-0.37117207050323486,-0.39000630378723145,-0.43592575192451477,-0.06541641056537628,0.5667210221290588,0.03038320690393448,-0.4241393506526947,-0.3143622875213623,0.4573386013507843,-0.014269407838582993,0.07277486473321915,0.3125821053981781,0.07402750849723816,0.24636946618556976,0.22005687654018402,-0.7844964861869812,0.3720937669277191,-0.5098565220832825,-0.07260897010564804,-0.21238404512405396,0.21555054187774658,-0.12168533354997635,0.008339677937328815,-0.22228948771953583,0.1099785640835762,0.3556841313838959,-0.29034194350242615,0.005594564136117697,0.24008995294570923,0.2469242364168167,-0.1650819629430771,0.08240776509046555,0.2992507815361023,0.5045107007026672,0.13205769658088684,0.22656409442424774,0.582796037197113,-0.4075189530849457,-0.01715673692524433,-0.27462491393089294,-0.5483118295669556,0.10659202933311462,0.19885313510894775,0.37700557708740234,-0.07826900482177734,-0.3111385405063629,0.7035042643547058,0.13707934319972992,-0.16232182085514069,0.29536542296409607,0.11324170231819153,0.11100289225578308,-0.23271948099136353,0.41871675848960876,0.7140280604362488,-0.10337215662002563,-0.28065937757492065,0.6135783791542053,-0.5332298278808594,0.3475702702999115,-0.11746367067098618,-0.060965001583099365,0.12547336518764496
