pattern,dim_0,dim_1,dim_2,dim_3,dim_4,dim_5,dim_6,dim_7,dim_8,dim_9,dim_10,dim_11,dim_12,dim_13,dim_14,dim_15,dim_16,dim_17,dim_18,dim_19,dim_20,dim_21,dim_22,dim_23,dim_24,dim_25,dim_26,dim_27,dim_28,dim_29,dim_30,dim_31,dim_32,dim_33,dim_34,dim_35,dim_36,dim_37,dim_38,dim_39,dim_40,dim_41,dim_42,dim_43,dim_44,dim_45,dim_46,dim_47,dim_48,dim_49,dim_50,dim_51,dim_52,dim_53,dim_54,dim_55,dim_56,dim_57,dim_58,dim_59,dim_60,dim_61,dim_62,dim_63,dim_64,dim_65,dim_66,dim_67,dim_68,dim_69,dim_70,dim_71,dim_72,dim_73,dim_74,dim_75,dim_76,dim_77,dim_78,dim_79,dim_80,dim_81,dim_82,dim_83,dim_84,dim_85,dim_86,dim_87,dim_88,dim_89,dim_90,dim_91,dim_92,dim_93,dim_94,dim_95,dim_96,dim_97,dim_98,dim_99,dim_100,dim_101,dim_102,dim_103,dim_104,dim_105,dim_106,dim_107,dim_108,dim_109,dim_110,dim_111,dim_112,dim_113,dim_114,dim_115,dim_116,dim_117,dim_118,dim_119,dim_120,dim_121,dim_122,dim_123,dim_124,dim_125,dim_126,dim_127,dim_128,dim_129,dim_130,dim_131,dim_132,dim_133,dim_134,dim_135,dim_136,dim_137,dim_138,dim_139,dim_140,dim_141,dim_142,dim_143,dim_144,dim_145,dim_146,dim_147,dim_148,dim_149,dim_150,dim_151,dim_152,dim_153,dim_154,dim_155,dim_156,dim_157,dim_158,dim_159,dim_160,dim_161,dim_162,dim_163,dim_164,dim_165,dim_166,dim_167,dim_168,dim_169,dim_170,dim_171,dim_172,dim_173,dim_174,dim_175,dim_176,dim_177,dim_178,dim_179,dim_180,dim_181,dim_182,dim_183,dim_184,dim_185,dim_186,dim_187,dim_188,dim_189,dim_190,dim_191,dim_192,dim_193,dim_194,dim_195,dim_196,dim_197,dim_198,dim_199,dim_200,dim_201,dim_202,dim_203,dim_204,dim_205,dim_206,dim_207,dim_208,dim_209,dim_210,dim_211,dim_212,dim_213,dim_214,dim_215,dim_216,dim_217,dim_218,dim_219,dim_220,dim_221,dim_222,dim_223,dim_224,dim_225,dim_226,dim_227,dim_228,dim_229,dim_230,dim_231,dim_232,dim_233,dim_234,dim_235,dim_236,dim_237,dim_238,dim_239,dim_240,dim_241,dim_242,dim_243,dim_244,dim_245,dim_246,dim_247,dim_248,dim_249,dim_250,dim_251,dim_252,dim_253,dim_254,dim_255,dim_256,dim_257,dim_258,dim_259,dim_260,dim_261,dim_262,dim_263,dim_264,dim_265,dim_266,dim_267,dim_268,dim_269,dim_270,dim_271,dim_272,dim_273,dim_274,dim_275,dim_276,dim_277,dim_278,dim_279,dim_280,dim_281,dim_282,dim_283,dim_284,dim_285,dim_286,dim_287,dim_288,dim_289,dim_290,dim_291,dim_292,dim_293,dim_294,dim_295,dim_296,dim_297,dim_298,dim_299,dim_300,dim_301,dim_302,dim_303,dim_304,dim_305,dim_306,dim_307,dim_308,dim_309,dim_310,dim_311,dim_312,dim_313,dim_314,dim_315,dim_316,dim_317,dim_318,dim_319,dim_320,dim_321,dim_322,dim_323,dim_324,dim_325,dim_326,dim_327,dim_328,dim_329,dim_330,dim_331,dim_332,dim_333,dim_334,dim_335,dim_336,dim_337,dim_338,dim_339,dim_340,dim_341,dim_342,dim_343,dim_344,dim_345,dim_346,dim_347,dim_348,dim_349,dim_350,dim_351,dim_352,dim_353,dim_354,dim_355,dim_356,dim_357,dim_358,dim_359,dim_360,dim_361,dim_362,dim_363,dim_364,dim_365,dim_366,dim_367,dim_368,dim_369,dim_370,dim_371,dim_372,dim_373,dim_374,dim_375,dim_376,dim_377,dim_378,dim_379,dim_380,dim_381,dim_382,dim_383,dim_384,dim_385,dim_386,dim_387,dim_388,dim_389,dim_390,dim_391,dim_392,dim_393,dim_394,dim_395,dim_396,dim_397,dim_398,dim_399,dim_400,dim_401,dim_402,dim_403,dim_404,dim_405,dim_406,dim_407,dim_408,dim_409,dim_410,dim_411,dim_412,dim_413,dim_414,dim_415,dim_416,dim_417,dim_418,dim_419,dim_420,dim_421,dim_422,dim_423,dim_424,dim_425,dim_426,dim_427,dim_428,dim_429,dim_430,dim_431,dim_432,dim_433,dim_434,dim_435,dim_436,dim_437,dim_438,dim_439,dim_440,dim_441,dim_442,dim_443,dim_444,dim_445,dim_446,dim_447,dim_448,dim_449,dim_450,dim_451,dim_452,dim_453,dim_454,dim_455,dim_456,dim_457,dim_458,dim_459,dim_460,dim_461,dim_462,dim_463,dim_464,dim_465,dim_466,dim_467,dim_468,dim_469,dim_470,dim_471,dim_472,dim_473,dim_474,dim_475,dim_476,dim_477,dim_478,dim_479,dim_480,dim_481,dim_482,dim_483,dim_484,dim_485,dim_486,dim_487,dim_488,dim_489,dim_490,dim_491,dim_492,dim_493,dim_494,dim_495,dim_496,dim_497,dim_498,dim_499,dim_500,dim_501,dim_502,dim_503,dim_504,dim_505,dim_506,dim_507,dim_508,dim_509,dim_510,dim_511,dim_512,dim_513,dim_514,dim_515,dim_516,dim_517,dim_518,dim_519,dim_520,dim_521,dim_522,dim_523,dim_524,dim_525,dim_526,dim_527,dim_528,dim_529,dim_530,dim_531,dim_532,dim_533,dim_534,dim_535,dim_536,dim_537,dim_538,dim_539,dim_540,dim_541,dim_542,dim_543,dim_544,dim_545,dim_546,dim_547,dim_548,dim_549,dim_550,dim_551,dim_552,dim_553,dim_554,dim_555,dim_556,dim_557,dim_558,dim_559,dim_560,dim_561,dim_562,dim_563,dim_564,dim_565,dim_566,dim_567,dim_568,dim_569,dim_570,dim_571,dim_572,dim_573,dim_574,dim_575,dim_576,dim_577,dim_578,dim_579,dim_580,dim_581,dim_582,dim_583,dim_584,dim_585,dim_586,dim_587,dim_588,dim_589,dim_590,dim_591,dim_592,dim_593,dim_594,dim_595,dim_596,dim_597,dim_598,dim_599,dim_600,dim_601,dim_602,dim_603,dim_604,dim_605,dim_606,dim_607,dim_608,dim_609,dim_610,dim_611,dim_612,dim_613,dim_614,dim_615,dim_616,dim_617,dim_618,dim_619,dim_620,dim_621,dim_622,dim_623,dim_624,dim_625,dim_626,dim_627,dim_628,dim_629,dim_630,dim_631,dim_632,dim_633,dim_634,dim_635,dim_636,dim_637,dim_638,dim_639,dim_640,dim_641,dim_642,dim_643,dim_644,dim_645,dim_646,dim_647,dim_648,dim_649,dim_650,dim_651,dim_652,dim_653,dim_654,dim_655,dim_656,dim_657,dim_658,dim_659,dim_660,dim_661,dim_662,dim_663,dim_664,dim_665,dim_666,dim_667,dim_668,dim_669,dim_670,dim_671,dim_672,dim_673,dim_674,dim_675,dim_676,dim_677,dim_678,dim_679,dim_680,dim_681,dim_682,dim_683,dim_684,dim_685,dim_686,dim_687,dim_688,dim_689,dim_690,dim_691,dim_692,dim_693,dim_694,dim_695,dim_696,dim_697,dim_698,dim_699,dim_700,dim_701,dim_702,dim_703,dim_704,dim_705,dim_706,dim_707,dim_708,dim_709,dim_710,dim_711,dim_712,dim_713,dim_714,dim_715,dim_716,dim_717,dim_718,dim_719,dim_720,dim_721,dim_722,dim_723,dim_724,dim_725,dim_726,dim_727,dim_728,dim_729,dim_730,dim_731,dim_732,dim_733,dim_734,dim_735,dim_736,dim_737,dim_738,dim_739,dim_740,dim_741,dim_742,dim_743,dim_744,dim_745,dim_746,dim_747,dim_748,dim_749,dim_750,dim_751,dim_752,dim_753,dim_754,dim_755,dim_756,dim_757,dim_758,dim_759,dim_760,dim_761,dim_762,dim_763,dim_764,dim_765,dim_766,dim_767
Strategy,-0.32645440101623535,0.18027515709400177,0.265108197927475,0.06036215275526047,-0.26780426502227783,-0.6260085701942444,-0.03857994079589844,0.23533876240253448,0.4643862545490265,0.39998361468315125,-0.2716018259525299,0.9413312077522278,-0.18029390275478363,-0.09611109644174576,0.8456427454948425,-0.02500477060675621,0.24648417532444,0.2869475781917572,-0.025223620235919952,0.0031991535797715187,-0.20272880792617798,-0.2933613061904907,0.7286754846572876,-0.45101064443588257,0.49362796545028687,0.38253262639045715,0.04467979446053505,0.7910850048065186,-0.502493143081665,0.816725492477417,-0.23035025596618652,-0.05263005197048187,1.496519684791565,0.16280485689640045,0.3261933922767639,-0.35953471064567566,-0.3247778117656708,0.21252687275409698,0.08731231093406677,-0.30180108547210693,0.08387364447116852,0.7172551155090332,-0.9290561676025391,-0.14394190907478333,0.5027732253074646,0.27552440762519836,0.4023782014846802,-0.004707277752459049,0.05546923726797104,0.5436347126960754,0.5390735268592834,0.2805953621864319,-0.5714240670204163,-0.19958209991455078,0.4354196786880493,0.5919781923294067,-1.0870965719223022,-0.5584493279457092,-0.22376778721809387,-0.39671120047569275,-0.04165405407547951,-0.2199816256761551,-0.2517946660518646,-0.2813791036605835,1.4013652801513672,0.2310146689414978,0.6182565093040466,0.7445554733276367,-0.1632392406463623,0.25753653049468994,-0.20786529779434204,-0.3769955337047577,-0.20346349477767944,-0.5034741759300232,-0.6440277695655823,0.5961799621582031,-0.37265053391456604,-8.488536834716797,0.14347317814826965,0.5708033442497253,0.2885286509990692,-0.5788041353225708,1.6879074573516846,0.6309370398521423,-0.5769805312156677,0.20275478065013885,0.0547490119934082,0.2976360619068146,-0.6262293457984924,-0.08117321878671646,0.20483240485191345,0.02489563077688217,0.5389803647994995,0.7614265084266663,-0.2008642852306366,0.7914425730705261,0.6209897994995117,-0.246153324842453,0.10257698595523834,-0.32357919216156006,-0.0994090735912323,-0.5751228928565979,0.5768994688987732,0.3936654329299927,0.312948614358902,-0.5674210786819458,0.48707452416419983,-0.777252733707428,0.4427880048751831,-0.2581542432308197,0.04854517802596092,-0.42949432134628296,0.6895740628242493,0.19445814192295074,0.21463219821453094,-0.3173925280570984,0.33797487616539,0.2103985995054245,0.04984115809202194,-0.004352856893092394,-0.7911565899848938,0.30046772956848145,-0.44821956753730774,0.7566012740135193,-0.26049208641052246,0.21950602531433105,-0.18430793285369873,0.08763977885246277,0.18205411732196808,0.198649063706398,-1.0643060207366943,-0.8432981967926025,-0.3669673204421997,0.5942655205726624,0.4495823085308075,-0.5680714249610901,0.38303449749946594,0.05335865914821625,-0.393545925617218,0.37912672758102417,-0.5313989520072937,-0.5535435080528259,-0.1503438651561737,0.15860909223556519,0.9600376486778259,-0.09346762299537659,-0.010162733495235443,0.5181805491447449,0.2512008547782898,-0.38713639974594116,-0.7479017376899719,0.07669160515069962,1.2748112678527832,-0.170524001121521,-0.11098399758338928,-2.0856733322143555,0.15771180391311646,0.2594793736934662,0.2058071494102478,-0.3457002341747284,0.3619621992111206,-0.08540534228086472,0.002363752108067274,0.5215368270874023,0.5966000556945801,0.14627808332443237,-0.26436179876327515,-0.04311608523130417,0.24403265118598938,0.971638023853302,-0.41883695125579834,-0.571660041809082,-0.6347568035125732,-0.002713049529120326,0.3741554617881775,0.8107340335845947,0.37118595838546753,-0.09916627407073975,-0.32979992032051086,1.1441357135772705,0.4201224446296692,-0.2864225208759308,0.2099422812461853,-0.5364035367965698,-0.37109652161598206,0.3165348768234253,-0.35517773032188416,0.719065248966217,-0.18938134610652924,-0.14056609570980072,-0.27191320061683655,-0.32369187474250793,0.26780855655670166,0.4997059404850006,0.06391304731369019,0.13142035901546478,0.04898236691951752,0.30448487401008606,1.0252074003219604,0.13498316705226898,-0.31433528661727905,0.8522420525550842,0.4108201265335083,0.33042603731155396,-0.10176334530115128,0.23510459065437317,-0.15156029164791107,0.5116363167762756,0.5409606695175171,1.3121575117111206,1.7687290906906128,-0.017453398555517197,0.16132277250289917,-0.425113707780838,-0.9043881893157959,0.10437731444835663,-0.7152687311172485,-1.3564571142196655,-0.5563555359840393,-0.589727520942688,-1.4296901226043701,0.2492068111896515,-0.2614169418811798,-0.1632809340953827,-0.11978787928819656,0.0459226593375206,0.331748902797699,-0.19787564873695374,-0.32833677530288696,0.35097289085388184,-0.35378825664520264,-0.29812735319137573,-0.7576158046722412,-0.17842429876327515,0.0057851821184158325,-0.4569907784461975,-0.5351152420043945,0.4158846437931061,0.3505849838256836,-0.9848878383636475,-0.25691449642181396,0.19154861569404602,0.6152526140213013,1.053609848022461,0.10744550824165344,-0.7089315056800842,0.28454071283340454,0.3826310336589813,0.6284568309783936,0.5491567850112915,0.17771361768245697,0.48884016275405884,0.32117363810539246,-0.22116845846176147,0.03211470693349838,-0.3948615491390228,-0.2039974331855774,-0.437062531709671,0.5828484296798706,1.8027434349060059,0.3248119652271271,0.06407581269741058,0.6470698118209839,-0.6663637757301331,0.3882787525653839,0.04236556589603424,0.32089030742645264,0.3577245771884918,0.7561495304107666,0.4910843074321747,1.4584007263183594,0.35543009638786316,-0.3387593626976013,0.18717890977859497,0.23540343344211578,0.20093846321105957,0.4552730917930603,0.18564105033874512,-0.9955162405967712,-0.3175118565559387,-0.4207232892513275,-0.4554115831851959,0.34918859601020813,-0.16854161024093628,-0.24425199627876282,-0.24515202641487122,0.022194210439920425,0.567341148853302,-0.09163659065961838,-0.08155880123376846,0.34485265612602234,-0.5499039888381958,1.1254379749298096,0.11804066598415375,-0.2418041229248047,0.3258345425128937,0.43783411383628845,0.5482744574546814,0.29857808351516724,-0.5574570894241333,0.3004487156867981,0.43585556745529175,-0.08608359843492508,0.0888749286532402,-0.317524790763855,-0.39501088857650757,-0.29874372482299805,0.371193528175354,0.20801348984241486,-0.16368700563907623,0.3203640580177307,-1.0128941535949707,-0.13075117766857147,-0.1253945678472519,0.3091326355934143,-0.11911740899085999,-0.09204843640327454,0.34836214780807495,-0.3459426462650299,0.3160068690776825,0.3788601756095886,-0.07195191830396652,1.0131373405456543,-0.9916305541992188,0.6589806079864502,0.830307126045227,-0.5592705607414246,-0.7167938947677612,-1.4910131692886353,-0.17645062506198883,-0.9643257856369019,1.274369478225708,0.5919413566589355,1.7847743034362793,-0.7422044277191162,-0.42218708992004395,0.33919641375541687,-0.5098814368247986,0.15008528530597687,-0.5386378765106201,-1.1041048765182495,0.6060274243354797,0.3328191637992859,-0.3213619887828827,0.35460135340690613,1.046388030052185,-0.3457290232181549,-0.12056668847799301,1.3160673379898071,0.41544586420059204,-0.48820412158966064,-0.8659825325012207,-0.30136168003082275,-0.38147103786468506,0.43181735277175903,2.075502634048462,0.6319355368614197,0.09626611322164536,0.17152079939842224,-0.4289676249027252,-0.15254122018814087,-0.14846409857273102,0.3523954153060913,1.9600715637207031,0.6077219247817993,-0.19654983282089233,-0.6885517835617065,0.19093123078346252,-0.217011958360672,0.3703738749027252,0.014159144833683968,-0.27857741713523865,0.05581682175397873,0.5757812857627869,0.23288732767105103,-0.10129300504922867,0.47466692328453064,-0.15176717936992645,0.22041839361190796,0.07955348491668701,-0.7494246959686279,0.4297018349170685,0.22129085659980774,-0.009027495980262756,0.3579905033111572,-1.8334091901779175,0.5260202884674072,-0.3852512538433075,1.4944698810577393,-0.01893959380686283,0.13565872609615326,0.3838123679161072,0.2008299082517624,-0.4432283937931061,-0.288549542427063,0.25733694434165955,0.14143748581409454,0.1663857102394104,-0.12507115304470062,-0.5187352299690247,-0.5024315714836121,0.2381112277507782,-0.18957501649856567,-0.12014482915401459,-0.2958810031414032,-0.036245353519916534,-0.41220104694366455,-0.0454738475382328,-0.44693857431411743,0.7604293823242188,-0.45016351342201233,1.740182638168335,-0.2273983657360077,0.0565364696085453,-0.16260728240013123,0.35326868295669556,0.48951753973960876,-0.8840565085411072,0.34017354249954224,0.4719126522541046,0.012126664631068707,0.2642563581466675,0.5930335521697998,-0.4544891119003296,0.8278583884239197,-0.2242818921804428,0.17065736651420593,-0.03318572789430618,-0.638298749923706,-0.52623450756073,-0.4828068017959595,0.18889467418193817,0.009529094211757183,0.06811556220054626,-0.7097804546356201,-0.3039780855178833,-0.5279455184936523,-0.3067414462566376,0.4092792272567749,0.46608611941337585,0.4999486207962036,0.27187708020210266,0.488332599401474,0.2488851249217987,0.06889437884092331,0.4411976933479309,-0.5265487432479858,1.413187026977539,0.470477432012558,-0.7021777033805847,0.4529707133769989,0.14390426874160767,0.3327394723892212,-0.8102266192436218,0.4830218553543091,-0.4621988832950592,0.11440353840589523,-0.04380796104669571,0.4831627607345581,0.40556997060775757,-0.2293221652507782,0.1176672875881195,0.2971581816673279,-0.17743533849716187,0.3319433927536011,-1.4712549448013306,0.4325013756752014,-0.2121545821428299,0.46904972195625305,0.14269405603408813,-0.873366117477417,0.24869434535503387,-0.29711925983428955,-0.5126951932907104,-0.3449361026287079,0.020100126042962074,-0.39389657974243164,1.794058918952942,0.4513337314128876,1.5564472675323486,-0.050380244851112366,-0.5476835370063782,-0.2523109018802643,-0.6795069575309753,0.6609588265419006,0.4239705204963684,-0.17522135376930237,-0.3628392815589905,-0.040729038417339325,-0.5631747841835022,-0.7419030666351318,-0.19318941235542297,-0.5231617093086243,0.7853989601135254,-0.6146992444992065,0.15090608596801758,0.12493148446083069,0.6852859854698181,-0.5712369084358215,0.6842759847640991,-0.06663504987955093,0.2798532247543335,0.48752865195274353,1.3079431056976318,-0.1320931315422058,0.4932398200035095,-0.4006688892841339,1.0391573905944824,0.5260091423988342,0.018994448706507683,-0.09633105993270874,0.5300052165985107,1.1474955081939697,0.04019815847277641,-0.05390947312116623,0.3771933615207672,-0.42282167077064514,-0.708385705947876,-0.856484591960907,2.3877334594726562,0.5536871552467346,0.16345739364624023,-0.21431376039981842,0.016977885738015175,1.533056616783142,-0.21021334826946259,-0.9529111385345459,-0.9035001397132874,0.015611693263053894,-0.6792162656784058,-0.4001738131046295,-0.13673019409179688,0.508240282535553,-0.011300919577479362,0.3368590176105499,-0.30595889687538147,-0.2902158498764038,0.1541004776954651,-0.23360426723957062,0.3962599039077759,-0.5692923069000244,-0.24157564342021942,1.629770040512085,0.32618966698646545,0.4239996671676636,-0.2733110189437866,-0.40133291482925415,-1.5910160541534424,-0.07668648660182953,-0.24804618954658508,0.5135566592216492,1.3408218622207642,-0.3288019597530365,-0.46084582805633545,0.37529048323631287,0.03048965334892273,-0.0836162120103836,0.3583412766456604,-0.2444872111082077,0.12213415652513504,-0.6349628567695618,0.6685371994972229,0.15063054859638214,-0.42780792713165283,0.53801029920578,0.12876398861408234,0.0056021567434072495,-0.16819778084754944,0.31677567958831787,-0.27809005975723267,-1.5286366939544678,0.4681788682937622,0.4983521103858948,-0.23011091351509094,0.3840847611427307,-0.18650726974010468,0.8298695087432861,-0.3986135721206665,0.021234534680843353,-0.08706429600715637,0.539507269859314,1.5063238143920898,0.41410860419273376,0.3218822479248047,-0.18209587037563324,0.8492646813392639,0.2280592918395996,0.5730904936790466,4.0374932289123535,-0.38035306334495544,1.2921483516693115,0.48834970593452454,0.26800039410591125,-0.04592939093708992,-1.125976324081421,-0.3843182921409607,-0.2761583626270294,-0.13634571433067322,-0.33632898330688477,0.6650516986846924,-0.40220436453819275,-0.1762440800666809,0.5565569400787354,-0.66390460729599,-0.5444849133491516,0.3469814956188202,0.09136100113391876,-0.11138425767421722,0.17653918266296387,0.26268017292022705,0.39414089918136597,-0.06250880658626556,0.30898725986480713,-0.020418094471096992,0.44799157977104187,0.48962438106536865,-0.43830758333206177,-0.2311626523733139,-0.18982771039009094,0.44146400690078735,-0.334976464509964,-0.3609710931777954,-0.5454361438751221,1.8766778707504272,0.23859421908855438,-0.6051719188690186,-0.04161123186349869,-1.3052620887756348,0.29101625084877014,-0.4244095981121063,0.3590776324272156,-0.3777163326740265,-0.07864292711019516,-0.18203410506248474,-0.7347123622894287,0.5147162675857544,-0.07986888289451599,-0.12617719173431396,0.2373686581850052,0.6933421492576599,-0.4757273495197296,0.07866983860731125,0.5696871280670166,0.12082245945930481,-0.9178834557533264,-0.6854161024093628,-0.6195042729377747,-0.30851995944976807,0.1782587468624115,0.6726003885269165,0.16631807386875153,-1.1921093463897705,-0.4527960419654846,-0.22335831820964813,-0.2034400850534439,-0.27645882964134216,0.5256356000900269,0.3220504820346832,1.724774718284607,0.9101957678794861,0.2457060068845749,-0.17040008306503296,-0.27435773611068726,-0.4959668517112732,1.22773277759552,-0.5762758851051331,0.17861992120742798,-0.675139844417572,-0.40894004702568054,0.5107253789901733,-0.5904589295387268,-0.5617586374282837,0.4678651988506317,0.38886597752571106,0.9149634838104248,0.39771780371665955,1.4866142272949219,-0.30576783418655396,0.3864792585372925,-0.12315206974744797,-0.9768473505973816,-0.003227373119443655,-0.28161105513572693,-0.5227673053741455,-1.3389430046081543,0.01967436820268631,0.5535163879394531,0.05656028538942337,0.6962071061134338,-0.49742820858955383,0.2035488337278366,0.27000677585601807,-0.03253376856446266,-0.6858147978782654,0.7229378819465637,-0.20499351620674133,0.756033182144165,0.1820584386587143,-0.06726685166358948,-0.3059776723384857,0.01582878641784191,0.25894415378570557,1.6217596530914307,-0.41397061944007874,-0.0730636790394783,0.6386147737503052,0.1924991011619568,-0.1931251883506775,0.2732127904891968,1.1669949293136597,-0.20947295427322388,-0.3004905879497528,0.3106498122215271,-0.08918127417564392,-0.2579904794692993,-0.16189445555210114,-0.021362192928791046,0.6762561798095703,-0.3726001977920532,0.5202578902244568,0.9381996989250183,1.3399285078048706,0.6507082581520081,-0.39187005162239075,-0.8549281358718872,-0.05115193873643875,0.6413171291351318,0.3375871181488037,0.10816285014152527,-0.34550344944000244,0.2836867570877075,-0.8383311033248901,-1.0504088401794434,-0.3853844404220581,0.6086758375167847,0.3638753294944763,-0.04523775726556778,-0.2986280620098114,-0.41663864254951477,0.6143130660057068,-0.18837709724903107,0.5195958614349365,0.4232942759990692,-0.4002326726913452,0.10834720730781555,1.2730140686035156,0.214468315243721,-0.6598414182662964,0.16410158574581146,-1.2067264318466187,0.13864773511886597,-0.4327659606933594,0.5463215708732605,0.2075672745704651,0.5308207273483276,-0.278828889131546,0.5803186893463135,-0.1863711029291153,0.42834994196891785,-0.17128662765026093,-0.5229118466377258,0.4840826392173767,-0.010270466096699238,0.24819476902484894,0.8248751163482666,-0.5617915391921997,-0.435425728559494,0.5930454730987549
Strategy,-0.4241964817047119,0.1530083566904068,0.289493590593338,-0.010374821722507477,-0.3271537721157074,-0.4895610809326172,-0.06879865378141403,0.2698591947555542,0.41024672985076904,0.46532106399536133,-0.20606255531311035,0.7391313910484314,-0.18247687816619873,-0.04884350672364235,0.822324275970459,-0.16769592463970184,0.2953261435031891,0.33402368426322937,-0.08911729604005814,0.07749786227941513,-0.16786222159862518,-0.25867918133735657,0.5976243019104004,-0.5659782290458679,0.44894924759864807,0.4362340271472931,-0.08972933143377304,0.8158740401268005,-0.609566867351532,0.8499419093132019,-0.1775890588760376,0.10876050591468811,1.458544373512268,0.13273493945598602,0.42432308197021484,-0.32917511463165283,-0.3852947950363159,0.21894675493240356,0.028503229841589928,-0.36273542046546936,-0.07737474143505096,0.5958619713783264,-1.0364774465560913,-0.11308475583791733,0.4514501988887787,0.29555630683898926,0.4526769816875458,-0.1585586816072464,0.03567515313625336,0.5657537579536438,0.5534215569496155,0.35993731021881104,-0.5698623061180115,-0.21511198580265045,0.5297889113426208,0.5130406618118286,-1.1555781364440918,-0.5967586040496826,-0.12762399017810822,-0.36491015553474426,-0.03352309763431549,-0.14234329760074615,-0.29628410935401917,-0.2946361303329468,1.351297378540039,0.3194836378097534,0.570094645023346,0.8467037081718445,-0.2571183145046234,0.25686633586883545,-0.262278288602829,-0.5416613817214966,-0.2070106714963913,-0.541742742061615,-0.6152145862579346,0.640958845615387,-0.38435056805610657,-8.608025550842285,0.26126840710639954,0.5966326594352722,0.3899596035480499,-0.5992372632026672,1.8004570007324219,0.7260567545890808,-0.5719813704490662,0.27210307121276855,-0.020259829238057137,0.2989078462123871,-0.707136869430542,-0.13056854903697968,0.3248519003391266,0.05726917088031769,0.5816136002540588,0.5545030236244202,-0.23999999463558197,0.7357644438743591,0.7138839364051819,-0.6458981037139893,0.09678276628255844,-0.40119361877441406,-0.03999143838882446,-0.5189135074615479,0.6823365092277527,0.32680508494377136,0.3390294015407562,-0.7083446979522705,0.40619826316833496,-0.8019443154335022,0.4469696581363678,-0.23506879806518555,0.0512358658015728,-0.5713164210319519,0.6865434050559998,0.20748551189899445,0.22117282450199127,-0.5042678713798523,0.4250328540802002,0.31487444043159485,0.059133242815732956,-0.010000742971897125,-0.8528406023979187,0.36182498931884766,-0.49265408515930176,0.9365018010139465,-0.23909468948841095,0.393292099237442,-0.05378962680697441,0.03225133195519447,0.21768975257873535,0.31257113814353943,-0.9838908314704895,-0.5766301155090332,-0.46490243077278137,0.6812198758125305,0.4882485568523407,-0.557791531085968,0.5010284185409546,0.1472960263490677,-0.534386932849884,0.41641154885292053,-0.5206215977668762,-0.5050298571586609,-0.17911730706691742,0.123842753469944,0.8204212784767151,-0.017670510336756706,0.10323270410299301,0.5892245173454285,0.3900865316390991,-0.38823914527893066,-0.8043239116668701,0.04553002491593361,1.300168514251709,-0.21130149066448212,0.0803995132446289,-1.9586535692214966,0.1594449132680893,0.25964710116386414,0.31186434626579285,-0.4408116340637207,0.34912267327308655,-0.1932615488767624,-0.022900639101862907,0.5234810709953308,0.6479053497314453,0.20295923948287964,-0.3155626356601715,-0.05053219199180603,0.20192201435565948,0.9498288631439209,-0.4960542917251587,-0.5539495348930359,-0.5718981027603149,0.01493432093411684,0.45718899369239807,0.7932021617889404,0.26983729004859924,-0.0632682666182518,-0.35738280415534973,1.1001085042953491,0.4626274108886719,-0.24925734102725983,0.3135424256324768,-0.43374451994895935,-0.44280120730400085,0.45567306876182556,-0.4398318827152252,0.6414504051208496,-0.21807940304279327,-0.2563672959804535,-0.3118393123149872,-0.29411622881889343,0.29226943850517273,0.7945483326911926,0.08673834800720215,0.11772962659597397,0.07096370309591293,0.3694762885570526,0.9899800419807434,0.17613409459590912,-0.339955598115921,0.7997069358825684,0.3607395887374878,0.4338885247707367,-0.08794837445020676,0.24943804740905762,-0.3544958531856537,0.5531646013259888,0.5925102829933167,1.2881611585617065,1.7344383001327515,-0.042684998363256454,0.17826224863529205,-0.4528459310531616,-0.7808547019958496,0.15329205989837646,-0.6469447016716003,-1.5492438077926636,-0.44867852330207825,-0.6735206246376038,-1.3919415473937988,0.2331952452659607,-0.2842000424861908,-0.2225513905286789,-0.1330210417509079,0.026951616629958153,0.318427175283432,-0.2578331530094147,-0.3309481739997864,0.5001056790351868,-0.41598501801490784,-0.3312566578388214,-0.7515299916267395,-0.14352774620056152,-0.034192901104688644,-0.3346420228481293,-0.5842636823654175,0.38867509365081787,0.4864555299282074,-0.8611733317375183,-0.03620631992816925,0.22042489051818848,0.5427653193473816,0.8536413311958313,0.11258739233016968,-0.5515078902244568,0.44640588760375977,0.33191296458244324,0.6722941398620605,0.6188611388206482,0.1889643669128418,0.38663527369499207,0.3475565016269684,-0.1359393149614334,0.14850173890590668,-0.37702274322509766,-0.21904437243938446,-0.41866835951805115,0.8682729601860046,1.8554067611694336,0.26492932438850403,0.05007241666316986,0.6860010027885437,-0.595862090587616,0.44785571098327637,0.1625286191701889,0.4291202127933502,0.3234919607639313,0.6819527745246887,0.4293046295642853,1.393630027770996,0.4014393389225006,-0.38132941722869873,0.28583914041519165,0.2517528235912323,0.20454125106334686,0.546597421169281,0.2503044009208679,-0.8980188369750977,-0.30510634183883667,-0.504155158996582,-0.5579057335853577,0.49761542677879333,-0.10806203633546829,-0.20847320556640625,-0.34562981128692627,0.18490763008594513,0.5518791675567627,-0.08451651781797409,-0.18629328906536102,0.36869969964027405,-0.5030111074447632,1.0307132005691528,0.07375810295343399,-0.2616663873195648,0.32636868953704834,0.45347943902015686,0.563098132610321,0.3099476397037506,-0.5046810507774353,0.3102624714374542,0.3411199152469635,-0.18806953728199005,0.14790703356266022,-0.36650609970092773,-0.4129890203475952,-0.40131083130836487,0.42076554894447327,0.24865923821926117,-0.1466073989868164,0.3105280101299286,-0.9789895415306091,-0.12165149301290512,-0.14394767582416534,0.3669356405735016,-0.33199748396873474,-0.14392031729221344,0.3542511463165283,-0.3812459409236908,0.3344593346118927,0.4709298610687256,-0.16739459335803986,1.0048903226852417,-0.9671142101287842,0.5986953377723694,0.7485988736152649,-0.6901844143867493,-0.8051369190216064,-1.562497615814209,-0.21246816217899323,-1.032517910003662,1.222964882850647,0.5727929472923279,1.6402796506881714,-0.6935074925422668,-0.5131868124008179,0.41993507742881775,-0.4769080579280853,0.1576540321111679,-0.5691367387771606,-1.002081036567688,0.7112226486206055,0.3369753360748291,-0.3641820251941681,0.27007821202278137,1.0469621419906616,-0.3274596035480499,0.003784283297136426,1.3292137384414673,0.41941431164741516,-0.5924473404884338,-0.8077448010444641,-0.35194405913352966,-0.4087150990962982,0.3911921977996826,1.8821367025375366,0.6194831728935242,0.0903947576880455,0.21155403554439545,-0.4185916483402252,-0.15452900528907776,-0.18103857338428497,0.3727339506149292,1.8974123001098633,0.6703994870185852,0.010649152100086212,-0.8277038931846619,0.21268832683563232,-0.22327695786952972,0.41379737854003906,-0.052935998886823654,-0.16460035741329193,0.028917523100972176,0.6104863286018372,0.24575960636138916,-0.03692074865102768,0.5739753842353821,-0.2684080898761749,0.28640949726104736,0.12603776156902313,-0.6749100089073181,0.4141371250152588,0.2690276503562927,-0.01191230583935976,0.45284077525138855,-1.7237310409545898,0.5712090134620667,-0.3838323652744293,1.4920116662979126,-0.07800499349832535,0.1679552048444748,0.4007245600223541,0.28060078620910645,-0.4366818368434906,-0.3548160493373871,0.37786003947257996,-0.052890390157699585,0.01834939233958721,-0.27669721841812134,-0.56547611951828,-0.5568941235542297,0.2153392881155014,-0.15985798835754395,0.0010273223742842674,-0.25540557503700256,0.02090013585984707,-0.23361746966838837,-0.11805194616317749,-0.4091331660747528,0.7730031609535217,-0.4186122715473175,1.6855878829956055,-0.27622899413108826,0.1431189626455307,-0.15722201764583588,0.3395874798297882,0.5816816091537476,-0.7358794212341309,0.3828318417072296,0.5300135016441345,0.15293143689632416,0.2682965099811554,0.5571745038032532,-0.4557061195373535,0.7257927060127258,-0.14293289184570312,0.23841698467731476,-0.024991629645228386,-0.5811962485313416,-0.5760577917098999,-0.5625166296958923,0.13496428728103638,0.14555878937244415,0.2103428989648819,-0.6456777453422546,-0.3793405294418335,-0.5535715222358704,-0.2341366559267044,0.45880237221717834,0.4274502694606781,0.37108442187309265,0.27620264887809753,0.48372021317481995,0.33689478039741516,0.03491612896323204,0.37642887234687805,-0.5647236704826355,1.3920809030532837,0.5913084149360657,-0.710218608379364,0.4705289602279663,0.29917261004447937,0.4152143895626068,-0.5971365571022034,0.4882300794124603,-0.5782827138900757,0.19639365375041962,-0.10720136016607285,0.523845374584198,0.5249940752983093,-0.2326737642288208,0.15999211370944977,0.3436194956302643,-0.20330314338207245,0.39477670192718506,-1.4272624254226685,0.5063517093658447,-0.2581925094127655,0.39414751529693604,0.20932899415493011,-0.8131081461906433,0.16304369270801544,-0.4322718679904938,-0.5081021785736084,-0.38441944122314453,-0.03400533273816109,-0.5367924571037292,1.674548625946045,0.42212989926338196,1.4576897621154785,-0.06203514710068703,-0.5317540168762207,-0.2635827362537384,-0.6456218361854553,0.6965045928955078,0.5016428828239441,-0.11992130428552628,-0.39005160331726074,-0.062216926366090775,-0.489239364862442,-0.7655366063117981,-0.3878297805786133,-0.5394367575645447,0.9137673377990723,-0.5973554253578186,0.12681667506694794,0.20179903507232666,0.5307172536849976,-0.607981264591217,0.6818971037864685,0.009991182945668697,0.24064874649047852,0.43275734782218933,1.3142776489257812,-0.1517406553030014,0.46182751655578613,-0.40134286880493164,1.051748275756836,0.5116622447967529,-0.07246238738298416,-0.1031990647315979,0.5117473006248474,1.1030205488204956,-0.002811986953020096,-0.09082869440317154,0.41840219497680664,-0.529164731502533,-0.6958786845207214,-0.7398491501808167,2.2666738033294678,0.5714727640151978,0.20964069664478302,-0.28764936327934265,0.0432824082672596,1.3939684629440308,-0.27794113755226135,-0.8738186359405518,-0.9816708564758301,-0.06160794571042061,-0.6629910469055176,-0.5680394768714905,-0.1320437490940094,0.4816363751888275,-0.01767154596745968,0.3288162052631378,-0.38370636105537415,-0.2888627052307129,0.15912510454654694,-0.4211826026439667,0.4508906900882721,-0.6150386929512024,-0.30300047993659973,1.570174217224121,0.32340291142463684,0.42929384112358093,-0.37481704354286194,-0.536160945892334,-1.559679388999939,-0.15378737449645996,-0.3017531931400299,0.5231912136077881,1.1694666147232056,-0.369067907333374,-0.40832090377807617,0.48689889907836914,0.008276736363768578,-0.248928502202034,0.33277061581611633,-0.20096461474895477,0.0834520161151886,-0.5980141162872314,0.8135089874267578,0.2060139775276184,-0.4822458326816559,0.5962338447570801,0.1889193058013916,-0.04864183068275452,-0.18258805572986603,0.3757798373699188,-0.3582000732421875,-1.6309642791748047,0.5033771991729736,0.4820021092891693,-0.36387643218040466,0.4308098256587982,-0.2329157441854477,0.788958728313446,-0.3675423562526703,0.07847806066274643,-0.0949893370270729,0.5274257063865662,1.4468413591384888,0.384403795003891,0.45142340660095215,-0.18030738830566406,0.8340260982513428,0.5214934945106506,0.5506961345672607,3.938156843185425,-0.43843770027160645,1.2231112718582153,0.5318027138710022,0.24228312075138092,0.013886620290577412,-1.1333445310592651,-0.3667343854904175,-0.26667436957359314,-0.20379595458507538,-0.3687587082386017,0.6868598461151123,-0.45577287673950195,-0.1723790019750595,0.4742461144924164,-0.6107324957847595,-0.6492405533790588,0.25359416007995605,0.14629729092121124,-0.13771982491016388,0.24072466790676117,0.3712221682071686,0.35193705558776855,-0.2069927453994751,0.34977826476097107,-0.04907580837607384,0.47643303871154785,0.550947904586792,-0.4668879508972168,-0.2060508280992508,-0.2403407096862793,0.5327768921852112,-0.42460882663726807,-0.44927993416786194,-0.6553584933280945,1.7299761772155762,0.43997588753700256,-0.6770818829536438,-0.013737600296735764,-1.2733145952224731,0.30384138226509094,-0.4624176025390625,0.3561507761478424,-0.37559595704078674,-0.09296303242444992,-0.12495122104883194,-0.8189907073974609,0.5180639028549194,-0.09633562713861465,-0.14398986101150513,0.24736742675304413,0.7261918187141418,-0.5450313091278076,-0.001496030599810183,0.5654227137565613,0.20866672694683075,-0.922779381275177,-0.6628355383872986,-0.6535696387290955,-0.29649439454078674,0.25962650775909424,0.8008260726928711,0.20517559349536896,-1.0557924509048462,-0.5929316878318787,-0.40797141194343567,-0.2377336472272873,-0.25390705466270447,0.5293762683868408,0.38315972685813904,1.6414438486099243,0.9548444151878357,0.3082352876663208,-0.020696809515357018,-0.20486120879650116,-0.4338059425354004,1.2606819868087769,-0.6191760301589966,0.2586437165737152,-0.5554555058479309,-0.3437204658985138,0.4315316677093506,-0.7552235722541809,-0.5456742644309998,0.5034759640693665,0.22934700548648834,0.9062726497650146,0.46631893515586853,1.457450032234192,-0.3249828517436981,0.25355640053749084,-0.17671889066696167,-0.951786994934082,0.15438129007816315,-0.16222809255123138,-0.5691903233528137,-1.2126580476760864,0.09711607545614243,0.6072835922241211,0.11094298213720322,0.6463692784309387,-0.5644411444664001,0.28452587127685547,0.19380293786525726,0.007824909873306751,-0.7158022522926331,0.6159008145332336,-0.3759872615337372,0.7812039256095886,0.11692441254854202,-0.19560982286930084,-0.22600805759429932,-0.023885225877165794,0.3684333562850952,1.6044135093688965,-0.46794256567955017,-0.051660675555467606,0.6136449575424194,0.17974098026752472,-0.11098068207502365,0.44147154688835144,1.1666847467422485,-0.3243391215801239,-0.25395074486732483,0.3272973597049713,-0.12339168787002563,-0.17352576553821564,-0.2599904239177704,-0.15227217972278595,0.6805552840232849,-0.44310519099235535,0.507718026638031,1.027694582939148,1.2597075700759888,0.6606435775756836,-0.4657687842845917,-0.8276858329772949,-0.03724054619669914,0.5754485726356506,0.3856292963027954,0.08785266429185867,-0.3683655560016632,0.3013795018196106,-0.6650269031524658,-1.0514682531356812,-0.4928724765777588,0.7075549960136414,0.2832154929637909,-0.09517860412597656,-0.4390937387943268,-0.3976617753505707,0.639855146408081,-0.4216536581516266,0.6166616082191467,0.5111649632453918,-0.4031674563884735,0.12132986634969711,1.2401617765426636,0.14007243514060974,-0.6582033634185791,0.2834063470363617,-1.4536110162734985,0.2447754591703415,-0.36124518513679504,0.7225136160850525,0.2727518081665039,0.5697616934776306,-0.24518054723739624,0.4611111879348755,-0.25149330496788025,0.37912532687187195,-0.18106018006801605,-0.45458197593688965,0.3678102195262909,-0.0022613592445850372,0.3001041114330292,0.8041651844978333,-0.6383647918701172,-0.39881086349487305,0.6682011485099792
Strategy,-0.39661532640457153,0.1657809466123581,0.3171563744544983,-0.09063201397657394,-0.19143319129943848,-0.46499547362327576,-0.09766211360692978,0.27183598279953003,0.42816248536109924,0.5113264918327332,-0.3060652017593384,0.8784731030464172,-0.14079579710960388,-0.11350474506616592,0.8856576681137085,-0.08432439714670181,0.15406587719917297,0.2574414312839508,-0.08060972392559052,0.04446467012166977,-0.16076518595218658,-0.3072369396686554,0.6317867040634155,-0.5807241797447205,0.419528067111969,0.411846399307251,-0.13788482546806335,0.8263716697692871,-0.5983165502548218,0.8053737878799438,-0.23004606366157532,0.07360068708658218,1.385491132736206,0.16729335486888885,0.46553874015808105,-0.35891857743263245,-0.36178895831108093,0.2261810302734375,-0.07294870913028717,-0.31608930230140686,-0.17447981238365173,0.5645840167999268,-0.9664602279663086,-0.13715729117393494,0.46984022855758667,0.2708699107170105,0.4431518018245697,-0.21709248423576355,0.0562630370259285,0.5246748328208923,0.5515120625495911,0.3909643590450287,-0.5120956301689148,-0.27547788619995117,0.46252113580703735,0.42211097478866577,-1.1312764883041382,-0.6383360624313354,-0.07091796398162842,-0.3643060624599457,-0.08613203465938568,-0.12740826606750488,-0.38345590233802795,-0.33511364459991455,1.3533271551132202,0.3030313551425934,0.5222458839416504,0.9042903780937195,-0.23804572224617004,0.3308867812156677,-0.2957393527030945,-0.541627049446106,-0.23082859814167023,-0.45391273498535156,-0.6265038251876831,0.7291775345802307,-0.5691390037536621,-8.515976905822754,0.2780388593673706,0.5796236395835876,0.40053725242614746,-0.6883344650268555,1.7555229663848877,0.6834505200386047,-0.6950355768203735,0.3336184322834015,-0.02310091443359852,0.3644491732120514,-0.6306215524673462,-0.10741136223077774,0.231967493891716,0.097475066781044,0.4574506878852844,0.6572824716567993,-0.27558332681655884,0.661817193031311,0.6829661726951599,-0.45096492767333984,0.06727330386638641,-0.44168272614479065,-0.10179146379232407,-0.5163887143135071,0.7312434911727905,0.4391532838344574,0.31931018829345703,-0.713346004486084,0.41158270835876465,-0.8380807638168335,0.4555889070034027,-0.3449910283088684,0.05494265630841255,-0.5229142904281616,0.7303967475891113,0.19606372714042664,0.1974075734615326,-0.46039286255836487,0.3890933394432068,0.33276113867759705,0.048265110701322556,-0.043351538479328156,-0.747957706451416,0.3399031162261963,-0.558957040309906,0.886780858039856,-0.31465381383895874,0.3927094042301178,-0.08003835380077362,0.09617267549037933,0.2577521800994873,0.2896711230278015,-0.9019911885261536,-0.5477699041366577,-0.45677313208580017,0.7175593376159668,0.42574208974838257,-0.6144243478775024,0.5108083486557007,0.2335500419139862,-0.5548422336578369,0.4251853823661804,-0.5213412642478943,-0.5978167653083801,-0.1533268690109253,0.07649015635251999,1.0607699155807495,0.009856684133410454,0.12320537865161896,0.6079866886138916,0.47417646646499634,-0.34095293283462524,-0.7146412134170532,0.02796897292137146,1.217167854309082,-0.1670089215040207,0.13482122123241425,-1.8417199850082397,0.0797213464975357,0.3066466748714447,0.24836941063404083,-0.32036253809928894,0.37385615706443787,-0.21697929501533508,-0.015348094515502453,0.5161811113357544,0.6866743564605713,0.10470028221607208,-0.4206947386264801,-0.0073938011191785336,0.2565419375896454,0.9564355611801147,-0.4433031976222992,-0.515289843082428,-0.5260332822799683,-0.008534597232937813,0.44622689485549927,0.7520120143890381,0.3620401620864868,-0.09920437633991241,-0.3284347653388977,1.0221389532089233,0.47314104437828064,-0.2363450974225998,0.2569650411605835,-0.5435049533843994,-0.43153372406959534,0.4312109351158142,-0.3356625437736511,0.6541119813919067,-0.2541425824165344,-0.18038403987884521,-0.28754234313964844,-0.34400540590286255,0.25442269444465637,0.8365985155105591,0.07853677868843079,0.10745658725500107,0.065226711332798,0.3652690649032593,0.9592593312263489,0.17492279410362244,-0.41619873046875,0.8116989135742188,0.3988935947418213,0.4175942540168762,-0.016534369438886642,0.25049978494644165,-0.3292289674282074,0.5801372528076172,0.5876453518867493,1.2047960758209229,1.710289716720581,-0.007193041034042835,0.12654085457324982,-0.4310224950313568,-0.6711292862892151,0.13532590866088867,-0.759418249130249,-1.627977967262268,-0.4706563949584961,-0.6842748522758484,-1.3504891395568848,0.237745001912117,-0.34084054827690125,-0.2081587314605713,-0.09465412050485611,0.013557778671383858,0.37545207142829895,-0.2851925790309906,-0.3438737392425537,0.4221736788749695,-0.33635178208351135,-0.3469090461730957,-0.8412124514579773,-0.18224628269672394,-0.05754585191607475,-0.3760406970977783,-0.6033004522323608,0.3907715678215027,0.4494251608848572,-0.840781033039093,-0.16098937392234802,0.23184403777122498,0.6084493398666382,0.9701414108276367,0.11252458393573761,-0.6886798143386841,0.42923036217689514,0.23071160912513733,0.7308960556983948,0.5973985195159912,0.18921984732151031,0.3446178734302521,0.3586425483226776,-0.20395724475383759,0.14651866257190704,-0.4141927659511566,-0.20662781596183777,-0.4649650454521179,0.8855527639389038,1.7225048542022705,0.227305606007576,0.010071461088955402,0.6429939866065979,-0.5630318522453308,0.5136440396308899,0.015374874696135521,0.4109739661216736,0.3633458614349365,0.7243818044662476,0.3328291177749634,1.3498362302780151,0.4268914759159088,-0.34882861375808716,0.26334255933761597,0.21018405258655548,0.22897978127002716,0.3528595566749573,0.2363760769367218,-0.8425995111465454,-0.37084054946899414,-0.488741010427475,-0.5422183871269226,0.49058422446250916,-0.11143364012241364,-0.2332397699356079,-0.3235778212547302,0.1287292093038559,0.5962705016136169,-0.07626273483037949,-0.16563062369823456,0.3027813732624054,-0.46212539076805115,0.9266366958618164,0.051649369299411774,-0.2603994905948639,0.340636283159256,0.4730396866798401,0.6056903600692749,0.3872565031051636,-0.6734234094619751,0.39415520429611206,0.4525735378265381,-0.17806771397590637,0.07334896922111511,-0.3687147796154022,-0.4636625349521637,-0.2706868052482605,0.39587563276290894,0.16092272102832794,-0.18832388520240784,0.38611358404159546,-0.947494626045227,-0.1459989696741104,-0.14804379642009735,0.3108329176902771,-0.4036995470523834,-0.18572242558002472,0.30246445536613464,-0.3254292607307434,0.4155949652194977,0.46475547552108765,-0.16839411854743958,0.9718224406242371,-0.9712560772895813,0.6417050957679749,0.6781599521636963,-0.650543212890625,-0.8589920997619629,-1.4745452404022217,-0.17911800742149353,-1.0537530183792114,1.1804513931274414,0.6394805908203125,1.4878623485565186,-0.5965273380279541,-0.48849400877952576,0.33875274658203125,-0.5391259789466858,0.0940728485584259,-0.54468834400177,-1.0124077796936035,0.7359730005264282,0.29024431109428406,-0.2829194962978363,0.3289816677570343,0.993111789226532,-0.3704703152179718,0.010430941358208656,1.3123822212219238,0.4807456135749817,-0.5857251882553101,-0.7905716896057129,-0.3319389820098877,-0.38386955857276917,0.4296436905860901,1.936322808265686,0.6437094807624817,0.07201829552650452,0.164652481675148,-0.48761630058288574,-0.1582769900560379,-0.31102412939071655,0.3969365060329437,1.8206043243408203,0.620003342628479,0.07965534925460815,-0.6629846692085266,0.13625755906105042,-0.2981847822666168,0.4230554699897766,-0.07445651292800903,-0.20956365764141083,0.07210362702608109,0.6342090964317322,0.1895143687725067,-0.11572775989770889,0.605634331703186,-0.25804638862609863,0.24711477756500244,0.1211014986038208,-0.6160320043563843,0.41353005170822144,0.28162509202957153,-0.02712409757077694,0.5017347931861877,-1.724646806716919,0.5845571756362915,-0.37179264426231384,1.433720350265503,-0.04210079461336136,0.2557390332221985,0.44254446029663086,0.27502119541168213,-0.437689870595932,-0.32227572798728943,0.3399052619934082,0.04277361184358597,-0.005728195421397686,-0.17019617557525635,-0.5161482691764832,-0.6095231175422668,0.21703164279460907,-0.115875743329525,-0.12184057384729385,-0.2782178223133087,0.19690535962581635,-0.37306302785873413,-0.16567440330982208,-0.49482613801956177,0.7983224391937256,-0.4042886793613434,1.6037437915802002,-0.24369283020496368,0.21149854362010956,-0.23084743320941925,0.32458776235580444,0.4284819960594177,-0.8523570895195007,0.4141334593296051,0.5653401613235474,0.1824447214603424,0.30776190757751465,0.5085920095443726,-0.49548429250717163,0.8394571542739868,-0.20186260342597961,0.22705534100532532,-0.018222857266664505,-0.5756118297576904,-0.5877641439437866,-0.5136221647262573,0.14342960715293884,0.0804741159081459,0.11354458332061768,-0.6433826684951782,-0.3321976363658905,-0.5527312159538269,-0.22422270476818085,0.448976993560791,0.4668930172920227,0.3732219338417053,0.2817089259624481,0.4747735857963562,0.24199306964874268,0.09429223835468292,0.40040653944015503,-0.6675735712051392,1.3637442588806152,0.4909328520298004,-0.6617808938026428,0.3924819827079773,0.23921999335289001,0.37045735120773315,-0.32934239506721497,0.49178948998451233,-0.5604307651519775,0.2623569667339325,-0.01177319698035717,0.6099406480789185,0.43629661202430725,-0.2665124237537384,0.11118568480014801,0.34686174988746643,-0.23144464194774628,0.3437027931213379,-1.4090054035186768,0.5914821028709412,-0.2341071367263794,0.3687317967414856,0.28342387080192566,-0.8093236088752747,0.17603278160095215,-0.4498715400695801,-0.5251709818840027,-0.3915306031703949,-0.0378270260989666,-0.5627306699752808,1.6711738109588623,0.4156463146209717,1.427660584449768,-0.047384731471538544,-0.6356049180030823,-0.2511122524738312,-0.5986233949661255,0.6906474828720093,0.5471698045730591,-0.03651384636759758,-0.37680482864379883,-0.003807262983173132,-0.43327417969703674,-0.7641094923019409,-0.4043458104133606,-0.5542367100715637,0.9350377321243286,-0.6242619752883911,0.05441354587674141,0.34212929010391235,0.5794129371643066,-0.6324843764305115,0.6111408472061157,0.002981392201036215,0.24632401764392853,0.4381217956542969,1.2780908346176147,-0.15165621042251587,0.47439223527908325,-0.36737024784088135,0.9845911264419556,0.5162819623947144,-0.03162417933344841,-0.120258629322052,0.48374247550964355,1.0544545650482178,0.016331389546394348,-0.049599383026361465,0.40039563179016113,-0.5054956674575806,-0.7489786148071289,-0.731248140335083,2.099210262298584,0.525137186050415,0.21220120787620544,-0.26086726784706116,0.05732041597366333,1.3934671878814697,-0.26340460777282715,-0.797470211982727,-0.9679447412490845,-0.00913085974752903,-0.684118390083313,-0.6075271964073181,-0.1265011429786682,0.4997658133506775,-0.05020226165652275,0.4073474407196045,-0.3360203504562378,-0.26185595989227295,0.2795177400112152,-0.2700701355934143,0.5094519853591919,-0.8056963086128235,-0.3177545368671417,1.5560369491577148,0.3016974925994873,0.3926975727081299,-0.3447122573852539,-0.529880702495575,-1.4627660512924194,-0.14080362021923065,-0.2907099723815918,0.5921627879142761,1.3363559246063232,-0.3394099771976471,-0.40959063172340393,0.4957272410392761,0.08859343826770782,-0.20414111018180847,0.3040402829647064,-0.16233815252780914,0.04699437692761421,-0.5895323753356934,0.9994810223579407,0.17945429682731628,-0.4618074297904968,0.5330939292907715,0.18035957217216492,0.004912983626127243,-0.21182005107402802,0.3960873782634735,-0.3011326789855957,-1.4827852249145508,0.49544692039489746,0.5084611177444458,-0.2860896587371826,0.5059398412704468,-0.23477725684642792,0.8043540120124817,-0.40481191873550415,0.07138694822788239,-0.12635989487171173,0.5526337623596191,1.3635324239730835,0.4183424115180969,0.4399150311946869,-0.1888076364994049,0.9264952540397644,0.42034631967544556,0.6078869700431824,4.205767631530762,-0.4509763717651367,1.247044324874878,0.5687646865844727,0.2823750376701355,0.006998680531978607,-1.1002012491226196,-0.386719286441803,-0.2518945634365082,-0.14639142155647278,-0.4075339734554291,0.7045339941978455,-0.4589880406856537,-0.1601194590330124,0.4171868860721588,-0.6637503504753113,-0.6610242128372192,0.20477238297462463,0.140652135014534,-0.18553966283798218,0.2692067325115204,0.4319799840450287,0.31759122014045715,-0.17895245552062988,0.30125975608825684,-0.03524070978164673,0.48857468366622925,0.49982166290283203,-0.43043026328086853,-0.13027773797512054,-0.18200692534446716,0.5849534273147583,-0.41453298926353455,-0.46362051367759705,-0.6596618890762329,1.6353222131729126,0.5331799983978271,-0.664115309715271,-0.05378025025129318,-1.1678215265274048,0.31469446420669556,-0.5188305377960205,0.3432145118713379,-0.2580114006996155,-0.15641756355762482,-0.15007081627845764,-0.7384206056594849,0.4645449221134186,-0.1324254721403122,-0.13214121758937836,0.21790044009685516,0.6704875826835632,-0.49341750144958496,-0.004735437221825123,0.6085494756698608,0.2708576023578644,-0.9183250665664673,-0.658094048500061,-0.657059371471405,-0.22192414104938507,0.2811829447746277,0.7797081470489502,0.15741688013076782,-1.0005967617034912,-0.7180530428886414,-0.3656262755393982,-0.19956503808498383,-0.23416487872600555,0.5950121879577637,0.41493576765060425,1.6495412588119507,0.9563945531845093,0.3494139313697815,0.045313410460948944,-0.18817859888076782,-0.4752656817436218,1.3002729415893555,-0.6535714268684387,0.30381256341934204,-0.524748682975769,-0.3157525360584259,0.4458542764186859,-0.676396906375885,-0.5861040353775024,0.4049762189388275,0.2804757058620453,0.9378479719161987,0.4928709864616394,1.3990004062652588,-0.31042712926864624,0.2863662540912628,-0.17333920300006866,-0.9111977815628052,0.10202997922897339,-0.16591498255729675,-0.5642293691635132,-1.1611464023590088,0.07779479771852493,0.6354395747184753,0.07181695848703384,0.6225565671920776,-0.6046558618545532,0.2285129576921463,0.18645548820495605,0.03151591122150421,-0.6341256499290466,0.6716408729553223,-0.3233814835548401,0.7823079824447632,0.18042780458927155,-0.1764032542705536,-0.23610720038414001,-0.04307389631867409,0.394849956035614,1.604219675064087,-0.44638118147850037,-0.025158032774925232,0.6365441083908081,0.18094220757484436,-0.27675583958625793,0.3096635341644287,1.1138726472854614,-0.31579193472862244,-0.23537881672382355,0.3156103491783142,-0.08923742920160294,-0.16942337155342102,-0.23872379958629608,-0.20549564063549042,0.7468320727348328,-0.5677050352096558,0.5574518442153931,1.1051448583602905,1.240561604499817,0.6422633528709412,-0.49051111936569214,-0.7547569274902344,0.025938119739294052,0.591972291469574,0.3956770896911621,0.03851834684610367,-0.45360684394836426,0.35398030281066895,-0.7007092237472534,-0.9553090929985046,-0.418018102645874,0.7361578345298767,0.37271565198898315,-0.04201933741569519,-0.46306854486465454,-0.3198135197162628,0.5758281946182251,-0.33154624700546265,0.5919586420059204,0.5659917593002319,-0.4385210871696472,0.12279331684112549,1.1441020965576172,0.15172401070594788,-0.6082491278648376,0.2186501920223236,-1.3732080459594727,0.2101573497056961,-0.49880462884902954,0.7924872636795044,0.2523387372493744,0.5821405649185181,-0.2616679072380066,0.5698744654655457,-0.1893111914396286,0.44729065895080566,-0.17063631117343903,-0.5470370054244995,0.3566487431526184,0.04459509998559952,0.28521448373794556,0.7658392786979675,-0.6402994990348816,-0.4504091739654541,0.7254302501678467
Strategy,-0.3338536024093628,0.19077904522418976,0.2286367416381836,-0.04386891797184944,-0.2843947112560272,-0.4352707862854004,-0.11499360203742981,0.1884423941373825,0.3999378979206085,0.4310826361179352,-0.16082312166690826,0.8689489364624023,-0.12508875131607056,-0.04854762181639671,0.9086412787437439,-0.01001706812530756,0.20613431930541992,0.19951021671295166,0.012523139826953411,0.036403123289346695,-0.14808900654315948,-0.25089091062545776,0.6085426211357117,-0.5238214135169983,0.431136816740036,0.2996567189693451,-0.00070154172135517,0.7925338745117188,-0.5425242781639099,0.761232852935791,-0.17241638898849487,-0.018048325553536415,1.5231022834777832,0.05586231127381325,0.4319544732570648,-0.3192974925041199,-0.3167174756526947,0.2517179548740387,-0.046086978167295456,-0.31231674551963806,-0.10921138525009155,0.661284863948822,-1.0549556016921997,-0.13471512496471405,0.48763060569763184,0.2148304581642151,0.34524083137512207,-0.12915703654289246,0.03833102807402611,0.5032681822776794,0.46813687682151794,0.34300538897514343,-0.5415733456611633,-0.22664617002010345,0.354243665933609,0.4401005506515503,-1.1070352792739868,-0.5740084052085876,-0.12016860395669937,-0.27728763222694397,-0.12879538536071777,-0.12738648056983948,-0.26664552092552185,-0.33326056599617004,1.4489326477050781,0.2479768991470337,0.5219432711601257,0.8346940875053406,-0.18597115576267242,0.21602767705917358,-0.2406943291425705,-0.4073469340801239,-0.20098769664764404,-0.507157027721405,-0.6409862637519836,0.6471201777458191,-0.35192906856536865,-8.27475643157959,0.23483149707317352,0.5659935474395752,0.39697694778442383,-0.5925856232643127,1.6839357614517212,0.6607484817504883,-0.47696879506111145,0.06872216612100601,-0.023678362369537354,0.15985269844532013,-0.6627504825592041,-0.05718889832496643,0.23772543668746948,0.06786325573921204,0.5739553570747375,0.49325358867645264,-0.19922862946987152,0.7329893708229065,0.6458544135093689,-0.4379288852214813,0.06969013065099716,-0.32440921664237976,0.023167401552200317,-0.5358826518058777,0.5710727572441101,0.28824517130851746,0.3268713355064392,-0.5909996628761292,0.4794106185436249,-0.6993107795715332,0.3945138156414032,-0.2353201061487198,0.09852635860443115,-0.5374673008918762,0.5967649221420288,0.15658843517303467,0.16765934228897095,-0.44371065497398376,0.3855360746383667,0.33660686016082764,-0.042765866965055466,0.005640874151140451,-0.8881532549858093,0.34348568320274353,-0.5922992825508118,0.894665539264679,-0.32427978515625,0.34705600142478943,-0.12701904773712158,0.045194223523139954,0.2161950320005417,0.2750222086906433,-1.0257223844528198,-0.5109468102455139,-0.324929416179657,0.6161423325538635,0.36450299620628357,-0.5077562928199768,0.3812304735183716,0.1839655637741089,-0.4447767734527588,0.3992680013179779,-0.5262396931648254,-0.47134876251220703,-0.11296433210372925,0.13474707305431366,0.8681178092956543,0.03879513964056969,0.14720726013183594,0.5555533766746521,0.3807133734226227,-0.3455929756164551,-0.7240273952484131,0.09236761182546616,1.2986747026443481,-0.21961845457553864,0.09721115976572037,-1.9476089477539062,0.14044491946697235,0.21490471065044403,0.22048862278461456,-0.3478405773639679,0.3709059953689575,-0.20519274473190308,-0.019658870995044708,0.48785480856895447,0.5937232375144958,0.13671059906482697,-0.3415982723236084,-0.10273104906082153,0.08769666403532028,0.8529486656188965,-0.46741771697998047,-0.4788835346698761,-0.5960698127746582,0.042753953486680984,0.3440225422382355,0.660369336605072,0.3380833864212036,-0.047970205545425415,-0.25178611278533936,1.1309077739715576,0.42556309700012207,-0.24078573286533356,0.18875688314437866,-0.4523376524448395,-0.439593642950058,0.31496462225914,-0.36664947867393494,0.5578542351722717,-0.15660300850868225,-0.1818092316389084,-0.34148409962654114,-0.2987825572490692,0.3239525258541107,0.6209504008293152,0.089878149330616,0.04349089041352272,0.13917110860347748,0.31863534450531006,1.0282381772994995,0.14020726084709167,-0.27934762835502625,0.6874516606330872,0.23805224895477295,0.3897288143634796,-0.017265617847442627,0.2391870617866516,-0.31365829706192017,0.5342730283737183,0.5404068827629089,1.2347955703735352,1.7704564332962036,-0.062328021973371506,0.1935322880744934,-0.35673001408576965,-0.7321929931640625,0.21406243741512299,-0.732517659664154,-1.3303146362304688,-0.5144928097724915,-0.6039962768554688,-1.4230672121047974,0.2606361508369446,-0.25132209062576294,-0.13607215881347656,-0.10882579535245895,0.10400358587503433,0.2912011742591858,-0.24167050421237946,-0.3365963399410248,0.29998159408569336,-0.3365897834300995,-0.30056554079055786,-0.5747140049934387,-0.12557542324066162,-0.06519823521375656,-0.36552461981773376,-0.5504084229469299,0.3943110704421997,0.40712717175483704,-0.9491320252418518,-0.20851005613803864,0.1744338721036911,0.5817071795463562,0.8975975513458252,0.14078614115715027,-0.7317138314247131,0.3621971309185028,0.5270480513572693,0.6750832200050354,0.5733712315559387,0.1562437117099762,0.30960533022880554,0.25547149777412415,-0.09641430526971817,0.18815426528453827,-0.40378352999687195,-0.22538621723651886,-0.40898823738098145,0.6174807548522949,1.9104875326156616,0.1905769258737564,0.1500035971403122,0.5738374590873718,-0.6325355768203735,0.41080817580223083,-0.044521402567625046,0.2932196259498596,0.27582189440727234,0.6797634959220886,0.3549700677394867,1.4550615549087524,0.40939030051231384,-0.21552103757858276,0.20316475629806519,0.1726170778274536,0.18686456978321075,0.40299007296562195,0.1565498411655426,-0.8785036206245422,-0.32542547583580017,-0.3744862377643585,-0.43507516384124756,0.37932252883911133,-0.09775613993406296,-0.23079244792461395,-0.25091448426246643,0.08935258537530899,0.4696606695652008,-0.11219710856676102,-0.1725616455078125,0.358047753572464,-0.5660971999168396,0.9760422706604004,0.05147692561149597,-0.26099202036857605,0.27675318717956543,0.44525256752967834,0.6127017140388489,0.29506638646125793,-0.48719322681427,0.2925576865673065,0.4411349594593048,-0.153439000248909,0.06234216317534447,-0.3519062101840973,-0.36258193850517273,-0.40182986855506897,0.39843466877937317,0.1686338186264038,-0.09217851608991623,0.32507190108299255,-0.9725890755653381,-0.09328172355890274,-0.15293507277965546,0.3372451066970825,-0.3396064043045044,-0.11264890432357788,0.3581976592540741,-0.2560136020183563,0.2876770496368408,0.39869293570518494,-0.190419003367424,0.9765343070030212,-0.9935405254364014,0.599591076374054,0.7092296481132507,-0.634059488773346,-0.6956110596656799,-1.4783530235290527,-0.07765460759401321,-0.8064673542976379,1.053992509841919,0.5552109479904175,1.5678086280822754,-0.6819324493408203,-0.41789308190345764,0.41374897956848145,-0.5250044465065002,0.15885192155838013,-0.52797931432724,-1.0173722505569458,0.6010803580284119,0.19721458852291107,-0.30986493825912476,0.29130929708480835,1.0894126892089844,-0.34788188338279724,-0.09868840128183365,1.3423222303390503,0.44871723651885986,-0.5681169033050537,-0.7966556549072266,-0.2994855046272278,-0.3900074064731598,0.3080393075942993,2.0122976303100586,0.5395722389221191,0.13045193254947662,0.06536483019590378,-0.49386611580848694,-0.04387878254055977,-0.29843929409980774,0.3766026496887207,1.9456830024719238,0.6253049969673157,-0.004858082626014948,-0.7876267433166504,0.17028844356536865,-0.2302699089050293,0.4017462432384491,0.010975311510264874,-0.23258136212825775,0.08835043758153915,0.590350866317749,0.24671150743961334,-0.1069256067276001,0.5401579737663269,-0.2335534244775772,0.2551720440387726,0.13763992488384247,-0.7431180477142334,0.36981260776519775,0.26620009541511536,0.006137574557214975,0.3345537483692169,-1.8569046258926392,0.5192613005638123,-0.32358449697494507,1.4318093061447144,-0.023762555792927742,0.1842660754919052,0.3238559663295746,0.3179442286491394,-0.45925918221473694,-0.2518738806247711,0.3231477737426758,-0.027418652549386024,0.24695192277431488,-0.13915598392486572,-0.4994088113307953,-0.48463964462280273,0.1554051786661148,-0.11317703872919083,-0.013053104281425476,-0.27176791429519653,0.05360448360443115,-0.3776428699493408,-0.14701861143112183,-0.3843279182910919,0.802867591381073,-0.4997151792049408,1.6119872331619263,-0.2708757817745209,0.17620164155960083,-0.10002505034208298,0.2468024492263794,0.50127112865448,-0.8450444340705872,0.31654366850852966,0.580181360244751,0.15065482258796692,0.27646419405937195,0.5492745041847229,-0.3893987834453583,0.7636613845825195,-0.12575535476207733,0.22281081974506378,-0.05903847515583038,-0.5459476113319397,-0.5075423121452332,-0.4981776475906372,0.11980117112398148,0.16821104288101196,0.18545001745224,-0.686185359954834,-0.2803759276866913,-0.4718417823314667,-0.23855097591876984,0.4837779700756073,0.40601837635040283,0.35963311791419983,0.27988335490226746,0.4230149984359741,0.2682349383831024,0.020811552181839943,0.43894922733306885,-0.5028207302093506,1.392994999885559,0.43961140513420105,-0.5435314178466797,0.2952168881893158,0.22352905571460724,0.3211192190647125,-0.29574865102767944,0.5151206851005554,-0.5138841271400452,0.22867703437805176,-0.044909730553627014,0.5108410120010376,0.4547698497772217,-0.20139461755752563,0.05482633039355278,0.3412829339504242,-0.18001331388950348,0.3565026819705963,-1.4617139101028442,0.5384421944618225,-0.22383104264736176,0.37409237027168274,0.1604887843132019,-0.8794441819190979,0.19191008806228638,-0.303926557302475,-0.4986068308353424,-0.341105580329895,-0.016307784244418144,-0.48817482590675354,1.66396963596344,0.3988509178161621,1.5751147270202637,-0.02835492603480816,-0.5294946432113647,-0.1883685141801834,-0.6421367526054382,0.5847119688987732,0.4926581084728241,-0.04493919014930725,-0.27825912833213806,-0.01690850779414177,-0.5074969530105591,-0.5826602578163147,-0.2642707824707031,-0.44822070002555847,0.7805745601654053,-0.5699296593666077,0.0919809341430664,0.13880886137485504,0.5208773612976074,-0.6472593545913696,0.6982153058052063,-0.010142948478460312,0.28727853298187256,0.34784042835235596,1.443092703819275,-0.148650124669075,0.531168520450592,-0.3658522069454193,1.00468909740448,0.47630736231803894,-0.03327278420329094,-0.136546328663826,0.4128018617630005,1.160609483718872,0.06426545977592468,-0.022523129358887672,0.42627349495887756,-0.448350191116333,-0.664685070514679,-0.5657491087913513,2.243699789047241,0.546953022480011,0.28364256024360657,-0.21046066284179688,0.10908462852239609,1.487514853477478,-0.2256568819284439,-0.9049283862113953,-0.9969193935394287,0.013806558214128017,-0.5908603072166443,-0.4763668477535248,-0.11572602391242981,0.39033588767051697,-0.0038520086091011763,0.3633776903152466,-0.29553380608558655,-0.3334350883960724,0.1565827578306198,-0.31297802925109863,0.37076297402381897,-0.6641808748245239,-0.27068254351615906,1.51494562625885,0.2314479500055313,0.33878186345100403,-0.24819034337997437,-0.3537469208240509,-1.5244812965393066,-0.12562091648578644,-0.20759201049804688,0.5237963795661926,1.015720009803772,-0.3848203122615814,-0.4376945197582245,0.4616614282131195,0.021950164809823036,-0.11416695266962051,0.2728778123855591,-0.2325907200574875,0.11476123332977295,-0.5157827138900757,0.7640866637229919,0.1295478641986847,-0.47705650329589844,0.46911776065826416,0.20098602771759033,-0.08012426644563675,-0.23096321523189545,0.352622389793396,-0.28980860114097595,-1.7389479875564575,0.5161525011062622,0.37181195616722107,-0.2949540615081787,0.4385012090206146,-0.1316114217042923,0.8025028109550476,-0.35747072100639343,0.0637660026550293,-0.07277812063694,0.5051709413528442,1.4637902975082397,0.3580133020877838,0.38657426834106445,-0.13022564351558685,0.8143022060394287,0.375528484582901,0.6458571553230286,4.814384937286377,-0.43856680393218994,1.236383080482483,0.4996997117996216,0.32002851366996765,-0.004492905456572771,-1.153427243232727,-0.4243360757827759,-0.18920959532260895,-0.19435147941112518,-0.32981109619140625,0.54876309633255,-0.4167000353336334,-0.1798914670944214,0.5102355480194092,-0.544157087802887,-0.631923496723175,0.3238067030906677,0.029503116384148598,-0.15196852385997772,0.19746547937393188,0.34505245089530945,0.421737402677536,-0.08432938903570175,0.33780601620674133,-0.061496976763010025,0.43242916464805603,0.4729797840118408,-0.38865646719932556,-0.10869595408439636,-0.11352627724409103,0.49294808506965637,-0.3893998861312866,-0.4080045521259308,-0.5922713875770569,1.597561240196228,0.398966521024704,-0.6077832579612732,-0.07119397819042206,-1.2434277534484863,0.3078371584415436,-0.6111137866973877,0.31060174107551575,-0.32020917534828186,-0.052245426923036575,-0.14441709220409393,-0.6912307739257812,0.48040571808815,-0.1058211401104927,-0.073148213326931,0.2581422030925751,0.728685200214386,-0.4024917781352997,-0.0583437979221344,0.5627190470695496,0.1998484581708908,-0.9499347805976868,-0.6119316816329956,-0.7363491654396057,-0.29906347393989563,0.21184878051280975,0.7001509666442871,0.16701985895633698,-1.087180256843567,-0.555038332939148,-0.257617712020874,-0.19849491119384766,-0.22136211395263672,0.49054989218711853,0.4178086519241333,1.8139190673828125,0.9424540400505066,0.31638872623443604,0.09157975763082504,-0.2580063045024872,-0.3869977295398712,1.2892451286315918,-0.615161657333374,0.31109488010406494,-0.6471998691558838,-0.3123112618923187,0.3554236590862274,-0.5613788962364197,-0.5599991083145142,0.1117192879319191,0.26798614859580994,0.9018257260322571,0.37791407108306885,1.4597171545028687,-0.2979504466056824,0.22959929704666138,-0.19652654230594635,-0.9933977127075195,0.08587169647216797,-0.1797863394021988,-0.45121338963508606,-1.3120994567871094,0.03152001276612282,0.5234554409980774,0.10408768802881241,0.4793528616428375,-0.47214630246162415,0.19698242843151093,0.17554610967636108,-0.03559619188308716,-0.7607307434082031,0.5712499022483826,-0.30655887722969055,0.7263960242271423,0.07829093188047409,-0.1955094188451767,-0.20729364454746246,0.07646836340427399,0.26726722717285156,1.6953181028366089,-0.41686347126960754,-0.049373164772987366,0.548563539981842,0.19768160581588745,-0.20582570135593414,0.339319109916687,1.1427148580551147,-0.3077668845653534,-0.21548457443714142,0.2525249421596527,-0.05819008871912956,-0.18588918447494507,-0.18731196224689484,-0.06962477415800095,0.743121325969696,-0.4272117614746094,0.4575670659542084,0.8337928652763367,1.307265281677246,0.581387460231781,-0.442381888628006,-0.8513152599334717,-0.031598713248968124,0.5283568501472473,0.2685522735118866,0.0844813883304596,-0.2844485938549042,0.3422529995441437,-0.5884868502616882,-0.9918925166130066,-0.4318610727787018,0.6659110188484192,0.25755101442337036,-0.03957972303032875,-0.35052964091300964,-0.38236692547798157,0.6178417205810547,-0.22179637849330902,0.4810849726200104,0.46250593662261963,-0.37451788783073425,0.12100409716367722,1.1910933256149292,0.1884252279996872,-0.5981786847114563,0.28181585669517517,-1.5233248472213745,0.20279479026794434,-0.4062325060367584,0.7004687190055847,0.18816299736499786,0.4951668679714203,-0.2159706950187683,0.49531427025794983,-0.19869564473628998,0.44361400604248047,-0.21831931173801422,-0.47092339396476746,0.42434072494506836,-0.05111053213477135,0.23973019421100616,0.6552113890647888,-0.35646334290504456,-0.4626021385192871,0.6064482927322388
Strategy,-0.397051602602005,0.20995193719863892,0.262061208486557,-0.13014858961105347,-0.2773233652114868,-0.567315399646759,-0.06717515736818314,0.19806988537311554,0.4705597460269928,0.46027278900146484,-0.11983910948038101,0.7902421951293945,-0.13365629315376282,-0.06488079577684402,0.9270070195198059,-0.07424353808164597,0.32351675629615784,0.2773855924606323,0.05308770015835762,-0.09280797839164734,-0.16523391008377075,-0.3407072126865387,0.7174897789955139,-0.5890806317329407,0.4830132722854614,0.4085506498813629,-0.03096841275691986,0.769533634185791,-0.5333420634269714,0.7820325493812561,-0.23620378971099854,0.030606424435973167,1.4827038049697876,0.15596982836723328,0.36974844336509705,-0.36185622215270996,-0.3561181128025055,0.24794746935367584,-0.002768046222627163,-0.36666548252105713,0.0023074261844158173,0.7671952247619629,-0.9384257197380066,-0.15670140087604523,0.4882327616214752,0.271064430475235,0.3113095462322235,-0.11368385702371597,0.03438273072242737,0.5069969892501831,0.5379624366760254,0.3611142933368683,-0.5339156985282898,-0.18233180046081543,0.41534605622291565,0.488417387008667,-1.0946571826934814,-0.5113140940666199,-0.19049423933029175,-0.33948516845703125,-0.038733918219804764,-0.12638966739177704,-0.23714326322078705,-0.3564280569553375,1.3503965139389038,0.23759596049785614,0.5678048729896545,0.9235044121742249,-0.21382547914981842,0.3426765501499176,-0.2845987379550934,-0.5628689527511597,-0.21658827364444733,-0.5128478407859802,-0.657376766204834,0.6636411547660828,-0.49497923254966736,-8.420720100402832,0.272365003824234,0.6373956799507141,0.3511706590652466,-0.6312885284423828,1.8753246068954468,0.7049463391304016,-0.605536699295044,0.1669464260339737,-0.06703046709299088,0.3064117729663849,-0.579099714756012,-0.007653806824237108,0.1969425082206726,0.06382986903190613,0.5321493744850159,0.6584498286247253,-0.23897825181484222,0.6654969453811646,0.6234692335128784,-0.42174431681632996,0.09354144334793091,-0.34676334261894226,-0.02544368989765644,-0.5128404498100281,0.7015280723571777,0.35007357597351074,0.3101910650730133,-0.6457968354225159,0.492737740278244,-0.7622767090797424,0.4142089784145355,-0.25414037704467773,0.08247315883636475,-0.5910037755966187,0.6955034732818604,0.22210808098316193,0.15343382954597473,-0.4400334656238556,0.3494375944137573,0.3265877664089203,0.016364986076951027,-0.059552211314439774,-0.8061363101005554,0.36914297938346863,-0.5889000296592712,0.8439727425575256,-0.3272956907749176,0.3606184720993042,-0.13625095784664154,0.13506527245044708,0.22800135612487793,0.2132640928030014,-0.9726738929748535,-0.651317298412323,-0.35766637325286865,0.743445634841919,0.37833690643310547,-0.6058323979377747,0.4681291878223419,0.15364432334899902,-0.5433333516120911,0.4003511965274811,-0.5110023021697998,-0.5635676383972168,-0.1289324313402176,0.033475909382104874,0.9653783440589905,-0.04189703240990639,0.10725372284650803,0.5612677931785583,0.37914934754371643,-0.39263346791267395,-0.7476207613945007,0.056044939905405045,1.294744610786438,-0.19725219905376434,0.0988268181681633,-1.9928268194198608,0.1666126400232315,0.25245869159698486,0.22359763085842133,-0.3069184720516205,0.4137817323207855,-0.181688129901886,-0.06822366267442703,0.5356093049049377,0.6626667976379395,0.08357556909322739,-0.33387717604637146,-0.08832351118326187,0.15502209961414337,0.9739299416542053,-0.4898267686367035,-0.49517011642456055,-0.5733975768089294,-0.05664199963212013,0.3515831530094147,0.7461978793144226,0.35236334800720215,-0.15890157222747803,-0.30370673537254333,1.0878819227218628,0.3195491135120392,-0.26324114203453064,0.17943519353866577,-0.5608766674995422,-0.49832889437675476,0.3753242790699005,-0.3668197691440582,0.6383625864982605,-0.26443949341773987,-0.16305644810199738,-0.2663172781467438,-0.28931641578674316,0.31483832001686096,0.7051337361335754,0.07302308827638626,0.24052011966705322,0.07784384489059448,0.327034056186676,0.9756853580474854,0.18902207911014557,-0.38478001952171326,0.768928587436676,0.3248743414878845,0.3993018567562103,-0.01650160364806652,0.27029892802238464,-0.3181970715522766,0.5506779551506042,0.5536230802536011,1.2184653282165527,1.719962477684021,0.10825329273939133,0.12882234156131744,-0.35097989439964294,-0.58758145570755,0.15762168169021606,-0.7180665135383606,-1.5336103439331055,-0.5584136843681335,-0.637745201587677,-1.3699007034301758,0.2938447892665863,-0.3532085418701172,-0.14815552532672882,-0.1762567162513733,-0.008186683990061283,0.33070123195648193,-0.2477426528930664,-0.3646770715713501,0.3820704221725464,-0.3405192196369171,-0.34440574049949646,-0.6455824971199036,-0.1433655172586441,-0.0742155909538269,-0.3861922025680542,-0.6180054545402527,0.38920655846595764,0.4189622700214386,-0.8964491486549377,-0.12627317011356354,0.2140694111585617,0.5896617770195007,0.9763745665550232,0.13007281720638275,-0.5402881503105164,0.38586223125457764,0.26843416690826416,0.6940090656280518,0.5898855328559875,0.14502359926700592,0.327912837266922,0.36866140365600586,-0.14608986675739288,0.07274539023637772,-0.37199345231056213,-0.22111427783966064,-0.5159077048301697,0.727388858795166,1.6550105810165405,0.24521644413471222,0.11469670385122299,0.6640331149101257,-0.6126282811164856,0.4502169191837311,0.08217073231935501,0.37810471653938293,0.31550362706184387,0.7484442591667175,0.439605712890625,1.371103286743164,0.4614696204662323,-0.3031972348690033,0.2699243426322937,0.2108098715543747,0.2249586582183838,0.33668944239616394,0.24261881411075592,-0.7935579419136047,-0.33659669756889343,-0.454527884721756,-0.4733831584453583,0.3460955321788788,-0.18229858577251434,-0.09881576150655746,-0.3123985230922699,0.2710404396057129,0.5252859592437744,-0.0756843090057373,-0.19462184607982635,0.35137832164764404,-0.5526574850082397,1.0044512748718262,0.027916258201003075,-0.3098444938659668,0.32334041595458984,0.4771476089954376,0.6711733937263489,0.36669328808784485,-0.6369326710700989,0.41064372658729553,0.4313477575778961,-0.27155759930610657,0.1147262454032898,-0.3010946214199066,-0.4337752163410187,-0.38072189688682556,0.39006027579307556,0.2200838327407837,-0.14846447110176086,0.35480666160583496,-1.0341758728027344,-0.13753476738929749,-0.13159701228141785,0.3526865243911743,-0.39096876978874207,-0.1404389888048172,0.34347113966941833,-0.2956222593784332,0.35725000500679016,0.46187564730644226,-0.18604527413845062,0.9963491559028625,-0.9581140875816345,0.6931325793266296,0.7123821377754211,-0.6012666821479797,-0.8810136914253235,-1.4125157594680786,-0.17401455342769623,-0.8415375351905823,1.2242242097854614,0.6303260922431946,1.6707273721694946,-0.604502260684967,-0.46405133605003357,0.35535451769828796,-0.4905402660369873,0.0852322205901146,-0.5604156851768494,-0.9462968707084656,0.6780409216880798,0.35239097476005554,-0.3482363224029541,0.3281179964542389,0.9988439679145813,-0.297389417886734,-0.026332983747124672,1.28483247756958,0.44266441464424133,-0.5978862643241882,-0.8196476101875305,-0.3219295144081116,-0.4361227750778198,0.39243432879447937,1.9729870557785034,0.6376555562019348,0.13376528024673462,0.2095876783132553,-0.5136613249778748,-0.032439228147268295,-0.2527337372303009,0.39474937319755554,1.8608180284500122,0.6304464936256409,-0.06252101063728333,-0.6829243302345276,0.20912225544452667,-0.2894285023212433,0.4288424551486969,-0.1118604764342308,-0.21202106773853302,0.1300225406885147,0.5377643704414368,0.2658933103084564,-0.11021018773317337,0.5897228121757507,-0.26026543974876404,0.27861687541007996,0.12244639545679092,-0.671471893787384,0.49152672290802,0.31096574664115906,-0.07369200140237808,0.439632385969162,-1.7044042348861694,0.5428070425987244,-0.38131776452064514,1.4039555788040161,-0.03769074007868767,0.1572536826133728,0.39437663555145264,0.2495589405298233,-0.5083258748054504,-0.28082799911499023,0.3582035005092621,0.08556550741195679,0.3274083137512207,-0.23655636608600616,-0.6164152026176453,-0.582535445690155,0.21367156505584717,-0.12544140219688416,-0.0772332027554512,-0.3589623272418976,0.03571421280503273,-0.3149586021900177,-0.1913459450006485,-0.39956581592559814,0.7877564430236816,-0.48122891783714294,1.6534395217895508,-0.27849718928337097,0.1599467545747757,-0.19020120799541473,0.2901839315891266,0.4295390546321869,-0.7965304255485535,0.42268097400665283,0.5872472524642944,0.18967437744140625,0.25935760140419006,0.57955002784729,-0.5047918558120728,0.8391590118408203,-0.2010658234357834,0.16572147607803345,-0.017903076484799385,-0.5458951592445374,-0.5367457270622253,-0.6103062033653259,0.10928568243980408,0.22409339249134064,0.09611336141824722,-0.7054137587547302,-0.2899378836154938,-0.4955873191356659,-0.23142026364803314,0.38992059230804443,0.45564356446266174,0.3432452380657196,0.30940404534339905,0.3883192837238312,0.2273571938276291,0.07368966937065125,0.43596896529197693,-0.5881120562553406,1.3335133790969849,0.5388820171356201,-0.5629459619522095,0.449405312538147,0.27992311120033264,0.27994483709335327,0.05032169446349144,0.5341797471046448,-0.568171501159668,0.20908723771572113,-0.06456328928470612,0.5642706751823425,0.47979339957237244,-0.17623001337051392,0.11648407578468323,0.3537255823612213,-0.20528455078601837,0.37143123149871826,-1.478758454322815,0.4544854462146759,-0.27170538902282715,0.3933127820491791,0.15849311649799347,-0.856646716594696,0.24226921796798706,-0.4032837450504303,-0.5219675898551941,-0.42188557982444763,-0.029339537024497986,-0.5617176294326782,1.6793632507324219,0.4634307622909546,1.4652447700500488,-0.058127254247665405,-0.5782782435417175,-0.30471137166023254,-0.599759042263031,0.6393420100212097,0.4695989191532135,-0.1282212883234024,-0.3699253499507904,-0.02033720538020134,-0.4645601809024811,-0.7490224242210388,-0.25909897685050964,-0.535361111164093,0.8381760120391846,-0.6240918040275574,0.09440543502569199,0.2745145559310913,0.5458709597587585,-0.6791488528251648,0.6039419174194336,-0.08539459109306335,0.2850588858127594,0.40097805857658386,1.323279857635498,-0.1670323610305786,0.4724253714084625,-0.3589302599430084,0.9604699611663818,0.5538217425346375,-0.054927051067352295,-0.10093868523836136,0.2986100912094116,1.090416431427002,-0.006911709439009428,-0.022304801270365715,0.36386165022850037,-0.49785104393959045,-0.7853778004646301,-0.6777965426445007,2.194960832595825,0.48674342036247253,0.21571247279644012,-0.2086912840604782,0.06336572766304016,1.3976408243179321,-0.23336394131183624,-0.8495888710021973,-0.8967364430427551,-0.03428478538990021,-0.5358256101608276,-0.5145567059516907,-0.07626421004533768,0.48864027857780457,-0.015466097742319107,0.38467368483543396,-0.3318966031074524,-0.32663437724113464,0.18490879237651825,-0.22943222522735596,0.4516112804412842,-0.7619386315345764,-0.20789532363414764,1.494155764579773,0.2603057324886322,0.40285277366638184,-0.3146381378173828,-0.4002209007740021,-1.4577792882919312,-0.15737664699554443,-0.25420498847961426,0.5802226662635803,1.1661748886108398,-0.3559168577194214,-0.47343185544013977,0.46610990166664124,0.11722277849912643,-0.15064750611782074,0.2936260998249054,-0.17793215811252594,0.08581767231225967,-0.6391410231590271,0.9470452666282654,0.1593325436115265,-0.45590290427207947,0.5536674857139587,0.16101355850696564,-0.044012606143951416,-0.15217947959899902,0.40533506870269775,-0.3073226511478424,-1.571576476097107,0.5269848108291626,0.4694613516330719,-0.33709827065467834,0.427179217338562,-0.25051698088645935,0.8085649013519287,-0.4375350773334503,0.13925008475780487,-0.1331886649131775,0.5406981706619263,1.4577383995056152,0.37964531779289246,0.4640589654445648,-0.20277519524097443,0.8722524642944336,0.4934873580932617,0.627467155456543,4.286993026733398,-0.4938422739505768,1.244876742362976,0.5736482739448547,0.2960844039916992,0.03780320659279823,-1.0917860269546509,-0.46611952781677246,-0.26019975543022156,-0.15260879695415497,-0.36655256152153015,0.663336455821991,-0.42958274483680725,-0.18536782264709473,0.5186200737953186,-0.6889650225639343,-0.6869475841522217,0.2649179697036743,0.05896690487861633,-0.2021295577287674,0.2588243782520294,0.321287602186203,0.36586394906044006,-0.010286964476108551,0.2844463586807251,-0.04711676761507988,0.5279072523117065,0.5957042574882507,-0.44186267256736755,-0.18031179904937744,-0.1667841523885727,0.5234448909759521,-0.4359572231769562,-0.48163703083992004,-0.6463513970375061,1.6829506158828735,0.4248467981815338,-0.6395123600959778,-0.00830769445747137,-1.2855323553085327,0.31973186135292053,-0.5463426113128662,0.362991064786911,-0.30185580253601074,-0.09603369981050491,-0.16022394597530365,-0.6712705492973328,0.47976240515708923,-0.1321093738079071,-0.1117810532450676,0.26361212134361267,0.6947941780090332,-0.5014622807502747,-0.016540223732590675,0.6447223424911499,0.2722540497779846,-0.8709678053855896,-0.6831597685813904,-0.6299774050712585,-0.2833842933177948,0.2925207316875458,0.868877112865448,0.2149975299835205,-1.0223716497421265,-0.638035237789154,-0.35354018211364746,-0.17831987142562866,-0.33226704597473145,0.5257298946380615,0.42323148250579834,1.6966032981872559,0.8910687565803528,0.26116785407066345,0.07270052284002304,-0.20559708774089813,-0.38003405928611755,1.2594348192214966,-0.5799591541290283,0.31479889154434204,-0.5973557233810425,-0.3455274999141693,0.41870424151420593,-0.7569610476493835,-0.5572619438171387,0.33858203887939453,0.24919605255126953,0.9215332865715027,0.48915037512779236,1.4954873323440552,-0.3133540451526642,0.33868542313575745,-0.20913828909397125,-0.9638091921806335,0.10532920807600021,-0.27549147605895996,-0.48382309079170227,-1.2819530963897705,0.08446290343999863,0.5522370338439941,0.0774574801325798,0.5785068273544312,-0.5490749478340149,0.2458525151014328,0.15036237239837646,0.030092865228652954,-0.6338396668434143,0.6631690263748169,-0.4171160161495209,0.7742301821708679,0.15543167293071747,-0.1430085450410843,-0.30070337653160095,0.011854659765958786,0.29407456517219543,1.5593947172164917,-0.41876542568206787,-0.02203225903213024,0.6304852366447449,0.15954463183879852,-0.24139918386936188,0.38566386699676514,1.0964587926864624,-0.29020529985427856,-0.26647382974624634,0.27943506836891174,-0.11001179367303848,-0.14554761350154877,-0.18762560188770294,-0.14184080064296722,0.6738248467445374,-0.5748937129974365,0.5667311549186707,0.9639275670051575,1.2061697244644165,0.6277289390563965,-0.45847180485725403,-0.7557930946350098,-0.0019224038114771247,0.5568363070487976,0.3703818619251251,0.0984741821885109,-0.37336787581443787,0.2744390070438385,-0.6169593334197998,-0.9617102146148682,-0.4893527328968048,0.6714796423912048,0.31674352288246155,-0.04898488149046898,-0.40106260776519775,-0.3716772794723511,0.6761159896850586,-0.23175020515918732,0.5306016206741333,0.5813257098197937,-0.46549007296562195,0.10536471754312515,1.1829726696014404,0.1480247527360916,-0.5889820456504822,0.2162126898765564,-1.3299521207809448,0.16794653236865997,-0.4707723557949066,0.7517772316932678,0.2861817479133606,0.530846118927002,-0.2647113502025604,0.5281887650489807,-0.22674834728240967,0.4613683223724365,-0.2437976449728012,-0.4470951557159424,0.31004437804222107,0.04496977850794792,0.264321506023407,0.6525980830192566,-0.4594396650791168,-0.46079692244529724,0.6441661715507507
Strategy,-0.36607176065444946,0.15669448673725128,0.31045010685920715,0.09896894544363022,-0.30606281757354736,-0.5753087997436523,-0.11179861426353455,0.2782130539417267,0.4738524258136749,0.5070899128913879,-0.2845834493637085,0.9450640678405762,-0.2141718566417694,-0.07632937282323837,0.8862764239311218,-0.04852111265063286,0.2812378406524658,0.28776976466178894,-0.07061946392059326,0.13435733318328857,-0.2274366319179535,-0.21864402294158936,0.6113876700401306,-0.5001094341278076,0.5003194808959961,0.4267609119415283,0.025788355618715286,0.8526425361633301,-0.5175920724868774,0.848050594329834,-0.22606459259986877,-0.021196041256189346,1.3957741260528564,0.17122957110404968,0.42465052008628845,-0.3202924132347107,-0.39661145210266113,0.2333124577999115,0.07680047303438187,-0.3151401877403259,-0.10406317561864853,0.6029400825500488,-0.9454415440559387,-0.1007097139954567,0.48987725377082825,0.30461356043815613,0.4173894226551056,-0.13158230483531952,0.0013540645595639944,0.5768370628356934,0.5602248311042786,0.3172213137149811,-0.5497283339500427,-0.22830510139465332,0.44984015822410583,0.5657235980033875,-1.0569339990615845,-0.6259351968765259,-0.1776885837316513,-0.40904736518859863,-0.1313703954219818,-0.20260266959667206,-0.33889204263687134,-0.30794233083724976,1.383101463317871,0.2549223303794861,0.5620502829551697,0.7001355290412903,-0.12463796883821487,0.3160032331943512,-0.23751236498355865,-0.486666738986969,-0.20648227632045746,-0.42369410395622253,-0.5845532417297363,0.667658805847168,-0.42437732219696045,-8.324798583984375,0.22069405019283295,0.5863672494888306,0.34765323996543884,-0.6071403622627258,1.6988974809646606,0.6035782098770142,-0.6122910976409912,0.2552627921104431,0.02924957126379013,0.21985380351543427,-0.6207107901573181,-0.11760654300451279,0.2980089783668518,0.12010852247476578,0.5607502460479736,0.6517999768257141,-0.2524557411670685,0.7820209860801697,0.6008973717689514,-0.23135912418365479,0.08786492794752121,-0.3858163356781006,-0.1930915117263794,-0.5483896136283875,0.6733844876289368,0.4639977812767029,0.34195277094841003,-0.5919162034988403,0.4451601505279541,-0.836837112903595,0.45370930433273315,-0.2925085425376892,0.003548083361238241,-0.36295056343078613,0.7386689782142639,0.21090181171894073,0.2128608375787735,-0.4893362820148468,0.35472044348716736,0.2250157594680786,0.04659022390842438,-0.10774151980876923,-0.7707457542419434,0.3261203169822693,-0.35773906111717224,0.7895386815071106,-0.3394056260585785,0.23050396144390106,-0.14706416428089142,0.06603162735700607,0.13486412167549133,0.2561595141887665,-0.9848902225494385,-0.8042415976524353,-0.405441552400589,0.5795685052871704,0.5098539590835571,-0.5864842534065247,0.4669942557811737,0.1173943355679512,-0.4379562437534332,0.3648501932621002,-0.5383672118186951,-0.5424153208732605,-0.17056481540203094,0.1078210175037384,0.9061163663864136,-0.04421382397413254,0.04059099406003952,0.5579259991645813,0.3736766278743744,-0.38597768545150757,-0.7607754468917847,0.06080389767885208,1.2336472272872925,-0.18099181354045868,0.04604445397853851,-1.9585199356079102,0.11823517084121704,0.36396655440330505,0.2952251136302948,-0.3149859607219696,0.36126524209976196,-0.16137683391571045,0.0367722287774086,0.533714771270752,0.5876649618148804,0.15901759266853333,-0.34062838554382324,0.0020843043457716703,0.2773814797401428,0.9373922348022461,-0.4362180829048157,-0.45699605345726013,-0.5784049034118652,-0.0062619405798614025,0.38650283217430115,0.7861568331718445,0.3014916777610779,-0.1370248645544052,-0.3264622688293457,1.0847513675689697,0.49812597036361694,-0.25792354345321655,0.25926560163497925,-0.5634466409683228,-0.40243086218833923,0.34912794828414917,-0.3494899272918701,0.7456090450286865,-0.1778773069381714,-0.18711043894290924,-0.2751460373401642,-0.3705895245075226,0.33147576451301575,0.6714308261871338,0.09033634513616562,0.16775739192962646,0.026891544461250305,0.3049987256526947,1.037097692489624,0.14261138439178467,-0.39202985167503357,0.8498494625091553,0.4582645893096924,0.4193144738674164,-0.030299408361315727,0.2186104655265808,-0.2900947630405426,0.5270007848739624,0.5603151321411133,1.2726858854293823,1.6767290830612183,-0.05741780623793602,0.1481761783361435,-0.42233923077583313,-0.8331853747367859,0.1672498881816864,-0.7298387289047241,-1.3061211109161377,-0.5447703003883362,-0.4860241711139679,-1.3331841230392456,0.22542616724967957,-0.2407861351966858,-0.22936493158340454,-0.1253145933151245,-0.032604705542325974,0.33834442496299744,-0.24444255232810974,-0.37166404724121094,0.36453309655189514,-0.35759079456329346,-0.30754464864730835,-0.8742637634277344,-0.19716320931911469,0.021768849343061447,-0.40139201283454895,-0.563736617565155,0.3912845849990845,0.39969635009765625,-0.8914830088615417,-0.13970237970352173,0.26669177412986755,0.5952000021934509,0.9678937196731567,0.09136630594730377,-0.6560603976249695,0.36841854453086853,0.42328959703445435,0.6747129559516907,0.5956095457077026,0.16963604092597961,0.46896204352378845,0.3831050992012024,-0.25941529870033264,0.06549065560102463,-0.357435405254364,-0.24677470326423645,-0.421985924243927,0.701286792755127,1.7026761770248413,0.3102063238620758,0.02912726253271103,0.684802770614624,-0.6502528190612793,0.4163331687450409,-0.04319676384329796,0.40530115365982056,0.3728256821632385,0.7509809732437134,0.40820392966270447,1.4064340591430664,0.34377118945121765,-0.37068599462509155,0.24940434098243713,0.2433423101902008,0.1815805584192276,0.5010690093040466,0.21051841974258423,-0.8827470541000366,-0.29997092485427856,-0.4699675738811493,-0.46995970606803894,0.482314795255661,-0.17415551841259003,-0.36508381366729736,-0.2562337815761566,0.06732815504074097,0.6378942131996155,-0.07248061150312424,-0.12623822689056396,0.3513205945491791,-0.5207228064537048,1.0855180025100708,0.08168884366750717,-0.2210773229598999,0.31918567419052124,0.4621846675872803,0.5321260690689087,0.36637938022613525,-0.6027610301971436,0.3479749262332916,0.4053783416748047,-0.1334349662065506,0.07882777601480484,-0.3388766944408417,-0.40824583172798157,-0.28441062569618225,0.35174426436424255,0.259797602891922,-0.15347890555858612,0.3574802577495575,-0.9497900605201721,-0.17712700366973877,-0.15806756913661957,0.3525700569152832,-0.26522526144981384,-0.14837785065174103,0.3431473970413208,-0.40649786591529846,0.36338651180267334,0.4029686152935028,-0.17856444418430328,0.95721435546875,-0.9601735472679138,0.6051954627037048,0.7699184417724609,-0.6114404797554016,-0.786472737789154,-1.4685224294662476,-0.1709965169429779,-1.1870976686477661,1.3055331707000732,0.5867269039154053,1.63056218624115,-0.6694592833518982,-0.4999200105667114,0.40196943283081055,-0.47574272751808167,0.1287185400724411,-0.521271824836731,-1.127746343612671,0.6902127265930176,0.284468412399292,-0.3181440830230713,0.36352595686912537,0.9891985654830933,-0.4079614579677582,-0.09382566809654236,1.251257061958313,0.46147045493125916,-0.5837249159812927,-0.7705288529396057,-0.3068906366825104,-0.37997502088546753,0.4224015474319458,1.992163896560669,0.6085751056671143,0.0791776031255722,0.20752444863319397,-0.5666884779930115,-0.16121020913124084,-0.1301364004611969,0.41453006863594055,1.8830815553665161,0.6314041018486023,-0.1167307049036026,-0.7593626379966736,0.19964958727359772,-0.24292036890983582,0.4012533724308014,-0.03138120099902153,-0.2514967620372772,0.0723242461681366,0.5829868912696838,0.20342998206615448,-0.12125550955533981,0.5177493095397949,-0.2184305042028427,0.3447665274143219,0.023074299097061157,-0.7097293734550476,0.43966251611709595,0.24439099431037903,0.00548169482499361,0.39740651845932007,-1.7583990097045898,0.5607304573059082,-0.30237096548080444,1.3712996244430542,-0.1231427788734436,0.23768781125545502,0.46057403087615967,0.2120770812034607,-0.4886014461517334,-0.31202083826065063,0.3443053066730499,0.09373100847005844,0.1730322688817978,-0.21736927330493927,-0.5090230107307434,-0.5749573707580566,0.27265000343322754,-0.17070478200912476,-0.11407060921192169,-0.3369658887386322,0.004086844623088837,-0.28922438621520996,-0.07116100937128067,-0.46067699790000916,0.7035677433013916,-0.46768689155578613,1.583261251449585,-0.23287136852741241,0.10450586676597595,-0.1580507606267929,0.37123799324035645,0.547121524810791,-0.8622249960899353,0.36749494075775146,0.5389112830162048,0.11286154389381409,0.2458023726940155,0.560286283493042,-0.4245941936969757,0.782494843006134,-0.22491243481636047,0.20337921380996704,-0.02867661416530609,-0.6570430994033813,-0.5453538298606873,-0.5367364287376404,0.15739662945270538,0.021037984639406204,0.09422317892313004,-0.645283579826355,-0.38762393593788147,-0.5234485864639282,-0.2894129753112793,0.39442747831344604,0.43261420726776123,0.5312709808349609,0.32212814688682556,0.44765734672546387,0.29857391119003296,0.08197034150362015,0.43224579095840454,-0.5063727498054504,1.3384846448898315,0.4891613721847534,-0.7039124369621277,0.407480388879776,0.15305952727794647,0.43493980169296265,-0.8429975509643555,0.42759785056114197,-0.5178983211517334,0.1883208155632019,-0.019237041473388672,0.577941358089447,0.42894622683525085,-0.27463752031326294,0.1559046506881714,0.3294333517551422,-0.2001660317182541,0.33981379866600037,-1.337714672088623,0.4951194226741791,-0.2668776512145996,0.4138759970664978,0.24585583806037903,-0.8672813773155212,0.27289843559265137,-0.32841965556144714,-0.5199241638183594,-0.370225191116333,-0.08759111166000366,-0.4447654187679291,1.606347680091858,0.4352291226387024,1.4845963716506958,-0.055378347635269165,-0.5488317608833313,-0.2812977135181427,-0.6051533222198486,0.6807886958122253,0.48834559321403503,-0.1320727914571762,-0.39137959480285645,-0.046136628836393356,-0.5292956233024597,-0.7302402257919312,-0.34130150079727173,-0.5621790885925293,0.8537868857383728,-0.59703528881073,0.19268234074115753,0.1828608512878418,0.621283769607544,-0.4853636920452118,0.6497992277145386,-0.017676934599876404,0.21059086918830872,0.4768127501010895,1.2296323776245117,-0.11919254064559937,0.510551929473877,-0.3847287595272064,0.9592721462249756,0.5074626803398132,0.03714117035269737,-0.08315543830394745,0.5949856042861938,1.0719460248947144,0.027545731514692307,-0.06921157985925674,0.3949785828590393,-0.5053534507751465,-0.7079644799232483,-0.7128646969795227,2.162100076675415,0.5354764461517334,0.16388387978076935,-0.291918009519577,-0.006077168509364128,1.4390084743499756,-0.27264633774757385,-0.873751699924469,-0.9120197296142578,0.06652303040027618,-0.6418578624725342,-0.3447798192501068,-0.1395530253648758,0.5500500202178955,0.007280373014509678,0.34575557708740234,-0.32112666964530945,-0.30415910482406616,0.18141090869903564,-0.36490359902381897,0.43492743372917175,-0.639897882938385,-0.327780544757843,1.598332166671753,0.3241988718509674,0.4242192208766937,-0.2679330110549927,-0.47801336646080017,-1.4705421924591064,-0.07666221261024475,-0.22687162458896637,0.49805551767349243,1.1914399862289429,-0.31071749329566956,-0.44775310158729553,0.5102306604385376,0.01950644887983799,-0.1408519148826599,0.35775259137153625,-0.2122972309589386,0.11626873910427094,-0.6228489279747009,0.6699690818786621,0.20741957426071167,-0.444357693195343,0.6381586194038391,0.1498183012008667,-0.041680097579956055,-0.18034160137176514,0.34227800369262695,-0.27950650453567505,-1.5993125438690186,0.5398932099342346,0.42384716868400574,-0.334387868642807,0.453177809715271,-0.26262468099594116,0.7893462181091309,-0.4502473771572113,0.0736653134226799,-0.11277997493743896,0.6180906891822815,1.3917337656021118,0.38555803894996643,0.3708294630050659,-0.1583956480026245,0.9237167239189148,0.267721951007843,0.5199161767959595,4.280261993408203,-0.41298890113830566,1.2158942222595215,0.4569754898548126,0.2233862429857254,-0.10100622475147247,-1.0741205215454102,-0.3503258228302002,-0.30111923813819885,-0.16464538872241974,-0.3753187656402588,0.6739542484283447,-0.4562184810638428,-0.23697760701179504,0.5215322375297546,-0.711208164691925,-0.5958571434020996,0.27673089504241943,0.12165675312280655,-0.12309259176254272,0.23598530888557434,0.4213564097881317,0.3678622841835022,-0.09632554650306702,0.3476165235042572,-0.005610406398773193,0.40567338466644287,0.4753011167049408,-0.4685893952846527,-0.24575696885585785,-0.21611662209033966,0.5392978191375732,-0.37870335578918457,-0.4407244026660919,-0.5964940786361694,1.7389897108078003,0.344895601272583,-0.628923773765564,0.006884711794555187,-1.1859440803527832,0.2893850803375244,-0.42098161578178406,0.3857536315917969,-0.37065988779067993,-0.06322601437568665,-0.16402305662631989,-0.5795449018478394,0.5467748641967773,-0.1292382776737213,-0.11963208764791489,0.24315544962882996,0.6782432198524475,-0.46546027064323425,-0.006717628333717585,0.5497884154319763,0.12355208396911621,-0.8939464688301086,-0.636401355266571,-0.586290180683136,-0.27277106046676636,0.26320603489875793,0.7391650676727295,0.20065391063690186,-1.1121824979782104,-0.49026545882225037,-0.2121506631374359,-0.1765333116054535,-0.26203325390815735,0.5344045758247375,0.34233546257019043,1.5958263874053955,0.9133838415145874,0.295210599899292,-0.24844133853912354,-0.19915790855884552,-0.4614580273628235,1.150773048400879,-0.6201496124267578,0.17669811844825745,-0.5754561424255371,-0.4376232922077179,0.46558907628059387,-0.626227080821991,-0.5653560757637024,0.4221538007259369,0.3206813335418701,0.9143880605697632,0.4488946795463562,1.330660104751587,-0.31911665201187134,0.4621089994907379,-0.13582248985767365,-0.9162276387214661,0.00903786439448595,-0.2947937846183777,-0.6026456952095032,-1.249433159828186,0.05697914958000183,0.6074010133743286,0.01503833383321762,0.7337622046470642,-0.46176499128341675,0.2446262091398239,0.2702332139015198,0.03042728826403618,-0.588301956653595,0.6297940015792847,-0.22657214105129242,0.7326610088348389,0.2095969021320343,-0.03977825120091438,-0.2881055176258087,-0.03540632128715515,0.28931689262390137,1.647508144378662,-0.44804295897483826,-0.053086057305336,0.6717043519020081,0.21694506704807281,-0.2044915407896042,0.3190195560455322,1.1210147142410278,-0.2603897750377655,-0.3465037941932678,0.30064430832862854,-0.10591825842857361,-0.290786474943161,-0.2420709878206253,-0.03531865403056145,0.6478471159934998,-0.4596928358078003,0.5076671242713928,1.0756851434707642,1.2720766067504883,0.7481365203857422,-0.48638325929641724,-0.8258381485939026,-0.06608220189809799,0.6106569170951843,0.4000631272792816,0.02349911257624626,-0.36037126183509827,0.31832003593444824,-0.7702929973602295,-0.9914417266845703,-0.43571576476097107,0.6563626527786255,0.3770279288291931,-0.055129289627075195,-0.3872073292732239,-0.40060773491859436,0.6346856355667114,-0.3497811555862427,0.45652368664741516,0.4568275511264801,-0.43899449706077576,0.12992802262306213,1.2155574560165405,0.18080110847949982,-0.6125446557998657,0.24633634090423584,-1.1626553535461426,0.15104877948760986,-0.3834860324859619,0.6511180400848389,0.24030615389347076,0.533301830291748,-0.2970517575740814,0.5199971199035645,-0.21458950638771057,0.43466490507125854,-0.19744575023651123,-0.5185269117355347,0.39083296060562134,-0.04080989956855774,0.24776293337345123,0.7703994512557983,-0.5938358902931213,-0.398536741733551,0.6228518486022949
