pattern,dim_0,dim_1,dim_2,dim_3,dim_4,dim_5,dim_6,dim_7,dim_8,dim_9,dim_10,dim_11,dim_12,dim_13,dim_14,dim_15,dim_16,dim_17,dim_18,dim_19,dim_20,dim_21,dim_22,dim_23,dim_24,dim_25,dim_26,dim_27,dim_28,dim_29,dim_30,dim_31,dim_32,dim_33,dim_34,dim_35,dim_36,dim_37,dim_38,dim_39,dim_40,dim_41,dim_42,dim_43,dim_44,dim_45,dim_46,dim_47,dim_48,dim_49,dim_50,dim_51,dim_52,dim_53,dim_54,dim_55,dim_56,dim_57,dim_58,dim_59,dim_60,dim_61,dim_62,dim_63,dim_64,dim_65,dim_66,dim_67,dim_68,dim_69,dim_70,dim_71,dim_72,dim_73,dim_74,dim_75,dim_76,dim_77,dim_78,dim_79,dim_80,dim_81,dim_82,dim_83,dim_84,dim_85,dim_86,dim_87,dim_88,dim_89,dim_90,dim_91,dim_92,dim_93,dim_94,dim_95,dim_96,dim_97,dim_98,dim_99,dim_100,dim_101,dim_102,dim_103,dim_104,dim_105,dim_106,dim_107,dim_108,dim_109,dim_110,dim_111,dim_112,dim_113,dim_114,dim_115,dim_116,dim_117,dim_118,dim_119,dim_120,dim_121,dim_122,dim_123,dim_124,dim_125,dim_126,dim_127,dim_128,dim_129,dim_130,dim_131,dim_132,dim_133,dim_134,dim_135,dim_136,dim_137,dim_138,dim_139,dim_140,dim_141,dim_142,dim_143,dim_144,dim_145,dim_146,dim_147,dim_148,dim_149,dim_150,dim_151,dim_152,dim_153,dim_154,dim_155,dim_156,dim_157,dim_158,dim_159,dim_160,dim_161,dim_162,dim_163,dim_164,dim_165,dim_166,dim_167,dim_168,dim_169,dim_170,dim_171,dim_172,dim_173,dim_174,dim_175,dim_176,dim_177,dim_178,dim_179,dim_180,dim_181,dim_182,dim_183,dim_184,dim_185,dim_186,dim_187,dim_188,dim_189,dim_190,dim_191,dim_192,dim_193,dim_194,dim_195,dim_196,dim_197,dim_198,dim_199,dim_200,dim_201,dim_202,dim_203,dim_204,dim_205,dim_206,dim_207,dim_208,dim_209,dim_210,dim_211,dim_212,dim_213,dim_214,dim_215,dim_216,dim_217,dim_218,dim_219,dim_220,dim_221,dim_222,dim_223,dim_224,dim_225,dim_226,dim_227,dim_228,dim_229,dim_230,dim_231,dim_232,dim_233,dim_234,dim_235,dim_236,dim_237,dim_238,dim_239,dim_240,dim_241,dim_242,dim_243,dim_244,dim_245,dim_246,dim_247,dim_248,dim_249,dim_250,dim_251,dim_252,dim_253,dim_254,dim_255,dim_256,dim_257,dim_258,dim_259,dim_260,dim_261,dim_262,dim_263,dim_264,dim_265,dim_266,dim_267,dim_268,dim_269,dim_270,dim_271,dim_272,dim_273,dim_274,dim_275,dim_276,dim_277,dim_278,dim_279,dim_280,dim_281,dim_282,dim_283,dim_284,dim_285,dim_286,dim_287,dim_288,dim_289,dim_290,dim_291,dim_292,dim_293,dim_294,dim_295,dim_296,dim_297,dim_298,dim_299,dim_300,dim_301,dim_302,dim_303,dim_304,dim_305,dim_306,dim_307,dim_308,dim_309,dim_310,dim_311,dim_312,dim_313,dim_314,dim_315,dim_316,dim_317,dim_318,dim_319,dim_320,dim_321,dim_322,dim_323,dim_324,dim_325,dim_326,dim_327,dim_328,dim_329,dim_330,dim_331,dim_332,dim_333,dim_334,dim_335,dim_336,dim_337,dim_338,dim_339,dim_340,dim_341,dim_342,dim_343,dim_344,dim_345,dim_346,dim_347,dim_348,dim_349,dim_350,dim_351,dim_352,dim_353,dim_354,dim_355,dim_356,dim_357,dim_358,dim_359,dim_360,dim_361,dim_362,dim_363,dim_364,dim_365,dim_366,dim_367,dim_368,dim_369,dim_370,dim_371,dim_372,dim_373,dim_374,dim_375,dim_376,dim_377,dim_378,dim_379,dim_380,dim_381,dim_382,dim_383,dim_384,dim_385,dim_386,dim_387,dim_388,dim_389,dim_390,dim_391,dim_392,dim_393,dim_394,dim_395,dim_396,dim_397,dim_398,dim_399,dim_400,dim_401,dim_402,dim_403,dim_404,dim_405,dim_406,dim_407,dim_408,dim_409,dim_410,dim_411,dim_412,dim_413,dim_414,dim_415,dim_416,dim_417,dim_418,dim_419,dim_420,dim_421,dim_422,dim_423,dim_424,dim_425,dim_426,dim_427,dim_428,dim_429,dim_430,dim_431,dim_432,dim_433,dim_434,dim_435,dim_436,dim_437,dim_438,dim_439,dim_440,dim_441,dim_442,dim_443,dim_444,dim_445,dim_446,dim_447,dim_448,dim_449,dim_450,dim_451,dim_452,dim_453,dim_454,dim_455,dim_456,dim_457,dim_458,dim_459,dim_460,dim_461,dim_462,dim_463,dim_464,dim_465,dim_466,dim_467,dim_468,dim_469,dim_470,dim_471,dim_472,dim_473,dim_474,dim_475,dim_476,dim_477,dim_478,dim_479,dim_480,dim_481,dim_482,dim_483,dim_484,dim_485,dim_486,dim_487,dim_488,dim_489,dim_490,dim_491,dim_492,dim_493,dim_494,dim_495,dim_496,dim_497,dim_498,dim_499,dim_500,dim_501,dim_502,dim_503,dim_504,dim_505,dim_506,dim_507,dim_508,dim_509,dim_510,dim_511,dim_512,dim_513,dim_514,dim_515,dim_516,dim_517,dim_518,dim_519,dim_520,dim_521,dim_522,dim_523,dim_524,dim_525,dim_526,dim_527,dim_528,dim_529,dim_530,dim_531,dim_532,dim_533,dim_534,dim_535,dim_536,dim_537,dim_538,dim_539,dim_540,dim_541,dim_542,dim_543,dim_544,dim_545,dim_546,dim_547,dim_548,dim_549,dim_550,dim_551,dim_552,dim_553,dim_554,dim_555,dim_556,dim_557,dim_558,dim_559,dim_560,dim_561,dim_562,dim_563,dim_564,dim_565,dim_566,dim_567,dim_568,dim_569,dim_570,dim_571,dim_572,dim_573,dim_574,dim_575,dim_576,dim_577,dim_578,dim_579,dim_580,dim_581,dim_582,dim_583,dim_584,dim_585,dim_586,dim_587,dim_588,dim_589,dim_590,dim_591,dim_592,dim_593,dim_594,dim_595,dim_596,dim_597,dim_598,dim_599,dim_600,dim_601,dim_602,dim_603,dim_604,dim_605,dim_606,dim_607,dim_608,dim_609,dim_610,dim_611,dim_612,dim_613,dim_614,dim_615,dim_616,dim_617,dim_618,dim_619,dim_620,dim_621,dim_622,dim_623,dim_624,dim_625,dim_626,dim_627,dim_628,dim_629,dim_630,dim_631,dim_632,dim_633,dim_634,dim_635,dim_636,dim_637,dim_638,dim_639,dim_640,dim_641,dim_642,dim_643,dim_644,dim_645,dim_646,dim_647,dim_648,dim_649,dim_650,dim_651,dim_652,dim_653,dim_654,dim_655,dim_656,dim_657,dim_658,dim_659,dim_660,dim_661,dim_662,dim_663,dim_664,dim_665,dim_666,dim_667,dim_668,dim_669,dim_670,dim_671,dim_672,dim_673,dim_674,dim_675,dim_676,dim_677,dim_678,dim_679,dim_680,dim_681,dim_682,dim_683,dim_684,dim_685,dim_686,dim_687,dim_688,dim_689,dim_690,dim_691,dim_692,dim_693,dim_694,dim_695,dim_696,dim_697,dim_698,dim_699,dim_700,dim_701,dim_702,dim_703,dim_704,dim_705,dim_706,dim_707,dim_708,dim_709,dim_710,dim_711,dim_712,dim_713,dim_714,dim_715,dim_716,dim_717,dim_718,dim_719,dim_720,dim_721,dim_722,dim_723,dim_724,dim_725,dim_726,dim_727,dim_728,dim_729,dim_730,dim_731,dim_732,dim_733,dim_734,dim_735,dim_736,dim_737,dim_738,dim_739,dim_740,dim_741,dim_742,dim_743,dim_744,dim_745,dim_746,dim_747,dim_748,dim_749,dim_750,dim_751,dim_752,dim_753,dim_754,dim_755,dim_756,dim_757,dim_758,dim_759,dim_760,dim_761,dim_762,dim_763,dim_764,dim_765,dim_766,dim_767
Observer,-0.3421974182128906,0.09738514572381973,0.26274219155311584,-0.08830950409173965,-0.3344917297363281,-0.5095044374465942,-0.09702973067760468,0.2217564880847931,0.4653584063053131,0.5373090505599976,-0.2697683274745941,0.8380076289176941,-0.2739272713661194,-0.13984325528144836,0.9168809056282043,-0.07790329307317734,0.1894616335630417,0.2264074832201004,-0.08274682611227036,0.2549922466278076,-0.18918049335479736,-0.36215758323669434,0.6743208765983582,-0.3302425146102905,0.5393927097320557,0.33259984850883484,-0.08979378640651703,0.9010986685752869,-0.46396404504776,0.9074809551239014,-0.17001742124557495,-0.06077922135591507,1.3709863424301147,0.17277881503105164,0.4083658754825592,-0.368197500705719,-0.37121617794036865,0.28248608112335205,0.16464228928089142,-0.28747910261154175,-0.08773347735404968,0.5843475461006165,-0.9294018149375916,-0.15953010320663452,0.43579041957855225,0.296335369348526,0.4815804958343506,0.007252344861626625,0.12308763712644577,0.4436805844306946,0.47275421023368835,0.3212510645389557,-0.5185771584510803,-0.18330423533916473,0.5018651485443115,0.5297529697418213,-1.157390832901001,-0.7710433006286621,-0.1418921947479248,-0.5175724625587463,-0.1516686975955963,-0.2373177856206894,-0.24305647611618042,-0.20938527584075928,1.3936669826507568,0.14389875531196594,0.4911211431026459,0.8934216499328613,-0.13488036394119263,0.3336523771286011,-0.2123541533946991,-0.335979163646698,-0.22218337655067444,-0.48864832520484924,-0.648570716381073,0.6996026039123535,-0.28776276111602783,-8.887405395507812,0.06501853466033936,0.461784303188324,0.3981965184211731,-0.6090810894966125,1.8371938467025757,0.7374521493911743,-0.6144883036613464,0.18981201946735382,0.07599537819623947,0.1349521279335022,-0.6401410102844238,-0.0181502066552639,0.4444293975830078,-0.01803881675004959,0.522937536239624,0.7057569622993469,-0.20525747537612915,0.9204679131507874,0.7024873495101929,-0.33755117654800415,0.1120578944683075,-0.4180126488208771,-0.061550430953502655,-0.5635462403297424,0.5558246374130249,0.284336656332016,0.2630133628845215,-0.6012365818023682,0.27867525815963745,-0.8524559736251831,0.5706928372383118,-0.3518945276737213,0.007913990877568722,-0.43529802560806274,0.7480037212371826,0.1501847207546234,0.28587907552719116,-0.34581488370895386,0.3503255844116211,0.3062375485897064,-0.04052091762423515,-0.001852821558713913,-0.7783389091491699,0.29096195101737976,-0.5374991297721863,0.7085877060890198,-0.1682213842868805,0.2874036729335785,-0.07698705047369003,0.13240531086921692,0.12299327552318573,0.13227146863937378,-0.8804759979248047,-0.8346868753433228,-0.39676350355148315,0.5371886491775513,0.46725502610206604,-0.6216084361076355,0.37581101059913635,0.20813357830047607,-0.34719517827033997,0.364060640335083,-0.4973544478416443,-0.5586645603179932,-0.18977558612823486,0.12885917723178864,1.0005346536636353,-0.060312408953905106,0.04485604166984558,0.4446920156478882,0.22928059101104736,-0.38821786642074585,-0.7042854428291321,0.2588008642196655,1.1598880290985107,-0.16795124113559723,0.16355347633361816,-1.8995897769927979,0.002203182317316532,0.40149667859077454,0.3494090735912323,-0.47762683033943176,0.41113120317459106,-0.2578921318054199,0.18690887093544006,0.41116639971733093,0.5111958980560303,0.10736949741840363,-0.2802889347076416,0.038844820111989975,0.3174586892127991,0.9922073483467102,-0.39027494192123413,-0.47015589475631714,-0.5957875847816467,-0.005045285448431969,0.48667022585868835,0.8201568126678467,0.34565025568008423,0.001300713513046503,-0.29041558504104614,1.0452017784118652,0.35294920206069946,-0.29819321632385254,0.17140349745750427,-0.5847750306129456,-0.4081612825393677,0.2711184620857239,-0.33478379249572754,0.5838015079498291,-0.2287573516368866,0.05542119964957237,-0.3566775321960449,-0.37115567922592163,0.31763264536857605,0.5256990194320679,0.06645713001489639,0.20850369334220886,0.11865992844104767,0.3377986550331116,1.1037957668304443,0.18465866148471832,-0.4007929861545563,0.8860820531845093,0.35305970907211304,0.4628336429595947,0.11074088513851166,0.2030763030052185,-0.17978006601333618,0.5477546453475952,0.6904270648956299,1.2544798851013184,1.6653556823730469,-0.2212308943271637,0.12510061264038086,-0.4283837080001831,-0.8107690811157227,0.20266681909561157,-0.8132745623588562,-1.4498164653778076,-0.6204875707626343,-0.43446967005729675,-1.3228548765182495,0.3645480275154114,-0.23916709423065186,-0.2616192698478699,-0.18441593647003174,-0.00024667661637067795,0.3114006221294403,-0.32122763991355896,-0.25194552540779114,0.40341347455978394,-0.29113972187042236,-0.30000168085098267,-0.9329513907432556,-0.20670032501220703,0.03011324815452099,-0.4742740988731384,-0.5912865400314331,0.4155588448047638,0.36087101697921753,-0.9253592491149902,-0.33906620740890503,0.29031431674957275,0.6370470523834229,0.9758131504058838,0.11205756664276123,-0.711809515953064,0.44676002860069275,0.49776491522789,0.7514775991439819,0.637572169303894,0.23672857880592346,0.3392055332660675,0.3487194776535034,-0.21523024141788483,-0.023708568885922432,-0.45927172899246216,-0.2247661054134369,-0.4816073477268219,0.8100681304931641,1.7843533754348755,0.2680625915527344,0.0013515925966203213,0.5720244646072388,-0.7931269407272339,0.3166145086288452,0.038279302418231964,0.39801928400993347,0.36792266368865967,0.7530061602592468,0.2906074821949005,1.3428266048431396,0.39321696758270264,-0.3647463023662567,0.14751771092414856,0.15080687403678894,0.23814526200294495,0.38311290740966797,0.23880623281002045,-0.863009512424469,-0.3746458888053894,-0.5054954290390015,-0.4151192307472229,0.6302636861801147,-0.1318184733390808,-0.23383255302906036,-0.38031479716300964,-0.009539369493722916,0.64058518409729,-0.06329582631587982,-0.11850418150424957,0.31552278995513916,-0.4885350465774536,0.9805907011032104,0.1123216450214386,-0.21774041652679443,0.45660504698753357,0.49121174216270447,0.47984370589256287,0.25821933150291443,-0.6232947111129761,0.23279541730880737,0.4826763868331909,-0.11112722754478455,-0.024127304553985596,-0.36988189816474915,-0.42121994495391846,-0.34460538625717163,0.4333803653717041,0.22959671914577484,-0.11316802352666855,0.3260766863822937,-1.0713717937469482,-0.09459760785102844,-0.10651873052120209,0.29728227853775024,-0.12926910817623138,-0.055846258997917175,0.20490606129169464,-0.32512420415878296,0.2870166003704071,0.41254186630249023,-0.12803903222084045,0.9115796089172363,-1.0100525617599487,0.536742627620697,0.826992928981781,-0.6466902494430542,-0.6543241739273071,-1.3178478479385376,-0.15475577116012573,-1.0322784185409546,0.9535806179046631,0.548899233341217,1.516340732574463,-0.6536685228347778,-0.4632816016674042,0.2531539797782898,-0.5119070410728455,0.17279168963432312,-0.5276392102241516,-0.9988061785697937,0.711590051651001,0.296893835067749,-0.28689831495285034,0.4376559555530548,1.1416652202606201,-0.2976168394088745,-0.1313536912202835,1.194256067276001,0.35429826378822327,-0.4700283110141754,-0.7853202223777771,-0.2549596130847931,-0.31634876132011414,0.44408559799194336,1.9194045066833496,0.6663528680801392,0.10606400668621063,0.1576913446187973,-0.6047440767288208,-0.1427648514509201,-0.08560055494308472,0.45897147059440613,1.8242294788360596,0.5919265151023865,-0.16155949234962463,-0.5285687446594238,0.221867635846138,-0.18311455845832825,0.32370883226394653,0.003510214388370514,-0.2209949493408203,0.0692569687962532,0.617479145526886,0.09948655217885971,-0.11403326690196991,0.432928204536438,-0.17506562173366547,0.276187926530838,0.009403591975569725,-0.7414274215698242,0.36890122294425964,0.32424768805503845,0.019681936129927635,0.33661970496177673,-1.832083821296692,0.49235835671424866,-0.3834896683692932,1.363301157951355,-0.05288531258702278,0.2194865196943283,0.4558870792388916,0.23717138171195984,-0.482260137796402,-0.3468518555164337,0.22846028208732605,0.018645672127604485,0.07003102451562881,-0.06962263584136963,-0.5043689012527466,-0.5284848213195801,0.2470017820596695,-0.16930507123470306,0.07074300199747086,-0.3417303264141083,-0.021090632304549217,-0.26736435294151306,-0.12182391434907913,-0.46229439973831177,0.6382924318313599,-0.36604878306388855,1.5567262172698975,-0.22321414947509766,0.18606945872306824,-0.03198983147740364,0.3098125159740448,0.6470213532447815,-0.8174163103103638,0.36026638746261597,0.5340612530708313,-0.010492178611457348,0.17407043278217316,0.5373228788375854,-0.41746973991394043,0.8097368478775024,-0.2640586197376251,0.26589271426200867,-0.10625970363616943,-0.60941481590271,-0.5525045990943909,-0.5413998961448669,0.2614394426345825,-0.08593335002660751,0.04369005933403969,-0.4937616288661957,-0.34834834933280945,-0.5737949013710022,-0.3444727659225464,0.3681778609752655,0.5209019780158997,0.5608537793159485,0.28026166558265686,0.4993654787540436,0.20902791619300842,0.10822248458862305,0.447671115398407,-0.44771847128868103,1.3823678493499756,0.32823675870895386,-0.8085623979568481,0.40741056203842163,0.0444151870906353,0.4296077489852905,-1.0948853492736816,0.5265588760375977,-0.4963722825050354,0.24388158321380615,0.008840490132570267,0.5363311767578125,0.3484730124473572,-0.24202081561088562,0.19828030467033386,0.3397747874259949,-0.15013310313224792,0.3561646044254303,-1.283898949623108,0.44125866889953613,-0.18017517030239105,0.3956170678138733,0.2544611096382141,-0.8628932237625122,0.2881549596786499,-0.2969824969768524,-0.46169012784957886,-0.3138154447078705,-0.04549700766801834,-0.44545283913612366,1.6854790449142456,0.4897834062576294,1.5279067754745483,-0.10480409860610962,-0.5729312300682068,-0.17226488888263702,-0.6208223104476929,0.7149890065193176,0.4379718005657196,-0.05081164091825485,-0.37439483404159546,0.0402287095785141,-0.5577829480171204,-0.6459954977035522,-0.3401924967765808,-0.5765260457992554,0.8961857557296753,-0.6412621736526489,0.13852131366729736,-0.10827945917844772,0.5914725661277771,-0.5762267708778381,0.6814461350440979,0.014971544966101646,0.2516694962978363,0.581182599067688,1.142314076423645,-0.10477686673402786,0.540929913520813,-0.406828910112381,0.9270579218864441,0.4534834921360016,0.09092842042446136,-0.26389166712760925,0.6876512765884399,1.2094852924346924,0.04905761405825615,-0.08639264106750488,0.46320050954818726,-0.5061399340629578,-0.6665530204772949,-1.0838706493377686,2.2742748260498047,0.6057592630386353,0.18023422360420227,-0.18226006627082825,0.0539526492357254,1.4460450410842896,-0.27454763650894165,-0.8319444060325623,-0.9298785924911499,0.06806564331054688,-0.6724966764450073,-0.331589013338089,-0.10257802903652191,0.4825882911682129,-0.0032742125913500786,0.16872638463974,-0.3040720522403717,-0.3263799250125885,0.23653563857078552,-0.2076627016067505,0.5045605897903442,-0.6938173770904541,-0.11939747631549835,1.6443145275115967,0.2956032156944275,0.5072061419487,-0.3603883385658264,-0.3355056941509247,-1.4277949333190918,0.020036816596984863,-0.26418250799179077,0.49905380606651306,0.7651123404502869,-0.34814634919166565,-0.6057196855545044,0.370186984539032,-0.017496448010206223,-0.09290623664855957,0.3596510887145996,-0.1613588184118271,0.019538521766662598,-0.6883358955383301,1.0431642532348633,0.1656855046749115,-0.4499276578426361,0.5445049405097961,0.21132367849349976,0.07654426991939545,-0.15115948021411896,0.34230923652648926,-0.2965371012687683,-1.1580021381378174,0.4015626907348633,0.41616684198379517,-0.23962439596652985,0.45236736536026,-0.19213397800922394,0.7978755235671997,-0.4532092809677124,-0.1999717354774475,-0.1642163097858429,0.6397019028663635,1.25651216506958,0.42591530084609985,0.426290363073349,-0.17278890311717987,0.8721795082092285,0.38919174671173096,0.610960841178894,4.624332427978516,-0.3111262023448944,1.1823761463165283,0.5112033486366272,0.2326546609401703,-0.10210516303777695,-1.077226996421814,-0.26228803396224976,-0.19190753996372223,-0.12842170894145966,-0.2696303129196167,0.7191153764724731,-0.27876824140548706,-0.1397588849067688,0.47201094031333923,-0.6403564214706421,-0.5937618017196655,0.38819706439971924,0.08379381150007248,-0.13080893456935883,0.20745444297790527,0.42485836148262024,0.3967362344264984,-0.2949039041996002,0.27009302377700806,0.05391686037182808,0.3103778660297394,0.4296402931213379,-0.4198184013366699,-0.3211745023727417,-0.2834606170654297,0.39935487508773804,-0.28376078605651855,-0.3447951078414917,-0.6528734564781189,1.6890864372253418,0.2089422047138214,-0.6180776953697205,-0.06438141316175461,-1.1339504718780518,0.23416215181350708,-0.43682047724723816,0.3768865764141083,-0.39780187606811523,-0.0945635437965393,-0.14692752063274384,-0.7432979345321655,0.5030025243759155,-0.15446361899375916,-0.15861555933952332,0.1794334053993225,0.7450193166732788,-0.4551428556442261,0.09600457549095154,0.5472320914268494,0.180381178855896,-0.8922752737998962,-0.5987520813941956,-0.47496530413627625,-0.061364296823740005,0.19139482080936432,0.7740676403045654,0.2368525266647339,-1.0481958389282227,-0.4480014443397522,-0.22297142446041107,-0.07800403982400894,-0.3377818763256073,0.4272691011428833,0.43140310049057007,1.6988003253936768,1.024176836013794,0.18023037910461426,-0.2350473403930664,-0.14908716082572937,-0.5172615051269531,1.2475790977478027,-0.6452093124389648,0.2016373574733734,-0.5648723244667053,-0.41098761558532715,0.4978994131088257,-0.5691901445388794,-0.5651180744171143,0.3077530562877655,0.46898865699768066,0.9820882678031921,0.44270214438438416,1.2182990312576294,-0.2673488259315491,0.23756100237369537,-0.07926106452941895,-0.9640779495239258,0.13649937510490417,-0.18745239078998566,-0.6041611433029175,-1.0802927017211914,-0.022584445774555206,0.6498890519142151,0.06559115648269653,0.6549777388572693,-0.47388243675231934,0.18830861151218414,0.18696312606334686,-0.01132485643029213,-0.6595482230186462,0.6874732375144958,-0.11169437319040298,0.6826554536819458,0.15714986622333527,-0.13426700234413147,-0.16638512909412384,0.03220712020993233,0.40607988834381104,1.535269856452942,-0.4817257225513458,0.00877920538187027,0.6243023872375488,0.3054374158382416,-0.24576488137245178,0.19346614181995392,1.1008353233337402,-0.27036669850349426,-0.27724361419677734,0.38369452953338623,-0.07682357728481293,-0.29546838998794556,-0.24188551306724548,-0.016142480075359344,0.5816448926925659,-0.560086190700531,0.571509838104248,1.1048558950424194,1.2919632196426392,0.7224000096321106,-0.3841394782066345,-0.8436669111251831,-0.12277880311012268,0.6838176250457764,0.3263833820819855,0.03276488184928894,-0.3464958965778351,0.39159512519836426,-0.9055089354515076,-1.0373058319091797,-0.3699897527694702,0.7230510115623474,0.4810126721858978,0.014254514127969742,-0.3780478835105896,-0.4178326725959778,0.5741954445838928,-0.1847321093082428,0.413312703371048,0.4017816483974457,-0.3062749207019806,0.1692681908607483,1.0647368431091309,0.17549113929271698,-0.6420770883560181,0.18706953525543213,-1.3902274370193481,0.2199014276266098,-0.42858222126960754,0.5815742015838623,0.22150148451328278,0.38294386863708496,-0.28971418738365173,0.49798402190208435,-0.1433001160621643,0.2607097327709198,-0.20042768120765686,-0.5288978219032288,0.4890972673892975,0.07299792766571045,0.240513414144516,0.977166473865509,-0.5079812407493591,-0.4529561996459961,0.5997971892356873
Singleton,-0.34792569279670715,0.11458995193243027,0.2026636153459549,0.022258033975958824,-0.09795435518026352,-0.15149804949760437,-0.07090022414922714,0.18789012730121613,0.27496087551116943,0.4631366431713104,-0.3713057339191437,0.9559376835823059,-0.09389674663543701,-0.1838972419500351,0.768864095211029,0.006359413266181946,0.11695617437362671,0.23633384704589844,-0.04797922074794769,-0.0818767324090004,-0.018255731090903282,-0.30477556586265564,0.6751161217689514,-0.6301679015159607,0.49738743901252747,0.3591987192630768,0.044129833579063416,0.7278544902801514,-0.49299660325050354,0.9486847519874573,-0.09004870802164078,0.07617059350013733,1.6680383682250977,0.06025967001914978,0.46236684918403625,-0.2333284169435501,-0.26371797919273376,0.21486662328243256,0.0020024527329951525,-0.32947084307670593,-0.08928758651018143,0.35633671283721924,-1.1015381813049316,-0.08639442920684814,0.4826697111129761,0.26071035861968994,0.1915358453989029,-0.1705593466758728,0.03622237220406532,0.3999403417110443,0.4725082814693451,0.2349286675453186,-0.6423061490058899,-0.20660710334777832,0.3409375846385956,0.4715970456600189,-1.1080535650253296,-0.21034497022628784,-0.1871681958436966,-0.15266399085521698,-0.19819879531860352,0.003661006921902299,-0.12402713298797607,-0.06716709583997726,1.4426382780075073,0.25855544209480286,0.586543083190918,0.9330019950866699,-0.15865851938724518,0.12596265971660614,-0.3104172348976135,-0.4357205331325531,-0.13709229230880737,-0.6915538907051086,-0.5318557024002075,0.5794005990028381,-0.44817736744880676,-9.2557954788208,0.08878668397665024,0.5692924857139587,0.3458518981933594,-0.6102294921875,1.4414912462234497,0.6478565335273743,-0.4563494026660919,0.1376705914735794,-0.01337914913892746,0.2306368350982666,-0.7952882647514343,-0.09517941623926163,0.20786456763744354,0.06590035557746887,0.7672431468963623,0.5322057008743286,-0.17590884864330292,0.724605143070221,0.7727770805358887,-0.616030216217041,0.13664250075817108,-0.3792687952518463,-0.05359942838549614,-0.5459719300270081,0.5980620980262756,0.36970090866088867,0.40359732508659363,-0.6138176321983337,0.6070629954338074,-0.6514198780059814,0.43088147044181824,-0.13302142918109894,0.12862274050712585,-0.41988980770111084,0.5429891347885132,0.29806604981422424,0.16002292931079865,-0.40506410598754883,0.36687183380126953,0.2825535833835602,0.09236084669828415,-0.11349647492170334,-0.8780651092529297,0.28546178340911865,-0.4872640073299408,0.9712121486663818,-0.09736912697553635,0.3474963903427124,-0.010544899851083755,-0.03776882588863373,0.2732001841068268,0.3668879568576813,-1.1285542249679565,-0.39752015471458435,-0.34906402230262756,0.5582553148269653,0.4482293128967285,-0.41541966795921326,0.3890000283718109,0.1354965716600418,-0.46680283546447754,0.4165635406970978,-0.5594003796577454,-0.5533014535903931,-0.02069355547428131,0.28156933188438416,0.8436687588691711,-0.02381233125925064,0.04154393821954727,0.4649887979030609,0.42786064743995667,-0.30368295311927795,-0.8647704124450684,0.05598684027791023,1.3582000732421875,-0.19820375740528107,-0.04471415653824806,-2.0127105712890625,0.1991962194442749,0.11883797496557236,0.20613203942775726,-0.531361997127533,0.29441553354263306,-0.23568876087665558,-0.0072321766056120396,0.47734060883522034,0.6396828293800354,0.20116834342479706,-0.28794288635253906,-0.17446725070476532,0.049016326665878296,0.9191015362739563,-0.5051298141479492,-0.5532562136650085,-0.5584025979042053,0.02275383472442627,0.23276537656784058,0.8364121913909912,0.30337077379226685,-0.1438753455877304,-0.282177597284317,1.3004112243652344,0.4387306869029999,-0.15310664474964142,0.32650965452194214,-0.39571213722229004,-0.3636435270309448,0.4442101716995239,-0.3732984960079193,0.5397109389305115,-0.22480373084545135,-0.1808498650789261,-0.3082590401172638,-0.18522602319717407,0.3113872706890106,0.5054675936698914,-0.014234517700970173,0.10962039977312088,0.10554561764001846,0.36753228306770325,1.0231118202209473,0.07811929285526276,-0.2650221884250641,0.7161172032356262,0.3397003710269928,0.260658323764801,-0.27203866839408875,0.2243034988641739,-0.3008003532886505,0.46293172240257263,0.5714433193206787,1.3645625114440918,1.9293135404586792,0.17422616481781006,0.058072373270988464,-0.45556697249412537,-1.1968470811843872,0.13452428579330444,-0.661802351474762,-1.627286434173584,-0.44458988308906555,-0.5459532737731934,-1.5426725149154663,0.1492466777563095,-0.29183951020240784,-0.24826760590076447,-0.03223957493901253,0.14206071197986603,0.23511433601379395,-0.1662309765815735,-0.25697657465934753,0.381015807390213,-0.40174639225006104,-0.11637131124734879,-0.7339873313903809,-0.09276942163705826,-0.19249987602233887,-0.35314616560935974,-0.47269782423973083,0.37196585536003113,0.42468640208244324,-0.9456903338432312,-0.15819565951824188,0.17836548388004303,0.45140525698661804,0.8752906322479248,0.16496042907238007,-0.6518861651420593,0.3643694818019867,0.5143834948539734,0.4804054796695709,0.5711838603019714,0.14952455461025238,0.32062944769859314,0.19835250079631805,-0.08785498887300491,-0.09746696799993515,-0.3116109073162079,-0.21644026041030884,-0.2450585961341858,0.6660119295120239,2.065338373184204,0.19991278648376465,0.027225716039538383,0.6223093867301941,-0.6154153943061829,0.5261601805686951,-0.05306031182408333,0.18763548135757446,0.2294015884399414,0.6037339568138123,0.47669848799705505,1.4709762334823608,0.3561115562915802,-0.18743641674518585,0.15298150479793549,0.1982642412185669,0.19280408322811127,0.7265558242797852,0.20711009204387665,-0.7848812937736511,-0.3932112753391266,-0.36298903822898865,-0.3145769238471985,0.3239729106426239,-0.176558256149292,-0.18916189670562744,-0.27798449993133545,0.23404337465763092,0.45282673835754395,-0.104606993496418,-0.1610361933708191,0.3866596221923828,-0.5423473715782166,1.0020307302474976,-0.04903186857700348,-0.18023942410945892,0.16822069883346558,0.3253600299358368,0.5544333457946777,0.25391677021980286,-0.6021500825881958,0.35947608947753906,0.3566308915615082,-0.16119642555713654,0.16385701298713684,-0.48943793773651123,-0.1800418645143509,-0.2838633954524994,0.41993287205696106,0.24102668464183807,0.01731780357658863,0.38428500294685364,-1.0661145448684692,-0.07183113694190979,-0.2067440301179886,0.3101622760295868,-0.2695024311542511,-0.12846209108829498,0.39426687359809875,-0.34105420112609863,0.3566732108592987,0.5348474383354187,-0.22062842547893524,1.0788580179214478,-1.1150990724563599,0.6074325442314148,0.7560277581214905,-0.5901691317558289,-0.7906666398048401,-1.8085390329360962,-0.0608714260160923,-1.058798909187317,1.211347222328186,0.5723723769187927,1.618574619293213,-0.8262818455696106,-0.3696453273296356,0.44826197624206543,-0.5014919638633728,0.2225789576768875,-0.44824084639549255,-1.143174648284912,0.6095762848854065,0.29178768396377563,-0.2974783778190613,0.1810653656721115,1.0262659788131714,-0.3126355707645416,0.005971292499452829,1.3659473657608032,0.40650907158851624,-0.4770180881023407,-0.8719663619995117,-0.3794281780719757,-0.2602073848247528,0.29128941893577576,2.0811493396759033,0.4663908779621124,0.12470235675573349,0.03479200601577759,-0.24614663422107697,-0.16130663454532623,-0.20527426898479462,0.3798515498638153,1.9194021224975586,0.709002673625946,-0.1720513105392456,-0.8665575981140137,0.08555788546800613,-0.10694947093725204,0.43184033036231995,-0.0064149475656449795,-0.19150246679782867,0.011463128961622715,0.5716871619224548,0.3464118242263794,-0.1313811093568802,0.3440297842025757,-0.31368288397789,0.24901074171066284,0.17073313891887665,-0.7267155647277832,0.37994813919067383,0.11966005712747574,-0.0021141062024980783,0.3192344605922699,-1.951595425605774,0.5092816948890686,-0.2451586276292801,1.486136794090271,-0.05191631615161896,0.04342566058039665,0.19509656727313995,0.225991889834404,-0.467028945684433,-0.3134489953517914,0.32502344250679016,0.0208746287971735,0.4297749996185303,-0.37627628445625305,-0.4401882588863373,-0.5797059535980225,0.12690892815589905,-0.07802093029022217,-0.16042877733707428,-0.25062835216522217,0.08996353298425674,-0.25515511631965637,-0.09116653352975845,-0.3271215856075287,0.9676127433776855,-0.4730461537837982,1.8766647577285767,-0.3104582726955414,0.12611810863018036,-0.06951671093702316,0.34355321526527405,0.5409796237945557,-0.6608567237854004,0.23911289870738983,0.43811681866645813,0.10955066233873367,0.3252657353878021,0.4307664930820465,-0.46631526947021484,0.7497222423553467,-0.07377749681472778,0.137388676404953,-0.055752772837877274,-0.41859665513038635,-0.46875718235969543,-0.5131862759590149,0.08032375574111938,0.23295266926288605,0.3153534233570099,-0.6184744238853455,-0.3110802173614502,-0.47218021750450134,-0.28293153643608093,0.4248313903808594,0.32520583271980286,0.3666468858718872,0.20247487723827362,0.528861403465271,0.15580175817012787,-0.20366986095905304,0.2634325325489044,-0.41836488246917725,1.5609019994735718,0.43744751811027527,-0.6470423936843872,0.3216261863708496,0.28693094849586487,0.22135908901691437,-0.5589234232902527,0.44485417008399963,-0.5083911418914795,0.22020487487316132,-0.06256932765245438,0.4656369984149933,0.4089420735836029,-0.07965397089719772,-0.028951222077012062,0.3093254864215851,-0.2525582015514374,0.24859808385372162,-1.5168033838272095,0.48126426339149475,-0.19590456783771515,0.23726646602153778,0.20318754017353058,-0.9146223068237305,0.18755276501178741,-0.4107668101787567,-0.49457335472106934,-0.28887149691581726,0.059122052043676376,-0.45530465245246887,1.6490516662597656,0.3803158700466156,1.7289320230484009,0.023831576108932495,-0.49232760071754456,-0.21784119307994843,-0.7065690159797668,0.7338410019874573,0.4487381875514984,-0.08886157721281052,-0.3978634774684906,-0.06462647765874863,-0.5228310227394104,-0.6548075675964355,-0.23752491176128387,-0.3700331151485443,0.7935147881507874,-0.5304499864578247,0.052871763706207275,-0.050826430320739746,0.5612877011299133,-0.6559202075004578,0.7603906989097595,-0.0011014193296432495,0.33150652050971985,0.2721782922744751,1.5801931619644165,-0.10534081608057022,0.4375472962856293,-0.420373797416687,1.1786752939224243,0.3900056779384613,-0.04665765538811684,-0.09337565302848816,0.49196162819862366,1.0746179819107056,0.09175226837396622,-0.08536312729120255,0.27932479977607727,-0.48331210017204285,-0.6051573753356934,-0.6551723480224609,2.167834520339966,0.5421714186668396,0.25309044122695923,-0.31288331747055054,0.09103568643331528,1.5722508430480957,-0.24114519357681274,-0.939777672290802,-0.8907797932624817,0.034804780036211014,-0.5141382813453674,-0.5440462231636047,-0.17388057708740234,0.3674752414226532,-0.0664876252412796,0.5062471032142639,-0.1743963360786438,-0.24092675745487213,0.052155639976263046,-0.4404805600643158,0.3779793679714203,-0.5184766054153442,-0.3337486684322357,1.6230660676956177,0.1754332035779953,0.4209776818752289,-0.25858762860298157,-0.5298880338668823,-1.5910214185714722,-0.1779029220342636,-0.2348356992006302,0.5520323514938354,0.9488310813903809,-0.31544139981269836,-0.30119016766548157,0.5089640021324158,0.0820045992732048,-0.19429504871368408,0.3649340867996216,-0.2703761160373688,0.12632645666599274,-0.6326900124549866,0.9614165425300598,0.07613309472799301,-0.43118587136268616,0.40988507866859436,0.015267265029251575,-0.039704158902168274,-0.14332595467567444,0.21359825134277344,-0.2576136887073517,-1.6563425064086914,0.5099925994873047,0.4954843819141388,-0.41656169295310974,0.5190786123275757,-0.08957872539758682,0.7862418293952942,-0.19299329817295074,0.043474506586790085,0.040473952889442444,0.5899739861488342,1.5620919466018677,0.394235223531723,0.20171815156936646,-0.14491920173168182,0.9193447232246399,0.24774402379989624,0.5246935486793518,4.864266395568848,-0.2804528772830963,1.316412091255188,0.4945314824581146,0.19634371995925903,-0.050732553005218506,-1.2159255743026733,-0.3148723244667053,-0.22286999225616455,-0.09016432613134384,-0.3150542676448822,0.570415198802948,-0.45267453789711,-0.22048939764499664,0.4902571439743042,-0.4844338595867157,-0.5802826285362244,0.35218581557273865,0.13603435456752777,-0.07646870613098145,0.2841029465198517,0.3309379518032074,0.3509068191051483,-0.3442800045013428,0.34280991554260254,-0.13180305063724518,0.4327372610569,0.2998746335506439,-0.36891400814056396,-0.00855130422860384,-0.11285383254289627,0.5296123623847961,-0.4576864540576935,-0.43583163619041443,-0.5353592038154602,1.723805546760559,0.5798950791358948,-0.6012071967124939,0.04545946791768074,-1.4532028436660767,0.41112640500068665,-0.5157892107963562,0.2752358019351959,-0.1486065536737442,0.08204243332147598,-0.1357012540102005,-0.859714925289154,0.43066754937171936,0.032860998064279556,-0.046396393328905106,0.20595364272594452,0.7555329203605652,-0.4848477840423584,-0.13796497881412506,0.5267646312713623,0.3210568428039551,-1.0541105270385742,-0.7100297808647156,-0.7995765209197998,-0.3031664788722992,0.1900390386581421,0.6328917741775513,0.22251279652118683,-1.1816343069076538,-0.703816831111908,-0.4265004098415375,-0.2470412701368332,0.007725164294242859,0.49548959732055664,0.3432636559009552,1.854331374168396,0.9967360496520996,0.2702832520008087,0.056235771626234055,-0.32215091586112976,-0.3106096684932709,1.1300324201583862,-0.5853059887886047,0.3042930066585541,-0.5462244153022766,-0.31049951910972595,0.32249051332473755,-0.7093290686607361,-0.4928402006626129,0.24782152473926544,0.23519378900527954,0.9439303874969482,0.2610557973384857,1.5463422536849976,-0.27491822838783264,0.1487550437450409,-0.1914035826921463,-1.017891764640808,0.10142529755830765,-0.0378863699734211,-0.37174829840660095,-1.5593761205673218,-0.02344055287539959,0.46657487750053406,0.2521795332431793,0.6272761821746826,-0.5119172930717468,0.36407721042633057,0.15100137889385223,-0.1447574645280838,-0.694744884967804,0.7257327437400818,-0.32139161229133606,0.6402258276939392,0.07020684331655502,-0.2430548220872879,-0.39387479424476624,0.004084875341504812,0.31180402636528015,1.6319087743759155,-0.4457506239414215,-0.026431342586874962,0.506392776966095,0.1620701402425766,-0.2687620222568512,0.45631369948387146,1.1435245275497437,-0.30298665165901184,-0.17050401866436005,0.2642067074775696,-0.08164731413125992,-0.06240976229310036,-0.3196518123149872,-0.1809619516134262,0.7759630680084229,-0.42445483803749084,0.46248483657836914,1.0052008628845215,1.4038257598876953,0.5681722164154053,-0.3771243989467621,-0.8373625874519348,0.0570053867995739,0.3663572371006012,0.3002161681652069,0.13129203021526337,-0.4687329828739166,0.26961615681648254,-0.26162365078926086,-1.0898021459579468,-0.4816562235355377,0.6496840119361877,0.09495065361261368,-0.12952212989330292,-0.3084201216697693,-0.38742128014564514,0.6249365210533142,-0.27289727330207825,0.5233140587806702,0.46674907207489014,-0.32651999592781067,0.2512901723384857,1.2873395681381226,0.25976935029029846,-0.6747572422027588,0.3467724323272705,-1.5203351974487305,0.2636999487876892,-0.4531733989715576,0.40966305136680603,0.20083145797252655,0.6410977244377136,-0.2015436887741089,0.3924351930618286,-0.23186950385570526,0.3706829845905304,-0.09104809910058975,-0.3986813724040985,0.45164307951927185,-0.15925824642181396,0.2906322181224823,0.7371240258216858,-0.618410050868988,-0.4404667913913727,0.5334134697914124
Singleton,-0.44124501943588257,0.13767826557159424,0.21611277759075165,0.0002507037715986371,-0.3737329840660095,-0.5296207070350647,-0.0694185346364975,0.22136397659778595,0.49212953448295593,0.517328143119812,-0.3692609667778015,0.9141613841056824,-0.2244451344013214,-0.06279642879962921,0.8709239959716797,-0.13593189418315887,0.1562810242176056,0.3334296643733978,-0.08214310556650162,0.09191150218248367,-0.24694855511188507,-0.27812448143959045,0.6889312267303467,-0.37388038635253906,0.6368383169174194,0.39309412240982056,0.009585734456777573,0.7814554572105408,-0.6149961948394775,0.8315617442131042,-0.2770594358444214,-0.053181473165750504,1.3180872201919556,0.2132306545972824,0.5265991687774658,-0.2767145335674286,-0.3591676652431488,0.2509916424751282,0.03982345387339592,-0.2785428464412689,0.08863844722509384,0.45129695534706116,-0.8996908664703369,-0.24608966708183289,0.4777112603187561,0.34858646988868713,0.4662186801433563,-0.1209912821650505,0.09134551882743835,0.5655118227005005,0.5625743269920349,0.226412832736969,-0.5389230251312256,-0.16093221306800842,0.430981308221817,0.5638604760169983,-1.0161786079406738,-0.6382230520248413,-0.13274110853672028,-0.5355267524719238,-0.13761752843856812,-0.12614785134792328,-0.3270941972732544,-0.32916057109832764,1.2022656202316284,0.22178180515766144,0.4845029413700104,0.5959646701812744,-0.17336498200893402,0.3123757839202881,-0.26357874274253845,-0.3105035126209259,-0.273677796125412,-0.6094797849655151,-0.6154438853263855,0.6880480647087097,-0.3469752073287964,-8.211139678955078,0.007935111410915852,0.4452272057533264,0.3803828954696655,-0.6385453343391418,1.7697170972824097,0.6884942650794983,-0.60523521900177,0.34794509410858154,0.0955827459692955,0.23984970152378082,-0.6214754581451416,-0.155466690659523,0.2805318236351013,0.056317515671253204,0.5758703351020813,0.8067572712898254,-0.14457885921001434,0.8509997725486755,0.6136993169784546,-0.4051021635532379,0.10657998919487,-0.4393957555294037,-0.24863648414611816,-0.6025367975234985,0.5318665504455566,0.5788052082061768,0.27047431468963623,-0.510847806930542,0.3847595751285553,-0.7559795379638672,0.48637855052948,-0.27602359652519226,0.018123097717761993,-0.3518471121788025,0.8795656561851501,0.19001716375350952,0.25678718090057373,-0.3127521574497223,0.3625551462173462,0.3023701012134552,0.04569273069500923,0.01682838425040245,-0.7170939445495605,0.33793187141418457,-0.22060394287109375,0.7764639258384705,-0.16000716388225555,0.19501911103725433,-0.12300719320774078,0.04397566616535187,0.06528571993112564,0.23255401849746704,-0.9679225087165833,-0.9278561472892761,-0.4255416989326477,0.5527862310409546,0.5383208990097046,-0.580176830291748,0.3721688389778137,0.041030194610357285,-0.38836848735809326,0.33194878697395325,-0.4492946267127991,-0.6102837920188904,-0.1825256049633026,0.1373746395111084,1.0811562538146973,-0.1233040913939476,-0.03226958587765694,0.4679102897644043,0.2324569821357727,-0.41220006346702576,-0.8095974326133728,0.014688304625451565,1.079895257949829,-0.12232543528079987,-0.10521910339593887,-1.911934733390808,0.09949365258216858,0.38508784770965576,0.31714266538619995,-0.41103407740592957,0.40769311785697937,-0.16711586713790894,0.01735171303153038,0.4634241461753845,0.5624478459358215,0.2033107429742813,-0.32026171684265137,0.10122857242822647,0.33138033747673035,0.8951807022094727,-0.36814233660697937,-0.4584495723247528,-0.6431970000267029,-0.05034797638654709,0.3371431827545166,0.7488620281219482,0.25504687428474426,-0.05739017203450203,-0.3463948965072632,1.0909855365753174,0.550922691822052,-0.30424055457115173,0.2472919374704361,-0.6009274125099182,-0.3643295466899872,0.2140127420425415,-0.38752326369285583,0.6964166164398193,-0.11272188276052475,-0.05512888729572296,-0.3096073865890503,-0.3787519335746765,0.1887240707874298,0.4830107092857361,0.023494195193052292,0.12905852496623993,0.03234437108039856,0.43062493205070496,1.0578947067260742,0.14944905042648315,-0.37476804852485657,1.0215027332305908,0.5958817005157471,0.38069456815719604,0.14730897545814514,0.23699651658535004,-0.0878434032201767,0.4838557839393616,0.7008399367332458,1.395697832107544,1.712256908416748,0.04011556878685951,0.14966601133346558,-0.4376436471939087,-0.963179349899292,0.09218769520521164,-0.6915401220321655,-1.2630908489227295,-0.5718391537666321,-0.4409278631210327,-1.3775269985198975,0.2105063796043396,-0.2862921953201294,-0.2831566333770752,-0.2564614713191986,0.020332613959908485,0.3649853467941284,-0.2748274803161621,-0.2683134377002716,0.3888222277164459,-0.3233432471752167,-0.3123401403427124,-1.0300720930099487,-0.21227113902568817,-0.032905612140893936,-0.4451715052127838,-0.5342200398445129,0.4981357753276825,0.41226160526275635,-0.9036994576454163,-0.16349859535694122,0.2631519138813019,0.7150846123695374,0.9727858304977417,-0.03856724500656128,-0.6792943477630615,0.4018856883049011,0.35606837272644043,0.6276577711105347,0.525800347328186,0.27676230669021606,0.5418580174446106,0.35452890396118164,-0.2991880476474762,-0.11159780621528625,-0.4183647632598877,-0.19947752356529236,-0.4874868392944336,0.8577052354812622,1.8235503435134888,0.2881107032299042,0.0027195331640541553,0.6052263379096985,-0.7472394108772278,0.2740684449672699,0.11086848378181458,0.3047338128089905,0.3644483685493469,0.8309298753738403,0.42618662118911743,1.2807743549346924,0.30919092893600464,-0.3362976610660553,0.1922810673713684,0.21807904541492462,0.1576279252767563,0.43554937839508057,0.2293732911348343,-0.838625431060791,-0.2490171641111374,-0.5184176564216614,-0.5285841822624207,0.5478532314300537,-0.05140727013349533,-0.2860066890716553,-0.2643206715583801,-0.051275745034217834,0.6556191444396973,-0.038533393293619156,-0.15686780214309692,0.25734570622444153,-0.4711570143699646,1.0947433710098267,0.12458786368370056,-0.13958199322223663,0.3066793382167816,0.47561025619506836,0.552505612373352,0.29648658633232117,-0.6850228309631348,0.03425998240709305,0.422394335269928,0.030098553746938705,0.052849844098091125,-0.3617393672466278,-0.38734114170074463,-0.06698377430438995,0.36707860231399536,0.293617308139801,-0.24138276278972626,0.3583594560623169,-0.9706713557243347,-0.15446241199970245,0.008385648019611835,0.2719939947128296,-0.07340466231107712,-0.14320053160190582,0.18997523188591003,-0.42706412076950073,0.27997085452079773,0.36929580569267273,-0.11158780008554459,1.0205297470092773,-0.891777753829956,0.6481258869171143,0.8292515873908997,-0.6224691271781921,-0.8459364771842957,-1.4906909465789795,-0.1129160076379776,-1.157524824142456,1.4619194269180298,0.5842322111129761,1.6586400270462036,-0.6730973124504089,-0.4094235897064209,0.2804822623729706,-0.4780932664871216,0.22087286412715912,-0.5424883365631104,-1.0994282960891724,0.6472765207290649,0.27256572246551514,-0.3548513352870941,0.4259192943572998,0.9823837280273438,-0.3298618495464325,-0.028258224949240685,1.1693753004074097,0.4382891058921814,-0.4603811800479889,-0.8750887513160706,-0.2919161915779114,-0.33084845542907715,0.438884437084198,2.0227913856506348,0.6517971754074097,0.05134188383817673,0.2504262328147888,-0.576793909072876,-0.21327078342437744,-0.12895572185516357,0.47874757647514343,1.8948936462402344,0.5813851356506348,-0.08082041889429092,-0.6400452852249146,0.18436545133590698,-0.18056416511535645,0.3292245864868164,-0.054032422602176666,-0.2140628546476364,0.13945473730564117,0.6453480124473572,0.10974202305078506,-0.14321278035640717,0.5553582906723022,-0.16291792690753937,0.2702423930168152,-0.015273017808794975,-0.7721729278564453,0.3617287874221802,0.20049794018268585,-0.009953247383236885,0.3735269606113434,-1.772017002105713,0.571832001209259,-0.38907724618911743,1.3583528995513916,-0.1151670515537262,0.23726855218410492,0.40189602971076965,0.12054533511400223,-0.3555729389190674,-0.25832223892211914,0.294977068901062,0.15029668807983398,-0.10952282696962357,-0.16345831751823425,-0.4187146723270416,-0.5151066184043884,0.26065322756767273,-0.2925776541233063,0.011740267276763916,-0.3525351285934448,0.002909312257543206,-0.28717461228370667,-0.12117031216621399,-0.542667031288147,0.5593069195747375,-0.4159126281738281,1.5083534717559814,-0.1915893852710724,0.2259158045053482,-0.0838664099574089,0.5096135139465332,0.5562989711761475,-0.8403844237327576,0.4352456033229828,0.4045741856098175,-0.051840610802173615,0.3153490722179413,0.6184303760528564,-0.4437158405780792,0.7822327613830566,-0.23020890355110168,0.19521546363830566,0.018250349909067154,-0.6096882820129395,-0.5864076614379883,-0.6086901426315308,0.3014635443687439,0.14175842702388763,0.03710658848285675,-0.6540990471839905,-0.37146174907684326,-0.5394023656845093,-0.3752218782901764,0.39431583881378174,0.32563430070877075,0.6192995309829712,0.3236801028251648,0.562368631362915,0.30285361409187317,0.054293062537908554,0.3910571336746216,-0.6237419843673706,1.3341044187545776,0.4367445111274719,-0.7762849926948547,0.5326903462409973,0.020608415827155113,0.3589540719985962,-1.082861304283142,0.3569745719432831,-0.4467635750770569,0.2122674137353897,-0.014067345298826694,0.4885222613811493,0.38036805391311646,-0.19162939488887787,0.0657566711306572,0.34568917751312256,-0.263399213552475,0.4294411540031433,-1.3460170030593872,0.3868692219257355,-0.13056990504264832,0.5992751717567444,0.344329297542572,-0.8237416744232178,0.29352867603302,-0.3796353340148926,-0.5137201547622681,-0.4049200415611267,-0.09250501543283463,-0.4011831283569336,1.7124830484390259,0.4983987808227539,1.4911322593688965,-0.05876150354743004,-0.5626233816146851,-0.3283214271068573,-0.5715656280517578,0.665883481502533,0.4073542058467865,-0.15039440989494324,-0.4452120363712311,0.012766234576702118,-0.528893232345581,-0.7350165843963623,-0.4114350974559784,-0.5220587849617004,0.8777204751968384,-0.6498839259147644,0.2045091986656189,-0.16721436381340027,0.7469236254692078,-0.5919370055198669,0.6659371852874756,0.024629371240735054,0.2049766480922699,0.5118634104728699,1.1329602003097534,-0.13109004497528076,0.5133147835731506,-0.4013272523880005,1.0259431600570679,0.5149655342102051,0.11682241410017014,-0.14729700982570648,0.72884601354599,1.2127643823623657,0.031800780445337296,-0.08669747412204742,0.4302004873752594,-0.40113019943237305,-0.6545741558074951,-1.0339771509170532,2.0871529579162598,0.5892598628997803,0.1190214529633522,-0.16677452623844147,-0.006744792219251394,1.47218918800354,-0.2645677924156189,-0.9288991093635559,-0.8751887679100037,0.12395090609788895,-0.6811695694923401,-0.3479638695716858,-0.13202573359012604,0.6256381273269653,-0.04865901917219162,0.2791353762149811,-0.3441692590713501,-0.29942840337753296,0.2830837368965149,-0.05524136498570442,0.48904725909233093,-0.547537088394165,-0.2908300757408142,1.6597657203674316,0.3575402498245239,0.54718416929245,-0.39217042922973633,-0.42779722809791565,-1.4827313423156738,-0.12176144123077393,-0.22810059785842896,0.6396566033363342,0.910990834236145,-0.39518657326698303,-0.49078404903411865,0.31486594676971436,-0.0066132149659097195,-0.0747399628162384,0.3788822293281555,-0.19222573935985565,0.008738623932003975,-0.6431934833526611,0.8381555080413818,0.22154830396175385,-0.3992384970188141,0.5805706977844238,0.1276986002922058,-0.014993740245699883,-0.14341922104358673,0.28903934359550476,-0.29012420773506165,-0.9748732447624207,0.47181859612464905,0.5962424278259277,-0.27214816212654114,0.526814877986908,-0.18671372532844543,0.863735020160675,-0.3429309129714966,-0.15099704265594482,-0.1639268547296524,0.688149631023407,1.2772526741027832,0.5189950466156006,0.3415285348892212,-0.11689404398202896,0.9805328845977783,0.17057761549949646,0.597787618637085,4.419161796569824,-0.33495384454727173,1.2276636362075806,0.3998108208179474,0.23605483770370483,-0.09870143979787827,-1.166711449623108,-0.3097822666168213,-0.32069265842437744,-0.17124523222446442,-0.44503605365753174,0.7965242862701416,-0.22875012457370758,-0.22687609493732452,0.4633376896381378,-0.59978848695755,-0.31147751212120056,0.3209533989429474,0.14949378371238708,-0.059745900332927704,0.20724636316299438,0.4668908715248108,0.3155912458896637,-0.0779375433921814,0.2862904965877533,-0.07948002219200134,0.42272523045539856,0.3485952615737915,-0.45616796612739563,-0.3177902102470398,-0.15300947427749634,0.39450958371162415,-0.3186887204647064,-0.3726680278778076,-0.5767514705657959,1.8171217441558838,0.40314069390296936,-0.5701625943183899,-0.07550150156021118,-1.220497727394104,0.286329448223114,-0.3602626621723175,0.3772566318511963,-0.4675227701663971,-0.06422204524278641,-0.1627437174320221,-0.5674960017204285,0.4824308753013611,-0.23658445477485657,-0.08391258120536804,0.1975627839565277,0.6501561403274536,-0.5195302963256836,0.027455119416117668,0.5343922972679138,0.041524823755025864,-0.8610168099403381,-0.7253763675689697,-0.5122924447059631,-0.2119748592376709,0.19389456510543823,0.735913872718811,0.16485485434532166,-1.0067030191421509,-0.5630630254745483,-0.25998035073280334,-0.1161658763885498,-0.30563297867774963,0.4947758913040161,0.29814770817756653,1.6080819368362427,0.9189221858978271,0.25823649764060974,-0.3040153384208679,-0.13288989663124084,-0.38960546255111694,1.3330485820770264,-0.6089702248573303,0.16382551193237305,-0.639197051525116,-0.4623650908470154,0.5848987102508545,-0.5365015864372253,-0.5188669562339783,0.4817209243774414,0.44089365005493164,0.9049031138420105,0.5050336718559265,1.2616257667541504,-0.3623635470867157,0.39340269565582275,-0.014316605404019356,-0.8615424633026123,0.035146284848451614,-0.2769473195075989,-0.5053992867469788,-1.2365045547485352,-0.05343429371714592,0.7007274627685547,-0.02578284591436386,0.7588269710540771,-0.5734972357749939,0.2196207195520401,0.25511687994003296,0.0660577043890953,-0.5972363948822021,0.6840847730636597,-0.3159913122653961,0.7190577387809753,0.21811990439891815,-0.08938959985971451,-0.21713411808013916,0.0956166610121727,0.3162308633327484,1.5407449007034302,-0.44084301590919495,-0.030811429023742676,0.6272486448287964,0.21630899608135223,-0.20838603377342224,0.23263056576251984,1.1423622369766235,-0.25995200872421265,-0.30900806188583374,0.33277490735054016,-0.010833320207893848,-0.35081276297569275,-0.14678966999053955,-0.012600173242390156,0.5785483121871948,-0.5694083571434021,0.5084103345870972,1.006512999534607,1.4037076234817505,0.7374899387359619,-0.37523725628852844,-0.6740081906318665,-0.17739957571029663,0.7112501859664917,0.3037185072898865,0.03745655342936516,-0.3793865442276001,0.3835192322731018,-1.0506253242492676,-1.1247835159301758,-0.29213747382164,0.5598437786102295,0.3853961229324341,0.0013571149902418256,-0.39395684003829956,-0.4217349588871002,0.640108585357666,-0.23383729159832,0.36395883560180664,0.3725917637348175,-0.45559296011924744,0.22602452337741852,1.2033321857452393,0.07027729600667953,-0.5870345830917358,0.06514664739370346,-1.3399271965026855,0.23703040182590485,-0.5770530104637146,0.5721253752708435,0.14272740483283997,0.34319472312927246,-0.2528758943080902,0.6357943415641785,-0.14417889714241028,0.44163769483566284,-0.1605210155248642,-0.5029970407485962,0.5400010347366333,0.02209516614675522,0.2664289176464081,0.9074509739875793,-0.629695475101471,-0.43562713265419006,0.6877045035362244
Factory,-0.3942891061306,0.1813284009695053,0.26147696375846863,-0.06422179192304611,-0.3046268820762634,-0.42933329939842224,-0.08900981396436691,0.1961992233991623,0.4086257517337799,0.4642525315284729,-0.3701415956020355,0.852921187877655,-0.21916399896144867,-0.05778327211737633,0.8580905199050903,-0.09573205560445786,0.18484258651733398,0.27797773480415344,-0.12945756316184998,0.0028544734232127666,-0.2089184820652008,-0.30534157156944275,0.5726256966590881,-0.4157901406288147,0.42204251885414124,0.3394954800605774,-0.06084991246461868,0.7819143533706665,-0.4901074469089508,0.8157433271408081,-0.19658263027668,-0.032531410455703735,1.435171127319336,0.16547434031963348,0.38403084874153137,-0.292728990316391,-0.25478771328926086,0.25758153200149536,0.05618375539779663,-0.2615979015827179,0.021335776895284653,0.42739346623420715,-1.0502504110336304,-0.14704355597496033,0.47582313418388367,0.2752293646335602,0.3938610851764679,-0.14183780550956726,0.09034425020217896,0.497311532497406,0.4988109767436981,0.26577526330947876,-0.5758980512619019,-0.2705220580101013,0.45310354232788086,0.5519935488700867,-1.1224991083145142,-0.6564995050430298,-0.12288568913936615,-0.3873884975910187,-0.08541293442249298,-0.09834771603345871,-0.3305169939994812,-0.26599836349487305,1.3526055812835693,0.26885250210762024,0.5752090811729431,0.7701268196105957,-0.20089241862297058,0.2536872923374176,-0.17741659283638,-0.3180278241634369,-0.18410488963127136,-0.6246028542518616,-0.6282445788383484,0.6352565884590149,-0.3396836221218109,-8.176716804504395,0.054232899099588394,0.5116279721260071,0.3769935667514801,-0.5510671138763428,1.4913443326950073,0.6421018242835999,-0.5768833160400391,0.22543677687644958,0.07216698676347733,0.19961687922477722,-0.6963644027709961,-0.09991300851106644,0.32298097014427185,0.07094898819923401,0.6115856766700745,0.7006500363349915,-0.14793644845485687,0.7398955225944519,0.569100558757782,-0.43486127257347107,0.03797714039683342,-0.4871746599674225,-0.19013702869415283,-0.5896911025047302,0.49946099519729614,0.40443184971809387,0.31064698100090027,-0.5550767183303833,0.3070536255836487,-0.7182287573814392,0.4387401044368744,-0.29269886016845703,0.01846185326576233,-0.3901003301143646,0.7944967150688171,0.1538243293762207,0.24247948825359344,-0.30635562539100647,0.35677215456962585,0.2616320252418518,0.09085459262132645,0.09757484495639801,-0.8120414614677429,0.3462614119052887,-0.324247807264328,0.7987414002418518,-0.25002551078796387,0.26422321796417236,-0.08209720999002457,-0.002149060368537903,0.1510370820760727,0.24142859876155853,-1.0086400508880615,-0.8309248685836792,-0.39872175455093384,0.5031672716140747,0.5523463487625122,-0.49203965067863464,0.3469906151294708,0.1341981440782547,-0.33283814787864685,0.4002261161804199,-0.5445281863212585,-0.5829591751098633,-0.21972990036010742,0.19364142417907715,0.8772326111793518,-0.08807051181793213,0.04824970290064812,0.4513208866119385,0.3136139214038849,-0.3254219889640808,-0.7265357375144958,0.02962653525173664,1.26718270778656,-0.12014324218034744,0.07721517980098724,-1.9521429538726807,0.14058716595172882,0.2642401158809662,0.27062419056892395,-0.3012363612651825,0.35362935066223145,-0.13485899567604065,0.0486096553504467,0.49239060282707214,0.5389728546142578,0.18217501044273376,-0.3515150845050812,-0.020997609943151474,0.2039412260055542,0.8673820495605469,-0.4039213955402374,-0.48117777705192566,-0.576910674571991,-0.03995874151587486,0.3658471703529358,0.7874679565429688,0.22662055492401123,-0.006883520167320967,-0.35202059149742126,1.1474405527114868,0.4271063804626465,-0.2455735057592392,0.28307026624679565,-0.515070378780365,-0.33195963501930237,0.3375329375267029,-0.3032186031341553,0.6291297078132629,-0.11881168931722641,-0.10930217057466507,-0.3098425269126892,-0.33360618352890015,0.13872112333774567,0.6077231168746948,0.05477458983659744,0.11009808629751205,0.06709081679582596,0.3067467510700226,0.9816423654556274,0.10686306655406952,-0.3872237801551819,0.8056107759475708,0.4221276640892029,0.36393052339553833,-0.030235154554247856,0.2811881899833679,-0.28491687774658203,0.5254799127578735,0.6271852254867554,1.364158272743225,1.7686872482299805,0.051369328051805496,0.08443218469619751,-0.54286789894104,-0.941953182220459,0.23281481862068176,-0.6843619346618652,-1.2320754528045654,-0.47923406958580017,-0.4957680404186249,-1.4285610914230347,0.24426044523715973,-0.23808906972408295,-0.17038975656032562,-0.11958707123994827,0.03501046076416969,0.30874937772750854,-0.2135278284549713,-0.29717200994491577,0.2907285988330841,-0.37712720036506653,-0.26070278882980347,-0.8383596539497375,-0.1605362892150879,-0.047835297882556915,-0.39026182889938354,-0.5296165347099304,0.3839065432548523,0.3271840512752533,-0.9861884117126465,-0.33693790435791016,0.2252567708492279,0.5766633749008179,0.9181554913520813,0.10919149965047836,-0.7587095499038696,0.3865845501422882,0.5105665326118469,0.6350262761116028,0.6533164978027344,0.21941839158535004,0.3754903972148895,0.2926352918148041,-0.20852527022361755,-0.08122845739126205,-0.32308462262153625,-0.19755350053310394,-0.39774221181869507,0.6756964325904846,1.8390909433364868,0.22206053137779236,-0.014563211239874363,0.6205822229385376,-0.7394250631332397,0.31671732664108276,-0.06706952303647995,0.2739884555339813,0.36934730410575867,0.7240983247756958,0.3893094062805176,1.3651202917099,0.33936625719070435,-0.2468693107366562,0.19995808601379395,0.18428386747837067,0.1371900886297226,0.3872767984867096,0.14834046363830566,-0.8713002800941467,-0.2660360336303711,-0.35869333148002625,-0.5389465689659119,0.6108390688896179,-0.13404473662376404,-0.2100658267736435,-0.25870686769485474,-0.025661932304501534,0.5640764236450195,-0.10744082182645798,-0.09115768224000931,0.33412984013557434,-0.5146388411521912,1.076316237449646,0.0982460156083107,-0.21543988585472107,0.2592126429080963,0.3998577296733856,0.5370851159095764,0.29074516892433167,-0.5537803769111633,0.18830335140228271,0.42139163613319397,-0.0792505070567131,0.014817711897194386,-0.35545143485069275,-0.34012556076049805,-0.23874209821224213,0.357759565114975,0.1971016228199005,-0.16857925057411194,0.3732697367668152,-0.9459647536277771,-0.13071419298648834,-0.12651200592517853,0.2959029972553253,-0.14005210995674133,-0.11110751330852509,0.34112945199012756,-0.3700544834136963,0.3310690224170685,0.33698543906211853,-0.07149321585893631,0.9964866638183594,-1.0180891752243042,0.5478081107139587,0.806899905204773,-0.6261685490608215,-0.7641416788101196,-1.4328263998031616,-0.16762685775756836,-0.9032381772994995,1.0810587406158447,0.5834394693374634,1.5938127040863037,-0.7180510759353638,-0.3742535710334778,0.34084266424179077,-0.4931516647338867,0.19217798113822937,-0.46649831533432007,-1.0447105169296265,0.6317569017410278,0.27163997292518616,-0.2748406231403351,0.28110530972480774,1.0200673341751099,-0.2555217146873474,-0.03949771076440811,1.242569088935852,0.40714865922927856,-0.46022072434425354,-0.8362377882003784,-0.2855243980884552,-0.2768353521823883,0.4470510184764862,1.971118688583374,0.6372029185295105,0.11034668982028961,0.0803740844130516,-0.4459146559238434,-0.1811225265264511,-0.14176808297634125,0.3916909992694855,1.9238249063491821,0.6107321977615356,-0.07747722417116165,-0.7016394734382629,0.1317313313484192,-0.19075271487236023,0.29904553294181824,-0.003957435023039579,-0.14602015912532806,0.09812117367982864,0.5364485383033752,0.1438174992799759,-0.15595945715904236,0.47849372029304504,-0.2164849042892456,0.21978111565113068,0.1245984211564064,-0.7498635053634644,0.3666593134403229,0.28907510638237,0.011799152009189129,0.39863327145576477,-1.8539892435073853,0.5592525601387024,-0.3392210900783539,1.4354406595230103,-0.07895761728286743,0.20235632359981537,0.42992615699768066,0.22959385812282562,-0.36648842692375183,-0.29449114203453064,0.2826344072818756,0.11979871243238449,-0.12502267956733704,-0.15060019493103027,-0.43361857533454895,-0.43582960963249207,0.1352721005678177,-0.1346396654844284,-0.06140059977769852,-0.21359583735466003,0.04372817650437355,-0.44938114285469055,-0.1368105113506317,-0.435558021068573,0.5930956602096558,-0.4399448335170746,1.7421103715896606,-0.2135770320892334,-0.008397090248763561,-0.13901399075984955,0.37555190920829773,0.49463778734207153,-0.8476517796516418,0.3522925078868866,0.39699727296829224,0.07486651092767715,0.2750774919986725,0.5662502646446228,-0.44931721687316895,0.7328980565071106,-0.19077816605567932,0.19548450410366058,0.021299753338098526,-0.5442553162574768,-0.5332114696502686,-0.4806008040904999,0.23060914874076843,0.10123629122972488,0.1056487187743187,-0.6563230752944946,-0.2717123329639435,-0.5420973896980286,-0.32182618975639343,0.4766197204589844,0.39105039834976196,0.5527970194816589,0.27507099509239197,0.4980892241001129,0.24073632061481476,0.004899352788925171,0.43361806869506836,-0.46660274267196655,1.3884555101394653,0.5024069547653198,-0.7522996068000793,0.3789861798286438,0.10373703390359879,0.35122042894363403,-0.7956473231315613,0.5023559927940369,-0.44029951095581055,0.18708178400993347,-0.010463139042258263,0.5159439444541931,0.4281623065471649,-0.20911046862602234,0.109288290143013,0.28711074590682983,-0.2542155385017395,0.3167710602283478,-1.4640071392059326,0.46305084228515625,-0.17190667986869812,0.4865287244319916,0.2008688747882843,-0.8429606556892395,0.20660939812660217,-0.2815384566783905,-0.4117828905582428,-0.2911970615386963,-0.030296310782432556,-0.3541366159915924,1.76669442653656,0.41007858514785767,1.5989532470703125,-0.043226975947618484,-0.5203199982643127,-0.21053896844387054,-0.6652558445930481,0.6281992197036743,0.36548465490341187,-0.15568725764751434,-0.35522326827049255,0.004890586715191603,-0.5694084763526917,-0.6599947214126587,-0.28255733847618103,-0.5264924764633179,0.7692362666130066,-0.5961901545524597,0.16859093308448792,-0.02966487780213356,0.7034446597099304,-0.583842933177948,0.7035537958145142,0.05266572907567024,0.2262517362833023,0.46843644976615906,1.2793428897857666,-0.08223482221364975,0.4707222282886505,-0.3790380656719208,1.0718920230865479,0.438647598028183,-0.049832720309495926,-0.1005275696516037,0.59462970495224,1.1804136037826538,0.06159214302897453,-0.02634136751294136,0.3937104642391205,-0.3781375586986542,-0.6547643542289734,-0.7562462091445923,2.21016263961792,0.5022276639938354,0.18669772148132324,-0.25405508279800415,0.10469118505716324,1.5513864755630493,-0.18639235198497772,-0.8482049107551575,-0.9767365455627441,0.06609173119068146,-0.599486231803894,-0.3177013695240021,-0.16260620951652527,0.5004717707633972,-0.02190794236958027,0.347455769777298,-0.27052098512649536,-0.269363671541214,0.15108735859394073,-0.1934904009103775,0.4085805416107178,-0.5735591053962708,-0.3629198670387268,1.6236501932144165,0.2705972194671631,0.39495977759361267,-0.27939918637275696,-0.3918968737125397,-1.5331180095672607,-0.07758071273565292,-0.39095255732536316,0.49210700392723083,1.019654393196106,-0.3560565114021301,-0.4708189368247986,0.360954612493515,0.02474909834563732,-0.14727337658405304,0.3303123414516449,-0.23964069783687592,0.1515776664018631,-0.5882086157798767,0.8208359479904175,0.15829730033874512,-0.4474993646144867,0.563846230506897,0.1627259999513626,0.007612126879394054,-0.21592505276203156,0.3287475109100342,-0.3059801459312439,-1.416440725326538,0.428679883480072,0.5009499192237854,-0.16641704738140106,0.402937650680542,-0.13437634706497192,0.846640944480896,-0.341155469417572,-0.04124145954847336,-0.056969527155160904,0.5264711976051331,1.4497830867767334,0.3929549753665924,0.2884366810321808,-0.12770843505859375,0.9614696502685547,0.26035505533218384,0.5632210373878479,4.989084720611572,-0.3863973915576935,1.2527598142623901,0.49009302258491516,0.2178584486246109,-0.05924704670906067,-1.1974458694458008,-0.3062857687473297,-0.24888470768928528,-0.10699707269668579,-0.3430900573730469,0.706414520740509,-0.2961227595806122,-0.15654991567134857,0.480933278799057,-0.6017940640449524,-0.5115645527839661,0.2586005926132202,0.10613203793764114,-0.1521056443452835,0.1626013070344925,0.38377001881599426,0.42688480019569397,-0.22703805565834045,0.31249305605888367,-0.06341485679149628,0.2919361889362335,0.4310845732688904,-0.441688597202301,-0.2146831601858139,-0.18560245633125305,0.4166751801967621,-0.3105897009372711,-0.39393267035484314,-0.5237125754356384,1.8914144039154053,0.3857286870479584,-0.6107529401779175,-0.09075701981782913,-1.2570314407348633,0.3100726902484894,-0.4559853971004486,0.3470432460308075,-0.36344677209854126,-0.08858352154493332,-0.09649517387151718,-0.734198272228241,0.43110066652297974,-0.1291694939136505,-0.15774814784526825,0.1593359410762787,0.6598197221755981,-0.4652925133705139,-0.09797726571559906,0.5446681380271912,0.08952157944440842,-0.9098709225654602,-0.6499106287956238,-0.5790792107582092,-0.24592557549476624,0.20468799769878387,0.6301635503768921,0.18869993090629578,-1.0630828142166138,-0.5234437584877014,-0.19020865857601166,-0.1875513345003128,-0.23454956710338593,0.36199426651000977,0.334284245967865,1.7399364709854126,0.9761171340942383,0.26678985357284546,-0.15212485194206238,-0.16727657616138458,-0.3847824037075043,1.184194803237915,-0.6007192730903625,0.21854934096336365,-0.6037724614143372,-0.3213713467121124,0.4628719985485077,-0.5478145480155945,-0.5380944013595581,0.38756152987480164,0.33707889914512634,1.0138055086135864,0.3605181872844696,1.3178406953811646,-0.27522942423820496,0.29356351494789124,-0.03816236928105354,-0.9876119494438171,0.02412417158484459,-0.11978186666965485,-0.4338216483592987,-1.3135926723480225,-0.019860612228512764,0.6304045915603638,0.041425254195928574,0.6360200643539429,-0.5354039072990417,0.22114035487174988,0.23127447068691254,-0.052867673337459564,-0.7211809158325195,0.7140620946884155,-0.23201791942119598,0.7131071090698242,0.16284646093845367,-0.149470716714859,-0.25074148178100586,0.022953961044549942,0.32747551798820496,1.617026925086975,-0.40974974632263184,0.0005701641784980893,0.6179367899894714,0.1920352727174759,-0.11873649060726166,0.2870199382305145,1.176249623298645,-0.23875951766967773,-0.27193209528923035,0.3214893341064453,-0.09489063918590546,-0.24196979403495789,-0.15731416642665863,-0.07255788892507553,0.6448841094970703,-0.34717532992362976,0.4607769548892975,0.917065441608429,1.348710060119629,0.5924520492553711,-0.32857707142829895,-0.8384299278259277,-0.08614028990268707,0.598777174949646,0.2592483162879944,0.01805913634598255,-0.2791689336299896,0.29088810086250305,-0.877873957157135,-1.0258684158325195,-0.3602695167064667,0.6309540867805481,0.3100402057170868,0.0018886050675064325,-0.2677794098854065,-0.39219146966934204,0.6581802368164062,-0.2798765301704407,0.36962464451789856,0.3947499692440033,-0.3453943431377411,0.09187041223049164,1.2241547107696533,0.23894408345222473,-0.6191992163658142,0.16450537741184235,-1.395372986793518,0.2501372694969177,-0.41650572419166565,0.5753404498100281,0.21957752108573914,0.4177227020263672,-0.20538894832134247,0.5375133156776428,-0.14956720173358917,0.3339724540710449,-0.10745219141244888,-0.5295771360397339,0.484990656375885,-0.03781741484999657,0.19827011227607727,0.8757645487785339,-0.4190753102302551,-0.4280153810977936,0.659263551235199
Factory,-0.41445040702819824,0.16068388521671295,0.28017768263816833,-0.030534515157341957,-0.2965278923511505,-0.5495137572288513,-0.07425060123205185,0.227267324924469,0.47787776589393616,0.5079318881034851,-0.41091296076774597,0.8547684550285339,-0.21946579217910767,-0.00977278035134077,0.8612064719200134,-0.0893869698047638,0.22489337623119354,0.31142160296440125,-0.14144575595855713,0.06080280616879463,-0.21596045792102814,-0.319404661655426,0.585988461971283,-0.3665459454059601,0.4891837537288666,0.4114473760128021,-0.07180885225534439,0.8581406474113464,-0.619154691696167,0.8606381416320801,-0.2119157314300537,-0.06393943727016449,1.361099362373352,0.2543191611766815,0.39423108100891113,-0.30937954783439636,-0.2751114070415497,0.23827362060546875,0.11578455567359924,-0.27031973004341125,0.047192756086587906,0.5666089653968811,-0.9910485744476318,-0.18829143047332764,0.48282185196876526,0.2855696678161621,0.4990924596786499,-0.14079730212688446,0.09264039993286133,0.5556199550628662,0.5096560120582581,0.2471461296081543,-0.5325923562049866,-0.27134600281715393,0.4492007791996002,0.5706088542938232,-1.0951941013336182,-0.7531154751777649,-0.12550806999206543,-0.4691135883331299,-0.06795267760753632,-0.1875360757112503,-0.3260077238082886,-0.21574342250823975,1.2882696390151978,0.23366129398345947,0.552379310131073,0.7936497330665588,-0.17607693374156952,0.3029777407646179,-0.20187951624393463,-0.37451231479644775,-0.2098291516304016,-0.5886342525482178,-0.646456241607666,0.6871311664581299,-0.33450642228126526,-8.451729774475098,-0.007848317734897137,0.5083414316177368,0.3672312796115875,-0.6237581372261047,1.614615559577942,0.6897690892219543,-0.5842047929763794,0.2865297496318817,0.07569025456905365,0.22341029345989227,-0.6545875668525696,-0.12077507376670837,0.34373965859413147,0.022814886644482613,0.5531105995178223,0.7737563252449036,-0.13672630488872528,0.7992586493492126,0.633705198764801,-0.49602699279785156,0.054585814476013184,-0.4869154691696167,-0.24668335914611816,-0.6481923460960388,0.4849990904331207,0.46078944206237793,0.2733480632305145,-0.5707530379295349,0.34569990634918213,-0.7796812057495117,0.4446690082550049,-0.32749801874160767,-0.013885915279388428,-0.39522385597229004,0.858910858631134,0.14233265817165375,0.25735411047935486,-0.36023545265197754,0.37515485286712646,0.2520311772823334,0.06851235777139664,0.07290887087583542,-0.7947800159454346,0.3588012456893921,-0.28297820687294006,0.7640067934989929,-0.31548136472702026,0.2422851324081421,-0.08066657185554504,0.03846430033445358,0.10087662190198898,0.228115513920784,-0.9902799725532532,-0.8055272102355957,-0.4078551232814789,0.48316827416419983,0.5286298394203186,-0.5681130290031433,0.3762904405593872,0.12948785722255707,-0.3411865234375,0.3371270000934601,-0.5416210889816284,-0.6353573203086853,-0.25796258449554443,0.204342320561409,0.9559099078178406,-0.1445884257555008,0.03415649011731148,0.4454563558101654,0.28579065203666687,-0.3507298529148102,-0.7327718138694763,0.06084436550736427,1.227231740951538,-0.1186627447605133,0.06679710000753403,-1.9479714632034302,0.1320769041776657,0.35038116574287415,0.28566861152648926,-0.30764487385749817,0.36266210675239563,-0.16068747639656067,0.02571629174053669,0.5199295878410339,0.586858332157135,0.1411672979593277,-0.4006462097167969,0.03444264456629753,0.30406853556632996,0.9963440895080566,-0.39680734276771545,-0.478613018989563,-0.5895522236824036,-0.045566245913505554,0.4104011058807373,0.8370869755744934,0.25140058994293213,0.010857381857931614,-0.382874995470047,1.0991538763046265,0.4154176712036133,-0.24856562912464142,0.2870120108127594,-0.5571495890617371,-0.36935651302337646,0.32513323426246643,-0.30081960558891296,0.67934650182724,-0.12389824539422989,-0.08624136447906494,-0.3287979066371918,-0.4154594838619232,0.16659420728683472,0.5118318796157837,0.07578989118337631,0.10649328678846359,0.039146456867456436,0.3297608196735382,0.9788855910301208,0.1438777893781662,-0.42458727955818176,0.8826797604560852,0.4891107976436615,0.42048338055610657,0.1512879580259323,0.24924607574939728,-0.22605372965335846,0.5490126013755798,0.647142767906189,1.3804988861083984,1.745174765586853,-0.04172375798225403,0.17386595904827118,-0.5146878361701965,-0.9754641056060791,0.19861960411071777,-0.6829269528388977,-1.3308484554290771,-0.5053457617759705,-0.44175422191619873,-1.3633228540420532,0.2474392056465149,-0.2792980372905731,-0.14619584381580353,-0.24712830781936646,0.030072003602981567,0.3176509737968445,-0.2502470016479492,-0.32198604941368103,0.32267600297927856,-0.39566901326179504,-0.28422051668167114,-0.9835917949676514,-0.19354961812496185,0.029437169432640076,-0.41305819153785706,-0.583952784538269,0.45563820004463196,0.35658809542655945,-0.9816264510154724,-0.37730100750923157,0.26733988523483276,0.6390860676765442,0.9958131909370422,0.06197262182831764,-0.752498209476471,0.4274083077907562,0.4970959424972534,0.6942389011383057,0.6243763566017151,0.2550331652164459,0.45022568106651306,0.3370564877986908,-0.26697835326194763,-0.12405746430158615,-0.33569565415382385,-0.2250642031431198,-0.4389912784099579,0.7847502827644348,1.795339584350586,0.3055582046508789,-0.07228300720453262,0.647624671459198,-0.7603678107261658,0.3255630433559418,-0.010860439389944077,0.30049437284469604,0.41646313667297363,0.8005570769309998,0.34344685077667236,1.3446599245071411,0.33331823348999023,-0.330954909324646,0.16010230779647827,0.22681820392608643,0.15529997646808624,0.39074012637138367,0.15306349098682404,-0.8886973857879639,-0.25680413842201233,-0.423969030380249,-0.5769528150558472,0.6576337218284607,-0.12509725987911224,-0.17616112530231476,-0.24052751064300537,-0.12397715449333191,0.656673014163971,-0.08009219169616699,-0.07774735242128372,0.30086907744407654,-0.4761471450328827,1.083494782447815,0.1503458172082901,-0.19210968911647797,0.3233652412891388,0.44180241227149963,0.519972026348114,0.3145005404949188,-0.586150586605072,0.1472368985414505,0.39384517073631287,-0.03914196789264679,0.06738761067390442,-0.3134115934371948,-0.34288278222084045,-0.20679838955402374,0.37025150656700134,0.20637576282024384,-0.21748404204845428,0.37479543685913086,-0.9120803475379944,-0.15326593816280365,-0.0580282062292099,0.3007003366947174,-0.12656597793102264,-0.10110154002904892,0.34472596645355225,-0.4026854932308197,0.37360456585884094,0.33873653411865234,-0.03981839492917061,0.988677978515625,-1.0004427433013916,0.6125121116638184,0.8274092078208923,-0.6707426905632019,-0.7956735491752625,-1.4312759637832642,-0.21292316913604736,-1.0370383262634277,1.199687123298645,0.6366892457008362,1.6090656518936157,-0.6767411231994629,-0.3736690580844879,0.3010367155075073,-0.47878047823905945,0.2440122812986374,-0.5036634802818298,-1.0471858978271484,0.6787365078926086,0.2883037030696869,-0.3099461793899536,0.35821178555488586,1.0285886526107788,-0.2899631857872009,-0.07266996055841446,1.2386831045150757,0.38968518376350403,-0.4613886773586273,-0.8297789096832275,-0.2796729803085327,-0.30674242973327637,0.4564303457736969,2.0340607166290283,0.6458593010902405,0.08484122157096863,0.11303547024726868,-0.519725501537323,-0.2098725438117981,-0.19736820459365845,0.4302839934825897,1.8717279434204102,0.5914333462715149,-0.13747631013393402,-0.6210290789604187,0.24073104560375214,-0.20801210403442383,0.2949187159538269,-0.009726704098284245,-0.15789824724197388,0.11988145858049393,0.5859716534614563,0.1690710037946701,-0.14950789511203766,0.45707669854164124,-0.18935781717300415,0.26609763503074646,0.051181893795728683,-0.7311437726020813,0.364789217710495,0.24177266657352448,0.0011584728490561247,0.44928503036499023,-1.7625856399536133,0.6387393474578857,-0.29882848262786865,1.4570199251174927,-0.09648384898900986,0.23923242092132568,0.4362495243549347,0.22450757026672363,-0.3696528375148773,-0.2981891334056854,0.25715938210487366,0.22519469261169434,-0.12446314841508865,-0.1734960824251175,-0.41505298018455505,-0.42800214886665344,0.1731991022825241,-0.18406981229782104,-0.043170008808374405,-0.28948989510536194,0.019498281180858612,-0.42213740944862366,-0.12803621590137482,-0.5503052473068237,0.6428566575050354,-0.4313995838165283,1.673397421836853,-0.204098179936409,0.009913759306073189,-0.13752034306526184,0.42030081152915955,0.5216168761253357,-0.8305081725120544,0.4319899082183838,0.42273393273353577,0.06306121498346329,0.29992514848709106,0.5951351523399353,-0.41143760085105896,0.7478153109550476,-0.2743287980556488,0.22531382739543915,0.006824081297963858,-0.5816745758056641,-0.5684487819671631,-0.5075957179069519,0.25982561707496643,0.07799584418535233,0.10072583705186844,-0.6251059174537659,-0.32040882110595703,-0.5630175471305847,-0.3114252984523773,0.4062563180923462,0.44875457882881165,0.6169871687889099,0.30587759613990784,0.5117841362953186,0.23200182616710663,0.07934147119522095,0.4422772228717804,-0.5557144284248352,1.3326009511947632,0.4628041982650757,-0.8501108288764954,0.43499913811683655,0.007287811487913132,0.3724108040332794,-0.9725048542022705,0.4623948037624359,-0.4818638265132904,0.16527435183525085,-0.04493623971939087,0.533168375492096,0.4325968325138092,-0.254297137260437,0.11197952181100845,0.3186405599117279,-0.266853004693985,0.3413700759410858,-1.4096379280090332,0.4717329740524292,-0.13090349733829498,0.5964422821998596,0.2552594542503357,-0.8214552402496338,0.24934107065200806,-0.2871280014514923,-0.46135130524635315,-0.2847851812839508,-0.05539943650364876,-0.36014997959136963,1.7731084823608398,0.44567880034446716,1.494713306427002,-0.06663011759519577,-0.5662431716918945,-0.2483939528465271,-0.6676180958747864,0.6925528645515442,0.33610668778419495,-0.18347477912902832,-0.37409117817878723,0.04536096379160881,-0.5126705765724182,-0.7055187821388245,-0.32349881529808044,-0.5493674874305725,0.8407053351402283,-0.6685850620269775,0.1820434331893921,-0.09846600145101547,0.7178023457527161,-0.5931413173675537,0.6824641227722168,0.043122220784425735,0.22482985258102417,0.5674259066581726,1.2111297845840454,-0.11340894550085068,0.508321225643158,-0.3888910710811615,1.0257245302200317,0.45044732093811035,0.007793447468429804,-0.11864236742258072,0.6533131003379822,1.1835120916366577,0.05524564906954765,-0.056049853563308716,0.4387373924255371,-0.42535892128944397,-0.6813613772392273,-0.9121168255805969,2.191021680831909,0.5346747040748596,0.14520420134067535,-0.2527749240398407,0.06925537437200546,1.5328106880187988,-0.23894309997558594,-0.8392281532287598,-0.9348521828651428,0.06776903569698334,-0.680662214756012,-0.32276344299316406,-0.13739676773548126,0.5660182237625122,-0.02250954508781433,0.26835086941719055,-0.28574028611183167,-0.26305773854255676,0.18177549540996552,-0.18951784074306488,0.45685234665870667,-0.5817070007324219,-0.27819597721099854,1.6248890161514282,0.3325049877166748,0.4552455246448517,-0.27532026171684265,-0.3956679105758667,-1.5334056615829468,-0.0926801934838295,-0.3248577117919922,0.5875563621520996,1.2222187519073486,-0.3657335937023163,-0.5132870674133301,0.34611454606056213,0.03433423489332199,-0.17091713845729828,0.3886086046695709,-0.208723783493042,0.06483643501996994,-0.6286553740501404,0.82033771276474,0.18148384988307953,-0.45746421813964844,0.5835273265838623,0.13813845813274384,0.018976932391524315,-0.15771062672138214,0.3305894434452057,-0.3368459641933441,-1.3179842233657837,0.4290219247341156,0.5311156511306763,-0.1533949077129364,0.40446922183036804,-0.18389137089252472,0.8260138630867004,-0.39682140946388245,-0.11081504821777344,-0.10748574882745743,0.5713011622428894,1.4094074964523315,0.40767335891723633,0.3517667353153229,-0.14520880579948425,0.9435620307922363,0.2009463757276535,0.5482613444328308,4.173900604248047,-0.36709117889404297,1.2059544324874878,0.4926639795303345,0.22528617084026337,-0.058166250586509705,-1.1797181367874146,-0.32208576798439026,-0.22457103431224823,-0.13221289217472076,-0.36247122287750244,0.7961124777793884,-0.3368546664714813,-0.1143055334687233,0.45555123686790466,-0.6031525135040283,-0.49989068508148193,0.31324365735054016,0.11674468964338303,-0.17368309199810028,0.1564815193414688,0.3628975450992584,0.37981486320495605,-0.1723346710205078,0.3141360580921173,-0.069649837911129,0.33224937319755554,0.3816696107387543,-0.46566569805145264,-0.24936449527740479,-0.19277997314929962,0.36704716086387634,-0.30509981513023376,-0.4422423839569092,-0.5612125992774963,1.9178266525268555,0.32488930225372314,-0.5889778733253479,-0.08561525493860245,-1.2072550058364868,0.3057871162891388,-0.40773406624794006,0.3602330684661865,-0.39088568091392517,-0.10558965802192688,-0.12575556337833405,-0.6773998737335205,0.4786156117916107,-0.15580973029136658,-0.19475948810577393,0.17277677357196808,0.658835232257843,-0.5010088086128235,-0.025913162156939507,0.5638712644577026,0.11439734697341919,-0.894885778427124,-0.681685209274292,-0.5307027697563171,-0.21959316730499268,0.21074946224689484,0.6525093913078308,0.16853348910808563,-1.0712138414382935,-0.5010254979133606,-0.22444622218608856,-0.16152362525463104,-0.24661599099636078,0.4243486225605011,0.3499663174152374,1.6854233741760254,0.9318169951438904,0.24995706975460052,-0.18355607986450195,-0.2000824213027954,-0.4151560366153717,1.3310221433639526,-0.6328306198120117,0.20690226554870605,-0.6014456152915955,-0.3750289976596832,0.5615937113761902,-0.5685952305793762,-0.5357905030250549,0.4650450646877289,0.4027499258518219,1.0333741903305054,0.397415429353714,1.3180673122406006,-0.2895945608615875,0.3489183187484741,-0.02489369548857212,-0.9409049153327942,0.032630424946546555,-0.09682044386863708,-0.47125911712646484,-1.255852460861206,-0.005289022345095873,0.6825476288795471,0.012113076634705067,0.776228666305542,-0.5378983616828918,0.2506563663482666,0.276338130235672,-0.04308728501200676,-0.6532551646232605,0.7068541646003723,-0.21644173562526703,0.7340268492698669,0.19947147369384766,-0.11045380681753159,-0.2057732492685318,0.07729592174291611,0.3713449537754059,1.6213363409042358,-0.4877329170703888,0.027866192162036896,0.637523889541626,0.21430325508117676,-0.072397381067276,0.23990677297115326,1.185919165611267,-0.21885119378566742,-0.2747439742088318,0.31200411915779114,-0.11428099125623703,-0.27778786420822144,-0.20884062349796295,-0.043885067105293274,0.6887531280517578,-0.35700133442878723,0.5095545053482056,0.963291347026825,1.3042211532592773,0.6502847671508789,-0.3793005645275116,-0.8079633116722107,-0.09579022973775864,0.668609619140625,0.32536473870277405,0.021605508401989937,-0.3055034875869751,0.33166810870170593,-1.0120426416397095,-1.0412641763687134,-0.3387030363082886,0.6366497874259949,0.3902416527271271,0.012736584059894085,-0.29493361711502075,-0.4074680805206299,0.644601047039032,-0.25166022777557373,0.3753149211406708,0.4520699977874756,-0.38662049174308777,0.0921032652258873,1.2492176294326782,0.18957488238811493,-0.6222131252288818,0.12938739359378815,-1.384269118309021,0.21318574249744415,-0.4699392318725586,0.48511409759521484,0.22417408227920532,0.39109668135643005,-0.23568594455718994,0.5255658030509949,-0.15554368495941162,0.38206151127815247,-0.1688067466020584,-0.5729966759681702,0.5010181665420532,0.015803277492523193,0.19892126321792603,0.9306287169456482,-0.5413059592247009,-0.43854227662086487,0.6666000485420227
Factory,-0.38950055837631226,0.1176113709807396,0.25127261877059937,-0.037036553025245667,-0.19993911683559418,-0.39698493480682373,-0.05082795023918152,0.1945401430130005,0.4660855531692505,0.4327763617038727,-0.25564122200012207,0.9481354355812073,-0.13779091835021973,-0.014260556548833847,0.8660882711410522,-0.11254976689815521,0.06597703695297241,0.1643117219209671,-0.025422358885407448,-0.15709912776947021,-0.12292274087667465,-0.32361137866973877,0.5193478465080261,-0.30881425738334656,0.4818251430988312,0.3491884768009186,-0.03546469658613205,0.8498879075050354,-0.37357813119888306,0.9147968292236328,-0.1567721962928772,-0.10193724930286407,1.5442147254943848,0.1622319221496582,0.30159682035446167,-0.25594693422317505,-0.24152407050132751,0.23144489526748657,0.14053747057914734,-0.20440727472305298,-0.036852240562438965,0.2849278748035431,-1.1228923797607422,-0.16152971982955933,0.4336361289024353,0.23211590945720673,0.3020451068878174,-0.05835254117846489,0.12379136681556702,0.3584936261177063,0.4830275774002075,0.266970694065094,-0.5097410678863525,-0.24037262797355652,0.39946869015693665,0.49170276522636414,-1.2606115341186523,-0.5763245820999146,-0.17287574708461761,-0.36718007922172546,-0.01343289203941822,-0.20164337754249573,-0.2888416647911072,-0.030032889917492867,1.4138184785842896,0.17894001305103302,0.549532413482666,0.8580087423324585,-0.238311767578125,0.28959453105926514,-0.14721104502677917,-0.22602687776088715,-0.18301764130592346,-0.669698178768158,-0.60454922914505,0.6654576659202576,-0.284340500831604,-9.204109191894531,-0.058257829397916794,0.497677743434906,0.37152451276779175,-0.5851312875747681,1.377724528312683,0.6604616045951843,-0.5675844550132751,0.21424764394760132,0.054352812469005585,0.16685037314891815,-0.7051258087158203,-0.0346074178814888,0.2856789231300354,-0.05357823520898819,0.5801674127578735,0.7020334601402283,-0.05036858469247818,0.7957614064216614,0.6831198930740356,-0.5386544466018677,0.045771628618240356,-0.39950549602508545,-0.06356045603752136,-0.6459795832633972,0.36797618865966797,0.3356958329677582,0.2693336009979248,-0.5986065864562988,0.25200730562210083,-0.6509389877319336,0.4813857972621918,-0.2668582499027252,0.062084924429655075,-0.37172698974609375,0.7751972675323486,0.1301323026418686,0.19097955524921417,-0.24931007623672485,0.38290923833847046,0.3327963948249817,0.06280539929866791,0.16340133547782898,-0.8823330402374268,0.3087961673736572,-0.40320509672164917,0.7547785043716431,-0.22173212468624115,0.3161616027355194,-0.019703131169080734,-0.05151009187102318,0.28630679845809937,0.24515113234519958,-1.0889160633087158,-0.7384527921676636,-0.32893726229667664,0.4405832886695862,0.4060335159301758,-0.4690740406513214,0.35488808155059814,0.1668759137392044,-0.29324519634246826,0.3773033916950226,-0.5240767002105713,-0.5766137838363647,-0.176112562417984,0.26359838247299194,0.9083778262138367,-0.14581550657749176,0.0642605721950531,0.3600659966468811,0.3582388460636139,-0.3905109167098999,-0.7024139165878296,0.10974100977182388,1.2748222351074219,-0.13013632595539093,0.03729148581624031,-2.103991985321045,0.16632544994354248,0.07006508857011795,0.1865389496088028,-0.4712304472923279,0.35471782088279724,-0.21158459782600403,0.19025906920433044,0.4483400583267212,0.5203247666358948,0.09300599992275238,-0.2887859642505646,-0.006923686247318983,0.14858217537403107,0.922619104385376,-0.3663354814052582,-0.44057193398475647,-0.6169008016586304,0.012927044183015823,0.3735668361186981,0.8153351545333862,0.20114374160766602,0.1167510449886322,-0.2951730787754059,1.2082958221435547,0.38984885811805725,-0.23624566197395325,0.2764308452606201,-0.4216931164264679,-0.27241775393486023,0.3670923113822937,-0.26422029733657837,0.5612896084785461,-0.09276444464921951,-0.004739677533507347,-0.39303553104400635,-0.3399829864501953,0.2049412727355957,0.6366035342216492,0.021003827452659607,0.013896182179450989,0.11845313012599945,0.26528406143188477,1.0678306818008423,0.08641315996646881,-0.3331378102302551,0.7199486494064331,0.31467902660369873,0.281210720539093,0.03542199730873108,0.24072608351707458,-0.2535066604614258,0.5145749449729919,0.675350546836853,1.4235299825668335,1.8570902347564697,0.09504014998674393,0.12399322539567947,-0.46138423681259155,-0.9614598751068115,0.12618204951286316,-0.7296228408813477,-1.470855474472046,-0.5298783183097839,-0.6253625750541687,-1.4681119918823242,0.2741451859474182,-0.22305209934711456,-0.1519455760717392,-0.16409093141555786,0.18384845554828644,0.22317811846733093,-0.22720235586166382,-0.31702983379364014,0.17073200643062592,-0.3069533109664917,-0.18933875858783722,-0.799130916595459,-0.14608167111873627,-0.18097355961799622,-0.43344515562057495,-0.6068741679191589,0.45732542872428894,0.361178994178772,-1.05038583278656,-0.36604946851730347,0.21657763421535492,0.5480485558509827,1.050238013267517,0.1318831741809845,-0.9190678596496582,0.34002214670181274,0.47683072090148926,0.6341910362243652,0.5769407153129578,0.22110894322395325,0.2784596085548401,0.28243792057037354,-0.14120613038539886,-0.14307117462158203,-0.40460947155952454,-0.19342395663261414,-0.3474038541316986,0.7155718207359314,2.124502658843994,0.20043683052062988,-0.016667405143380165,0.49065813422203064,-0.7607191801071167,0.288646936416626,-0.07224974036216736,0.22988107800483704,0.4045904278755188,0.6827743053436279,0.24624022841453552,1.4504404067993164,0.36131414771080017,-0.1775672435760498,0.11989621818065643,0.14353495836257935,0.11501845717430115,0.5326828956604004,0.16540972888469696,-1.0292339324951172,-0.304668128490448,-0.32986879348754883,-0.4902088940143585,0.5357754230499268,-0.14797544479370117,-0.09103453904390335,-0.19097137451171875,-0.1149182915687561,0.4999285340309143,-0.1695805788040161,-0.08004922419786453,0.36360087990760803,-0.5028368234634399,1.1119418144226074,0.08195088058710098,-0.22816413640975952,0.2405652105808258,0.36873364448547363,0.5025662183761597,0.17772407829761505,-0.501262366771698,0.214322030544281,0.47706499695777893,0.027737651020288467,-0.01611332967877388,-0.43386560678482056,-0.20224782824516296,-0.28375184535980225,0.32236695289611816,0.07936862111091614,-0.17042264342308044,0.33204618096351624,-1.1701107025146484,-0.012100307270884514,-0.10492014139890671,0.2213461697101593,-0.09389414638280869,-0.02506350725889206,0.3788682222366333,-0.3129066526889801,0.2464045286178589,0.3573310077190399,-0.0691700428724289,1.0158673524856567,-1.1590427160263062,0.6534483432769775,0.8560583591461182,-0.5903922915458679,-0.6291777491569519,-1.515273094177246,-0.19109593331813812,-0.8122382760047913,0.8586694002151489,0.5100808143615723,1.6321052312850952,-0.7865869402885437,-0.339455246925354,0.2879033088684082,-0.5191684365272522,0.2299160361289978,-0.42536434531211853,-1.143854022026062,0.525892436504364,0.25492656230926514,-0.25967222452163696,0.29198360443115234,1.1670804023742676,-0.16476884484291077,-0.10150334239006042,1.358533501625061,0.3761923909187317,-0.4443349242210388,-0.8819115161895752,-0.1999756097793579,-0.30269378423690796,0.41724419593811035,2.1425139904022217,0.557085394859314,0.14544707536697388,0.0020648017525672913,-0.45382800698280334,-0.16729183495044708,-0.1750931739807129,0.37386229634284973,1.919520616531372,0.6084567308425903,-0.2676374912261963,-0.6319419145584106,0.10361248254776001,-0.1929897964000702,0.34163928031921387,0.059400755912065506,-0.02450188249349594,0.04891107231378555,0.4953129291534424,0.15264344215393066,-0.09932076185941696,0.3160366117954254,-0.16815440356731415,0.14634186029434204,0.08924451470375061,-0.8346878886222839,0.36176663637161255,0.2510361671447754,0.028626326471567154,0.27791887521743774,-1.9621386528015137,0.5832148194313049,-0.21456705033779144,1.5712919235229492,0.03643932193517685,0.14952385425567627,0.37292537093162537,0.2836238741874695,-0.3410720229148865,-0.24813663959503174,0.13433684408664703,0.07803815603256226,-0.06886225938796997,-0.1718447208404541,-0.4608592391014099,-0.3846215307712555,0.14438097178936005,-0.06551351398229599,0.13837267458438873,-0.25272902846336365,0.09511413425207138,-0.4562686085700989,-0.10723753273487091,-0.42548084259033203,0.7357955574989319,-0.4183478355407715,1.7485148906707764,-0.2606857717037201,0.07015009224414825,-0.039327044039964676,0.3149004876613617,0.5424351692199707,-0.6155163645744324,0.3225521445274353,0.39405113458633423,0.05992823466658592,0.2693667411804199,0.4903534948825836,-0.4168684482574463,0.8180906772613525,-0.18539486825466156,0.18210184574127197,-0.06056572496891022,-0.5760677456855774,-0.4935005307197571,-0.4060663878917694,0.2594572901725769,0.07908160984516144,0.08748544752597809,-0.6342020034790039,-0.1902559995651245,-0.5064541101455688,-0.3644869029521942,0.37170276045799255,0.44135257601737976,0.5320102572441101,0.16971178352832794,0.40801504254341125,0.0742478296160698,-0.09293776005506516,0.3806939125061035,-0.42385122179985046,1.5181975364685059,0.3360748887062073,-0.7570489645004272,0.3276735246181488,0.05847252160310745,0.24816006422042847,-0.8315883278846741,0.531351625919342,-0.3716369569301605,0.15815378725528717,0.01829746924340725,0.49799492955207825,0.3589785695075989,-0.053511131554841995,-0.004186740145087242,0.3494894802570343,-0.25436559319496155,0.29907873272895813,-1.4989440441131592,0.5065890550613403,-0.05076107755303383,0.471750408411026,0.20657408237457275,-0.9620636701583862,0.1655382513999939,-0.22173890471458435,-0.36429035663604736,-0.20447541773319244,-0.001460767351090908,-0.452588826417923,1.7854046821594238,0.41193100810050964,1.7175729274749756,-0.05525382608175278,-0.5358485579490662,-0.09507419914007187,-0.7300955653190613,0.6805756688117981,0.3001079857349396,-0.004386689513921738,-0.2964200973510742,-0.05086681246757507,-0.6054614186286926,-0.6134239435195923,-0.26208212971687317,-0.5095491409301758,0.7477641105651855,-0.6271988153457642,0.13439133763313293,-0.10831572860479355,0.6902086734771729,-0.6380573511123657,0.6915886998176575,0.07145629823207855,0.28742972016334534,0.4794265031814575,1.3964506387710571,-0.11402267962694168,0.5955886840820312,-0.3763941526412964,1.1196939945220947,0.39918428659439087,-0.017641909420490265,-0.24959790706634521,0.4639127254486084,1.227963924407959,0.12828078866004944,-0.050307080149650574,0.4434507191181183,-0.31984299421310425,-0.5920294523239136,-0.9343064427375793,2.3009514808654785,0.556659460067749,0.21065925061702728,-0.2206299751996994,0.16056117415428162,1.6078789234161377,-0.16075970232486725,-0.8776206374168396,-1.0334025621414185,0.07859015464782715,-0.625571072101593,-0.24185240268707275,-0.14028958976268768,0.42360010743141174,-0.04007576406002045,0.22930163145065308,-0.22185666859149933,-0.2542937695980072,0.267097532749176,-0.04812213033437729,0.398051381111145,-0.5718560218811035,-0.1934625655412674,1.7257219552993774,0.2139577716588974,0.39579349756240845,-0.2801227867603302,-0.32431119680404663,-1.5854002237319946,-0.018751615658402443,-0.3250361680984497,0.5449873208999634,1.0034648180007935,-0.29803144931793213,-0.5342093110084534,0.3926948308944702,0.051883548498153687,-0.12586843967437744,0.4139626622200012,-0.28359338641166687,0.11676700413227081,-0.6281102299690247,1.1196366548538208,0.16204895079135895,-0.4828285574913025,0.4514554440975189,0.1452268660068512,0.1471334546804428,-0.1836916208267212,0.23252975940704346,-0.32184866070747375,-1.4387931823730469,0.4106575548648834,0.47750914096832275,-0.16253869235515594,0.38431602716445923,-0.1062595546245575,0.8690547347068787,-0.35968315601348877,-0.20690299570560455,-0.066592738032341,0.4709939658641815,1.5188894271850586,0.34291261434555054,0.24778398871421814,-0.13437306880950928,0.9344838857650757,0.14188072085380554,0.6791760921478271,5.073795318603516,-0.24745847284793854,1.3316584825515747,0.5883166790008545,0.11497005820274353,0.08936712145805359,-1.272106647491455,-0.31166908144950867,-0.1498541384935379,-0.1064949780702591,-0.20377853512763977,0.6772891283035278,-0.23796170949935913,-0.1014145165681839,0.4789464473724365,-0.4836518168449402,-0.5035459995269775,0.3284386098384857,0.12627547979354858,-0.23284408450126648,0.07193952798843384,0.28251326084136963,0.40783095359802246,-0.5096328258514404,0.28226974606513977,-0.0452314130961895,0.23347672820091248,0.3307534158229828,-0.43011248111724854,-0.2060980349779129,-0.14762577414512634,0.36343270540237427,-0.27239060401916504,-0.2876361608505249,-0.5239557027816772,1.9073184728622437,0.31394097208976746,-0.5665268898010254,-0.07788970321416855,-1.2068684101104736,0.27761390805244446,-0.46924889087677,0.2681158483028412,-0.2914140820503235,-0.0676608681678772,-0.1370437890291214,-0.8450201749801636,0.33462288975715637,-0.016793739050626755,-0.1547098606824875,0.1295725256204605,0.7629289031028748,-0.37979647517204285,-0.03679189085960388,0.5552719831466675,0.12921518087387085,-0.9279897212982178,-0.6235025525093079,-0.5636892318725586,-0.08402982354164124,0.08549084514379501,0.5330696105957031,0.13019157946109772,-1.1791046857833862,-0.49517619609832764,-0.24121373891830444,-0.15999402105808258,-0.20832467079162598,0.2421380877494812,0.419045090675354,1.8637840747833252,1.018973708152771,0.2655310332775116,-0.07258139550685883,-0.34814196825027466,-0.4666357636451721,1.0196547508239746,-0.6049593091011047,0.1984790861606598,-0.6011679768562317,-0.2640005648136139,0.429744154214859,-0.5540637373924255,-0.4400946795940399,0.37694811820983887,0.3498494029045105,1.0342566967010498,0.2825334668159485,1.4472553730010986,-0.22804608941078186,0.1977335661649704,-0.026261750608682632,-0.9866570234298706,0.022579088807106018,-0.03194214403629303,-0.39105767011642456,-1.320631742477417,-0.0924045592546463,0.6216928362846375,0.2091420292854309,0.6818331480026245,-0.48528286814689636,0.18208026885986328,0.20245634019374847,-0.1659611463546753,-0.6673256754875183,0.8203495740890503,-0.1825065314769745,0.6986993551254272,0.12181626260280609,-0.18570569157600403,-0.12898072600364685,0.06313939392566681,0.28578314185142517,1.6615585088729858,-0.424915075302124,0.03302380070090294,0.5871336460113525,0.3067362606525421,-0.1470518708229065,0.22425642609596252,1.2179397344589233,-0.15358197689056396,-0.1990077644586563,0.33552539348602295,-0.07786163687705994,-0.22413060069084167,-0.09925303608179092,-0.007668875157833099,0.6513553857803345,-0.3703957200050354,0.5125364065170288,0.8913992047309875,1.429898738861084,0.5505430698394775,-0.3504426181316376,-0.8466470241546631,-0.0396447591483593,0.5547544956207275,0.2042650729417801,0.07915051281452179,-0.35036107897758484,0.28821861743927,-0.854834794998169,-1.103005290031433,-0.3193775713443756,0.6702266335487366,0.26399630308151245,0.01909007504582405,-0.2835296094417572,-0.3144044280052185,0.5118367671966553,-0.21243101358413696,0.33012962341308594,0.35099929571151733,-0.3227202892303467,0.06048152968287468,1.1633800268173218,0.2735247313976288,-0.6316720843315125,0.12844933569431305,-1.5297009944915771,0.21675190329551697,-0.5617032051086426,0.470590204000473,0.14540594816207886,0.36419111490249634,-0.18253426253795624,0.4597979485988617,-0.13977350294589996,0.319698691368103,-0.10318337380886078,-0.48192110657691956,0.5835633277893066,0.08393867313861847,0.19784441590309143,1.0953880548477173,-0.4446685314178467,-0.41673535108566284,0.5697064995765686
