pattern,dim_0,dim_1,dim_2,dim_3,dim_4,dim_5,dim_6,dim_7,dim_8,dim_9,dim_10,dim_11,dim_12,dim_13,dim_14,dim_15,dim_16,dim_17,dim_18,dim_19,dim_20,dim_21,dim_22,dim_23,dim_24,dim_25,dim_26,dim_27,dim_28,dim_29,dim_30,dim_31,dim_32,dim_33,dim_34,dim_35,dim_36,dim_37,dim_38,dim_39,dim_40,dim_41,dim_42,dim_43,dim_44,dim_45,dim_46,dim_47,dim_48,dim_49,dim_50,dim_51,dim_52,dim_53,dim_54,dim_55,dim_56,dim_57,dim_58,dim_59,dim_60,dim_61,dim_62,dim_63,dim_64,dim_65,dim_66,dim_67,dim_68,dim_69,dim_70,dim_71,dim_72,dim_73,dim_74,dim_75,dim_76,dim_77,dim_78,dim_79,dim_80,dim_81,dim_82,dim_83,dim_84,dim_85,dim_86,dim_87,dim_88,dim_89,dim_90,dim_91,dim_92,dim_93,dim_94,dim_95,dim_96,dim_97,dim_98,dim_99,dim_100,dim_101,dim_102,dim_103,dim_104,dim_105,dim_106,dim_107,dim_108,dim_109,dim_110,dim_111,dim_112,dim_113,dim_114,dim_115,dim_116,dim_117,dim_118,dim_119,dim_120,dim_121,dim_122,dim_123,dim_124,dim_125,dim_126,dim_127,dim_128,dim_129,dim_130,dim_131,dim_132,dim_133,dim_134,dim_135,dim_136,dim_137,dim_138,dim_139,dim_140,dim_141,dim_142,dim_143,dim_144,dim_145,dim_146,dim_147,dim_148,dim_149,dim_150,dim_151,dim_152,dim_153,dim_154,dim_155,dim_156,dim_157,dim_158,dim_159,dim_160,dim_161,dim_162,dim_163,dim_164,dim_165,dim_166,dim_167,dim_168,dim_169,dim_170,dim_171,dim_172,dim_173,dim_174,dim_175,dim_176,dim_177,dim_178,dim_179,dim_180,dim_181,dim_182,dim_183,dim_184,dim_185,dim_186,dim_187,dim_188,dim_189,dim_190,dim_191,dim_192,dim_193,dim_194,dim_195,dim_196,dim_197,dim_198,dim_199,dim_200,dim_201,dim_202,dim_203,dim_204,dim_205,dim_206,dim_207,dim_208,dim_209,dim_210,dim_211,dim_212,dim_213,dim_214,dim_215,dim_216,dim_217,dim_218,dim_219,dim_220,dim_221,dim_222,dim_223,dim_224,dim_225,dim_226,dim_227,dim_228,dim_229,dim_230,dim_231,dim_232,dim_233,dim_234,dim_235,dim_236,dim_237,dim_238,dim_239,dim_240,dim_241,dim_242,dim_243,dim_244,dim_245,dim_246,dim_247,dim_248,dim_249,dim_250,dim_251,dim_252,dim_253,dim_254,dim_255,dim_256,dim_257,dim_258,dim_259,dim_260,dim_261,dim_262,dim_263,dim_264,dim_265,dim_266,dim_267,dim_268,dim_269,dim_270,dim_271,dim_272,dim_273,dim_274,dim_275,dim_276,dim_277,dim_278,dim_279,dim_280,dim_281,dim_282,dim_283,dim_284,dim_285,dim_286,dim_287,dim_288,dim_289,dim_290,dim_291,dim_292,dim_293,dim_294,dim_295,dim_296,dim_297,dim_298,dim_299,dim_300,dim_301,dim_302,dim_303,dim_304,dim_305,dim_306,dim_307,dim_308,dim_309,dim_310,dim_311,dim_312,dim_313,dim_314,dim_315,dim_316,dim_317,dim_318,dim_319,dim_320,dim_321,dim_322,dim_323,dim_324,dim_325,dim_326,dim_327,dim_328,dim_329,dim_330,dim_331,dim_332,dim_333,dim_334,dim_335,dim_336,dim_337,dim_338,dim_339,dim_340,dim_341,dim_342,dim_343,dim_344,dim_345,dim_346,dim_347,dim_348,dim_349,dim_350,dim_351,dim_352,dim_353,dim_354,dim_355,dim_356,dim_357,dim_358,dim_359,dim_360,dim_361,dim_362,dim_363,dim_364,dim_365,dim_366,dim_367,dim_368,dim_369,dim_370,dim_371,dim_372,dim_373,dim_374,dim_375,dim_376,dim_377,dim_378,dim_379,dim_380,dim_381,dim_382,dim_383,dim_384,dim_385,dim_386,dim_387,dim_388,dim_389,dim_390,dim_391,dim_392,dim_393,dim_394,dim_395,dim_396,dim_397,dim_398,dim_399,dim_400,dim_401,dim_402,dim_403,dim_404,dim_405,dim_406,dim_407,dim_408,dim_409,dim_410,dim_411,dim_412,dim_413,dim_414,dim_415,dim_416,dim_417,dim_418,dim_419,dim_420,dim_421,dim_422,dim_423,dim_424,dim_425,dim_426,dim_427,dim_428,dim_429,dim_430,dim_431,dim_432,dim_433,dim_434,dim_435,dim_436,dim_437,dim_438,dim_439,dim_440,dim_441,dim_442,dim_443,dim_444,dim_445,dim_446,dim_447,dim_448,dim_449,dim_450,dim_451,dim_452,dim_453,dim_454,dim_455,dim_456,dim_457,dim_458,dim_459,dim_460,dim_461,dim_462,dim_463,dim_464,dim_465,dim_466,dim_467,dim_468,dim_469,dim_470,dim_471,dim_472,dim_473,dim_474,dim_475,dim_476,dim_477,dim_478,dim_479,dim_480,dim_481,dim_482,dim_483,dim_484,dim_485,dim_486,dim_487,dim_488,dim_489,dim_490,dim_491,dim_492,dim_493,dim_494,dim_495,dim_496,dim_497,dim_498,dim_499,dim_500,dim_501,dim_502,dim_503,dim_504,dim_505,dim_506,dim_507,dim_508,dim_509,dim_510,dim_511,dim_512,dim_513,dim_514,dim_515,dim_516,dim_517,dim_518,dim_519,dim_520,dim_521,dim_522,dim_523,dim_524,dim_525,dim_526,dim_527,dim_528,dim_529,dim_530,dim_531,dim_532,dim_533,dim_534,dim_535,dim_536,dim_537,dim_538,dim_539,dim_540,dim_541,dim_542,dim_543,dim_544,dim_545,dim_546,dim_547,dim_548,dim_549,dim_550,dim_551,dim_552,dim_553,dim_554,dim_555,dim_556,dim_557,dim_558,dim_559,dim_560,dim_561,dim_562,dim_563,dim_564,dim_565,dim_566,dim_567,dim_568,dim_569,dim_570,dim_571,dim_572,dim_573,dim_574,dim_575,dim_576,dim_577,dim_578,dim_579,dim_580,dim_581,dim_582,dim_583,dim_584,dim_585,dim_586,dim_587,dim_588,dim_589,dim_590,dim_591,dim_592,dim_593,dim_594,dim_595,dim_596,dim_597,dim_598,dim_599,dim_600,dim_601,dim_602,dim_603,dim_604,dim_605,dim_606,dim_607,dim_608,dim_609,dim_610,dim_611,dim_612,dim_613,dim_614,dim_615,dim_616,dim_617,dim_618,dim_619,dim_620,dim_621,dim_622,dim_623,dim_624,dim_625,dim_626,dim_627,dim_628,dim_629,dim_630,dim_631,dim_632,dim_633,dim_634,dim_635,dim_636,dim_637,dim_638,dim_639,dim_640,dim_641,dim_642,dim_643,dim_644,dim_645,dim_646,dim_647,dim_648,dim_649,dim_650,dim_651,dim_652,dim_653,dim_654,dim_655,dim_656,dim_657,dim_658,dim_659,dim_660,dim_661,dim_662,dim_663,dim_664,dim_665,dim_666,dim_667,dim_668,dim_669,dim_670,dim_671,dim_672,dim_673,dim_674,dim_675,dim_676,dim_677,dim_678,dim_679,dim_680,dim_681,dim_682,dim_683,dim_684,dim_685,dim_686,dim_687,dim_688,dim_689,dim_690,dim_691,dim_692,dim_693,dim_694,dim_695,dim_696,dim_697,dim_698,dim_699,dim_700,dim_701,dim_702,dim_703,dim_704,dim_705,dim_706,dim_707,dim_708,dim_709,dim_710,dim_711,dim_712,dim_713,dim_714,dim_715,dim_716,dim_717,dim_718,dim_719,dim_720,dim_721,dim_722,dim_723,dim_724,dim_725,dim_726,dim_727,dim_728,dim_729,dim_730,dim_731,dim_732,dim_733,dim_734,dim_735,dim_736,dim_737,dim_738,dim_739,dim_740,dim_741,dim_742,dim_743,dim_744,dim_745,dim_746,dim_747,dim_748,dim_749,dim_750,dim_751,dim_752,dim_753,dim_754,dim_755,dim_756,dim_757,dim_758,dim_759,dim_760,dim_761,dim_762,dim_763,dim_764,dim_765,dim_766,dim_767
Observer,0.5114386081695557,-0.5329060554504395,-0.6152376532554626,0.11522252857685089,0.2310071438550949,-0.07723451405763626,0.5978975892066956,-0.3245021104812622,-0.006382739171385765,-0.3531002402305603,0.457241415977478,0.023304078727960587,-0.4522707760334015,0.13813740015029907,-0.052333343774080276,0.605280339717865,0.5041822195053101,-0.5218758583068848,0.16099698841571808,0.37355899810791016,-0.17100277543067932,0.6079583764076233,0.12841275334358215,0.17813993990421295,-0.40777772665023804,0.2619691789150238,0.27326738834381104,0.019637877121567726,0.5044897794723511,0.13880515098571777,-0.12116488814353943,0.16434155404567719,0.3641248345375061,-0.14082111418247223,-0.3936305344104767,-0.014479396864771843,-0.4041939079761505,0.12366453558206558,0.7820183038711548,-0.1046270877122879,-0.36580613255500793,0.008227018639445305,-0.00035297591239213943,-0.48826223611831665,0.05138184875249863,0.6366104483604431,0.1439020335674286,0.005725197494029999,-0.10190146416425705,-0.3449941873550415,-0.5201435089111328,0.6204448938369751,0.3043436110019684,0.16951709985733032,-0.3398280739784241,0.1654861569404602,0.27852800488471985,-0.23381909728050232,0.18938271701335907,-0.4264753758907318,-0.4174289107322693,-0.4422149658203125,0.09064587950706482,0.13975399732589722,-0.14361858367919922,-0.08253714442253113,0.5233417749404907,0.07401635497808456,-0.31471943855285645,0.2280595898628235,-0.3294309377670288,0.341175377368927,0.15024018287658691,-0.7415811419487,0.028072116896510124,0.179079070687294,-0.5486639142036438,0.18758231401443481,0.5587828159332275,0.3353782296180725,-0.06847098469734192,0.3213915526866913,-0.23360022902488708,0.060272619128227234,-0.1253463625907898,-0.43312767148017883,0.5248557925224304,-0.13347142934799194,0.13178421556949615,0.41633105278015137,-0.34817269444465637,-0.7622977495193481,-0.023193759843707085,0.3625871539115906,-0.3713776469230652,0.34750157594680786,0.16175352036952972,0.1400602012872696,-0.13053730130195618,-0.05463167279958725,0.3922196626663208,-0.12457364797592163,-0.0864708200097084,0.15794895589351654,0.5795064568519592,-0.23118895292282104,-0.2852507531642914,-0.08811809867620468,0.11546321213245392,-0.19562865793704987,-0.07738468796014786,0.6627405881881714,0.34589242935180664,0.3183084726333618,0.05300089344382286,0.13154985010623932,-0.4444759488105774,-0.3756011724472046,0.32477009296417236,-0.33674508333206177,0.39481207728385925,-0.05012663081288338,0.09943624585866928,0.40648752450942993,-0.2832353413105011,0.06686529517173767,0.1330745369195938,0.3374600410461426,0.1454935222864151,-0.27927255630493164,-0.07614809274673462,-0.1450568437576294,-0.1342560201883316,0.1037682443857193,-0.021464239805936813,0.003501986153423786,0.16317491233348846,-0.7646867036819458,-0.37331265211105347,0.4888058602809906,0.8485667109489441,0.050852950662374496,0.43213993310928345,0.119609534740448,0.5301035642623901,0.6111013889312744,0.3213735818862915,-0.42025065422058105,0.1454678773880005,0.337787389755249,-0.25983256101608276,-0.18464185297489166,-0.295776903629303,-0.6950586438179016,-0.6678683757781982,0.07323895394802094,0.44241565465927124,-0.06906118243932724,-0.03663990646600723,0.5541824102401733,0.17758534848690033,-0.5161938071250916,-0.1768137514591217,-0.10563668608665466,-0.22100377082824707,-0.4360896348953247,-0.16615015268325806,-0.010339636355638504,-0.44191673398017883,-0.3277415633201599,-0.22986532747745514,-0.49102357029914856,-0.06446817517280579,0.35416629910469055,-0.44556760787963867,0.5787246227264404,-0.32776325941085815,0.11114566028118134,0.5292208194732666,-0.5581415295600891,-0.0031721056438982487,-0.6567859053611755,0.007749453652650118,0.5145604610443115,-0.10476283729076385,0.17083147168159485,-0.07464431971311569,0.4426213800907135,-0.15161342918872833,0.12873612344264984,0.2148953676223755,-0.08571672439575195,-0.2743780314922333,0.5595951676368713,-0.3386089503765106,0.14583684504032135,-0.23659220337867737,-0.19194111227989197,-0.4320700168609619,-0.4810958504676819,0.07802949100732803,-0.7751020789146423,-0.6698920726776123,-0.29205334186553955,-0.319381982088089,-0.02481488510966301,-0.07993323355913162,-0.04614763334393501,-0.06409904360771179,-0.2684871554374695,0.28585100173950195,-0.38945066928863525,0.22459754347801208,-0.00903401430696249,-0.13085466623306274,-0.12299460172653198,0.29201826453208923,0.39717012643814087,0.4470672905445099,-0.3327588737010956,-0.410239577293396,-0.06025133654475212,0.3846578299999237,-0.04559380188584328,0.6084463000297546,-0.10559603571891785,-0.09086368978023529,0.09013018757104874,0.08407949656248093,0.12756188213825226,0.6053812503814697,-0.2571313679218292,-0.10250675678253174,-0.032066818326711655,-0.4715222120285034,-0.19656816124916077,-0.11069202423095703,0.24971726536750793,0.5466275811195374,0.1937730610370636,0.09826084971427917,0.6123390793800354,0.430901437997818,-0.35083073377609253,0.46784019470214844,-0.22169537842273712,0.2031821310520172,-0.5479663610458374,-0.13397513329982758,-0.6712472438812256,-0.18021290004253387,-0.35772964358329773,0.6452183723449707,-0.4802626967430115,0.5489851236343384,0.546959638595581,-0.39211079478263855,-0.27066734433174133,0.33859509229660034,0.15342000126838684,0.286082923412323,-0.061706218868494034,0.12101294845342636,-0.07198251783847809,0.10877737402915955,0.17939141392707825,0.6874094605445862,0.13706283271312714,0.4145148992538452,0.023243870586156845,0.023168887943029404,0.5764316320419312,-0.23682032525539398,-0.3525073826313019,-0.19883319735527039,0.17258299887180328,-0.28543826937675476,-0.3465844392776489,0.05317535251379013,-0.10871510207653046,0.5844368934631348,0.07790854573249817,-0.2998335063457489,0.35455015301704407,0.2653253376483917,-0.6203915476799011,0.04267357662320137,0.19185908138751984,0.2476367950439453,-0.38583850860595703,0.008027646690607071,-0.20607887208461761,0.06234496086835861,-0.5821491479873657,-0.4232337176799774,0.4938215911388397,-0.040340226143598557,0.3232908844947815,0.2254280149936676,-0.4187360107898712,-0.41125327348709106,0.7480571866035461,-0.27591556310653687,-0.5617812871932983,0.2553347051143646,0.3310818076133728,0.36819615960121155,0.2581392228603363,0.4219050705432892,0.3503595292568207,-0.18800953030586243,0.4385710656642914,0.21053004264831543,-0.6586647629737854,-0.5417309403419495,0.06775853037834167,0.08903539925813675,0.050623632967472076,-0.3826357126235962,-0.6357895731925964,-0.151242196559906,0.26036038994789124,-0.07954022288322449,0.29750970005989075,0.14315825700759888,0.33953753113746643,-0.041005704551935196,0.3667484521865845,-0.3088057041168213,0.6262741088867188,0.009435432031750679,0.6021409034729004,-0.47393879294395447,-0.17964090406894684,-0.1551455855369568,-0.044969651848077774,-0.10427532345056534,0.0023896778002381325,0.49039143323898315,-0.3034832179546356,-0.40613478422164917,0.2459772229194641,0.2707727551460266,0.15668542683124542,0.2642515003681183,0.4129888713359833,0.12292778491973877,0.23878227174282074,0.20532412827014923,0.32568293809890747,0.3486161231994629,-0.2761039137840271,-0.6581135988235474,0.5163979530334473,-0.4904397130012512,-0.07164689898490906,-0.3999269902706146,-0.4539654850959778,0.6108558773994446,-0.47591283917427063,0.10067033767700195,0.46266046166419983,0.23545053601264954,0.24082988500595093,0.06296895444393158,0.4967084527015686,0.0687774270772934,-0.11632385104894638,0.2377578765153885,-0.001707996241748333,-0.3482511639595032,-0.33145007491111755,-0.17875832319259644,0.12822234630584717,-0.3321070075035095,-0.5781680345535278,0.12235675752162933,0.6953250765800476,0.0028313123621046543,-0.2444474995136261,0.36893022060394287,0.40790361166000366,0.22163456678390503,-0.31491899490356445,-0.1768028736114502,-0.08059053868055344,0.6546127796173096,-0.06873512268066406,0.04380069673061371,0.7563974857330322,0.3504130244255066,-0.47192949056625366,-0.10714839398860931,-0.33525657653808594,0.24947521090507507,0.2701442539691925,-0.4759584069252014,0.0006290245801210403,0.4751911163330078,0.2341441810131073,0.7216818928718567,0.12615759670734406,0.040767110884189606,0.2149318903684616,0.04898583143949509,-0.07268468290567398,0.14770017564296722,0.11047396808862686,0.4841899573802948,0.6212479472160339,-0.4327167570590973,0.17236948013305664,-0.1868736743927002,-0.14028538763523102,-0.10841436684131622,-0.3157593607902527,-0.20382963120937347,0.4988196790218353,-0.44936123490333557,0.04859122261404991,-0.08756467700004578,0.24599015712738037,-0.10548262298107147,0.10556942224502563,-0.08330824971199036,-0.3191526532173157,0.6926014423370361,-0.10972213000059128,-0.13363111019134521,-0.6044982075691223,-0.2351130247116089,-0.06997422128915787,0.36747199296951294,-0.45943304896354675,-0.1196558028459549,0.6375734806060791,0.03543925657868385,-0.13961127400398254,-0.14534683525562286,0.39725229144096375,-0.2888910174369812,0.18801742792129517,0.4878104627132416,-0.0015882626175880432,-0.32790035009384155,0.11453008651733398,-0.3158416152000427,-0.23037976026535034,-0.3898346424102783,0.48009368777275085,-0.35894864797592163,-0.23538240790367126,0.014727607369422913,-0.6771674156188965,-0.13964411616325378,0.31488943099975586,0.5782396197319031,-0.1202213391661644,0.20958265662193298,0.8138927817344666,0.15684403479099274,-0.3732156753540039,0.13589635491371155,0.3254743218421936,0.08817600458860397,0.6813485622406006,0.4831199645996094,-0.0376930758357048,0.14211246371269226,0.6783357858657837,0.08234809339046478,0.17649725079536438,-0.3822200894355774,0.42021071910858154,-0.26177525520324707,0.0793355405330658,-0.02023410052061081,0.019002189859747887,0.13699479401111603,-0.17420947551727295,0.3981209993362427,0.36577537655830383,-0.7067546844482422,-0.08679746091365814,0.3481496572494507,-0.06565578281879425,-0.2490553855895996,-0.5613372325897217,-0.25198614597320557,-0.12237932533025742,-0.0912608727812767,-0.06178176775574684,-0.2282225489616394,-0.4420371651649475,-0.07975811511278152,0.1856473982334137,-0.5023719072341919,0.09805801510810852,0.5071684122085571,-0.1336926519870758,0.14007481932640076,-0.1055356115102768,-0.06496300548315048,0.2635252773761749,-0.1958593726158142,-0.3539755642414093,0.15755078196525574,0.8869400024414062,-0.19396309554576874,-0.8074713349342346,-0.1536981761455536,0.36060836911201477,0.09957648068666458,0.07958188652992249,-0.0043952977284789085,-0.36078324913978577,0.004514705389738083,0.06835848093032837,0.21532562375068665,-0.23356615006923676,-0.6551885604858398,-0.1545022428035736,0.5449619889259338,-0.6904283761978149,-0.01064362283796072,-0.1957857459783554,0.14963175356388092,-0.490204393863678,0.351190984249115,-0.34163323044776917,0.5380644798278809,-0.057114679366350174,-0.6165712475776672,0.38233432173728943,0.16357380151748657,-0.04075975343585014,-0.08918358385562897,-0.21264863014221191,0.7451104521751404,-0.5329241752624512,-0.8503121733665466,0.0682772621512413,0.09886060655117035,0.660686731338501,-0.2629816234111786,-0.01246093213558197,-0.03895135223865509,0.20635512471199036,0.14785073697566986,0.06439691036939621,-0.25235629081726074,-0.13434705138206482,-0.5192126035690308,-0.2708210349082947,-0.3583729863166809,0.21401949226856232,0.1602565199136734,-0.6057435274124146,0.4377889037132263,-0.17812314629554749,0.20638762414455414,0.25073668360710144,-0.3276958465576172,-0.021236402913928032,0.3833569288253784,0.421785444021225,0.1886555552482605,0.4374420940876007,0.2145356833934784,0.3337925374507904,-0.15756575763225555,0.14641165733337402,0.16884846985340118,-0.16434510052204132,0.514925479888916,0.21718928217887878,-0.5893030762672424,-0.06894891709089279,0.7461062669754028,0.22890529036521912,-0.47117066383361816,-0.10349356383085251,0.5837217569351196,0.2067139446735382,0.0773027315735817,0.21820518374443054,-0.4375307261943817,-0.12450259923934937,-0.1743057370185852,-0.11588145792484283,-0.4393836557865143,-0.14505697786808014,-0.04066470265388489,-0.1506391018629074,-0.17219391465187073,0.08027542382478714,-0.19935119152069092,0.5747541189193726,-0.5393266677856445,-0.3515358567237854,-0.19276577234268188,-0.19339168071746826,-0.21842212975025177,0.28364065289497375,0.09535565227270126,-0.013364254496991634,-0.0001932494342327118,0.7253310680389404,-0.2445947676897049,-0.2961004078388214,-0.19420893490314484,-0.02500799670815468,0.06623972207307816,-0.1292591691017151,0.10560151934623718,-0.05979110300540924,0.3496357798576355,-0.7232925891876221,-0.2986046075820923,-0.049225207418203354,-0.1792183816432953,-0.47444605827331543,0.44676244258880615,0.3045109510421753,0.1643020361661911,0.6697826385498047,0.1362122744321823,0.17421862483024597,-0.4850752055644989,-0.4954659640789032,-0.11035279929637909,0.42118051648139954,-0.010652733966708183,-0.46440762281417847,-0.24901124835014343,0.4668779969215393,-0.5394787788391113,-0.20298589766025543,0.44726133346557617,0.15118926763534546,0.05572469159960747,-0.184742271900177,-0.11295408755540848,-0.6426784992218018,0.04604976996779442,0.2081146389245987,-0.032445646822452545,-0.18267498910427094,0.16377143561840057,-0.0739545226097107,0.08302055299282074,0.304810106754303,0.11743892729282379,-0.10241098701953888,-0.4652911424636841,-0.4896756410598755,-0.3360871374607086,0.37847423553466797,0.5308689475059509,-0.1943199336528778,-0.33897799253463745,0.2444615215063095,0.5949002504348755,-0.14162908494472504,0.15118874609470367,0.09369738399982452,-0.7749423384666443,-0.31984344124794006,-0.01928309164941311,0.22571946680545807,0.14055989682674408,-0.11963077634572983,-0.5048971176147461,0.4644750654697418,-0.1131952553987503,-0.2953881025314331,0.6002031564712524,-0.23389235138893127,0.2876889705657959,0.019068991765379906,-0.33883172273635864,0.03256721794605255,0.5574171543121338,0.032330285757780075,0.37715965509414673,0.16989818215370178,-0.5914479494094849,-0.1274234652519226,-0.08716334402561188,-0.5384971499443054,-0.20956185460090637,-0.08920127153396606,-0.038431569933891296,0.4166680574417114,-0.5834087133407593,0.3445432782173157,0.2978573441505432,0.31397581100463867,0.34455373883247375,-0.45954108238220215,-0.2243579477071762,0.32917964458465576,0.4042664170265198,-0.19016163051128387,-0.4842054843902588,-0.3638578951358795,-0.3948587477207184,-0.4150378108024597,-0.10907240211963654,0.5723735094070435,0.010249139741063118,-0.3784499764442444,-0.2843445837497711,0.42194679379463196,-0.0347316712141037,0.02654058113694191,0.23130781948566437,0.0560302734375,0.22230416536331177,0.2318645566701889,-0.8019727468490601,0.43420684337615967,-0.5136677622795105,-0.11252764612436295,-0.18571290373802185,0.1909790337085724,-0.08159367740154266,-0.09431017935276031,-0.2439763844013214,0.07732972502708435,0.31473875045776367,-0.2653404474258423,-0.045062921941280365,0.21575678884983063,0.23015162348747253,-0.2188887596130371,0.09116385877132416,0.2735233008861542,0.5142180323600769,0.11580602079629898,0.16334520280361176,0.5986706018447876,-0.4601266086101532,-0.017066754400730133,-0.2389104962348938,-0.5524946451187134,0.11568257957696915,0.1937919557094574,0.3348778188228607,-0.060223232954740524,-0.3146853446960449,0.6643025875091553,0.09032414108514786,-0.18133383989334106,0.33607736229896545,0.1560368686914444,0.14175651967525482,-0.22200316190719604,0.36230364441871643,0.6946102380752563,-0.059293825179338455,-0.2582397162914276,0.642499566078186,-0.5327907800674438,0.37816786766052246,-0.14486491680145264,-0.0549885593354702,0.09356901794672012
Singleton,0.4878823757171631,-0.4940459728240967,-0.6033623814582825,0.16259954869747162,0.29853105545043945,-0.13577900826931,0.5798588395118713,-0.3316129744052887,0.006128283683210611,-0.24046047031879425,0.4131094217300415,-0.005087051074951887,-0.4621060788631439,0.1269979327917099,-0.007408329751342535,0.5633565783500671,0.5218958258628845,-0.4536534547805786,0.1554338037967682,0.4230071008205414,-0.1840168684720993,0.6482006907463074,0.05372050777077675,0.10293153673410416,-0.36916759610176086,0.2881172001361847,0.2954302132129669,0.04695507511496544,0.5851914286613464,0.05952082946896553,-0.1730278879404068,0.1410665363073349,0.35167062282562256,-0.17599904537200928,-0.37220725417137146,-0.07051267474889755,-0.409993439912796,0.05590328574180603,0.7850804328918457,-0.08629897981882095,-0.42861321568489075,0.07015948742628098,-0.04085862264037132,-0.46611085534095764,0.13248933851718903,0.6228199005126953,0.11775150895118713,-0.06633301824331284,-0.14809176325798035,-0.31502434611320496,-0.5418850779533386,0.563735842704773,0.27699002623558044,0.12151405960321426,-0.3399125039577484,0.17001615464687347,0.28460443019866943,-0.2508140802383423,0.22988629341125488,-0.4036855697631836,-0.4408765733242035,-0.4426864683628082,0.1230878159403801,0.1240827664732933,-0.10756316781044006,-0.1325404942035675,0.5643802285194397,0.046098992228507996,-0.37780454754829407,0.25729095935821533,-0.394768625497818,0.42922165989875793,0.10503902286291122,-0.7852942943572998,0.0910179391503334,0.1689002513885498,-0.4525494873523712,0.22641302645206451,0.5670749545097351,0.3141309320926666,-0.00892656296491623,0.3094097077846527,-0.14487972855567932,0.009785792790353298,-0.14647895097732544,-0.366048127412796,0.5791570544242859,-0.0737304836511612,0.1262190192937851,0.47758278250694275,-0.34348705410957336,-0.7514686584472656,-0.06557336449623108,0.4126225709915161,-0.296942800283432,0.37549856305122375,0.15173937380313873,0.2711118757724762,-0.18694627285003662,-0.050137344747781754,0.3683963119983673,-0.08519276231527328,-0.19503720104694366,0.163277730345726,0.6015141010284424,-0.2211010456085205,-0.30297330021858215,-0.09334930777549744,0.11853471398353577,-0.19797874987125397,0.021903472021222115,0.6779680252075195,0.4114026725292206,0.36489900946617126,0.07818249613046646,0.13515418767929077,-0.4653301239013672,-0.3494098484516144,0.3056095540523529,-0.32288289070129395,0.45728111267089844,-0.0951705276966095,0.1571161299943924,0.30314773321151733,-0.2770475447177887,0.0747573971748352,0.07081145793199539,0.29467499256134033,0.12891565263271332,-0.2740507125854492,0.0082786800339818,-0.10623366385698318,-0.13483235239982605,0.10274291783571243,-0.078536257147789,-0.0279389675706625,0.19397234916687012,-0.8040819764137268,-0.3491957187652588,0.5143337845802307,0.8375844955444336,0.1658429354429245,0.3730192184448242,0.10779871791601181,0.5487897992134094,0.6695082187652588,0.26118209958076477,-0.4194355905056,0.13468508422374725,0.309433251619339,-0.22377800941467285,-0.2943362295627594,-0.3014470040798187,-0.6671207547187805,-0.6647645831108093,0.11097824573516846,0.3854455053806305,-0.02443418838083744,-0.04118487611413002,0.5771506428718567,0.16250573098659515,-0.5486917495727539,-0.15716437995433807,-0.08652428537607193,-0.2648982107639313,-0.4547877311706543,-0.13419194519519806,-0.04570716619491577,-0.47845104336738586,-0.2786698043346405,-0.23930175602436066,-0.5171203017234802,-0.06531703472137451,0.37362515926361084,-0.4036614000797272,0.6034546494483948,-0.3756934106349945,0.09594982117414474,0.5240001082420349,-0.5895553231239319,0.07021817564964294,-0.6089155673980713,-0.010014954023063183,0.45712414383888245,-0.13815216720104218,0.16688425838947296,-0.03776882216334343,0.4066741466522217,-0.11069481819868088,0.1402958780527115,0.23618121445178986,-0.03828739747405052,-0.20330773293972015,0.5941728353500366,-0.3190167248249054,0.040631018579006195,-0.2596314251422882,-0.26858070492744446,-0.39512431621551514,-0.4836455285549164,0.09883735328912735,-0.7779853343963623,-0.6569529175758362,-0.264447420835495,-0.3216944634914398,0.061365410685539246,-0.09651830792427063,-0.021891595795750618,-0.013918477110564709,-0.28697022795677185,0.3015483319759369,-0.33356475830078125,0.21934624016284943,0.0009364187717437744,-0.08076407760381699,-0.14201124012470245,0.3289951980113983,0.45699772238731384,0.4582176208496094,-0.3450760543346405,-0.4157992899417877,-0.0005427648429758847,0.36250972747802734,-0.019627586007118225,0.6715525984764099,-0.07114364951848984,-0.03939802944660187,0.08884545415639877,0.11206278204917908,0.13185185194015503,0.6318984627723694,-0.22134654223918915,-0.12332900613546371,0.024736404418945312,-0.4591931104660034,-0.1971839815378189,-0.1274700164794922,0.2207505702972412,0.5702259540557861,0.17471927404403687,0.06076419726014137,0.6056448221206665,0.4807145595550537,-0.3965185582637787,0.47464480996131897,-0.23931057751178741,0.1824015974998474,-0.5933025479316711,-0.17953534424304962,-0.6674964427947998,-0.14770124852657318,-0.3406485617160797,0.6278754472732544,-0.41510045528411865,0.5471087694168091,0.4930841624736786,-0.3630192279815674,-0.28055769205093384,0.30152642726898193,0.08283650130033493,0.3388561010360718,-0.03492545709013939,0.11222481727600098,-0.018845774233341217,0.14364241063594818,0.19200201332569122,0.6869111061096191,0.06484031677246094,0.4617250859737396,0.005130029749125242,0.02777731977403164,0.6075146198272705,-0.22375452518463135,-0.3395770490169525,-0.17129908502101898,0.0859314426779747,-0.2765410244464874,-0.3768640458583832,-0.02259366773068905,0.036401018500328064,0.6561823487281799,0.1690162867307663,-0.3212001323699951,0.38758614659309387,0.25142064690589905,-0.5689787268638611,0.023979678750038147,0.1909608244895935,0.20448531210422516,-0.41686978936195374,0.04613605514168739,-0.22931671142578125,0.0698637068271637,-0.594247043132782,-0.506648063659668,0.5389668345451355,-0.023779792711138725,0.3373924195766449,0.24213826656341553,-0.3957464396953583,-0.4555385112762451,0.7462406754493713,-0.1863313913345337,-0.5853739380836487,0.22016339004039764,0.42996945977211,0.3729307949542999,0.16415126621723175,0.4090338945388794,0.35228362679481506,-0.2772980034351349,0.4315078556537628,0.26267752051353455,-0.5813327431678772,-0.5405064225196838,0.07690201699733734,0.0955311730504036,0.06125497817993164,-0.38179096579551697,-0.6005213856697083,-0.12951527535915375,0.15466542541980743,-0.00675577437505126,0.338443398475647,0.1943960338830948,0.3441943824291229,0.0472528338432312,0.3528233468532562,-0.3222905695438385,0.6590273976325989,0.004831496626138687,0.6209385395050049,-0.49780020117759705,-0.26655277609825134,-0.13705851137638092,-0.052997708320617676,-0.06853639334440231,-0.03978290036320686,0.524936854839325,-0.3160358965396881,-0.3279269337654114,0.15732693672180176,0.28751635551452637,0.2665669620037079,0.2721639573574066,0.4051545560359955,0.2024022489786148,0.22042565047740936,0.1912415474653244,0.30110248923301697,0.24717538058757782,-0.278764933347702,-0.6487765312194824,0.542948842048645,-0.4386943578720093,-0.09892037510871887,-0.3952352702617645,-0.46392425894737244,0.628072202205658,-0.47210681438446045,0.2044227123260498,0.4853174686431885,0.26288047432899475,0.17261506617069244,0.10810688138008118,0.5015436410903931,0.08769869804382324,-0.06135094538331032,0.22502751648426056,0.004071630537509918,-0.4227151572704315,-0.3481045663356781,-0.1801440268754959,0.1317072957754135,-0.3485487401485443,-0.580426812171936,0.09828061610460281,0.6874477863311768,-0.016983184963464737,-0.25921252369880676,0.40930020809173584,0.41068634390830994,0.2341281622648239,-0.2509763836860657,-0.2184470295906067,-0.15141724050045013,0.6483807563781738,-0.046180710196495056,0.04379280284047127,0.7129244208335876,0.33621716499328613,-0.4856175482273102,-0.013634093105793,-0.23897063732147217,0.1743193119764328,0.16040611267089844,-0.4706309735774994,-0.006061285734176636,0.5135056376457214,0.21342821419239044,0.7133684158325195,0.12984858453273773,0.18049268424510956,0.199458047747612,0.07312489300966263,-0.009393597953021526,0.18262581527233124,0.043843626976013184,0.4569593369960785,0.5822680592536926,-0.4544201195240021,0.23794309794902802,-0.16351158916950226,-0.16690747439861298,-0.1424393206834793,-0.2422601729631424,-0.23221366107463837,0.5118879675865173,-0.4544233977794647,0.01174804288893938,0.043609485030174255,0.29302212595939636,-0.08589450269937515,-0.08973079174757004,-0.12581948935985565,-0.336411714553833,0.641635000705719,-0.12887424230575562,-0.12836988270282745,-0.5984809994697571,-0.23762059211730957,0.00282934564165771,0.4607504606246948,-0.4571967124938965,-0.11136547476053238,0.6052871346473694,0.07866951078176498,-0.19202591478824615,-0.16991792619228363,0.4141354262828827,-0.26332926750183105,0.20966742932796478,0.5157437920570374,-0.018372414633631706,-0.19170516729354858,0.04591827467083931,-0.3444138765335083,-0.16669286787509918,-0.4114128053188324,0.44564589858055115,-0.37191203236579895,-0.19722294807434082,-0.06288702040910721,-0.672163188457489,-0.11775302141904831,0.2881641089916229,0.516152560710907,-0.04677871987223625,0.22364532947540283,0.831963300704956,0.11145942658185959,-0.38467368483543396,0.09589190036058426,0.39291074872016907,0.09911670535802841,0.6496883034706116,0.4774937629699707,-0.019776305183768272,0.21434228122234344,0.6594586372375488,0.090464748442173,0.18032856285572052,-0.3522456884384155,0.42051205039024353,-0.13873648643493652,0.0072626895271241665,0.03274199739098549,0.1081324890255928,0.20464539527893066,-0.24766534566879272,0.3233588933944702,0.407749742269516,-0.7299267649650574,-0.07361187785863876,0.3398592174053192,-0.19749869406223297,-0.23032279312610626,-0.5266417264938354,-0.2572748064994812,-0.16461358964443207,-0.129633828997612,-0.1249280795454979,-0.240486741065979,-0.47248682379722595,-0.08881328254938126,0.18482916057109833,-0.4707285463809967,0.102145254611969,0.5396179556846619,-0.05152012035250664,0.20257030427455902,-0.18464171886444092,-0.08080092072486877,0.32703062891960144,-0.13666875660419464,-0.41328588128089905,0.07637570053339005,0.8803989291191101,-0.28804805874824524,-0.8012449145317078,-0.22724580764770508,0.39816585183143616,0.15349411964416504,0.013046768493950367,-0.06650828570127487,-0.34004664421081543,-0.016671255230903625,0.07038432359695435,0.2010388821363449,-0.226771280169487,-0.6347594261169434,-0.08477559685707092,0.5265681743621826,-0.6653854846954346,0.036656975746154785,-0.25945764780044556,0.09084371477365494,-0.4623551666736603,0.3780062198638916,-0.28675997257232666,0.5558533668518066,0.0865887776017189,-0.637888491153717,0.40678974986076355,0.1645081788301468,-0.0007151871104724705,-0.14100618660449982,-0.21452249586582184,0.7490453124046326,-0.534714937210083,-0.8422382473945618,0.09937867522239685,0.18535582721233368,0.6082806587219238,-0.2379598617553711,-0.08789686113595963,-0.005581118166446686,0.2317916303873062,0.1639580875635147,0.10282868891954422,-0.28124627470970154,-0.2023472934961319,-0.47188684344291687,-0.24334831535816193,-0.3571740686893463,0.10818568617105484,0.11423802375793457,-0.6487640738487244,0.43922296166419983,-0.22199343144893646,0.25877270102500916,0.19013173878192902,-0.2954197824001312,-0.050680775195360184,0.27697446942329407,0.4801763594150543,0.21660320460796356,0.4724840819835663,0.15716104209423065,0.35208234190940857,-0.08303344249725342,0.21632523834705353,0.15371909737586975,-0.07135491818189621,0.42153239250183105,0.22012460231781006,-0.6170690655708313,-0.08072861284017563,0.7420137524604797,0.2154480367898941,-0.4555189907550812,-0.041493017226457596,0.5424742698669434,0.17125165462493896,0.03424890711903572,0.23681633174419403,-0.4206348955631256,-0.18417192995548248,-0.1296713501214981,-0.08156741410493851,-0.36199751496315,-0.24290907382965088,0.02130904048681259,-0.08393283933401108,-0.24612624943256378,0.07546976953744888,-0.18133759498596191,0.5649963021278381,-0.5004333853721619,-0.36431121826171875,-0.22859318554401398,-0.16667436063289642,-0.16299539804458618,0.335252046585083,0.1228959783911705,-0.07243788242340088,0.024286581203341484,0.6882679462432861,-0.2001013159751892,-0.37226954102516174,-0.20643745362758636,-0.014697770588099957,0.18833060562610626,-0.11222312599420547,0.13978417217731476,-0.10939204692840576,0.3406333923339844,-0.7499620914459229,-0.20683759450912476,-0.16132692992687225,-0.18746821582317352,-0.465705543756485,0.420743852853775,0.2850181758403778,0.1452355533838272,0.6627507209777832,0.1564941555261612,0.08565717935562134,-0.4804894030094147,-0.5036415457725525,-0.07638580352067947,0.437671035528183,0.004809454083442688,-0.4847205877304077,-0.2947736978530884,0.511686384677887,-0.5802738666534424,-0.14015503227710724,0.4426238536834717,0.11405521631240845,0.01595042459666729,-0.21052686870098114,-0.1057891920208931,-0.6484187245368958,-0.038033317774534225,0.2807905972003937,0.034225501120090485,-0.20249949395656586,0.06884156912565231,0.0276633407920599,-0.014011700637638569,0.2544690668582916,0.02778872288763523,-0.03615539148449898,-0.4921726882457733,-0.47131040692329407,-0.227522075176239,0.3766305446624756,0.5092098712921143,-0.2552059590816498,-0.2318226844072342,0.40466582775115967,0.5509217381477356,-0.05810056999325752,0.13061240315437317,0.17662198841571808,-0.7791010737419128,-0.19923299551010132,-0.01023874431848526,0.3092115521430969,0.1536429077386856,-0.16047970950603485,-0.5187575221061707,0.42801550030708313,-0.07716906070709229,-0.3159034252166748,0.5581195950508118,-0.2884703576564789,0.2831040024757385,0.07704029232263565,-0.38351285457611084,-0.02960292249917984,0.5351971983909607,0.03470882773399353,0.4266098439693451,0.14343242347240448,-0.5669476985931396,-0.14635169506072998,-0.06547382473945618,-0.5311585664749146,-0.1758044809103012,-0.14022783935070038,-0.08713742345571518,0.3726619482040405,-0.566814661026001,0.3360152542591095,0.3304837644100189,0.22606641054153442,0.32693302631378174,-0.47879743576049805,-0.21074092388153076,0.3636699616909027,0.4287092685699463,-0.14938217401504517,-0.4637563228607178,-0.37044692039489746,-0.3619046211242676,-0.4486229717731476,-0.06301332265138626,0.5692664980888367,0.0093643544241786,-0.4234580099582672,-0.2804436981678009,0.4395214021205902,0.009921633638441563,0.09853462129831314,0.2457628846168518,0.14048349857330322,0.2584829032421112,0.1879594326019287,-0.7713863849639893,0.39828768372535706,-0.5080430507659912,-0.09949459880590439,-0.1928207278251648,0.16750633716583252,-0.07959481328725815,0.034405775368213654,-0.24524283409118652,0.13736958801746368,0.34711024165153503,-0.28743481636047363,-0.02211286686360836,0.18907611072063446,0.2921314239501953,-0.157586932182312,0.1120603084564209,0.2758561670780182,0.511961817741394,0.11406528949737549,0.2567501962184906,0.5648670196533203,-0.43896809220314026,0.0019304584711790085,-0.2639409601688385,-0.532995879650116,0.12833049893379211,0.24974407255649567,0.41211119294166565,-0.0997433066368103,-0.3467727601528168,0.7029860615730286,0.10928798466920853,-0.10837510973215103,0.31950703263282776,0.09666762501001358,0.06847184151411057,-0.21844516694545746,0.4126755893230438,0.7066893577575684,-0.08283799886703491,-0.28041186928749084,0.6207854151725769,-0.5252094268798828,0.37512317299842834,-0.08590028434991837,-0.03394443914294243,0.09269935637712479
Singleton,0.4881911277770996,-0.49186018109321594,-0.615917980670929,0.1134229525923729,0.2445337027311325,-0.06150685250759125,0.5996077060699463,-0.30966106057167053,-0.00026588141918182373,-0.34841188788414,0.46479564905166626,-0.006269755307585001,-0.4524630904197693,0.1619175374507904,-0.07154683768749237,0.5793324708938599,0.5307967066764832,-0.5080214142799377,0.09139852970838547,0.3519892394542694,-0.1532515436410904,0.6254482269287109,0.12121626734733582,0.10453357547521591,-0.3849034607410431,0.2834447920322418,0.28751957416534424,0.01059284433722496,0.5616863369941711,0.1583540439605713,-0.21689438819885254,0.17615057528018951,0.3772173523902893,-0.15949338674545288,-0.40098947286605835,-0.03976185992360115,-0.43293675780296326,0.11925499886274338,0.8070365786552429,-0.10130120813846588,-0.3819844722747803,0.04703227058053017,-0.06037392094731331,-0.46484115719795227,0.03609028086066246,0.6527582406997681,0.1552196443080902,-0.02574688196182251,-0.11649198085069656,-0.30142486095428467,-0.5581715106964111,0.6029537320137024,0.28825291991233826,0.13956905901432037,-0.37681376934051514,0.16843123733997345,0.29575449228286743,-0.2627809941768646,0.18855252861976624,-0.44928625226020813,-0.4400708079338074,-0.4353490471839905,0.08989567309617996,0.12164849787950516,-0.12418850511312485,-0.12020763009786606,0.5394065380096436,0.07468606531620026,-0.34152886271476746,0.18978378176689148,-0.3843872547149658,0.3389660120010376,0.09383200109004974,-0.7666659355163574,0.03628455102443695,0.18526187539100647,-0.5538793802261353,0.18298619985580444,0.5669829249382019,0.29680684208869934,0.0015185936354100704,0.33987441658973694,-0.19555158913135529,0.0476994551718235,-0.10814519971609116,-0.35975587368011475,0.549968421459198,-0.09210345149040222,0.11031544953584671,0.41102334856987,-0.35898616909980774,-0.77031409740448,-0.030153920873999596,0.365519642829895,-0.3609876036643982,0.4007575511932373,0.11915530264377594,0.1662171483039856,-0.1730041354894638,-0.08484970033168793,0.3451864719390869,-0.1389472782611847,-0.09087630361318588,0.1618400365114212,0.5955126285552979,-0.20887312293052673,-0.28385642170906067,-0.09234370291233063,0.0411948598921299,-0.20525193214416504,0.012726833112537861,0.6601622700691223,0.4388149380683899,0.34423789381980896,0.10658339411020279,0.1368936151266098,-0.406815767288208,-0.32353469729423523,0.3248140513896942,-0.35353556275367737,0.3817770183086395,-0.06079738587141037,0.18442761898040771,0.34776970744132996,-0.34521806240081787,0.06733968108892441,0.0965798944234848,0.2973841726779938,0.19096505641937256,-0.28676021099090576,-0.007453443482518196,-0.14664506912231445,-0.12060689926147461,0.131673201918602,-0.06279829889535904,0.018208162859082222,0.16888457536697388,-0.7855014801025391,-0.3380392789840698,0.50811767578125,0.8507993221282959,0.0807025134563446,0.4248165190219879,0.17383898794651031,0.5365842580795288,0.6461623907089233,0.3101733326911926,-0.3851282298564911,0.13986623287200928,0.3690572679042816,-0.2618691921234131,-0.2555648386478424,-0.35785815119743347,-0.6904737949371338,-0.6664453148841858,0.0961005762219429,0.3877926170825958,-0.05003216117620468,-0.056340593844652176,0.5891657471656799,0.15479756891727448,-0.5645416378974915,-0.22329704463481903,-0.12223789095878601,-0.25467449426651,-0.4479261636734009,-0.18241122364997864,-0.01637730747461319,-0.4372737407684326,-0.33120664954185486,-0.24055229127407074,-0.516040563583374,-0.04947920888662338,0.38179782032966614,-0.45190560817718506,0.6094663739204407,-0.38323700428009033,0.05645664408802986,0.5289161801338196,-0.5612403154373169,0.07218082249164581,-0.6592227220535278,0.05550124868750572,0.4968158006668091,-0.14546823501586914,0.15232549607753754,-0.047056812793016434,0.4512256979942322,-0.14616696536540985,0.1605418622493744,0.2971642017364502,-0.14476217329502106,-0.211983323097229,0.5871989727020264,-0.3225465416908264,0.13579322397708893,-0.28047433495521545,-0.20269234478473663,-0.4194895923137665,-0.48349297046661377,0.07415411621332169,-0.779041588306427,-0.6550158858299255,-0.32108449935913086,-0.31504619121551514,0.03877611085772514,-0.14107315242290497,-0.05719074234366417,-0.04832923412322998,-0.23577700555324554,0.2824302613735199,-0.3944208323955536,0.23203560709953308,-0.0591428279876709,-0.1217571496963501,-0.14125226438045502,0.28070247173309326,0.42115500569343567,0.4340571165084839,-0.3399485647678375,-0.44471317529678345,-0.03750504180788994,0.41045790910720825,0.00148758792784065,0.6698106527328491,-0.09861915558576584,-0.09947666525840759,0.10945693403482437,0.1102275550365448,0.1140865758061409,0.6166759133338928,-0.32331937551498413,-0.11394670605659485,-0.03593847528100014,-0.4683445692062378,-0.19091583788394928,-0.12693744897842407,0.23865583539009094,0.5572616457939148,0.21944093704223633,0.08151049166917801,0.57015460729599,0.4821809232234955,-0.29627472162246704,0.44005832076072693,-0.2267942726612091,0.20641203224658966,-0.576583981513977,-0.13667157292366028,-0.670250654220581,-0.09438446909189224,-0.32254016399383545,0.6403012871742249,-0.4659595489501953,0.5302779674530029,0.5356035232543945,-0.3743683099746704,-0.29461124539375305,0.3184307813644409,0.1750328540802002,0.29969167709350586,-0.041936345398426056,0.11702142655849457,-0.03652481734752655,0.1169709786772728,0.194654643535614,0.6897637844085693,0.10999011248350143,0.44243183732032776,-0.003754996694624424,-0.005561768542975187,0.5863254070281982,-0.26501303911209106,-0.3479679524898529,-0.2149910181760788,0.15123635530471802,-0.3048638105392456,-0.3443927466869354,0.019564220681786537,-0.041534438729286194,0.6457297205924988,0.11024302244186401,-0.33138808608055115,0.3252149820327759,0.26678764820098877,-0.6207597851753235,0.0445999950170517,0.21897262334823608,0.2599421441555023,-0.4009447395801544,-0.012995721772313118,-0.2025870829820633,0.03730282187461853,-0.6416940689086914,-0.47675812244415283,0.5712942481040955,-0.017030170187354088,0.324057936668396,0.20424792170524597,-0.37600353360176086,-0.39909088611602783,0.7612383365631104,-0.21276848018169403,-0.5464270710945129,0.2621719539165497,0.3571568727493286,0.3641093373298645,0.2443004995584488,0.43008679151535034,0.40258848667144775,-0.24538689851760864,0.464164137840271,0.22828592360019684,-0.6142829656600952,-0.5204662084579468,0.06495093554258347,0.07331371307373047,0.026632023975253105,-0.3390624225139618,-0.6256382465362549,-0.13741198182106018,0.24630819261074066,-0.06740902364253998,0.3439817428588867,0.1618102639913559,0.35371461510658264,-0.037056710571050644,0.4147781729698181,-0.27705878019332886,0.6598888039588928,0.049885693937540054,0.6069985628128052,-0.476503849029541,-0.21926598250865936,-0.17245157063007355,-0.08925171196460724,-0.08676403015851974,-0.016422761604189873,0.5191994905471802,-0.2582367956638336,-0.3851958215236664,0.2695350646972656,0.2644745409488678,0.24615611135959625,0.25449663400650024,0.460415244102478,0.1605965495109558,0.21395361423492432,0.18831123411655426,0.2758641839027405,0.2583274841308594,-0.2777074873447418,-0.670811653137207,0.525638997554779,-0.45909038186073303,-0.03379492461681366,-0.3686183989048004,-0.3843308687210083,0.6117227077484131,-0.5104252696037292,0.18907520174980164,0.47848764061927795,0.25989243388175964,0.18574263155460358,0.10796161741018295,0.4878352880477905,0.059777721762657166,-0.10718640685081482,0.21785320341587067,-0.009141713380813599,-0.35344672203063965,-0.30797889828681946,-0.17071537673473358,0.14079855382442474,-0.337640643119812,-0.6029081344604492,0.10791482031345367,0.662223219871521,-0.014213833957910538,-0.2914062738418579,0.3654473125934601,0.3960564136505127,0.2481517493724823,-0.2492944598197937,-0.20489880442619324,-0.14551220834255219,0.6473726630210876,-0.06864035874605179,0.04252343997359276,0.7584677934646606,0.29596903920173645,-0.5397055745124817,-0.07880311459302902,-0.3192068636417389,0.27042800188064575,0.24618496000766754,-0.44460752606391907,0.010095243342220783,0.43577033281326294,0.25641608238220215,0.7538056969642639,0.09660716354846954,0.09839125722646713,0.2449062168598175,0.08638248592615128,-0.08167268335819244,0.15448114275932312,0.08273759484291077,0.4791298508644104,0.5913158059120178,-0.45078045129776,0.1332002878189087,-0.14280197024345398,-0.10676123946905136,-0.1420745998620987,-0.26866230368614197,-0.20741039514541626,0.5209379196166992,-0.48268359899520874,0.04246965050697327,-0.07296967506408691,0.2558828592300415,-0.11386336386203766,0.015088800340890884,-0.10254140198230743,-0.35292068123817444,0.6797389984130859,-0.08396769315004349,-0.11606582254171371,-0.5888071656227112,-0.24346794188022614,-0.028344877064228058,0.35840949416160583,-0.47158610820770264,-0.14854063093662262,0.651749849319458,0.058828260749578476,-0.14699503779411316,-0.16197863221168518,0.35104450583457947,-0.3000144362449646,0.24081073701381683,0.47050702571868896,-0.02250821702182293,-0.3264704644680023,0.07217830419540405,-0.3332778811454773,-0.2023051679134369,-0.4064220190048218,0.49740293622016907,-0.40628087520599365,-0.22383417189121246,-0.012685958296060562,-0.6536059379577637,-0.16873036324977875,0.33006832003593445,0.5457503199577332,-0.11834576725959778,0.18624332547187805,0.8186831474304199,0.09585168212652206,-0.40777233242988586,0.10727269947528839,0.3844524621963501,0.13296133279800415,0.6898465752601624,0.4941166341304779,-0.04856770113110542,0.19377058744430542,0.6837309002876282,0.12516529858112335,0.15998327732086182,-0.3246992826461792,0.390496164560318,-0.23571880161762238,0.009995374828577042,-0.023344531655311584,0.04785114526748657,0.1926521211862564,-0.16929739713668823,0.3673309087753296,0.41587185859680176,-0.7277705669403076,-0.09499866515398026,0.3242556154727936,-0.10240031778812408,-0.21349282562732697,-0.5534876585006714,-0.16344299912452698,-0.19972550868988037,-0.1379072368144989,-0.10025365650653839,-0.2938210070133209,-0.4919053316116333,-0.05290158465504646,0.21616967022418976,-0.5014479160308838,0.0897727906703949,0.5476290583610535,-0.06002488359808922,0.22690802812576294,-0.1945262998342514,-0.0948542132973671,0.25285986065864563,-0.1657705307006836,-0.3394711911678314,0.1216631829738617,0.882506787776947,-0.2168218046426773,-0.8176159858703613,-0.18799234926700592,0.398058146238327,0.11677245050668716,0.07780441641807556,-0.05783756077289581,-0.30369070172309875,-0.021458866074681282,0.048462752252817154,0.1754583716392517,-0.2540503740310669,-0.6325165629386902,-0.1371251344680786,0.5562620162963867,-0.6910374760627747,0.025444818660616875,-0.2348451316356659,0.09662239998579025,-0.5082942247390747,0.34016677737236023,-0.344784140586853,0.5923495888710022,0.04103424400091171,-0.6548415422439575,0.35779869556427,0.14150916039943695,0.005933752749115229,-0.14276863634586334,-0.19893188774585724,0.735447108745575,-0.5509302616119385,-0.8501142263412476,0.022441335022449493,0.12305782735347748,0.6279990077018738,-0.2476934790611267,-0.11041761189699173,-0.013143453747034073,0.2311452478170395,0.17279942333698273,0.0516713447868824,-0.2748223543167114,-0.18394514918327332,-0.49964460730552673,-0.25967153906822205,-0.39497891068458557,0.20608335733413696,0.13068443536758423,-0.6508609056472778,0.3871481120586395,-0.17512176930904388,0.2607388198375702,0.22607257962226868,-0.2785435914993286,-0.04783826321363449,0.3422624468803406,0.48352760076522827,0.18775656819343567,0.47310760617256165,0.16866572201251984,0.3813808560371399,-0.13138721883296967,0.20175504684448242,0.16920214891433716,-0.118815578520298,0.4770311713218689,0.19478991627693176,-0.5651209354400635,-0.020940208807587624,0.7482342720031738,0.2785809338092804,-0.4953192472457886,-0.07976309955120087,0.5963133573532104,0.16216695308685303,0.04352042078971863,0.272678017616272,-0.44459331035614014,-0.15309126675128937,-0.15996021032333374,-0.10637038946151733,-0.3832513093948364,-0.20509278774261475,-0.03577399626374245,-0.12665249407291412,-0.19348107278347015,0.11615044623613358,-0.19329851865768433,0.5291110873222351,-0.5492251515388489,-0.35824570059776306,-0.19810491800308228,-0.16819831728935242,-0.2244873046875,0.3359808623790741,0.08986511826515198,-0.049834031611680984,0.05021269991993904,0.6959535479545593,-0.2522236108779907,-0.3140110671520233,-0.2240799516439438,-0.005205193534493446,0.15714995563030243,-0.1383688747882843,0.08375675976276398,-0.13833655416965485,0.3321709632873535,-0.717216968536377,-0.2878146171569824,-0.08169673383235931,-0.18152400851249695,-0.46426746249198914,0.492944598197937,0.3256725072860718,0.1742146611213684,0.6697773933410645,0.12211970239877701,0.08885526657104492,-0.49577057361602783,-0.5062978267669678,-0.12191608548164368,0.38951951265335083,-0.008564786985516548,-0.4792885184288025,-0.2665461301803589,0.4878315329551697,-0.5712814927101135,-0.1889551281929016,0.4219760000705719,0.10339052230119705,-0.0173066183924675,-0.20407120883464813,-0.12673690915107727,-0.6674408316612244,-0.0264030322432518,0.21164880692958832,0.0027068546041846275,-0.2031596601009369,0.1142008826136589,-0.047617822885513306,0.09249517321586609,0.33671534061431885,0.14471791684627533,-0.08666682988405228,-0.4857862889766693,-0.48197704553604126,-0.3195302188396454,0.2787553071975708,0.5460608601570129,-0.21176567673683167,-0.329327255487442,0.28622281551361084,0.5792502760887146,-0.09073224663734436,0.19705694913864136,0.12371239066123962,-0.7889370322227478,-0.2868455648422241,0.023042282089591026,0.28908491134643555,0.1613326221704483,-0.16479264199733734,-0.5082929134368896,0.45251697301864624,-0.15297135710716248,-0.34148454666137695,0.5831127762794495,-0.22730644047260284,0.32899296283721924,0.10072891414165497,-0.32728445529937744,0.05658002197742462,0.5316227674484253,0.04755454137921333,0.346034973859787,0.14412982761859894,-0.629789412021637,-0.14754526317119598,-0.1308322548866272,-0.5330846309661865,-0.16616810858249664,-0.12043300271034241,-0.01575278863310814,0.3809361755847931,-0.6014314293861389,0.3991358280181885,0.28705063462257385,0.29358160495758057,0.3419668972492218,-0.4745815694332123,-0.14036217331886292,0.37592294812202454,0.4131103456020355,-0.21524804830551147,-0.49187299609184265,-0.42894479632377625,-0.4302859306335449,-0.43648049235343933,-0.10472884774208069,0.5915402173995972,-0.01140740979462862,-0.411310613155365,-0.3080233931541443,0.4227081835269928,-0.03292146697640419,0.028458135202527046,0.29343098402023315,0.02385038137435913,0.2921236753463745,0.14621761441230774,-0.7788392305374146,0.45771223306655884,-0.5231188535690308,0.001689802622422576,-0.23691831529140472,0.14659196138381958,-0.08307050913572311,-0.016360320150852203,-0.2750309407711029,0.09108134359121323,0.31693923473358154,-0.2813435196876526,-0.02299402467906475,0.20026732981204987,0.24813638627529144,-0.1740184724330902,0.08851905912160873,0.28155213594436646,0.5448780655860901,0.13567127287387848,0.22892530262470245,0.545592725276947,-0.45197051763534546,-0.04696099832653999,-0.27274930477142334,-0.5945668816566467,0.15060575306415558,0.18309396505355835,0.4106299579143524,-0.03412500023841858,-0.3106481730937958,0.6736090183258057,0.09505850076675415,-0.1444658488035202,0.3399010896682739,0.14226897060871124,0.10170026868581772,-0.18989741802215576,0.33206069469451904,0.6864502429962158,0.015811525285243988,-0.2650033235549927,0.6324230432510376,-0.592755913734436,0.3798537850379944,-0.14279694855213165,-0.03388093039393425,0.07204074412584305
Factory,0.5100653171539307,-0.4973801076412201,-0.6256194114685059,0.12078110873699188,0.26444098353385925,-0.09760916978120804,0.5813078880310059,-0.33995646238327026,0.021501094102859497,-0.3074517250061035,0.447867214679718,0.028847265988588333,-0.4433440864086151,0.15365852415561676,-0.043672092258930206,0.5898860096931458,0.48753541707992554,-0.5215181112289429,0.12130306661128998,0.38385671377182007,-0.17421552538871765,0.6419388651847839,0.10140105336904526,0.10594095289707184,-0.34167614579200745,0.31591930985450745,0.27400460839271545,0.01580815203487873,0.5725763440132141,0.12753476202487946,-0.1732526570558548,0.18066571652889252,0.3904958665370941,-0.10075867176055908,-0.4013376832008362,-0.010672167874872684,-0.4111810326576233,0.08972158282995224,0.7898823618888855,-0.13195312023162842,-0.38034898042678833,0.04062885791063309,-0.009742280468344688,-0.46488043665885925,0.09961362928152084,0.6385769248008728,0.14800028502941132,-0.033924322575330734,-0.13333530724048615,-0.3078882396221161,-0.5663471817970276,0.5671369433403015,0.27868548035621643,0.15249964594841003,-0.3307472765445709,0.16727833449840546,0.2593488097190857,-0.25250107049942017,0.17270350456237793,-0.42979148030281067,-0.44920650124549866,-0.43012332916259766,0.1459788978099823,0.11936267465353012,-0.06769845634698868,-0.1281854212284088,0.5230857729911804,0.08397258818149567,-0.3218803405761719,0.19413699209690094,-0.4252365529537201,0.36302679777145386,0.14845338463783264,-0.7571125030517578,0.021428512409329414,0.17402100563049316,-0.4689977765083313,0.1582028716802597,0.5651957392692566,0.3494241237640381,-0.026365071535110474,0.31101736426353455,-0.1749778538942337,0.04812469705939293,-0.14016589522361755,-0.35819002985954285,0.5649046301841736,-0.1070946678519249,0.0868263840675354,0.4312734305858612,-0.3108997046947479,-0.7573129534721375,-0.058225419372320175,0.371884822845459,-0.3241577446460724,0.3379417955875397,0.16042645275592804,0.18304988741874695,-0.1861492246389389,-0.0337195061147213,0.3643351197242737,-0.10443933308124542,-0.10778797417879105,0.19884133338928223,0.5895085334777832,-0.24270769953727722,-0.2569923400878906,-0.10800591856241226,0.06368417292833328,-0.21105948090553284,-0.013726266101002693,0.6420764327049255,0.42755985260009766,0.31949636340141296,0.07799225300550461,0.13058559596538544,-0.42076462507247925,-0.37070879340171814,0.3065777122974396,-0.349438339471817,0.39750099182128906,-0.08852871507406235,0.18276847898960114,0.3825407922267914,-0.3529125154018402,0.12411312758922577,0.05795059725642204,0.3263508677482605,0.16806502640247345,-0.24969467520713806,-0.013945727609097958,-0.11974821239709854,-0.13254325091838837,0.12660014629364014,-0.0741618201136589,0.015204248018562794,0.22860901057720184,-0.7953919172286987,-0.3617503345012665,0.5395165085792542,0.8385528326034546,0.08151743561029434,0.39726492762565613,0.14966586232185364,0.5399553179740906,0.6544591188430786,0.2804175317287445,-0.42547914385795593,0.14189855754375458,0.3172314763069153,-0.23148036003112793,-0.23593448102474213,-0.3226989805698395,-0.6406984925270081,-0.6581705808639526,0.095647893846035,0.4110416769981384,-0.058288343250751495,-0.02842096798121929,0.5635846853256226,0.19434790313243866,-0.5550330877304077,-0.21565863490104675,-0.15641510486602783,-0.28026366233825684,-0.4306553304195404,-0.14840422570705414,-0.03530439734458923,-0.4275077283382416,-0.281620591878891,-0.20265541970729828,-0.5213977098464966,-0.0585024319589138,0.38180357217788696,-0.44229596853256226,0.6050391793251038,-0.3784172534942627,0.08305740356445312,0.5138192772865295,-0.5698104500770569,0.04667919874191284,-0.6366568803787231,-0.020532263442873955,0.48477432131767273,-0.11016193777322769,0.17025227844715118,-0.04394324868917465,0.42351970076560974,-0.14651329815387726,0.154321551322937,0.2110893577337265,-0.05183786153793335,-0.21275994181632996,0.5975316762924194,-0.37890857458114624,0.09410446137189865,-0.26399973034858704,-0.20860537886619568,-0.38348689675331116,-0.52711021900177,0.10433964431285858,-0.8004177808761597,-0.6682872772216797,-0.27585405111312866,-0.3481951355934143,0.040925465524196625,-0.12627005577087402,-0.029955720528960228,-0.035920996218919754,-0.27943387627601624,0.3069823682308197,-0.43088364601135254,0.25383880734443665,-0.03471304103732109,-0.15356972813606262,-0.10632680356502533,0.33301085233688354,0.41077885031700134,0.419039785861969,-0.3463093340396881,-0.4024913012981415,-0.005510482471436262,0.39862939715385437,-0.053961873054504395,0.6477454304695129,-0.09177645295858383,-0.10753694921731949,0.09841126948595047,0.1296209841966629,0.10277163237333298,0.6166502237319946,-0.30789145827293396,-0.07877947390079498,-0.02469770982861519,-0.5059443116188049,-0.20290951430797577,-0.10802091658115387,0.2524574398994446,0.5579675436019897,0.17384961247444153,0.05217057466506958,0.5840586423873901,0.4747024476528168,-0.350175142288208,0.46437737345695496,-0.25254905223846436,0.21326033771038055,-0.5692067742347717,-0.12310007959604263,-0.6837315559387207,-0.17020003497600555,-0.34346848726272583,0.6203253865242004,-0.43129587173461914,0.5517420172691345,0.5638070106506348,-0.36663317680358887,-0.2794038951396942,0.32964640855789185,0.144642636179924,0.28766995668411255,-0.03495945408940315,0.11348451673984528,-0.023515140637755394,0.08986436575651169,0.1727646440267563,0.6586468815803528,0.0933760479092598,0.3949633538722992,-0.016723761335015297,0.006498158443719149,0.5744232535362244,-0.2543475329875946,-0.31033584475517273,-0.16088584065437317,0.16899193823337555,-0.2850587069988251,-0.39374393224716187,0.08797065168619156,-0.01772724837064743,0.6598395109176636,0.06602435559034348,-0.300692081451416,0.3752976953983307,0.2657248377799988,-0.5996338725090027,0.05890264734625816,0.17515785992145538,0.22398348152637482,-0.39348164200782776,0.02051287516951561,-0.2129807025194168,0.051838167011737823,-0.6071423888206482,-0.48273223638534546,0.569150447845459,-0.05868737772107124,0.3197177052497864,0.2605209946632385,-0.33787137269973755,-0.4068998396396637,0.7567113041877747,-0.23312759399414062,-0.5692784786224365,0.2255394160747528,0.3299615681171417,0.3455290198326111,0.19277799129486084,0.42409178614616394,0.39025208353996277,-0.23256197571754456,0.4708307087421417,0.22162485122680664,-0.6176117658615112,-0.5339419841766357,0.0371573381125927,0.09335212409496307,0.04617607966065407,-0.36518165469169617,-0.6114360690116882,-0.12083252519369125,0.2306004762649536,-0.0358271524310112,0.3212437033653259,0.17519499361515045,0.35306379199028015,0.0002255493018310517,0.4047599732875824,-0.34208351373672485,0.6425461769104004,-0.01452574785798788,0.6046428680419922,-0.47397640347480774,-0.17422959208488464,-0.13077221810817719,-0.08293601125478745,-0.04607166722416878,-0.07017819583415985,0.5209898948669434,-0.3055964410305023,-0.4178418219089508,0.20250633358955383,0.2208065688610077,0.2553369402885437,0.2639475166797638,0.46182194352149963,0.1916613131761551,0.1637532263994217,0.19092769920825958,0.32243964076042175,0.2734718918800354,-0.2658918797969818,-0.6853997111320496,0.5288304686546326,-0.43937942385673523,-0.101479671895504,-0.40938442945480347,-0.44497036933898926,0.6016497015953064,-0.5223874449729919,0.17159877717494965,0.4837617874145508,0.24285800755023956,0.20568038523197174,0.10115007311105728,0.46736374497413635,0.11820216476917267,-0.06153811141848564,0.21095994114875793,-0.009719153866171837,-0.3892662227153778,-0.3326384127140045,-0.18108804523944855,0.15528158843517303,-0.3363216817378998,-0.5898184776306152,0.11869531124830246,0.6612862944602966,0.026884546503424644,-0.23886458575725555,0.4132867753505707,0.3741207420825958,0.2506672441959381,-0.24907149374485016,-0.2247459590435028,-0.1147376075387001,0.6451556086540222,-0.06754980236291885,0.06383979320526123,0.7447184920310974,0.3306097984313965,-0.5081004500389099,-0.08085183799266815,-0.26397964358329773,0.2233642190694809,0.16661915183067322,-0.4286328852176666,0.0005896197981201112,0.4762685000896454,0.28966647386550903,0.7314669489860535,0.11444692313671112,0.12972816824913025,0.25492408871650696,0.11212895065546036,-0.04610201343894005,0.19682833552360535,0.05384663864970207,0.5021128058433533,0.6092398762702942,-0.4321688115596771,0.2091837227344513,-0.1824265569448471,-0.1307910978794098,-0.16403654217720032,-0.2638668715953827,-0.2563461363315582,0.5186106562614441,-0.4507714807987213,0.02962963469326496,-0.05217922478914261,0.27210235595703125,-0.05103897303342819,-0.02239171229302883,-0.09594548493623734,-0.34141111373901367,0.6724852919578552,-0.11988048255443573,-0.08117912709712982,-0.5789402723312378,-0.23632600903511047,0.014943181537091732,0.43776819109916687,-0.4502011239528656,-0.12086328119039536,0.61566561460495,0.07849631458520889,-0.16089056432247162,-0.14451707899570465,0.3782637417316437,-0.2794060707092285,0.25614434480667114,0.45692548155784607,-0.007136083208024502,-0.2929098904132843,0.06382081657648087,-0.32383212447166443,-0.21630999445915222,-0.41064339876174927,0.48088976740837097,-0.37345176935195923,-0.21759624779224396,-0.0030141579918563366,-0.6685848832130432,-0.14126348495483398,0.3194642663002014,0.5196498036384583,-0.06613873690366745,0.2103918045759201,0.8452667593955994,0.10002541542053223,-0.3794659972190857,0.10830026119947433,0.38283902406692505,0.11618755012750626,0.6794983148574829,0.4838988184928894,-0.010288574732840061,0.16516923904418945,0.6772375702857971,0.09618820995092392,0.1804659515619278,-0.33325785398483276,0.434888631105423,-0.2515067458152771,0.023767447099089622,-0.002660951344296336,0.06991871446371078,0.13151520490646362,-0.19875381886959076,0.3749862313270569,0.41353434324264526,-0.6932072043418884,-0.0954909548163414,0.31073322892189026,-0.1157091036438942,-0.21201038360595703,-0.5285788178443909,-0.2463943511247635,-0.19901612401008606,-0.1614745557308197,-0.09343796223402023,-0.22904059290885925,-0.4513707160949707,-0.08834143728017807,0.23442724347114563,-0.4848998188972473,0.09972503036260605,0.5340538024902344,-0.056184928864240646,0.18379558622837067,-0.18062016367912292,-0.08187747001647949,0.28916698694229126,-0.21329954266548157,-0.3953288495540619,0.12229425460100174,0.8858458399772644,-0.23157478868961334,-0.8110259771347046,-0.1816372126340866,0.3710985481739044,0.18672707676887512,0.05378536507487297,-0.03672856092453003,-0.3541754186153412,-0.018476972356438637,0.027240276336669922,0.13963313400745392,-0.25937291979789734,-0.6437614560127258,-0.1535235196352005,0.5351369380950928,-0.6940310597419739,0.042344432324171066,-0.2276584357023239,0.1368478387594223,-0.510465681552887,0.3439805507659912,-0.3166601061820984,0.594459056854248,0.07474832236766815,-0.6472498774528503,0.3468678891658783,0.12666769325733185,0.008581242524087429,-0.13638396561145782,-0.21548472344875336,0.7539908289909363,-0.5588158369064331,-0.8420812487602234,0.07732284814119339,0.15947842597961426,0.632448136806488,-0.23593522608280182,-0.08104640990495682,-0.01379375346004963,0.21982188522815704,0.17633943259716034,0.047583289444446564,-0.3193092346191406,-0.19061176478862762,-0.4902915060520172,-0.26732683181762695,-0.3959672749042511,0.18112897872924805,0.12995417416095734,-0.6560216546058655,0.37729018926620483,-0.1850365847349167,0.24087965488433838,0.24424798786640167,-0.26791995763778687,-0.04090011119842529,0.32178738713264465,0.4925842881202698,0.2070925384759903,0.4963766038417816,0.17084500193595886,0.3846404254436493,-0.11838849633932114,0.17634819447994232,0.15103653073310852,-0.05074988678097725,0.4745979905128479,0.17913606762886047,-0.605720043182373,-0.07546056807041168,0.7437649965286255,0.27957552671432495,-0.44552677869796753,-0.07754345238208771,0.5878067016601562,0.16369104385375977,0.04021114110946655,0.24320457875728607,-0.4632623493671417,-0.16374389827251434,-0.15032365918159485,-0.12883970141410828,-0.4051876664161682,-0.24529512226581573,-0.03541019186377525,-0.1599995642900467,-0.2459035962820053,0.10034551471471786,-0.19382953643798828,0.5184924006462097,-0.5224524140357971,-0.33325496315956116,-0.20697467029094696,-0.1807156354188919,-0.21129724383354187,0.30984336137771606,0.09332672506570816,-0.05898340791463852,0.08348454535007477,0.6982555985450745,-0.2348051518201828,-0.306171715259552,-0.214997798204422,-0.020849594846367836,0.15753401815891266,-0.12588192522525787,0.11021126806735992,-0.14221027493476868,0.3172752857208252,-0.7300756573677063,-0.2659812569618225,-0.10426240414381027,-0.184712752699852,-0.48350122570991516,0.4492955803871155,0.2819323241710663,0.1437864452600479,0.6656194925308228,0.1410548835992813,0.099837526679039,-0.5207837820053101,-0.5088073015213013,-0.10546860843896866,0.41199591755867004,-0.03511585295200348,-0.4912893772125244,-0.3001527190208435,0.4577804207801819,-0.5905071496963501,-0.19502656161785126,0.46643176674842834,0.1022273451089859,-0.054012738168239594,-0.22160054743289948,-0.1343585103750229,-0.6697782874107361,-0.02955717220902443,0.22589752078056335,-0.0012778887758031487,-0.18457946181297302,0.10052787512540817,-0.06806311011314392,0.05691642314195633,0.2892307937145233,0.07029726356267929,-0.060574501752853394,-0.4621748924255371,-0.45909348130226135,-0.3003133237361908,0.3391122817993164,0.5148912668228149,-0.2817652225494385,-0.32447806000709534,0.34021666646003723,0.5546372532844543,-0.12446707487106323,0.12969501316547394,0.14422796666622162,-0.7770774960517883,-0.2318025529384613,-0.02582441456615925,0.30095165967941284,0.15890467166900635,-0.1825721561908722,-0.5018451809883118,0.467811644077301,-0.1135752722620964,-0.3334493637084961,0.5596671104431152,-0.24193432927131653,0.2912370264530182,0.07690627872943878,-0.34334832429885864,0.00044355649151839316,0.5105081796646118,0.03875111788511276,0.36885935068130493,0.1380475014448166,-0.6007505655288696,-0.1459779590368271,-0.10341068357229233,-0.5008493065834045,-0.1859632283449173,-0.12168795615434647,-0.04608743637800217,0.4037308990955353,-0.5897518992424011,0.34076234698295593,0.3058395981788635,0.264348566532135,0.3370719254016876,-0.48811623454093933,-0.22544360160827637,0.3096054494380951,0.39858952164649963,-0.21271373331546783,-0.46331438422203064,-0.42020919919013977,-0.4144008755683899,-0.41640496253967285,-0.10692565888166428,0.594327986240387,0.05256008729338646,-0.420583039522171,-0.28413814306259155,0.42977097630500793,-0.006002889014780521,0.06106770038604736,0.26906418800354004,0.08738820999860764,0.27910473942756653,0.1909330040216446,-0.7775169014930725,0.381883442401886,-0.5051323175430298,-0.059788160026073456,-0.18259377777576447,0.16301660239696503,-0.05302659049630165,0.008300448767840862,-0.2658962905406952,0.10512997210025787,0.360175222158432,-0.3119712173938751,-0.005199742503464222,0.22034838795661926,0.24489234387874603,-0.19659051299095154,0.09419970959424973,0.28494319319725037,0.5487647652626038,0.1380104422569275,0.24387526512145996,0.5425795912742615,-0.4616951048374176,-0.029422786086797714,-0.306767076253891,-0.559707522392273,0.15441124141216278,0.24365070462226868,0.3692132532596588,-0.07693568617105484,-0.329485684633255,0.6984893083572388,0.10759998857975006,-0.12492109835147858,0.27340835332870483,0.1280280500650406,0.10362648218870163,-0.21990005671977997,0.38516631722450256,0.6877278089523315,-0.07568806409835815,-0.2531140446662903,0.6168590188026428,-0.5589285492897034,0.3716488778591156,-0.07716236263513565,-0.058090098202228546,0.08464056253433228
Factory,0.5161308646202087,-0.5165693163871765,-0.6477898359298706,0.12057802826166153,0.2591707408428192,-0.09587178379297256,0.5910111665725708,-0.35298046469688416,-0.019549185410141945,-0.32023385167121887,0.4652383327484131,0.013409595936536789,-0.46390482783317566,0.1509915590286255,-0.06306298822164536,0.5897583365440369,0.49220749735832214,-0.5075864791870117,0.11144831776618958,0.4007551372051239,-0.14152051508426666,0.6509799957275391,0.06961651891469955,0.0831403136253357,-0.39659348130226135,0.35435640811920166,0.32200291752815247,0.008973308838903904,0.5925835967063904,0.11328990012407303,-0.22995418310165405,0.21782982349395752,0.4196392595767975,-0.14229752123355865,-0.38822850584983826,-0.031562890857458115,-0.39516130089759827,0.08266537636518478,0.8160693049430847,-0.10390851646661758,-0.4048095941543579,0.045022666454315186,-0.004197817295789719,-0.5005411505699158,0.09808582812547684,0.6374346613883972,0.12375728040933609,-0.04240921139717102,-0.09656956046819687,-0.3575422465801239,-0.5763038992881775,0.6048688888549805,0.29792746901512146,0.15770937502384186,-0.3468809127807617,0.16171057522296906,0.3107545077800751,-0.29151901602745056,0.2403050661087036,-0.46991440653800964,-0.43449315428733826,-0.4316856861114502,0.11507496982812881,0.15518718957901,-0.0784781277179718,-0.04709172621369362,0.5409316420555115,0.09238580614328384,-0.35252177715301514,0.23892842233181,-0.4436875581741333,0.3955715596675873,0.13370585441589355,-0.7542438507080078,0.04975484684109688,0.19479256868362427,-0.4608834683895111,0.1728907972574234,0.5547977089881897,0.31944480538368225,-0.032335877418518066,0.3114286959171295,-0.20811039209365845,0.03441059961915016,-0.12989991903305054,-0.3953741490840912,0.558929443359375,-0.09893262386322021,0.11222342401742935,0.42063114047050476,-0.32055893540382385,-0.775242030620575,-0.06474696844816208,0.40779057145118713,-0.314346581697464,0.36317023634910583,0.17917625606060028,0.21317420899868011,-0.16077476739883423,-0.045068640261888504,0.39766430854797363,-0.08056122064590454,-0.10314346104860306,0.18063099682331085,0.6302013993263245,-0.24513190984725952,-0.2720000445842743,-0.13944080471992493,0.04442816600203514,-0.19516873359680176,0.019738085567951202,0.6289116740226746,0.37341511249542236,0.358355849981308,0.079438716173172,0.15474234521389008,-0.4794142544269562,-0.3367643356323242,0.2770272195339203,-0.3545486032962799,0.43491676449775696,-0.07766485959291458,0.16202285885810852,0.4032398760318756,-0.32919827103614807,0.08648904412984848,0.07788944989442825,0.27916887402534485,0.16147880256175995,-0.2865624725818634,-0.0445965975522995,-0.14559242129325867,-0.1515183448791504,0.11384264379739761,-0.06524357199668884,0.0160312969237566,0.23703579604625702,-0.8038411736488342,-0.33681249618530273,0.5200526714324951,0.8550556302070618,0.08625117689371109,0.4294542372226715,0.12713052332401276,0.5576551556587219,0.6564314961433411,0.2799985110759735,-0.40337422490119934,0.18833613395690918,0.3144210875034332,-0.2883314788341522,-0.2899864912033081,-0.34318193793296814,-0.6790772080421448,-0.6681539416313171,0.11932992190122604,0.4200739562511444,-0.07493049651384354,-0.06479226052761078,0.5657079815864563,0.18476490676403046,-0.5678440928459167,-0.20418059825897217,-0.14343997836112976,-0.2741321325302124,-0.45166054368019104,-0.1583443135023117,0.028660042211413383,-0.44029393792152405,-0.2488093227148056,-0.22536975145339966,-0.49628567695617676,-0.05609506741166115,0.40261462330818176,-0.40775036811828613,0.6124164462089539,-0.33392608165740967,0.08467325568199158,0.538288414478302,-0.6050293445587158,0.04003139212727547,-0.6555593609809875,-0.0010097227059304714,0.5050384402275085,-0.14770515263080597,0.15474833548069,0.028830429539084435,0.42168331146240234,-0.16538779437541962,0.13042934238910675,0.21923498809337616,-0.07420078665018082,-0.2114773541688919,0.6195514798164368,-0.36965739727020264,0.06538849323987961,-0.2242494374513626,-0.252579003572464,-0.3893878757953644,-0.542477548122406,0.06341581046581268,-0.7797911167144775,-0.6830251216888428,-0.3284498453140259,-0.3774068057537079,0.01110325288027525,-0.095114566385746,-0.08143004775047302,-0.05139145627617836,-0.30626729130744934,0.33716198801994324,-0.4054439067840576,0.20881278812885284,-0.005102796945720911,-0.13688819110393524,-0.1217237114906311,0.33314114809036255,0.40710902214050293,0.44443121552467346,-0.30254796147346497,-0.4081753194332123,-0.0681522935628891,0.3695211708545685,-0.04067116603255272,0.6573255062103271,-0.10112122446298599,-0.06518740206956863,0.1009153351187706,0.09389736503362656,0.07810451835393906,0.6394558548927307,-0.29781579971313477,-0.0994565486907959,-0.022333333268761635,-0.49452993273735046,-0.1670459508895874,-0.08039394021034241,0.24810902774333954,0.5858015418052673,0.20812000334262848,0.020805856212973595,0.6061243414878845,0.49478960037231445,-0.4151747226715088,0.4722406566143036,-0.2341063767671585,0.2017602175474167,-0.5775758028030396,-0.14306125044822693,-0.6997413039207458,-0.15189380943775177,-0.3256888687610626,0.6279246807098389,-0.4587383270263672,0.556440532207489,0.569147527217865,-0.3684346675872803,-0.27498114109039307,0.3304753005504608,0.1208450198173523,0.2925223112106323,-0.038654081523418427,0.11759063601493835,-0.08430197089910507,0.091608427464962,0.14647983014583588,0.6960725784301758,0.0680360421538353,0.3955368101596832,-0.0031757925171405077,-0.002714264439418912,0.5887896418571472,-0.26384076476097107,-0.3296366333961487,-0.1955118328332901,0.16724920272827148,-0.28654178977012634,-0.3719870150089264,0.08267339318990707,-0.01858806051313877,0.6730785965919495,0.10011688619852066,-0.27118098735809326,0.3656398057937622,0.232815220952034,-0.5936195254325867,0.023369451984763145,0.1737421751022339,0.24364428222179413,-0.3446217477321625,0.02402217872440815,-0.25716063380241394,0.0032178338151425123,-0.6179070472717285,-0.5021786093711853,0.5828524231910706,-0.05732378736138344,0.3449249565601349,0.24715109169483185,-0.3412800133228302,-0.4231785237789154,0.7502131462097168,-0.243338942527771,-0.5555504560470581,0.21559566259384155,0.3982766568660736,0.42116084694862366,0.2006516307592392,0.44566330313682556,0.37735506892204285,-0.21398378908634186,0.4603895843029022,0.21227200329303741,-0.6169192790985107,-0.5663814544677734,0.11054513603448868,0.11602615565061569,0.02610449492931366,-0.36217501759529114,-0.6441958546638489,-0.170169398188591,0.24591989815235138,-0.02647596038877964,0.33482658863067627,0.1558585911989212,0.3460030257701874,-0.007348252460360527,0.37698498368263245,-0.36961686611175537,0.6702294945716858,0.012528128921985626,0.6035705208778381,-0.4795665442943573,-0.1846054345369339,-0.1401449292898178,-0.06558752059936523,-0.049189239740371704,-0.0398077555000782,0.5426833629608154,-0.29549703001976013,-0.3754206597805023,0.2053016573190689,0.21690984070301056,0.2598332166671753,0.24996177852153778,0.4616187512874603,0.18578974902629852,0.2133408784866333,0.2268906682729721,0.27809083461761475,0.23843033611774445,-0.2731494605541229,-0.6843297481536865,0.5642039775848389,-0.47476568818092346,-0.11465120315551758,-0.44283294677734375,-0.44395020604133606,0.5966948866844177,-0.5626654028892517,0.14017827808856964,0.47954341769218445,0.2286168932914734,0.22516532242298126,0.12290751934051514,0.5098358988761902,0.08542708307504654,-0.1286843717098236,0.22214126586914062,-0.021910903975367546,-0.3925922214984894,-0.3274330794811249,-0.16390909254550934,0.1393531709909439,-0.337933212518692,-0.6004765629768372,0.12654924392700195,0.6827331185340881,0.0004489986749831587,-0.2543945610523224,0.38572824001312256,0.38847336173057556,0.22815418243408203,-0.3096676170825958,-0.21580839157104492,-0.13036145269870758,0.6627790927886963,-0.08018703013658524,0.062152355909347534,0.7486160397529602,0.31385964155197144,-0.4951181411743164,-0.08212655782699585,-0.2966631352901459,0.26367342472076416,0.2003960758447647,-0.46044597029685974,-0.0425112284719944,0.46493828296661377,0.2540132701396942,0.7187133431434631,0.14215527474880219,0.09627748280763626,0.2671182155609131,0.06533266603946686,-0.04480716586112976,0.20713253319263458,0.06346312165260315,0.49579188227653503,0.6325816512107849,-0.4441037178039551,0.19128663837909698,-0.15472376346588135,-0.16381289064884186,-0.14042888581752777,-0.24123038351535797,-0.2509828209877014,0.5413113832473755,-0.4261787235736847,0.026119666174054146,-0.009872191585600376,0.27549123764038086,-0.05255350098013878,-0.0032595021184533834,-0.08726751804351807,-0.32064005732536316,0.6696913242340088,-0.12074476480484009,-0.1349446326494217,-0.6080472469329834,-0.22874665260314941,0.009538494981825352,0.4452129602432251,-0.4633490741252899,-0.1459733247756958,0.6262896060943604,0.08912661671638489,-0.18826627731323242,-0.15439970791339874,0.3660911023616791,-0.30956169962882996,0.23294998705387115,0.49267587065696716,0.036883722990751266,-0.3205111026763916,0.07036390155553818,-0.31868141889572144,-0.21003514528274536,-0.39554670453071594,0.4777737557888031,-0.38356485962867737,-0.2395300418138504,0.03587523475289345,-0.6734342575073242,-0.14702266454696655,0.35386383533477783,0.5212349891662598,-0.026415077969431877,0.22764883935451508,0.8471941351890564,0.1386355310678482,-0.3595731258392334,0.14437194168567657,0.3614678680896759,0.16074059903621674,0.6879703402519226,0.46045807003974915,-0.05130351707339287,0.1686040312051773,0.6724913716316223,0.0995718315243721,0.14483897387981415,-0.3470013439655304,0.40699243545532227,-0.25198301672935486,-0.034118395298719406,0.0036284157540649176,0.08760813623666763,0.2022252082824707,-0.17676180601119995,0.38066545128822327,0.40606117248535156,-0.7171199917793274,-0.05669870600104332,0.3498833179473877,-0.1365245133638382,-0.18721097707748413,-0.554627001285553,-0.24798591434955597,-0.18787868320941925,-0.13643388450145721,-0.0920337438583374,-0.2858353555202484,-0.43357542157173157,-0.07184448093175888,0.20914383232593536,-0.5177996158599854,0.10782968997955322,0.5319557785987854,-0.07282418012619019,0.17455200850963593,-0.13386601209640503,-0.08696309477090836,0.26875320076942444,-0.19545000791549683,-0.3779619634151459,0.13124330341815948,0.8940460681915283,-0.23548990488052368,-0.8286764621734619,-0.2275891900062561,0.35541820526123047,0.1697261780500412,0.015565573237836361,-0.03228684142231941,-0.37173426151275635,-0.06775692850351334,0.019010692834854126,0.1647253930568695,-0.2381191849708557,-0.6586007475852966,-0.12828044593334198,0.5275821089744568,-0.7143818736076355,0.04271812364459038,-0.21275578439235687,0.14656443893909454,-0.5133071541786194,0.3470636308193207,-0.3071349561214447,0.5700467228889465,0.04102812334895134,-0.6546232104301453,0.39421847462654114,0.14270342886447906,0.027879886329174042,-0.1170150637626648,-0.17876119911670685,0.7644103169441223,-0.5907112956047058,-0.8511176109313965,0.0509018711745739,0.12476033717393875,0.629799485206604,-0.22989968955516815,-0.0947139784693718,0.0037801179569214582,0.20455698668956757,0.1653115600347519,0.039178069680929184,-0.3313504159450531,-0.17836041748523712,-0.4763144254684448,-0.2574301064014435,-0.3995911777019501,0.2011973261833191,0.12207957357168198,-0.6475184559822083,0.40744173526763916,-0.19431771337985992,0.22459529340267181,0.2505725026130676,-0.270160436630249,-0.019385166466236115,0.34250447154045105,0.48117735981941223,0.16108010709285736,0.4756048917770386,0.15524576604366302,0.39304304122924805,-0.10656264424324036,0.16736042499542236,0.1692904382944107,-0.07271451503038406,0.47378256916999817,0.22647397220134735,-0.5916522145271301,-0.03649834543466568,0.759788453578949,0.3032321631908417,-0.4976594150066376,-0.0923641249537468,0.5897320508956909,0.17484647035598755,0.02169358730316162,0.23636384308338165,-0.47660407423973083,-0.15199799835681915,-0.14169692993164062,-0.12474783509969711,-0.39368364214897156,-0.1878553181886673,-0.020800776779651642,-0.1658666580915451,-0.21604980528354645,0.11824224144220352,-0.1637454628944397,0.5547410845756531,-0.5327617526054382,-0.3855411112308502,-0.2150469422340393,-0.20594127476215363,-0.2003164440393448,0.3487379550933838,0.0785883441567421,-0.041180361062288284,0.07795805484056473,0.7124924063682556,-0.26184022426605225,-0.3549613058567047,-0.25764116644859314,0.030535830184817314,0.1345464587211609,-0.08885613083839417,0.13129927217960358,-0.1452282816171646,0.31931832432746887,-0.7550725936889648,-0.26765885949134827,-0.12991242110729218,-0.1654723584651947,-0.4573676884174347,0.4597128629684448,0.28378570079803467,0.1530585139989853,0.699059784412384,0.15081541240215302,0.10287871211767197,-0.540887176990509,-0.5330423712730408,-0.09739387780427933,0.4300910234451294,-0.0397932343184948,-0.4958714246749878,-0.2758904993534088,0.5067384243011475,-0.5884429812431335,-0.18504661321640015,0.4699782431125641,0.09592467546463013,-2.3348877220996656e-05,-0.21047943830490112,-0.12670747935771942,-0.6558470129966736,-0.03678322583436966,0.24502037465572357,-0.005756087135523558,-0.19666481018066406,0.09157874435186386,-0.010907231830060482,0.04655919596552849,0.31189271807670593,0.10207289457321167,-0.02721434086561203,-0.4654828608036041,-0.44976291060447693,-0.3128185570240021,0.3813193738460541,0.5559219121932983,-0.29469823837280273,-0.352149099111557,0.3589838743209839,0.6132149696350098,-0.08724870532751083,0.14780525863170624,0.17621982097625732,-0.8026115298271179,-0.2399485558271408,0.01211449597030878,0.33289292454719543,0.17433221638202667,-0.15287627279758453,-0.4855745732784271,0.507336437702179,-0.11432857066392899,-0.3264026939868927,0.5620355606079102,-0.2369338721036911,0.300824373960495,0.11226457357406616,-0.3366628587245941,0.05137328803539276,0.5453739762306213,0.08631237596273422,0.3688987195491791,0.12538902461528778,-0.6227273941040039,-0.17210792005062103,-0.11475807428359985,-0.541576087474823,-0.1286395788192749,-0.12686055898666382,-0.009416504763066769,0.40093982219696045,-0.585115373134613,0.3426089584827423,0.35696184635162354,0.29395827651023865,0.3691411018371582,-0.501737654209137,-0.22478193044662476,0.3458540737628937,0.40509364008903503,-0.22327642142772675,-0.46477019786834717,-0.4063766896724701,-0.4198307693004608,-0.4449414014816284,-0.05846567079424858,0.5961013436317444,0.06225711479783058,-0.4603920876979828,-0.29987677931785583,0.4252975881099701,-0.028493212535977364,0.05463956668972969,0.2526720464229584,0.07884141802787781,0.3037795126438141,0.19062089920043945,-0.7999617457389832,0.4369398355484009,-0.518471896648407,-0.06787096709012985,-0.1948494166135788,0.18432150781154633,-0.05417356267571449,-0.00622779643163085,-0.2520071566104889,0.1000487208366394,0.34225571155548096,-0.27743446826934814,-0.030476251617074013,0.19048362970352173,0.24637646973133087,-0.15636731684207916,0.10461462289094925,0.2738412320613861,0.579885721206665,0.12849877774715424,0.2625368535518646,0.5709941983222961,-0.4564779996871948,-0.02168605476617813,-0.26705726981163025,-0.5653174519538879,0.13532787561416626,0.2693409025669098,0.3670600354671478,-0.05094480514526367,-0.30122846364974976,0.7030003070831299,0.14583207666873932,-0.1435779482126236,0.27560362219810486,0.14757859706878662,0.13197530806064606,-0.2451656311750412,0.38941308856010437,0.7058777213096619,-0.07362654060125351,-0.3203749656677246,0.6416807770729065,-0.5500851273536682,0.37866973876953125,-0.0782594159245491,-0.07662258297204971,0.10810711979866028
Factory,0.4865478277206421,-0.5062430500984192,-0.6215707659721375,0.10084381699562073,0.2946454882621765,-0.08638805896043777,0.5886901021003723,-0.3463894724845886,-0.0001129303127527237,-0.2675986886024475,0.44688722491264343,-0.012298964895308018,-0.40157151222229004,0.14703044295310974,-0.05031069368124008,0.5785447359085083,0.5114033222198486,-0.48529767990112305,0.1590014547109604,0.4064995348453522,-0.20459160208702087,0.617892324924469,0.13260318338871002,0.1276865303516388,-0.3015059530735016,0.28253811597824097,0.25436899065971375,0.038478098809719086,0.5189110040664673,0.08193621039390564,-0.09728964418172836,0.10191825777292252,0.3600873351097107,-0.08050265908241272,-0.3830503821372986,-0.02608535997569561,-0.42017531394958496,0.07906559109687805,0.7906140089035034,-0.15441618859767914,-0.4005710482597351,0.07810303568840027,0.016122523695230484,-0.4660069942474365,0.11896540969610214,0.6282562017440796,0.15038101375102997,-0.025394586846232414,-0.12676188349723816,-0.2912442982196808,-0.5590422749519348,0.5884890556335449,0.2831385135650635,0.16772161424160004,-0.34302854537963867,0.11311129480600357,0.282955527305603,-0.19348160922527313,0.15302246809005737,-0.41750383377075195,-0.4494064450263977,-0.42128774523735046,0.1499793380498886,0.18444332480430603,-0.1337348222732544,-0.11057817935943604,0.5447511672973633,0.07785843312740326,-0.38523659110069275,0.21064020693302155,-0.39162224531173706,0.35406073927879333,0.13536128401756287,-0.7459651827812195,0.008417141623795033,0.16379809379577637,-0.5195737481117249,0.1761370599269867,0.5819793939590454,0.38056495785713196,-0.058904632925987244,0.3426167964935303,-0.15183381736278534,0.0768594741821289,-0.11991021037101746,-0.36650604009628296,0.5565926432609558,-0.12001463770866394,0.1294640749692917,0.45033693313598633,-0.341910719871521,-0.7458892464637756,-0.06177893280982971,0.3451046049594879,-0.3386191129684448,0.32610058784484863,0.12427017092704773,0.1611311137676239,-0.21858009696006775,-0.0478266216814518,0.327903151512146,-0.11669519543647766,-0.1136125773191452,0.20775339007377625,0.579314112663269,-0.2464417815208435,-0.25688639283180237,-0.08430176973342896,0.14470192790031433,-0.1916806548833847,0.01111273281276226,0.6549256443977356,0.43116986751556396,0.29075053334236145,0.10485385358333588,0.16566503047943115,-0.4195127785205841,-0.3688715994358063,0.3298126757144928,-0.35381457209587097,0.4058516025543213,-0.10113692283630371,0.13953977823257446,0.3604046106338501,-0.3275412917137146,0.10976649820804596,0.098268523812294,0.33779940009117126,0.1414618343114853,-0.24459898471832275,-0.02294261008501053,-0.15958139300346375,-0.10167279839515686,0.13127262890338898,-0.07330165803432465,0.037260688841342926,0.2282428741455078,-0.792310893535614,-0.390602171421051,0.5356264114379883,0.8330141305923462,0.07578810304403305,0.38251808285713196,0.14084041118621826,0.5245261192321777,0.63104647397995,0.27617892622947693,-0.43896862864494324,0.1675732433795929,0.3077775835990906,-0.23727042973041534,-0.21431854367256165,-0.27129891514778137,-0.6437347531318665,-0.674124538898468,0.0809219554066658,0.35601505637168884,-0.07728490978479385,-0.013417957350611687,0.5664266347885132,0.17995113134384155,-0.5260845422744751,-0.2226705402135849,-0.14887088537216187,-0.28103357553482056,-0.4294588565826416,-0.14266231656074524,-0.061092376708984375,-0.4385268986225128,-0.3160947561264038,-0.18781188130378723,-0.5181220769882202,-0.08545541763305664,0.3436831533908844,-0.4796512722969055,0.6027862429618835,-0.36771297454833984,0.09335941821336746,0.541761577129364,-0.5434116125106812,0.05886879563331604,-0.5825487375259399,-0.03686007484793663,0.4610033929347992,-0.1004968136548996,0.173013836145401,-0.06328192353248596,0.4111374616622925,-0.11500395089387894,0.1840904951095581,0.23336027562618256,-0.012872976250946522,-0.2382035255432129,0.5279411673545837,-0.38454532623291016,0.0900813639163971,-0.26052433252334595,-0.18623895943164825,-0.34307727217674255,-0.4970349073410034,0.11992854624986649,-0.7920517921447754,-0.6590567827224731,-0.23505395650863647,-0.31220805644989014,-0.008931552991271019,-0.10447171330451965,-0.03259744867682457,-0.03256604075431824,-0.26570653915405273,0.297603964805603,-0.4240858256816864,0.2803012728691101,-0.02202710136771202,-0.15382473170757294,-0.1065676361322403,0.3194887042045593,0.4213554263114929,0.4078595042228699,-0.37914833426475525,-0.42113104462623596,-0.014036029577255249,0.40653955936431885,-0.09418008476495743,0.6416869759559631,-0.122079998254776,-0.1375216841697693,0.0881037563085556,0.1546519696712494,0.12304958701133728,0.6149359941482544,-0.3026888072490692,-0.09247933328151703,-0.02412353828549385,-0.49905961751937866,-0.22962164878845215,-0.1228378489613533,0.2422654926776886,0.5628913044929504,0.15336200594902039,0.09806700795888901,0.60111004114151,0.41906118392944336,-0.3284829258918762,0.48791953921318054,-0.2817346751689911,0.1982230395078659,-0.6108883023262024,-0.11693280935287476,-0.6764141321182251,-0.24499905109405518,-0.3639552593231201,0.6294447183609009,-0.3981994390487671,0.5185203552246094,0.5360066294670105,-0.39733487367630005,-0.29597902297973633,0.33351394534111023,0.1401829719543457,0.2846973240375519,-0.056633129715919495,0.11349774152040482,-0.02856466732919216,0.10821817815303802,0.16106444597244263,0.6419112682342529,0.12094683945178986,0.36908167600631714,0.012025807984173298,0.05966002494096756,0.5453469157218933,-0.23713654279708862,-0.293781042098999,-0.1922670304775238,0.16139626502990723,-0.3038462698459625,-0.39321398735046387,0.037581685930490494,-0.006412125658243895,0.6153815984725952,0.06489700824022293,-0.2764688730239868,0.31815996766090393,0.28055939078330994,-0.5815439820289612,0.0781933069229126,0.1522289365530014,0.21758757531642914,-0.41121262311935425,0.0020091314800083637,-0.1979941427707672,0.06624265015125275,-0.603992760181427,-0.46318793296813965,0.5164599418640137,-0.061061788350343704,0.34544822573661804,0.267189085483551,-0.4054911136627197,-0.41491901874542236,0.7492203712463379,-0.2288401871919632,-0.575275719165802,0.23425669968128204,0.32305288314819336,0.29723891615867615,0.20514020323753357,0.3787074089050293,0.3573738932609558,-0.18419229984283447,0.47009924054145813,0.2531582713127136,-0.6146715879440308,-0.5530383586883545,0.04561738297343254,0.1059255376458168,0.016110219061374664,-0.34408849477767944,-0.6052746176719666,-0.1447240114212036,0.22716237604618073,-0.05492261052131653,0.31091374158859253,0.2475089132785797,0.31301867961883545,0.02911186031997204,0.3830665946006775,-0.3163329064846039,0.6078131794929504,-0.019737500697374344,0.5848358869552612,-0.4841090440750122,-0.17789971828460693,-0.14448684453964233,-0.05934976041316986,-0.016980718821287155,-0.06823612004518509,0.521261990070343,-0.30193856358528137,-0.4102141857147217,0.18843239545822144,0.2545349597930908,0.2520441710948944,0.25452762842178345,0.4316312372684479,0.19898682832717896,0.21462740004062653,0.18500781059265137,0.31814512610435486,0.3044145703315735,-0.2899823486804962,-0.695054829120636,0.4903063178062439,-0.4669966399669647,-0.11634783446788788,-0.4027464985847473,-0.4246891140937805,0.6214863061904907,-0.49518677592277527,0.13445203006267548,0.4807218313217163,0.2395017445087433,0.2317964881658554,0.06187251955270767,0.46056067943573,0.12832441926002502,-0.06326323747634888,0.20956812798976898,0.010667890310287476,-0.4123912453651428,-0.38867121934890747,-0.2014215886592865,0.135853573679924,-0.340781033039093,-0.5720736980438232,0.1657414734363556,0.6658818125724792,0.013157650828361511,-0.24321958422660828,0.4425317645072937,0.3793244957923889,0.24496927857398987,-0.2328319251537323,-0.19697347283363342,-0.1156550869345665,0.6557290554046631,-0.03435119614005089,0.09023922681808472,0.7358750104904175,0.3568938672542572,-0.4939751625061035,-0.08241146802902222,-0.27424612641334534,0.19354481995105743,0.17758910357952118,-0.4308381676673889,0.06150894612073898,0.48591122031211853,0.2777306139469147,0.725594162940979,0.1421719342470169,0.08485797792673111,0.19410812854766846,0.09438920766115189,0.022164244204759598,0.16500496864318848,0.06396686285734177,0.5001326203346252,0.6088343858718872,-0.4441961944103241,0.2187107354402542,-0.17634952068328857,-0.1361917108297348,-0.1700761318206787,-0.28270354866981506,-0.2197331190109253,0.4832511842250824,-0.4642665386199951,0.04754999279975891,-0.060140855610370636,0.2553388476371765,-0.11016494780778885,-0.01735614612698555,-0.13471952080726624,-0.2761165201663971,0.6518628001213074,-0.13057594001293182,-0.12713462114334106,-0.5831321477890015,-0.23672735691070557,-0.012825345620512962,0.3888155221939087,-0.4517131745815277,-0.1432504504919052,0.6148520112037659,0.011491350829601288,-0.17385666072368622,-0.16532650589942932,0.4220549464225769,-0.21722230315208435,0.19961018860340118,0.4133611023426056,-0.028057849034667015,-0.2841823697090149,0.06236711144447327,-0.3361046016216278,-0.2422076165676117,-0.43740034103393555,0.47265809774398804,-0.33912673592567444,-0.2026803195476532,-0.05571424216032028,-0.6769571304321289,-0.09603514522314072,0.3381175994873047,0.5407501459121704,-0.1425548940896988,0.22052951157093048,0.8401352763175964,0.09923151880502701,-0.36967962980270386,0.10629081726074219,0.399432897567749,0.06847354024648666,0.6741054058074951,0.4686824083328247,-0.03213780000805855,0.18728655576705933,0.683488667011261,0.04751360043883324,0.19745323061943054,-0.32109135389328003,0.4573999047279358,-0.22960536181926727,0.062307197600603104,0.022444922477006912,0.08180972933769226,0.1303611397743225,-0.1958034634590149,0.3906742036342621,0.43189626932144165,-0.6987670660018921,-0.08423672616481781,0.31636112928390503,-0.09479035437107086,-0.27766960859298706,-0.51142817735672,-0.23960493505001068,-0.18073363602161407,-0.1400078535079956,-0.0376034677028656,-0.16133490204811096,-0.4794239401817322,-0.10042073577642441,0.2286667823791504,-0.4630866050720215,0.09423660486936569,0.5185967087745667,-0.04402046650648117,0.21385076642036438,-0.20860819518566132,-0.07543445378541946,0.288798987865448,-0.20737014710903168,-0.40826842188835144,0.10799260437488556,0.8844372630119324,-0.20330999791622162,-0.7954045534133911,-0.1913045048713684,0.38764265179634094,0.18994036316871643,0.059344105422496796,-0.05038771033287048,-0.3550761938095093,0.0070323944091796875,0.025131620466709137,0.17528188228607178,-0.2583548426628113,-0.6549843549728394,-0.13987357914447784,0.5516032576560974,-0.6930332183837891,0.05434156581759453,-0.26485976576805115,0.110152967274189,-0.49419280886650085,0.33264702558517456,-0.3399718701839447,0.579708993434906,0.061579957604408264,-0.6390208601951599,0.34127646684646606,0.1653096079826355,-0.031801071017980576,-0.12026382982730865,-0.2571195363998413,0.7600295543670654,-0.5310078859329224,-0.8209617137908936,0.16369961202144623,0.19278886914253235,0.6081082820892334,-0.24107591807842255,-0.054768677800893784,-0.030712099745869637,0.16702955961227417,0.1584024280309677,0.09152922034263611,-0.3160420358181,-0.1928316354751587,-0.5115348100662231,-0.281790554523468,-0.39117076992988586,0.199499249458313,0.12096962332725525,-0.6408584117889404,0.4050480127334595,-0.21161127090454102,0.2389390915632248,0.2517625093460083,-0.29553329944610596,-0.02920602448284626,0.3589847683906555,0.4850645661354065,0.20235508680343628,0.47494667768478394,0.17618857324123383,0.30418661236763,-0.12633509933948517,0.20356521010398865,0.16534008085727692,-0.09296449273824692,0.48432740569114685,0.17345619201660156,-0.614199161529541,-0.06722003221511841,0.7476532459259033,0.25284284353256226,-0.4206843078136444,-0.06564150750637054,0.5617498159408569,0.13947291672229767,0.06191736459732056,0.25140711665153503,-0.42620259523391724,-0.1592952013015747,-0.14161726832389832,-0.08773913234472275,-0.4346849322319031,-0.22365109622478485,-0.0426335334777832,-0.18878643214702606,-0.21209704875946045,0.08638492971658707,-0.19275690615177155,0.5624057054519653,-0.5524309873580933,-0.31438082456588745,-0.1848711222410202,-0.14423051476478577,-0.2188277691602707,0.2605995535850525,0.10934258997440338,-0.06542565673589706,0.07535947114229202,0.6838318109512329,-0.21942058205604553,-0.3095628321170807,-0.22256767749786377,-0.06570181250572205,0.15540921688079834,-0.11760732531547546,0.1890328824520111,-0.11043795943260193,0.33975207805633545,-0.7285458445549011,-0.278457373380661,-0.12806959450244904,-0.2609882652759552,-0.47462525963783264,0.4624623656272888,0.27529656887054443,0.16245882213115692,0.6535933613777161,0.18266981840133667,0.1573413908481598,-0.4906066656112671,-0.4870097041130066,-0.09667715430259705,0.3997494578361511,-0.008496706373989582,-0.4843902885913849,-0.2554807662963867,0.46959131956100464,-0.5514940619468689,-0.19351595640182495,0.4154356122016907,0.12639857828617096,-0.04081322252750397,-0.20785972476005554,-0.09962765127420425,-0.6485956311225891,-0.007223488762974739,0.21988976001739502,-0.016100451350212097,-0.18844792246818542,0.08727086335420609,-0.04919721186161041,0.05394294112920761,0.2845202088356018,0.07732830941677094,-0.049272570759058,-0.44492679834365845,-0.45922213792800903,-0.28544485569000244,0.3561161160469055,0.522499680519104,-0.23866118490695953,-0.2656218707561493,0.3347211480140686,0.5349226593971252,-0.08961470425128937,0.10183414071798325,0.1336207538843155,-0.7471009492874146,-0.2135031521320343,-0.021165652200579643,0.26558709144592285,0.1503937542438507,-0.17376109957695007,-0.49885931611061096,0.47552502155303955,-0.11262528598308563,-0.29881033301353455,0.5622269511222839,-0.294168621301651,0.2801953852176666,0.04402606561779976,-0.35314762592315674,-0.02599113993346691,0.5029187798500061,0.029985535889863968,0.3699150085449219,0.16488301753997803,-0.5964727401733398,-0.1891188621520996,-0.07154974341392517,-0.4901728630065918,-0.23926937580108643,-0.1303715705871582,-0.041697584092617035,0.3815271258354187,-0.5972801446914673,0.32962027192115784,0.29391565918922424,0.2171429693698883,0.3283006250858307,-0.4749949276447296,-0.2546579837799072,0.30247271060943604,0.41329026222229004,-0.21560677886009216,-0.46566468477249146,-0.3877716362476349,-0.397785484790802,-0.40876567363739014,-0.11613154411315918,0.5778067708015442,-0.005731008015573025,-0.4004001319408417,-0.2598380446434021,0.4496065378189087,0.026239030063152313,0.104350246489048,0.2687157690525055,0.08493975549936295,0.23528318107128143,0.21409189701080322,-0.7874175310134888,0.36768776178359985,-0.4928520917892456,-0.09238585084676743,-0.16516031324863434,0.15887276828289032,-0.04938146099448204,-0.028177635744214058,-0.27877628803253174,0.06759992986917496,0.37224507331848145,-0.3117818832397461,-0.04744434356689453,0.2167607843875885,0.24955254793167114,-0.20663240551948547,0.1140807718038559,0.25223422050476074,0.5409108400344849,0.13374780118465424,0.20617534220218658,0.5731645822525024,-0.43653416633605957,-0.032714951783418655,-0.28177958726882935,-0.5067375898361206,0.1457279622554779,0.24117553234100342,0.3779303729534149,-0.11268161237239838,-0.36159980297088623,0.6713184714317322,0.09013599157333374,-0.10461054742336273,0.352794885635376,0.13841195404529572,0.08329065144062042,-0.20429199934005737,0.36955711245536804,0.6781541109085083,-0.08028808236122131,-0.23088188469409943,0.6064921617507935,-0.5602998733520508,0.3925732970237732,-0.09105697274208069,-0.029839571565389633,0.06626769155263901
