pattern,dim_0,dim_1,dim_2,dim_3,dim_4,dim_5,dim_6,dim_7,dim_8,dim_9,dim_10,dim_11,dim_12,dim_13,dim_14,dim_15,dim_16,dim_17,dim_18,dim_19,dim_20,dim_21,dim_22,dim_23,dim_24,dim_25,dim_26,dim_27,dim_28,dim_29,dim_30,dim_31,dim_32,dim_33,dim_34,dim_35,dim_36,dim_37,dim_38,dim_39,dim_40,dim_41,dim_42,dim_43,dim_44,dim_45,dim_46,dim_47,dim_48,dim_49,dim_50,dim_51,dim_52,dim_53,dim_54,dim_55,dim_56,dim_57,dim_58,dim_59,dim_60,dim_61,dim_62,dim_63,dim_64,dim_65,dim_66,dim_67,dim_68,dim_69,dim_70,dim_71,dim_72,dim_73,dim_74,dim_75,dim_76,dim_77,dim_78,dim_79,dim_80,dim_81,dim_82,dim_83,dim_84,dim_85,dim_86,dim_87,dim_88,dim_89,dim_90,dim_91,dim_92,dim_93,dim_94,dim_95,dim_96,dim_97,dim_98,dim_99,dim_100,dim_101,dim_102,dim_103,dim_104,dim_105,dim_106,dim_107,dim_108,dim_109,dim_110,dim_111,dim_112,dim_113,dim_114,dim_115,dim_116,dim_117,dim_118,dim_119,dim_120,dim_121,dim_122,dim_123,dim_124,dim_125,dim_126,dim_127,dim_128,dim_129,dim_130,dim_131,dim_132,dim_133,dim_134,dim_135,dim_136,dim_137,dim_138,dim_139,dim_140,dim_141,dim_142,dim_143,dim_144,dim_145,dim_146,dim_147,dim_148,dim_149,dim_150,dim_151,dim_152,dim_153,dim_154,dim_155,dim_156,dim_157,dim_158,dim_159,dim_160,dim_161,dim_162,dim_163,dim_164,dim_165,dim_166,dim_167,dim_168,dim_169,dim_170,dim_171,dim_172,dim_173,dim_174,dim_175,dim_176,dim_177,dim_178,dim_179,dim_180,dim_181,dim_182,dim_183,dim_184,dim_185,dim_186,dim_187,dim_188,dim_189,dim_190,dim_191,dim_192,dim_193,dim_194,dim_195,dim_196,dim_197,dim_198,dim_199,dim_200,dim_201,dim_202,dim_203,dim_204,dim_205,dim_206,dim_207,dim_208,dim_209,dim_210,dim_211,dim_212,dim_213,dim_214,dim_215,dim_216,dim_217,dim_218,dim_219,dim_220,dim_221,dim_222,dim_223,dim_224,dim_225,dim_226,dim_227,dim_228,dim_229,dim_230,dim_231,dim_232,dim_233,dim_234,dim_235,dim_236,dim_237,dim_238,dim_239,dim_240,dim_241,dim_242,dim_243,dim_244,dim_245,dim_246,dim_247,dim_248,dim_249,dim_250,dim_251,dim_252,dim_253,dim_254,dim_255,dim_256,dim_257,dim_258,dim_259,dim_260,dim_261,dim_262,dim_263,dim_264,dim_265,dim_266,dim_267,dim_268,dim_269,dim_270,dim_271,dim_272,dim_273,dim_274,dim_275,dim_276,dim_277,dim_278,dim_279,dim_280,dim_281,dim_282,dim_283,dim_284,dim_285,dim_286,dim_287,dim_288,dim_289,dim_290,dim_291,dim_292,dim_293,dim_294,dim_295,dim_296,dim_297,dim_298,dim_299,dim_300,dim_301,dim_302,dim_303,dim_304,dim_305,dim_306,dim_307,dim_308,dim_309,dim_310,dim_311,dim_312,dim_313,dim_314,dim_315,dim_316,dim_317,dim_318,dim_319,dim_320,dim_321,dim_322,dim_323,dim_324,dim_325,dim_326,dim_327,dim_328,dim_329,dim_330,dim_331,dim_332,dim_333,dim_334,dim_335,dim_336,dim_337,dim_338,dim_339,dim_340,dim_341,dim_342,dim_343,dim_344,dim_345,dim_346,dim_347,dim_348,dim_349,dim_350,dim_351,dim_352,dim_353,dim_354,dim_355,dim_356,dim_357,dim_358,dim_359,dim_360,dim_361,dim_362,dim_363,dim_364,dim_365,dim_366,dim_367,dim_368,dim_369,dim_370,dim_371,dim_372,dim_373,dim_374,dim_375,dim_376,dim_377,dim_378,dim_379,dim_380,dim_381,dim_382,dim_383,dim_384,dim_385,dim_386,dim_387,dim_388,dim_389,dim_390,dim_391,dim_392,dim_393,dim_394,dim_395,dim_396,dim_397,dim_398,dim_399,dim_400,dim_401,dim_402,dim_403,dim_404,dim_405,dim_406,dim_407,dim_408,dim_409,dim_410,dim_411,dim_412,dim_413,dim_414,dim_415,dim_416,dim_417,dim_418,dim_419,dim_420,dim_421,dim_422,dim_423,dim_424,dim_425,dim_426,dim_427,dim_428,dim_429,dim_430,dim_431,dim_432,dim_433,dim_434,dim_435,dim_436,dim_437,dim_438,dim_439,dim_440,dim_441,dim_442,dim_443,dim_444,dim_445,dim_446,dim_447,dim_448,dim_449,dim_450,dim_451,dim_452,dim_453,dim_454,dim_455,dim_456,dim_457,dim_458,dim_459,dim_460,dim_461,dim_462,dim_463,dim_464,dim_465,dim_466,dim_467,dim_468,dim_469,dim_470,dim_471,dim_472,dim_473,dim_474,dim_475,dim_476,dim_477,dim_478,dim_479,dim_480,dim_481,dim_482,dim_483,dim_484,dim_485,dim_486,dim_487,dim_488,dim_489,dim_490,dim_491,dim_492,dim_493,dim_494,dim_495,dim_496,dim_497,dim_498,dim_499,dim_500,dim_501,dim_502,dim_503,dim_504,dim_505,dim_506,dim_507,dim_508,dim_509,dim_510,dim_511,dim_512,dim_513,dim_514,dim_515,dim_516,dim_517,dim_518,dim_519,dim_520,dim_521,dim_522,dim_523,dim_524,dim_525,dim_526,dim_527,dim_528,dim_529,dim_530,dim_531,dim_532,dim_533,dim_534,dim_535,dim_536,dim_537,dim_538,dim_539,dim_540,dim_541,dim_542,dim_543,dim_544,dim_545,dim_546,dim_547,dim_548,dim_549,dim_550,dim_551,dim_552,dim_553,dim_554,dim_555,dim_556,dim_557,dim_558,dim_559,dim_560,dim_561,dim_562,dim_563,dim_564,dim_565,dim_566,dim_567,dim_568,dim_569,dim_570,dim_571,dim_572,dim_573,dim_574,dim_575,dim_576,dim_577,dim_578,dim_579,dim_580,dim_581,dim_582,dim_583,dim_584,dim_585,dim_586,dim_587,dim_588,dim_589,dim_590,dim_591,dim_592,dim_593,dim_594,dim_595,dim_596,dim_597,dim_598,dim_599,dim_600,dim_601,dim_602,dim_603,dim_604,dim_605,dim_606,dim_607,dim_608,dim_609,dim_610,dim_611,dim_612,dim_613,dim_614,dim_615,dim_616,dim_617,dim_618,dim_619,dim_620,dim_621,dim_622,dim_623,dim_624,dim_625,dim_626,dim_627,dim_628,dim_629,dim_630,dim_631,dim_632,dim_633,dim_634,dim_635,dim_636,dim_637,dim_638,dim_639,dim_640,dim_641,dim_642,dim_643,dim_644,dim_645,dim_646,dim_647,dim_648,dim_649,dim_650,dim_651,dim_652,dim_653,dim_654,dim_655,dim_656,dim_657,dim_658,dim_659,dim_660,dim_661,dim_662,dim_663,dim_664,dim_665,dim_666,dim_667,dim_668,dim_669,dim_670,dim_671,dim_672,dim_673,dim_674,dim_675,dim_676,dim_677,dim_678,dim_679,dim_680,dim_681,dim_682,dim_683,dim_684,dim_685,dim_686,dim_687,dim_688,dim_689,dim_690,dim_691,dim_692,dim_693,dim_694,dim_695,dim_696,dim_697,dim_698,dim_699,dim_700,dim_701,dim_702,dim_703,dim_704,dim_705,dim_706,dim_707,dim_708,dim_709,dim_710,dim_711,dim_712,dim_713,dim_714,dim_715,dim_716,dim_717,dim_718,dim_719,dim_720,dim_721,dim_722,dim_723,dim_724,dim_725,dim_726,dim_727,dim_728,dim_729,dim_730,dim_731,dim_732,dim_733,dim_734,dim_735,dim_736,dim_737,dim_738,dim_739,dim_740,dim_741,dim_742,dim_743,dim_744,dim_745,dim_746,dim_747,dim_748,dim_749,dim_750,dim_751,dim_752,dim_753,dim_754,dim_755,dim_756,dim_757,dim_758,dim_759,dim_760,dim_761,dim_762,dim_763,dim_764,dim_765,dim_766,dim_767
Adapter,-0.45221593976020813,0.09524788707494736,0.2589323818683624,-0.09687153249979019,-0.2837280333042145,-0.4798235595226288,-0.11242420226335526,0.2586197257041931,0.5531186461448669,0.5578027963638306,-0.4068374037742615,0.7887418866157532,-0.19393286108970642,-0.16866128146648407,0.9561495780944824,-0.15884819626808167,0.08164084702730179,0.14693664014339447,-0.047210268676280975,0.019568534567952156,-0.15032492578029633,-0.41301894187927246,0.5668153166770935,-0.36446937918663025,0.5781278610229492,0.2795463502407074,-0.0764666274189949,0.8391425013542175,-0.44405025243759155,0.9968527555465698,-0.15896733105182648,-0.10486873239278793,1.3388326168060303,0.1573547124862671,0.3400566279888153,-0.3437771499156952,-0.3284289538860321,0.27535346150398254,0.2707098424434662,-0.26947274804115295,-0.023476216942071915,0.40765440464019775,-1.0339726209640503,-0.16024528443813324,0.4458185136318207,0.2572872042655945,0.38857853412628174,-0.07244263589382172,0.1935049444437027,0.3546559512615204,0.548362135887146,0.3125523030757904,-0.5025404095649719,-0.1711621731519699,0.45973533391952515,0.4505123794078827,-1.2039936780929565,-0.7156544923782349,-0.2043430209159851,-0.46432024240493774,-0.1212204173207283,-0.09509532898664474,-0.4096296727657318,-0.03149227797985077,1.3362147808074951,0.12209761142730713,0.4921754002571106,0.9418367147445679,-0.22356322407722473,0.36113569140434265,-0.16935183107852936,-0.3564757704734802,-0.26319193840026855,-0.6153990626335144,-0.6481083631515503,0.8997042775154114,-0.3528759777545929,-9.392260551452637,-0.0976572260260582,0.4813527464866638,0.39382028579711914,-0.5982051491737366,1.853689193725586,0.6923877596855164,-0.639733076095581,0.19852471351623535,0.12664271891117096,0.14234663546085358,-0.700603723526001,-0.06026078388094902,0.3309062123298645,-0.01712222397327423,0.5781510472297668,0.6830611824989319,-0.11171920597553253,0.8051553964614868,0.7040506601333618,-0.6465988755226135,0.09370867908000946,-0.498324990272522,-0.13004231452941895,-0.6012949347496033,0.5006082653999329,0.3805221617221832,0.2517056465148926,-0.6631134152412415,0.26588431000709534,-0.760502278804779,0.5074063539505005,-0.38883671164512634,0.04115913063287735,-0.36833879351615906,0.7872263789176941,0.18726007640361786,0.2779112756252289,-0.2194739133119583,0.43386930227279663,0.35392794013023376,0.06395459175109863,0.08199252933263779,-0.8005321025848389,0.30107107758522034,-0.5137137770652771,0.6749157905578613,-0.2613772451877594,0.3130967617034912,-0.0506974421441555,0.06683744490146637,0.20464059710502625,0.16056716442108154,-0.949107825756073,-0.6567502617835999,-0.4121967852115631,0.4886036813259125,0.40846505761146545,-0.6089877486228943,0.40919050574302673,0.2111818790435791,-0.2582559287548065,0.3737807869911194,-0.44279661774635315,-0.6184244155883789,-0.1387871950864792,0.1737227737903595,1.04677414894104,-0.11129473894834518,0.05647709220647812,0.4135500490665436,0.36638301610946655,-0.4186832010746002,-0.7173718810081482,0.17702674865722656,1.160354733467102,-0.15180432796478271,0.017850428819656372,-1.982179045677185,0.044558484107255936,0.24260886013507843,0.2591193616390228,-0.5235040187835693,0.35671716928482056,-0.32801276445388794,0.20813821256160736,0.44079452753067017,0.5938774943351746,0.08821418881416321,-0.32278233766555786,0.03697625920176506,0.27952319383621216,1.0898780822753906,-0.4303237199783325,-0.456972599029541,-0.618042528629303,0.0007635897491127253,0.5831303000450134,0.7975687384605408,0.20911116898059845,0.055396918207407,-0.3488371968269348,1.1158794164657593,0.38479161262512207,-0.2346722036600113,0.22633352875709534,-0.5684052109718323,-0.2918343245983124,0.3565678596496582,-0.28639909625053406,0.5368638038635254,-0.19697663187980652,0.025381313636898994,-0.3773190975189209,-0.35614144802093506,0.27180910110473633,0.7128733992576599,-0.002034127712249756,0.023138700053095818,0.056811459362506866,0.3250935971736908,1.003620982170105,0.16632454097270966,-0.3475743532180786,0.8260535597801208,0.2967444360256195,0.4123685657978058,0.14547841250896454,0.1886787712574005,-0.2006337195634842,0.5645222067832947,0.67698734998703,1.2775676250457764,1.746214747428894,-0.1995680183172226,0.16875603795051575,-0.5140902996063232,-0.8440002799034119,0.24049219489097595,-0.7469918727874756,-1.2425134181976318,-0.6142652630805969,-0.7188037037849426,-1.398669719696045,0.30270981788635254,-0.24756307899951935,-0.13290880620479584,-0.30768078565597534,0.16859355568885803,0.2385750114917755,-0.25870218873023987,-0.31253474950790405,0.2880328297615051,-0.2823196053504944,-0.2824734151363373,-0.997090756893158,-0.20285910367965698,-0.07729367166757584,-0.4775306284427643,-0.6430886387825012,0.48257920145988464,0.43723854422569275,-0.9271336197853088,-0.39857950806617737,0.2448703795671463,0.6667592525482178,1.0369073152542114,0.10669342428445816,-0.7472438812255859,0.46820101141929626,0.46649205684661865,0.7603863477706909,0.6302424669265747,0.25998684763908386,0.41190409660339355,0.3246140480041504,-0.2317529022693634,-0.2438804805278778,-0.4846264719963074,-0.22703835368156433,-0.45623430609703064,0.784176230430603,1.7413519620895386,0.28582558035850525,0.04853951930999756,0.524252712726593,-0.7641217112541199,0.401105135679245,-0.013404902070760727,0.3293556272983551,0.45131194591522217,0.7184533476829529,0.21864448487758636,1.3427178859710693,0.4030241072177887,-0.26483088731765747,0.16313959658145905,0.1396181434392929,0.20514538884162903,0.48745813965797424,0.29556623101234436,-0.9918678998947144,-0.2995578944683075,-0.4028738737106323,-0.46646925806999207,0.735384464263916,-0.09271221607923508,-0.08712523430585861,-0.3327699303627014,-0.05487390607595444,0.6651185750961304,-0.1486184149980545,-0.10620538145303726,0.3012464642524719,-0.43619540333747864,1.043918490409851,0.02858053520321846,-0.21603256464004517,0.3755318224430084,0.4779855012893677,0.5095767378807068,0.21852020919322968,-0.5732224583625793,0.1989077776670456,0.4671230912208557,-0.07400115579366684,-0.02118014171719551,-0.37549710273742676,-0.36944860219955444,-0.22316443920135498,0.4034295380115509,0.18826735019683838,-0.1834573894739151,0.3215384781360626,-1.0255385637283325,-0.028544411063194275,-0.07996359467506409,0.23634637892246246,-0.09286192059516907,-0.029046768322587013,0.1900457739830017,-0.3855537176132202,0.3274732828140259,0.37550172209739685,-0.12224379181861877,0.9932164549827576,-1.0213658809661865,0.6193995475769043,0.8804460763931274,-0.6296411156654358,-0.6556759476661682,-1.4000213146209717,-0.21582645177841187,-0.9661191701889038,0.8503106832504272,0.5988238453865051,1.692153811454773,-0.67816162109375,-0.37175455689430237,0.22676658630371094,-0.5509576201438904,0.1827097237110138,-0.5775712728500366,-1.1443204879760742,0.6191617846488953,0.33933404088020325,-0.3100418448448181,0.3527837097644806,1.0959099531173706,-0.13774463534355164,-0.1448753923177719,1.2456045150756836,0.36882779002189636,-0.4750422537326813,-0.9356420636177063,-0.19645662605762482,-0.2501969337463379,0.45647865533828735,1.988850712776184,0.6683835387229919,0.1524251103401184,0.12873932719230652,-0.5369537472724915,-0.14432166516780853,-0.16863463819026947,0.446007639169693,1.7617855072021484,0.558299720287323,-0.17618238925933838,-0.4455203711986542,0.13410887122154236,-0.18619029223918915,0.3724772036075592,-0.05744149163365364,-0.10185528546571732,0.06693921983242035,0.6303074955940247,0.08711624145507812,-0.1271827220916748,0.41273418068885803,-0.24020066857337952,0.16741114854812622,9.269442671211436e-05,-0.7098613381385803,0.3699703812599182,0.352734237909317,0.03117041476070881,0.3254501521587372,-1.787192940711975,0.5892736315727234,-0.31157273054122925,1.4282658100128174,0.020384158939123154,0.19193990528583527,0.3773267865180969,0.32630690932273865,-0.4556047320365906,-0.27969205379486084,0.2191995084285736,0.1301339864730835,0.1207883432507515,-0.15091785788536072,-0.48789435625076294,-0.4948733448982239,0.2874795198440552,-0.13079752027988434,0.142601877450943,-0.33023205399513245,0.041582752019166946,-0.38205012679100037,-0.1293778419494629,-0.4229472279548645,0.6775064468383789,-0.4073384702205658,1.6858844757080078,-0.2210383415222168,0.14126688241958618,-0.129291370511055,0.37951749563217163,0.5481292605400085,-0.589181661605835,0.3650444447994232,0.47915858030319214,0.04444123059511185,0.28850796818733215,0.5503193140029907,-0.4109269678592682,0.8735677003860474,-0.309818297624588,0.2652422785758972,-0.11496072262525558,-0.5680431723594666,-0.5242890119552612,-0.5249293446540833,0.28235965967178345,0.07584965974092484,0.055408310145139694,-0.5775710940361023,-0.3172186017036438,-0.596410870552063,-0.36109209060668945,0.31292200088500977,0.5194481611251831,0.47266390919685364,0.20125021040439606,0.4508526027202606,0.15832877159118652,0.007949071004986763,0.39510250091552734,-0.49713003635406494,1.4709635972976685,0.3535674214363098,-0.861164391040802,0.4787832796573639,-0.0034360187128186226,0.40084153413772583,-1.0765528678894043,0.4985276758670807,-0.4182190001010895,0.1688694804906845,0.004356836900115013,0.6216694116592407,0.3376978933811188,-0.20918720960617065,0.1295996904373169,0.34048405289649963,-0.23099882900714874,0.33548542857170105,-1.4054863452911377,0.5101729035377502,-0.1776154488325119,0.4904109239578247,0.28131869435310364,-0.8885408639907837,0.2222052365541458,-0.3486529588699341,-0.36929744482040405,-0.18806804716587067,-0.057759758085012436,-0.5176787376403809,1.775747537612915,0.4774026870727539,1.5733015537261963,-0.0947909727692604,-0.5956845879554749,-0.19930392503738403,-0.6236197352409363,0.7031340599060059,0.4537146985530853,-0.05563344806432724,-0.3632972836494446,0.023871703073382378,-0.5372288227081299,-0.6479352712631226,-0.2630823850631714,-0.484093576669693,0.7874830365180969,-0.6499385237693787,0.15311795473098755,0.0937281996011734,0.7157362699508667,-0.6516841053962708,0.6874798536300659,0.027416672557592392,0.2620938718318939,0.5284817218780518,1.1841014623641968,-0.11125382035970688,0.6729360818862915,-0.3988402783870697,1.046143889427185,0.4379514157772064,0.01833156682550907,-0.26791393756866455,0.5617562532424927,1.175491213798523,0.053564462810754776,-0.08359021693468094,0.43947523832321167,-0.3907884359359741,-0.6315129995346069,-1.0966154336929321,2.2799417972564697,0.5037493109703064,0.23741896450519562,-0.15776216983795166,0.09246466308832169,1.4836481809616089,-0.24386313557624817,-0.7380011081695557,-0.9328992366790771,0.008961296640336514,-0.6770463585853577,-0.288906067609787,-0.12878811359405518,0.4873908758163452,-0.005424831062555313,0.1635192185640335,-0.31632834672927856,-0.31539297103881836,0.31970149278640747,-0.007906892336905003,0.49976590275764465,-0.6395955681800842,-0.10887553542852402,1.6785506010055542,0.29079198837280273,0.48165053129196167,-0.3565119504928589,-0.31062448024749756,-1.5289496183395386,0.008501521311700344,-0.31680014729499817,0.5665876269340515,1.3665486574172974,-0.3304706811904907,-0.57126384973526,0.44997653365135193,0.03794887661933899,-0.13161130249500275,0.4364655613899231,-0.23221257328987122,0.03314511477947235,-0.6987002491950989,1.0010321140289307,0.1301448941230774,-0.4938764274120331,0.5372452139854431,0.14837053418159485,0.15062306821346283,-0.11782964318990707,0.300673246383667,-0.3693554401397705,-1.3100128173828125,0.36921462416648865,0.5102762579917908,-0.14810699224472046,0.5184486508369446,-0.17332535982131958,0.8023174405097961,-0.44216421246528625,-0.2750956416130066,-0.15493442118167877,0.5138295292854309,1.3655173778533936,0.4153786897659302,0.37724918127059937,-0.18045549094676971,0.9300508499145508,0.19433410465717316,0.5978689789772034,4.217457294464111,-0.33028629422187805,1.250733733177185,0.5855082273483276,0.1705511212348938,0.0069433595053851604,-1.256903886795044,-0.3025144338607788,-0.2113092541694641,-0.13117419183254242,-0.28319141268730164,0.7936298847198486,-0.2251788079738617,-0.026411090046167374,0.42729488015174866,-0.49894019961357117,-0.6216228604316711,0.3999444544315338,0.11548950523138046,-0.1302112638950348,0.1911923587322235,0.4513174295425415,0.35163599252700806,-0.4313623309135437,0.2512143850326538,0.12650449573993683,0.26323947310447693,0.39777833223342896,-0.4143839478492737,-0.3009105324745178,-0.3103182911872864,0.404554545879364,-0.2779242694377899,-0.4050564169883728,-0.5934288501739502,1.7567249536514282,0.41594409942626953,-0.5177844166755676,-0.05664300173521042,-1.1206690073013306,0.23672424256801605,-0.47631922364234924,0.3745822310447693,-0.35751378536224365,-0.04951755329966545,-0.06583144515752792,-0.7894575595855713,0.40019214153289795,-0.1398935765028,-0.21149413287639618,0.11522563546895981,0.7622891068458557,-0.4389309287071228,0.05457337573170662,0.6143155694007874,0.24239426851272583,-0.9269970059394836,-0.6637681126594543,-0.4244365990161896,-0.11666682362556458,0.14036163687705994,0.7164137959480286,0.1612899750471115,-1.0458621978759766,-0.5519778728485107,-0.2793073058128357,-0.06650213152170181,-0.4314836263656616,0.39482396841049194,0.4257134795188904,1.8158928155899048,0.993563175201416,0.22279877960681915,-0.1833745390176773,-0.20643050968647003,-0.4741200804710388,1.1378408670425415,-0.6774786710739136,0.249959334731102,-0.46009349822998047,-0.33224308490753174,0.5061989426612854,-0.5336928367614746,-0.5437055230140686,0.4743494987487793,0.43353262543678284,1.1054267883300781,0.39324334263801575,1.2698661088943481,-0.3295949399471283,0.17500150203704834,-0.05005359649658203,-0.951660692691803,0.06964734196662903,-0.11167963594198227,-0.4363212287425995,-1.0964550971984863,-0.04432273656129837,0.7032073736190796,0.1348656415939331,0.7251692414283752,-0.5110964775085449,0.1661333590745926,0.179184228181839,-0.08264325559139252,-0.6931881904602051,0.708395779132843,-0.17125506699085236,0.7544577717781067,0.16542214155197144,-0.11413027346134186,-0.05825843662023544,0.11940618604421616,0.3605923354625702,1.4740464687347412,-0.49813851714134216,0.07851891219615936,0.629744827747345,0.24432189762592316,-0.16755527257919312,0.2059529721736908,1.104404330253601,-0.23539681732654572,-0.25129756331443787,0.4262322783470154,-0.0616249144077301,-0.21869061887264252,-0.17735621333122253,-0.04114788770675659,0.6142390370368958,-0.47783148288726807,0.6139425039291382,0.942206859588623,1.289747714996338,0.6728740334510803,-0.37894758582115173,-0.7924885153770447,-0.0391947478055954,0.6641673445701599,0.28566277027130127,0.06974922865629196,-0.4079205393791199,0.35434120893478394,-1.082189917564392,-1.0536913871765137,-0.3634031414985657,0.7054021954536438,0.3736121356487274,-0.012263605371117592,-0.4621331989765167,-0.3921690285205841,0.5849996209144592,-0.2243446260690689,0.4590623676776886,0.3614487051963806,-0.356387197971344,0.1135011687874794,1.0488561391830444,0.20185092091560364,-0.6468820571899414,0.19044233858585358,-1.5578279495239258,0.23652543127536774,-0.48354077339172363,0.5020628571510315,0.1654716283082962,0.2709348797798157,-0.30236950516700745,0.4532889127731323,-0.043861690908670425,0.3580491542816162,-0.13860681653022766,-0.4948226809501648,0.49827611446380615,0.10370057821273804,0.1744583249092102,1.0253738164901733,-0.5011187195777893,-0.4781848192214966,0.5724179744720459
Observer,-0.3421974182128906,0.09738514572381973,0.26274219155311584,-0.08830950409173965,-0.3344917297363281,-0.5095044374465942,-0.09702973067760468,0.2217564880847931,0.4653584063053131,0.5373090505599976,-0.2697683274745941,0.8380076289176941,-0.2739272713661194,-0.13984325528144836,0.9168809056282043,-0.07790329307317734,0.1894616335630417,0.2264074832201004,-0.08274682611227036,0.2549922466278076,-0.18918049335479736,-0.36215758323669434,0.6743208765983582,-0.3302425146102905,0.5393927097320557,0.33259984850883484,-0.08979378640651703,0.9010986685752869,-0.46396404504776,0.9074809551239014,-0.17001742124557495,-0.06077922135591507,1.3709863424301147,0.17277881503105164,0.4083658754825592,-0.368197500705719,-0.37121617794036865,0.28248608112335205,0.16464228928089142,-0.28747910261154175,-0.08773347735404968,0.5843475461006165,-0.9294018149375916,-0.15953010320663452,0.43579041957855225,0.296335369348526,0.4815804958343506,0.007252344861626625,0.12308763712644577,0.4436805844306946,0.47275421023368835,0.3212510645389557,-0.5185771584510803,-0.18330423533916473,0.5018651485443115,0.5297529697418213,-1.157390832901001,-0.7710433006286621,-0.1418921947479248,-0.5175724625587463,-0.1516686975955963,-0.2373177856206894,-0.24305647611618042,-0.20938527584075928,1.3936669826507568,0.14389875531196594,0.4911211431026459,0.8934216499328613,-0.13488036394119263,0.3336523771286011,-0.2123541533946991,-0.335979163646698,-0.22218337655067444,-0.48864832520484924,-0.648570716381073,0.6996026039123535,-0.28776276111602783,-8.887405395507812,0.06501853466033936,0.461784303188324,0.3981965184211731,-0.6090810894966125,1.8371938467025757,0.7374521493911743,-0.6144883036613464,0.18981201946735382,0.07599537819623947,0.1349521279335022,-0.6401410102844238,-0.0181502066552639,0.4444293975830078,-0.01803881675004959,0.522937536239624,0.7057569622993469,-0.20525747537612915,0.9204679131507874,0.7024873495101929,-0.33755117654800415,0.1120578944683075,-0.4180126488208771,-0.061550430953502655,-0.5635462403297424,0.5558246374130249,0.284336656332016,0.2630133628845215,-0.6012365818023682,0.27867525815963745,-0.8524559736251831,0.5706928372383118,-0.3518945276737213,0.007913990877568722,-0.43529802560806274,0.7480037212371826,0.1501847207546234,0.28587907552719116,-0.34581488370895386,0.3503255844116211,0.3062375485897064,-0.04052091762423515,-0.001852821558713913,-0.7783389091491699,0.29096195101737976,-0.5374991297721863,0.7085877060890198,-0.1682213842868805,0.2874036729335785,-0.07698705047369003,0.13240531086921692,0.12299327552318573,0.13227146863937378,-0.8804759979248047,-0.8346868753433228,-0.39676350355148315,0.5371886491775513,0.46725502610206604,-0.6216084361076355,0.37581101059913635,0.20813357830047607,-0.34719517827033997,0.364060640335083,-0.4973544478416443,-0.5586645603179932,-0.18977558612823486,0.12885917723178864,1.0005346536636353,-0.060312408953905106,0.04485604166984558,0.4446920156478882,0.22928059101104736,-0.38821786642074585,-0.7042854428291321,0.2588008642196655,1.1598880290985107,-0.16795124113559723,0.16355347633361816,-1.8995897769927979,0.002203182317316532,0.40149667859077454,0.3494090735912323,-0.47762683033943176,0.41113120317459106,-0.2578921318054199,0.18690887093544006,0.41116639971733093,0.5111958980560303,0.10736949741840363,-0.2802889347076416,0.038844820111989975,0.3174586892127991,0.9922073483467102,-0.39027494192123413,-0.47015589475631714,-0.5957875847816467,-0.005045285448431969,0.48667022585868835,0.8201568126678467,0.34565025568008423,0.001300713513046503,-0.29041558504104614,1.0452017784118652,0.35294920206069946,-0.29819321632385254,0.17140349745750427,-0.5847750306129456,-0.4081612825393677,0.2711184620857239,-0.33478379249572754,0.5838015079498291,-0.2287573516368866,0.05542119964957237,-0.3566775321960449,-0.37115567922592163,0.31763264536857605,0.5256990194320679,0.06645713001489639,0.20850369334220886,0.11865992844104767,0.3377986550331116,1.1037957668304443,0.18465866148471832,-0.4007929861545563,0.8860820531845093,0.35305970907211304,0.4628336429595947,0.11074088513851166,0.2030763030052185,-0.17978006601333618,0.5477546453475952,0.6904270648956299,1.2544798851013184,1.6653556823730469,-0.2212308943271637,0.12510061264038086,-0.4283837080001831,-0.8107690811157227,0.20266681909561157,-0.8132745623588562,-1.4498164653778076,-0.6204875707626343,-0.43446967005729675,-1.3228548765182495,0.3645480275154114,-0.23916709423065186,-0.2616192698478699,-0.18441593647003174,-0.00024667661637067795,0.3114006221294403,-0.32122763991355896,-0.25194552540779114,0.40341347455978394,-0.29113972187042236,-0.30000168085098267,-0.9329513907432556,-0.20670032501220703,0.03011324815452099,-0.4742740988731384,-0.5912865400314331,0.4155588448047638,0.36087101697921753,-0.9253592491149902,-0.33906620740890503,0.29031431674957275,0.6370470523834229,0.9758131504058838,0.11205756664276123,-0.711809515953064,0.44676002860069275,0.49776491522789,0.7514775991439819,0.637572169303894,0.23672857880592346,0.3392055332660675,0.3487194776535034,-0.21523024141788483,-0.023708568885922432,-0.45927172899246216,-0.2247661054134369,-0.4816073477268219,0.8100681304931641,1.7843533754348755,0.2680625915527344,0.0013515925966203213,0.5720244646072388,-0.7931269407272339,0.3166145086288452,0.038279302418231964,0.39801928400993347,0.36792266368865967,0.7530061602592468,0.2906074821949005,1.3428266048431396,0.39321696758270264,-0.3647463023662567,0.14751771092414856,0.15080687403678894,0.23814526200294495,0.38311290740966797,0.23880623281002045,-0.863009512424469,-0.3746458888053894,-0.5054954290390015,-0.4151192307472229,0.6302636861801147,-0.1318184733390808,-0.23383255302906036,-0.38031479716300964,-0.009539369493722916,0.64058518409729,-0.06329582631587982,-0.11850418150424957,0.31552278995513916,-0.4885350465774536,0.9805907011032104,0.1123216450214386,-0.21774041652679443,0.45660504698753357,0.49121174216270447,0.47984370589256287,0.25821933150291443,-0.6232947111129761,0.23279541730880737,0.4826763868331909,-0.11112722754478455,-0.024127304553985596,-0.36988189816474915,-0.42121994495391846,-0.34460538625717163,0.4333803653717041,0.22959671914577484,-0.11316802352666855,0.3260766863822937,-1.0713717937469482,-0.09459760785102844,-0.10651873052120209,0.29728227853775024,-0.12926910817623138,-0.055846258997917175,0.20490606129169464,-0.32512420415878296,0.2870166003704071,0.41254186630249023,-0.12803903222084045,0.9115796089172363,-1.0100525617599487,0.536742627620697,0.826992928981781,-0.6466902494430542,-0.6543241739273071,-1.3178478479385376,-0.15475577116012573,-1.0322784185409546,0.9535806179046631,0.548899233341217,1.516340732574463,-0.6536685228347778,-0.4632816016674042,0.2531539797782898,-0.5119070410728455,0.17279168963432312,-0.5276392102241516,-0.9988061785697937,0.711590051651001,0.296893835067749,-0.28689831495285034,0.4376559555530548,1.1416652202606201,-0.2976168394088745,-0.1313536912202835,1.194256067276001,0.35429826378822327,-0.4700283110141754,-0.7853202223777771,-0.2549596130847931,-0.31634876132011414,0.44408559799194336,1.9194045066833496,0.6663528680801392,0.10606400668621063,0.1576913446187973,-0.6047440767288208,-0.1427648514509201,-0.08560055494308472,0.45897147059440613,1.8242294788360596,0.5919265151023865,-0.16155949234962463,-0.5285687446594238,0.221867635846138,-0.18311455845832825,0.32370883226394653,0.003510214388370514,-0.2209949493408203,0.0692569687962532,0.617479145526886,0.09948655217885971,-0.11403326690196991,0.432928204536438,-0.17506562173366547,0.276187926530838,0.009403591975569725,-0.7414274215698242,0.36890122294425964,0.32424768805503845,0.019681936129927635,0.33661970496177673,-1.832083821296692,0.49235835671424866,-0.3834896683692932,1.363301157951355,-0.05288531258702278,0.2194865196943283,0.4558870792388916,0.23717138171195984,-0.482260137796402,-0.3468518555164337,0.22846028208732605,0.018645672127604485,0.07003102451562881,-0.06962263584136963,-0.5043689012527466,-0.5284848213195801,0.2470017820596695,-0.16930507123470306,0.07074300199747086,-0.3417303264141083,-0.021090632304549217,-0.26736435294151306,-0.12182391434907913,-0.46229439973831177,0.6382924318313599,-0.36604878306388855,1.5567262172698975,-0.22321414947509766,0.18606945872306824,-0.03198983147740364,0.3098125159740448,0.6470213532447815,-0.8174163103103638,0.36026638746261597,0.5340612530708313,-0.010492178611457348,0.17407043278217316,0.5373228788375854,-0.41746973991394043,0.8097368478775024,-0.2640586197376251,0.26589271426200867,-0.10625970363616943,-0.60941481590271,-0.5525045990943909,-0.5413998961448669,0.2614394426345825,-0.08593335002660751,0.04369005933403969,-0.4937616288661957,-0.34834834933280945,-0.5737949013710022,-0.3444727659225464,0.3681778609752655,0.5209019780158997,0.5608537793159485,0.28026166558265686,0.4993654787540436,0.20902791619300842,0.10822248458862305,0.447671115398407,-0.44771847128868103,1.3823678493499756,0.32823675870895386,-0.8085623979568481,0.40741056203842163,0.0444151870906353,0.4296077489852905,-1.0948853492736816,0.5265588760375977,-0.4963722825050354,0.24388158321380615,0.008840490132570267,0.5363311767578125,0.3484730124473572,-0.24202081561088562,0.19828030467033386,0.3397747874259949,-0.15013310313224792,0.3561646044254303,-1.283898949623108,0.44125866889953613,-0.18017517030239105,0.3956170678138733,0.2544611096382141,-0.8628932237625122,0.2881549596786499,-0.2969824969768524,-0.46169012784957886,-0.3138154447078705,-0.04549700766801834,-0.44545283913612366,1.6854790449142456,0.4897834062576294,1.5279067754745483,-0.10480409860610962,-0.5729312300682068,-0.17226488888263702,-0.6208223104476929,0.7149890065193176,0.4379718005657196,-0.05081164091825485,-0.37439483404159546,0.0402287095785141,-0.5577829480171204,-0.6459954977035522,-0.3401924967765808,-0.5765260457992554,0.8961857557296753,-0.6412621736526489,0.13852131366729736,-0.10827945917844772,0.5914725661277771,-0.5762267708778381,0.6814461350440979,0.014971544966101646,0.2516694962978363,0.581182599067688,1.142314076423645,-0.10477686673402786,0.540929913520813,-0.406828910112381,0.9270579218864441,0.4534834921360016,0.09092842042446136,-0.26389166712760925,0.6876512765884399,1.2094852924346924,0.04905761405825615,-0.08639264106750488,0.46320050954818726,-0.5061399340629578,-0.6665530204772949,-1.0838706493377686,2.2742748260498047,0.6057592630386353,0.18023422360420227,-0.18226006627082825,0.0539526492357254,1.4460450410842896,-0.27454763650894165,-0.8319444060325623,-0.9298785924911499,0.06806564331054688,-0.6724966764450073,-0.331589013338089,-0.10257802903652191,0.4825882911682129,-0.0032742125913500786,0.16872638463974,-0.3040720522403717,-0.3263799250125885,0.23653563857078552,-0.2076627016067505,0.5045605897903442,-0.6938173770904541,-0.11939747631549835,1.6443145275115967,0.2956032156944275,0.5072061419487,-0.3603883385658264,-0.3355056941509247,-1.4277949333190918,0.020036816596984863,-0.26418250799179077,0.49905380606651306,0.7651123404502869,-0.34814634919166565,-0.6057196855545044,0.370186984539032,-0.017496448010206223,-0.09290623664855957,0.3596510887145996,-0.1613588184118271,0.019538521766662598,-0.6883358955383301,1.0431642532348633,0.1656855046749115,-0.4499276578426361,0.5445049405097961,0.21132367849349976,0.07654426991939545,-0.15115948021411896,0.34230923652648926,-0.2965371012687683,-1.1580021381378174,0.4015626907348633,0.41616684198379517,-0.23962439596652985,0.45236736536026,-0.19213397800922394,0.7978755235671997,-0.4532092809677124,-0.1999717354774475,-0.1642163097858429,0.6397019028663635,1.25651216506958,0.42591530084609985,0.426290363073349,-0.17278890311717987,0.8721795082092285,0.38919174671173096,0.610960841178894,4.624332427978516,-0.3111262023448944,1.1823761463165283,0.5112033486366272,0.2326546609401703,-0.10210516303777695,-1.077226996421814,-0.26228803396224976,-0.19190753996372223,-0.12842170894145966,-0.2696303129196167,0.7191153764724731,-0.27876824140548706,-0.1397588849067688,0.47201094031333923,-0.6403564214706421,-0.5937618017196655,0.38819706439971924,0.08379381150007248,-0.13080893456935883,0.20745444297790527,0.42485836148262024,0.3967362344264984,-0.2949039041996002,0.27009302377700806,0.05391686037182808,0.3103778660297394,0.4296402931213379,-0.4198184013366699,-0.3211745023727417,-0.2834606170654297,0.39935487508773804,-0.28376078605651855,-0.3447951078414917,-0.6528734564781189,1.6890864372253418,0.2089422047138214,-0.6180776953697205,-0.06438141316175461,-1.1339504718780518,0.23416215181350708,-0.43682047724723816,0.3768865764141083,-0.39780187606811523,-0.0945635437965393,-0.14692752063274384,-0.7432979345321655,0.5030025243759155,-0.15446361899375916,-0.15861555933952332,0.1794334053993225,0.7450193166732788,-0.4551428556442261,0.09600457549095154,0.5472320914268494,0.180381178855896,-0.8922752737998962,-0.5987520813941956,-0.47496530413627625,-0.061364296823740005,0.19139482080936432,0.7740676403045654,0.2368525266647339,-1.0481958389282227,-0.4480014443397522,-0.22297142446041107,-0.07800403982400894,-0.3377818763256073,0.4272691011428833,0.43140310049057007,1.6988003253936768,1.024176836013794,0.18023037910461426,-0.2350473403930664,-0.14908716082572937,-0.5172615051269531,1.2475790977478027,-0.6452093124389648,0.2016373574733734,-0.5648723244667053,-0.41098761558532715,0.4978994131088257,-0.5691901445388794,-0.5651180744171143,0.3077530562877655,0.46898865699768066,0.9820882678031921,0.44270214438438416,1.2182990312576294,-0.2673488259315491,0.23756100237369537,-0.07926106452941895,-0.9640779495239258,0.13649937510490417,-0.18745239078998566,-0.6041611433029175,-1.0802927017211914,-0.022584445774555206,0.6498890519142151,0.06559115648269653,0.6549777388572693,-0.47388243675231934,0.18830861151218414,0.18696312606334686,-0.01132485643029213,-0.6595482230186462,0.6874732375144958,-0.11169437319040298,0.6826554536819458,0.15714986622333527,-0.13426700234413147,-0.16638512909412384,0.03220712020993233,0.40607988834381104,1.535269856452942,-0.4817257225513458,0.00877920538187027,0.6243023872375488,0.3054374158382416,-0.24576488137245178,0.19346614181995392,1.1008353233337402,-0.27036669850349426,-0.27724361419677734,0.38369452953338623,-0.07682357728481293,-0.29546838998794556,-0.24188551306724548,-0.016142480075359344,0.5816448926925659,-0.560086190700531,0.571509838104248,1.1048558950424194,1.2919632196426392,0.7224000096321106,-0.3841394782066345,-0.8436669111251831,-0.12277880311012268,0.6838176250457764,0.3263833820819855,0.03276488184928894,-0.3464958965778351,0.39159512519836426,-0.9055089354515076,-1.0373058319091797,-0.3699897527694702,0.7230510115623474,0.4810126721858978,0.014254514127969742,-0.3780478835105896,-0.4178326725959778,0.5741954445838928,-0.1847321093082428,0.413312703371048,0.4017816483974457,-0.3062749207019806,0.1692681908607483,1.0647368431091309,0.17549113929271698,-0.6420770883560181,0.18706953525543213,-1.3902274370193481,0.2199014276266098,-0.42858222126960754,0.5815742015838623,0.22150148451328278,0.38294386863708496,-0.28971418738365173,0.49798402190208435,-0.1433001160621643,0.2607097327709198,-0.20042768120765686,-0.5288978219032288,0.4890972673892975,0.07299792766571045,0.240513414144516,0.977166473865509,-0.5079812407493591,-0.4529561996459961,0.5997971892356873
Singleton,-0.31852152943611145,0.15657499432563782,0.17635443806648254,-0.15393349528312683,-0.1712551712989807,-0.4398951828479767,-0.11265115439891815,0.1896442472934723,0.4290182590484619,0.4588439166545868,-0.2836883068084717,0.6912096738815308,-0.2353914976119995,-0.10941144824028015,0.75681072473526,-0.17836059629917145,0.1845228523015976,0.22040586173534393,-0.050476688891649246,0.15162216126918793,-0.1770445853471756,-0.2719264626502991,0.5471535325050354,-0.2490917146205902,0.6286459565162659,0.3072735667228699,-0.013940177857875824,0.7025331854820251,-0.4407271146774292,0.808499813079834,-0.16952593624591827,-0.05294955149292946,1.2737174034118652,0.1484323889017105,0.3658071756362915,-0.24884743988513947,-0.27141067385673523,0.2665085792541504,0.044288188219070435,-0.240454763174057,-0.16501326858997345,0.4259765148162842,-0.9147742390632629,-0.139160618185997,0.39646679162979126,0.26882854104042053,0.29589495062828064,-0.003238402307033539,0.03683430701494217,0.3848001956939697,0.4210461974143982,0.32191190123558044,-0.5086877346038818,-0.09140907227993011,0.3420085906982422,0.45184919238090515,-0.9706650972366333,-0.5535092949867249,-0.13227355480194092,-0.4580015242099762,-0.11418738961219788,-0.1480981409549713,-0.31333404779434204,-0.3029882311820984,1.2860796451568604,0.09801988303661346,0.3464887738227844,0.6927390694618225,-0.14956963062286377,0.3311866223812103,-0.16658638417720795,-0.30016595125198364,-0.20697487890720367,-0.46240031719207764,-0.5299782752990723,0.5841814875602722,-0.2536848485469818,-6.604493618011475,0.010610319674015045,0.4281718134880066,0.41949188709259033,-0.5310325026512146,1.6041676998138428,0.5807782411575317,-0.49513742327690125,0.21484039723873138,0.07645362615585327,0.10811284184455872,-0.5935068726539612,-0.0034086108207702637,0.39709511399269104,0.027873406186699867,0.5335874557495117,0.472145676612854,-0.19175225496292114,0.7356410622596741,0.5088239312171936,-0.4430515766143799,0.0837005004286766,-0.3000936508178711,-0.07811585813760757,-0.4251892864704132,0.5556869506835938,0.36585143208503723,0.19465677440166473,-0.5067879557609558,0.28301864862442017,-0.5942065715789795,0.44417908787727356,-0.2628941535949707,0.024597816169261932,-0.4325072467327118,0.6328966021537781,0.15019802749156952,0.18128404021263123,-0.33724790811538696,0.329026997089386,0.30520445108413696,-0.05578342825174332,-0.08262497931718826,-0.6890745759010315,0.27970895171165466,-0.37979209423065186,0.748549222946167,-0.1661568135023117,0.3009686768054962,-0.08142077922821045,0.06023802608251572,0.05740862339735031,0.21373350918293,-0.8185572624206543,-0.7150657176971436,-0.32244735956192017,0.4720606505870819,0.4221346974372864,-0.5561752319335938,0.37964382767677307,0.16700062155723572,-0.3921930193901062,0.33725038170814514,-0.4314699172973633,-0.4492233693599701,-0.11278396844863892,0.12035255134105682,0.9245030879974365,0.0012003072770312428,0.03249648958444595,0.39733874797821045,0.2746853530406952,-0.38967365026474,-0.6266543865203857,0.17596247792243958,0.9999207854270935,-0.2526635527610779,0.07926111668348312,-1.4763191938400269,-0.004103120416402817,0.2698255479335785,0.3478219509124756,-0.38650113344192505,0.4237492084503174,-0.2776172161102295,0.10810141265392303,0.4404155910015106,0.4505479037761688,0.12309655547142029,-0.3378314673900604,0.018175385892391205,0.2651899755001068,0.7207143902778625,-0.34163859486579895,-0.34503719210624695,-0.5596916079521179,-0.03665884956717491,0.36490675806999207,0.6321198344230652,0.20767685770988464,-0.06645597517490387,-0.2417660653591156,1.0704209804534912,0.33622217178344727,-0.25011852383613586,0.19979308545589447,-0.5206903219223022,-0.352597177028656,0.3097705543041229,-0.29759666323661804,0.48605045676231384,-0.15652626752853394,-0.07968555390834808,-0.27939915657043457,-0.31651771068573,0.15972986817359924,0.4469333291053772,0.0714377909898758,0.2554962635040283,0.08214767277240753,0.336435467004776,0.9205291271209717,0.110844686627388,-0.32365792989730835,0.749412477016449,0.35476645827293396,0.3831653892993927,0.15418559312820435,0.2099946290254593,-0.25984323024749756,0.46871891617774963,0.5988062620162964,1.113990068435669,1.584316611289978,-0.05259717255830765,0.08126258850097656,-0.3838440775871277,-0.7498008012771606,0.12076590955257416,-0.6402833461761475,-1.1893197298049927,-0.4437744915485382,-0.4135269820690155,-1.2113873958587646,0.2818722426891327,-0.22010520100593567,-0.20022165775299072,-0.20765726268291473,0.00873085018247366,0.276820570230484,-0.26519933342933655,-0.26685914397239685,0.34394213557243347,-0.22946570813655853,-0.31754007935523987,-0.7458963990211487,-0.23023903369903564,-0.03508484736084938,-0.3753092288970947,-0.45596539974212646,0.3320219814777374,0.33527272939682007,-0.8534820079803467,-0.13017158210277557,0.18841423094272614,0.6398553252220154,0.8466746211051941,0.031190836802124977,-0.4698859751224518,0.372119277715683,0.364856481552124,0.5939465761184692,0.46055686473846436,0.18252034485340118,0.36871522665023804,0.2858947515487671,-0.16595739126205444,-0.08789937943220139,-0.428120493888855,-0.20897865295410156,-0.4319879710674286,0.7187908291816711,1.5766890048980713,0.13477084040641785,0.06914977729320526,0.4335244297981262,-0.67070472240448,0.290824830532074,-0.014545872807502747,0.3396654725074768,0.28946974873542786,0.6831600069999695,0.2966890037059784,1.2047961950302124,0.33138689398765564,-0.2385151982307434,0.18932612240314484,0.10305852442979813,0.17705191671848297,0.40427273511886597,0.2660588324069977,-0.773158848285675,-0.23826481401920319,-0.47248703241348267,-0.4665001928806305,0.4272068738937378,-0.04313187301158905,-0.18379782140254974,-0.23300260305404663,-0.05994262546300888,0.5210075974464417,-0.07984954118728638,-0.1387525200843811,0.26786479353904724,-0.4526083767414093,0.9482437968254089,0.13956260681152344,-0.1949746012687683,0.3846442699432373,0.47691959142684937,0.444428026676178,0.26337358355522156,-0.5403175354003906,0.16243572533130646,0.39539897441864014,-0.20917943120002747,-0.032160092145204544,-0.3288017809391022,-0.46007421612739563,-0.20697307586669922,0.3243325650691986,0.2391280084848404,-0.14115586876869202,0.31578925251960754,-0.9176955819129944,-0.16881248354911804,-0.11554384231567383,0.26750487089157104,-0.24385161697864532,0.0018009450286626816,0.0882757231593132,-0.26025164127349854,0.20728448033332825,0.38959789276123047,-0.15360012650489807,0.8414756655693054,-0.890683114528656,0.4549775719642639,0.7280912399291992,-0.4830555319786072,-0.5666122436523438,-1.325320839881897,0.04785345494747162,-1.0629432201385498,0.8889315724372864,0.4275536835193634,1.3126256465911865,-0.5814284682273865,-0.3686707615852356,0.29828929901123047,-0.4223872423171997,0.16909931600093842,-0.4720885157585144,-1.0610021352767944,0.578292191028595,0.19452807307243347,-0.28607821464538574,0.2911774516105652,0.9281752705574036,-0.2703370749950409,-0.06346447020769119,1.027390956878662,0.3243792951107025,-0.43225017189979553,-0.7473611235618591,-0.21094222366809845,-0.2958035171031952,0.33412590622901917,1.7258955240249634,0.574864387512207,0.07359876483678818,0.17120866477489471,-0.5214521288871765,-0.10598916560411453,-0.136281818151474,0.3793252408504486,1.7010512351989746,0.5627895593643188,-0.05551770329475403,-0.4238368272781372,0.15010027587413788,-0.15191946923732758,0.2922587990760803,-0.05145146697759628,-0.18045932054519653,0.09002388268709183,0.48978349566459656,0.0805363580584526,-0.11241611838340759,0.36369261145591736,-0.18621687591075897,0.25308144092559814,0.0902891531586647,-0.6688173413276672,0.25674283504486084,0.3271854817867279,0.03155788779258728,0.26459774374961853,-1.747206211090088,0.3873257339000702,-0.3424713611602783,1.0750294923782349,-0.07532353699207306,0.20421914756298065,0.37184157967567444,0.19129367172718048,-0.43989551067352295,-0.24884742498397827,0.2557399868965149,0.11297255009412766,0.0724848285317421,-0.1445118486881256,-0.43994036316871643,-0.48830899596214294,0.17151989042758942,-0.1794382780790329,-0.010709041729569435,-0.2809610068798065,0.1731986403465271,-0.29221218824386597,-0.14493118226528168,-0.4108954966068268,0.6691360473632812,-0.3750738203525543,1.399720549583435,-0.22598780691623688,0.2194785624742508,-0.12654997408390045,0.33654412627220154,0.44313207268714905,-0.5709999203681946,0.35661885142326355,0.4537179470062256,0.029726963490247726,0.2214747816324234,0.4730106294155121,-0.3661608099937439,0.6354080438613892,-0.16459636390209198,0.2520515024662018,-0.1426929235458374,-0.37443894147872925,-0.4311777949333191,-0.5103781223297119,0.1819840967655182,0.01440630666911602,0.12126093357801437,-0.4994271993637085,-0.3234163820743561,-0.5274645686149597,-0.3103119134902954,0.33150437474250793,0.346770703792572,0.5042523145675659,0.17059464752674103,0.391783207654953,0.2397584468126297,0.025429219007492065,0.3542041778564453,-0.35833266377449036,1.2816227674484253,0.2551456391811371,-0.6395690441131592,0.42897337675094604,0.11182805895805359,0.29513928294181824,-0.8025882840156555,0.38324877619743347,-0.41471248865127563,0.22742493450641632,-0.05237727612257004,0.5362549424171448,0.4714857041835785,-0.1802314817905426,0.09927229583263397,0.3558991551399231,-0.2573939561843872,0.35463160276412964,-1.3157858848571777,0.38227495551109314,-0.09079431742429733,0.24030964076519012,0.3273392915725708,-0.7442006468772888,0.2633672058582306,-0.28242751955986023,-0.45776045322418213,-0.30277249217033386,-0.07684824615716934,-0.32825925946235657,1.5847524404525757,0.3824915289878845,1.355222463607788,-0.1388097107410431,-0.5161329507827759,-0.1707899421453476,-0.5794891715049744,0.48403042554855347,0.37734052538871765,-0.06793660670518875,-0.22167085111141205,0.05435275658965111,-0.4242037832736969,-0.5857715606689453,-0.3428991734981537,-0.42800185084342957,0.7521511316299438,-0.41983747482299805,0.13762998580932617,0.13513228297233582,0.5593090057373047,-0.4696064889431,0.5841470956802368,0.023573510348796844,0.22274795174598694,0.48170074820518494,1.0674517154693604,-0.12371186912059784,0.4506233036518097,-0.29445040225982666,0.8458913564682007,0.38071349263191223,0.08180911839008331,-0.20400580763816833,0.6488564610481262,1.037246823310852,0.02962198480963707,-0.05279827490448952,0.38043272495269775,-0.3366173207759857,-0.5418747663497925,-0.7762831449508667,1.7965233325958252,0.438211590051651,0.11937963962554932,-0.09424614906311035,-0.02478724718093872,1.2916659116744995,-0.20056921243667603,-0.747286856174469,-0.8375434279441833,0.06158525496721268,-0.5450002551078796,-0.2732129991054535,-0.09422047436237335,0.39501017332077026,-0.06371919065713882,0.3404633402824402,-0.26850125193595886,-0.3030441403388977,0.13988730311393738,-0.0953398048877716,0.4545497000217438,-0.5728803873062134,-0.1807529777288437,1.522056221961975,0.2790161967277527,0.42163020372390747,-0.3906787931919098,-0.33895644545555115,-1.2553246021270752,-0.08157315850257874,-0.1663200408220291,0.38763338327407837,0.3173140585422516,-0.30925413966178894,-0.4673652946949005,0.2758893668651581,-0.013888977468013763,-0.13202737271785736,0.3659227788448334,-0.17383603751659393,-0.10942456126213074,-0.5259788036346436,0.660681426525116,0.16338133811950684,-0.29689905047416687,0.38548552989959717,0.2561728060245514,0.04590179771184921,-0.10856626182794571,0.193268820643425,-0.28232133388519287,-1.359116792678833,0.36663347482681274,0.3314135670661926,-0.3734997510910034,0.4435613453388214,-0.10213111340999603,0.7985086441040039,-0.23318636417388916,-0.055289097130298615,-0.10802912712097168,0.5479921102523804,1.1640678644180298,0.4089929759502411,0.2892327308654785,-0.1664457768201828,0.7770213484764099,0.31517332792282104,0.5937654376029968,7.306667804718018,-0.3707166016101837,1.061038851737976,0.5094349980354309,0.16504158079624176,-0.1250099539756775,-1.0515575408935547,-0.2868577539920807,-0.24495017528533936,-0.1402123123407364,-0.29713764786720276,0.5739047527313232,-0.2528364658355713,-0.1320362240076065,0.5070348381996155,-0.48604628443717957,-0.38772866129875183,0.30914610624313354,0.09619520604610443,-0.1653919368982315,0.20154975354671478,0.48924291133880615,0.38239020109176636,-0.1912989318370819,0.2577373683452606,-0.017642896622419357,0.34413421154022217,0.3913894593715668,-0.3519394099712372,-0.2929740250110626,-0.205870121717453,0.43665429949760437,-0.31402868032455444,-0.41721099615097046,-0.44432780146598816,1.4593807458877563,0.2862616777420044,-0.45218050479888916,-0.09569969773292542,-1.0164653062820435,0.29584285616874695,-0.4831525683403015,0.36414358019828796,-0.35516372323036194,-0.033251505345106125,-0.11461162567138672,-0.584168553352356,0.4395787715911865,-0.1549861878156662,-0.11918294429779053,0.20402449369430542,0.6882908344268799,-0.29182925820350647,0.004646128974854946,0.422119677066803,0.1319972723722458,-0.776713490486145,-0.5288893580436707,-0.499009907245636,-0.1766136735677719,0.12373051792383194,0.6776133179664612,0.2272014617919922,-0.9566471576690674,-0.47185006737709045,-0.1447250097990036,-0.12144376337528229,-0.2826153039932251,0.362113356590271,0.2766042649745941,1.5300360918045044,0.9683364033699036,0.1406897008419037,-0.1993071436882019,-0.23059046268463135,-0.29110828042030334,0.9449567794799805,-0.48421308398246765,0.2170705497264862,-0.404217392206192,-0.30865031480789185,0.3364110291004181,-0.41200152039527893,-0.4729151129722595,0.31516510248184204,0.3601374626159668,0.8637467622756958,0.43592527508735657,1.1003435850143433,-0.25057563185691833,0.21290741860866547,-0.12411516904830933,-0.8251233696937561,0.11490451544523239,-0.23989199101924896,-0.4698030650615692,-0.9816321134567261,-0.03684143349528313,0.6171538829803467,0.04027349129319191,0.5192554593086243,-0.42888015508651733,0.15890762209892273,0.18027877807617188,0.007316555827856064,-0.5408741235733032,0.5525630712509155,-0.2495354413986206,0.5635840892791748,0.20828329026699066,-0.10017943382263184,-0.1061340868473053,-0.014706451445817947,0.2935922145843506,1.4031153917312622,-0.39447420835494995,0.010609021410346031,0.4513067901134491,0.2557813823223114,-0.1598895788192749,0.18203264474868774,0.9574666023254395,-0.2999981641769409,-0.17118029296398163,0.32213759422302246,-0.07129157334566116,-0.2965836822986603,-0.21439708769321442,-0.0983005240559578,0.5383923649787903,-0.602206826210022,0.4292196035385132,0.7991752028465271,1.2404797077178955,0.5773242712020874,-0.30955615639686584,-0.6734335422515869,-0.15672995150089264,0.5172953605651855,0.30374783277511597,0.003415757790207863,-0.3882560133934021,0.38205909729003906,-0.7214246392250061,-0.948797345161438,-0.2058989703655243,0.7610946893692017,0.2813529074192047,0.028057929128408432,-0.35003095865249634,-0.34994906187057495,0.5286290049552917,-0.13435901701450348,0.30861935019493103,0.3749120831489563,-0.35213249921798706,0.16822418570518494,0.9786311984062195,0.178105428814888,-0.5033817291259766,0.23251888155937195,-1.0891724824905396,0.24108098447322845,-0.44325339794158936,0.47182610630989075,0.16691601276397705,0.36869168281555176,-0.19533436000347137,0.4783194959163666,-0.1312268227338791,0.35631173849105835,-0.1701420694589615,-0.4724022448062897,0.41328194737434387,0.03695038706064224,0.1960686445236206,0.6908838748931885,-0.4471207857131958,-0.38041818141937256,0.5427351593971252
Factory,-0.38950055837631226,0.1176113709807396,0.25127261877059937,-0.037036553025245667,-0.19993911683559418,-0.39698493480682373,-0.05082795023918152,0.1945401430130005,0.4660855531692505,0.4327763617038727,-0.25564122200012207,0.9481354355812073,-0.13779091835021973,-0.014260556548833847,0.8660882711410522,-0.11254976689815521,0.06597703695297241,0.1643117219209671,-0.025422358885407448,-0.15709912776947021,-0.12292274087667465,-0.32361137866973877,0.5193478465080261,-0.30881425738334656,0.4818251430988312,0.3491884768009186,-0.03546469658613205,0.8498879075050354,-0.37357813119888306,0.9147968292236328,-0.1567721962928772,-0.10193724930286407,1.5442147254943848,0.1622319221496582,0.30159682035446167,-0.25594693422317505,-0.24152407050132751,0.23144489526748657,0.14053747057914734,-0.20440727472305298,-0.036852240562438965,0.2849278748035431,-1.1228923797607422,-0.16152971982955933,0.4336361289024353,0.23211590945720673,0.3020451068878174,-0.05835254117846489,0.12379136681556702,0.3584936261177063,0.4830275774002075,0.266970694065094,-0.5097410678863525,-0.24037262797355652,0.39946869015693665,0.49170276522636414,-1.2606115341186523,-0.5763245820999146,-0.17287574708461761,-0.36718007922172546,-0.01343289203941822,-0.20164337754249573,-0.2888416647911072,-0.030032889917492867,1.4138184785842896,0.17894001305103302,0.549532413482666,0.8580087423324585,-0.238311767578125,0.28959453105926514,-0.14721104502677917,-0.22602687776088715,-0.18301764130592346,-0.669698178768158,-0.60454922914505,0.6654576659202576,-0.284340500831604,-9.204109191894531,-0.058257829397916794,0.497677743434906,0.37152451276779175,-0.5851312875747681,1.377724528312683,0.6604616045951843,-0.5675844550132751,0.21424764394760132,0.054352812469005585,0.16685037314891815,-0.7051258087158203,-0.0346074178814888,0.2856789231300354,-0.05357823520898819,0.5801674127578735,0.7020334601402283,-0.05036858469247818,0.7957614064216614,0.6831198930740356,-0.5386544466018677,0.045771628618240356,-0.39950549602508545,-0.06356045603752136,-0.6459795832633972,0.36797618865966797,0.3356958329677582,0.2693336009979248,-0.5986065864562988,0.25200730562210083,-0.6509389877319336,0.4813857972621918,-0.2668582499027252,0.062084924429655075,-0.37172698974609375,0.7751972675323486,0.1301323026418686,0.19097955524921417,-0.24931007623672485,0.38290923833847046,0.3327963948249817,0.06280539929866791,0.16340133547782898,-0.8823330402374268,0.3087961673736572,-0.40320509672164917,0.7547785043716431,-0.22173212468624115,0.3161616027355194,-0.019703131169080734,-0.05151009187102318,0.28630679845809937,0.24515113234519958,-1.0889160633087158,-0.7384527921676636,-0.32893726229667664,0.4405832886695862,0.4060335159301758,-0.4690740406513214,0.35488808155059814,0.1668759137392044,-0.29324519634246826,0.3773033916950226,-0.5240767002105713,-0.5766137838363647,-0.176112562417984,0.26359838247299194,0.9083778262138367,-0.14581550657749176,0.0642605721950531,0.3600659966468811,0.3582388460636139,-0.3905109167098999,-0.7024139165878296,0.10974100977182388,1.2748222351074219,-0.13013632595539093,0.03729148581624031,-2.103991985321045,0.16632544994354248,0.07006508857011795,0.1865389496088028,-0.4712304472923279,0.35471782088279724,-0.21158459782600403,0.19025906920433044,0.4483400583267212,0.5203247666358948,0.09300599992275238,-0.2887859642505646,-0.006923686247318983,0.14858217537403107,0.922619104385376,-0.3663354814052582,-0.44057193398475647,-0.6169008016586304,0.012927044183015823,0.3735668361186981,0.8153351545333862,0.20114374160766602,0.1167510449886322,-0.2951730787754059,1.2082958221435547,0.38984885811805725,-0.23624566197395325,0.2764308452606201,-0.4216931164264679,-0.27241775393486023,0.3670923113822937,-0.26422029733657837,0.5612896084785461,-0.09276444464921951,-0.004739677533507347,-0.39303553104400635,-0.3399829864501953,0.2049412727355957,0.6366035342216492,0.021003827452659607,0.013896182179450989,0.11845313012599945,0.26528406143188477,1.0678306818008423,0.08641315996646881,-0.3331378102302551,0.7199486494064331,0.31467902660369873,0.281210720539093,0.03542199730873108,0.24072608351707458,-0.2535066604614258,0.5145749449729919,0.675350546836853,1.4235299825668335,1.8570902347564697,0.09504014998674393,0.12399322539567947,-0.46138423681259155,-0.9614598751068115,0.12618204951286316,-0.7296228408813477,-1.470855474472046,-0.5298783183097839,-0.6253625750541687,-1.4681119918823242,0.2741451859474182,-0.22305209934711456,-0.1519455760717392,-0.16409093141555786,0.18384845554828644,0.22317811846733093,-0.22720235586166382,-0.31702983379364014,0.17073200643062592,-0.3069533109664917,-0.18933875858783722,-0.799130916595459,-0.14608167111873627,-0.18097355961799622,-0.43344515562057495,-0.6068741679191589,0.45732542872428894,0.361178994178772,-1.05038583278656,-0.36604946851730347,0.21657763421535492,0.5480485558509827,1.050238013267517,0.1318831741809845,-0.9190678596496582,0.34002214670181274,0.47683072090148926,0.6341910362243652,0.5769407153129578,0.22110894322395325,0.2784596085548401,0.28243792057037354,-0.14120613038539886,-0.14307117462158203,-0.40460947155952454,-0.19342395663261414,-0.3474038541316986,0.7155718207359314,2.124502658843994,0.20043683052062988,-0.016667405143380165,0.49065813422203064,-0.7607191801071167,0.288646936416626,-0.07224974036216736,0.22988107800483704,0.4045904278755188,0.6827743053436279,0.24624022841453552,1.4504404067993164,0.36131414771080017,-0.1775672435760498,0.11989621818065643,0.14353495836257935,0.11501845717430115,0.5326828956604004,0.16540972888469696,-1.0292339324951172,-0.304668128490448,-0.32986879348754883,-0.4902088940143585,0.5357754230499268,-0.14797544479370117,-0.09103453904390335,-0.19097137451171875,-0.1149182915687561,0.4999285340309143,-0.1695805788040161,-0.08004922419786453,0.36360087990760803,-0.5028368234634399,1.1119418144226074,0.08195088058710098,-0.22816413640975952,0.2405652105808258,0.36873364448547363,0.5025662183761597,0.17772407829761505,-0.501262366771698,0.214322030544281,0.47706499695777893,0.027737651020288467,-0.01611332967877388,-0.43386560678482056,-0.20224782824516296,-0.28375184535980225,0.32236695289611816,0.07936862111091614,-0.17042264342308044,0.33204618096351624,-1.1701107025146484,-0.012100307270884514,-0.10492014139890671,0.2213461697101593,-0.09389414638280869,-0.02506350725889206,0.3788682222366333,-0.3129066526889801,0.2464045286178589,0.3573310077190399,-0.0691700428724289,1.0158673524856567,-1.1590427160263062,0.6534483432769775,0.8560583591461182,-0.5903922915458679,-0.6291777491569519,-1.515273094177246,-0.19109593331813812,-0.8122382760047913,0.8586694002151489,0.5100808143615723,1.6321052312850952,-0.7865869402885437,-0.339455246925354,0.2879033088684082,-0.5191684365272522,0.2299160361289978,-0.42536434531211853,-1.143854022026062,0.525892436504364,0.25492656230926514,-0.25967222452163696,0.29198360443115234,1.1670804023742676,-0.16476884484291077,-0.10150334239006042,1.358533501625061,0.3761923909187317,-0.4443349242210388,-0.8819115161895752,-0.1999756097793579,-0.30269378423690796,0.41724419593811035,2.1425139904022217,0.557085394859314,0.14544707536697388,0.0020648017525672913,-0.45382800698280334,-0.16729183495044708,-0.1750931739807129,0.37386229634284973,1.919520616531372,0.6084567308425903,-0.2676374912261963,-0.6319419145584106,0.10361248254776001,-0.1929897964000702,0.34163928031921387,0.059400755912065506,-0.02450188249349594,0.04891107231378555,0.4953129291534424,0.15264344215393066,-0.09932076185941696,0.3160366117954254,-0.16815440356731415,0.14634186029434204,0.08924451470375061,-0.8346878886222839,0.36176663637161255,0.2510361671447754,0.028626326471567154,0.27791887521743774,-1.9621386528015137,0.5832148194313049,-0.21456705033779144,1.5712919235229492,0.03643932193517685,0.14952385425567627,0.37292537093162537,0.2836238741874695,-0.3410720229148865,-0.24813663959503174,0.13433684408664703,0.07803815603256226,-0.06886225938796997,-0.1718447208404541,-0.4608592391014099,-0.3846215307712555,0.14438097178936005,-0.06551351398229599,0.13837267458438873,-0.25272902846336365,0.09511413425207138,-0.4562686085700989,-0.10723753273487091,-0.42548084259033203,0.7357955574989319,-0.4183478355407715,1.7485148906707764,-0.2606857717037201,0.07015009224414825,-0.039327044039964676,0.3149004876613617,0.5424351692199707,-0.6155163645744324,0.3225521445274353,0.39405113458633423,0.05992823466658592,0.2693667411804199,0.4903534948825836,-0.4168684482574463,0.8180906772613525,-0.18539486825466156,0.18210184574127197,-0.06056572496891022,-0.5760677456855774,-0.4935005307197571,-0.4060663878917694,0.2594572901725769,0.07908160984516144,0.08748544752597809,-0.6342020034790039,-0.1902559995651245,-0.5064541101455688,-0.3644869029521942,0.37170276045799255,0.44135257601737976,0.5320102572441101,0.16971178352832794,0.40801504254341125,0.0742478296160698,-0.09293776005506516,0.3806939125061035,-0.42385122179985046,1.5181975364685059,0.3360748887062073,-0.7570489645004272,0.3276735246181488,0.05847252160310745,0.24816006422042847,-0.8315883278846741,0.531351625919342,-0.3716369569301605,0.15815378725528717,0.01829746924340725,0.49799492955207825,0.3589785695075989,-0.053511131554841995,-0.004186740145087242,0.3494894802570343,-0.25436559319496155,0.29907873272895813,-1.4989440441131592,0.5065890550613403,-0.05076107755303383,0.471750408411026,0.20657408237457275,-0.9620636701583862,0.1655382513999939,-0.22173890471458435,-0.36429035663604736,-0.20447541773319244,-0.001460767351090908,-0.452588826417923,1.7854046821594238,0.41193100810050964,1.7175729274749756,-0.05525382608175278,-0.5358485579490662,-0.09507419914007187,-0.7300955653190613,0.6805756688117981,0.3001079857349396,-0.004386689513921738,-0.2964200973510742,-0.05086681246757507,-0.6054614186286926,-0.6134239435195923,-0.26208212971687317,-0.5095491409301758,0.7477641105651855,-0.6271988153457642,0.13439133763313293,-0.10831572860479355,0.6902086734771729,-0.6380573511123657,0.6915886998176575,0.07145629823207855,0.28742972016334534,0.4794265031814575,1.3964506387710571,-0.11402267962694168,0.5955886840820312,-0.3763941526412964,1.1196939945220947,0.39918428659439087,-0.017641909420490265,-0.24959790706634521,0.4639127254486084,1.227963924407959,0.12828078866004944,-0.050307080149650574,0.4434507191181183,-0.31984299421310425,-0.5920294523239136,-0.9343064427375793,2.3009514808654785,0.556659460067749,0.21065925061702728,-0.2206299751996994,0.16056117415428162,1.6078789234161377,-0.16075970232486725,-0.8776206374168396,-1.0334025621414185,0.07859015464782715,-0.625571072101593,-0.24185240268707275,-0.14028958976268768,0.42360010743141174,-0.04007576406002045,0.22930163145065308,-0.22185666859149933,-0.2542937695980072,0.267097532749176,-0.04812213033437729,0.398051381111145,-0.5718560218811035,-0.1934625655412674,1.7257219552993774,0.2139577716588974,0.39579349756240845,-0.2801227867603302,-0.32431119680404663,-1.5854002237319946,-0.018751615658402443,-0.3250361680984497,0.5449873208999634,1.0034648180007935,-0.29803144931793213,-0.5342093110084534,0.3926948308944702,0.051883548498153687,-0.12586843967437744,0.4139626622200012,-0.28359338641166687,0.11676700413227081,-0.6281102299690247,1.1196366548538208,0.16204895079135895,-0.4828285574913025,0.4514554440975189,0.1452268660068512,0.1471334546804428,-0.1836916208267212,0.23252975940704346,-0.32184866070747375,-1.4387931823730469,0.4106575548648834,0.47750914096832275,-0.16253869235515594,0.38431602716445923,-0.1062595546245575,0.8690547347068787,-0.35968315601348877,-0.20690299570560455,-0.066592738032341,0.4709939658641815,1.5188894271850586,0.34291261434555054,0.24778398871421814,-0.13437306880950928,0.9344838857650757,0.14188072085380554,0.6791760921478271,5.073795318603516,-0.24745847284793854,1.3316584825515747,0.5883166790008545,0.11497005820274353,0.08936712145805359,-1.272106647491455,-0.31166908144950867,-0.1498541384935379,-0.1064949780702591,-0.20377853512763977,0.6772891283035278,-0.23796170949935913,-0.1014145165681839,0.4789464473724365,-0.4836518168449402,-0.5035459995269775,0.3284386098384857,0.12627547979354858,-0.23284408450126648,0.07193952798843384,0.28251326084136963,0.40783095359802246,-0.5096328258514404,0.28226974606513977,-0.0452314130961895,0.23347672820091248,0.3307534158229828,-0.43011248111724854,-0.2060980349779129,-0.14762577414512634,0.36343270540237427,-0.27239060401916504,-0.2876361608505249,-0.5239557027816772,1.9073184728622437,0.31394097208976746,-0.5665268898010254,-0.07788970321416855,-1.2068684101104736,0.27761390805244446,-0.46924889087677,0.2681158483028412,-0.2914140820503235,-0.0676608681678772,-0.1370437890291214,-0.8450201749801636,0.33462288975715637,-0.016793739050626755,-0.1547098606824875,0.1295725256204605,0.7629289031028748,-0.37979647517204285,-0.03679189085960388,0.5552719831466675,0.12921518087387085,-0.9279897212982178,-0.6235025525093079,-0.5636892318725586,-0.08402982354164124,0.08549084514379501,0.5330696105957031,0.13019157946109772,-1.1791046857833862,-0.49517619609832764,-0.24121373891830444,-0.15999402105808258,-0.20832467079162598,0.2421380877494812,0.419045090675354,1.8637840747833252,1.018973708152771,0.2655310332775116,-0.07258139550685883,-0.34814196825027466,-0.4666357636451721,1.0196547508239746,-0.6049593091011047,0.1984790861606598,-0.6011679768562317,-0.2640005648136139,0.429744154214859,-0.5540637373924255,-0.4400946795940399,0.37694811820983887,0.3498494029045105,1.0342566967010498,0.2825334668159485,1.4472553730010986,-0.22804608941078186,0.1977335661649704,-0.026261750608682632,-0.9866570234298706,0.022579088807106018,-0.03194214403629303,-0.39105767011642456,-1.320631742477417,-0.0924045592546463,0.6216928362846375,0.2091420292854309,0.6818331480026245,-0.48528286814689636,0.18208026885986328,0.20245634019374847,-0.1659611463546753,-0.6673256754875183,0.8203495740890503,-0.1825065314769745,0.6986993551254272,0.12181626260280609,-0.18570569157600403,-0.12898072600364685,0.06313939392566681,0.28578314185142517,1.6615585088729858,-0.424915075302124,0.03302380070090294,0.5871336460113525,0.3067362606525421,-0.1470518708229065,0.22425642609596252,1.2179397344589233,-0.15358197689056396,-0.1990077644586563,0.33552539348602295,-0.07786163687705994,-0.22413060069084167,-0.09925303608179092,-0.007668875157833099,0.6513553857803345,-0.3703957200050354,0.5125364065170288,0.8913992047309875,1.429898738861084,0.5505430698394775,-0.3504426181316376,-0.8466470241546631,-0.0396447591483593,0.5547544956207275,0.2042650729417801,0.07915051281452179,-0.35036107897758484,0.28821861743927,-0.854834794998169,-1.103005290031433,-0.3193775713443756,0.6702266335487366,0.26399630308151245,0.01909007504582405,-0.2835296094417572,-0.3144044280052185,0.5118367671966553,-0.21243101358413696,0.33012962341308594,0.35099929571151733,-0.3227202892303467,0.06048152968287468,1.1633800268173218,0.2735247313976288,-0.6316720843315125,0.12844933569431305,-1.5297009944915771,0.21675190329551697,-0.5617032051086426,0.470590204000473,0.14540594816207886,0.36419111490249634,-0.18253426253795624,0.4597979485988617,-0.13977350294589996,0.319698691368103,-0.10318337380886078,-0.48192110657691956,0.5835633277893066,0.08393867313861847,0.19784441590309143,1.0953880548477173,-0.4446685314178467,-0.41673535108566284,0.5697064995765686
