pattern,dim_0,dim_1,dim_2,dim_3,dim_4,dim_5,dim_6,dim_7,dim_8,dim_9,dim_10,dim_11,dim_12,dim_13,dim_14,dim_15,dim_16,dim_17,dim_18,dim_19,dim_20,dim_21,dim_22,dim_23,dim_24,dim_25,dim_26,dim_27,dim_28,dim_29,dim_30,dim_31,dim_32,dim_33,dim_34,dim_35,dim_36,dim_37,dim_38,dim_39,dim_40,dim_41,dim_42,dim_43,dim_44,dim_45,dim_46,dim_47,dim_48,dim_49,dim_50,dim_51,dim_52,dim_53,dim_54,dim_55,dim_56,dim_57,dim_58,dim_59,dim_60,dim_61,dim_62,dim_63,dim_64,dim_65,dim_66,dim_67,dim_68,dim_69,dim_70,dim_71,dim_72,dim_73,dim_74,dim_75,dim_76,dim_77,dim_78,dim_79,dim_80,dim_81,dim_82,dim_83,dim_84,dim_85,dim_86,dim_87,dim_88,dim_89,dim_90,dim_91,dim_92,dim_93,dim_94,dim_95,dim_96,dim_97,dim_98,dim_99,dim_100,dim_101,dim_102,dim_103,dim_104,dim_105,dim_106,dim_107,dim_108,dim_109,dim_110,dim_111,dim_112,dim_113,dim_114,dim_115,dim_116,dim_117,dim_118,dim_119,dim_120,dim_121,dim_122,dim_123,dim_124,dim_125,dim_126,dim_127,dim_128,dim_129,dim_130,dim_131,dim_132,dim_133,dim_134,dim_135,dim_136,dim_137,dim_138,dim_139,dim_140,dim_141,dim_142,dim_143,dim_144,dim_145,dim_146,dim_147,dim_148,dim_149,dim_150,dim_151,dim_152,dim_153,dim_154,dim_155,dim_156,dim_157,dim_158,dim_159,dim_160,dim_161,dim_162,dim_163,dim_164,dim_165,dim_166,dim_167,dim_168,dim_169,dim_170,dim_171,dim_172,dim_173,dim_174,dim_175,dim_176,dim_177,dim_178,dim_179,dim_180,dim_181,dim_182,dim_183,dim_184,dim_185,dim_186,dim_187,dim_188,dim_189,dim_190,dim_191,dim_192,dim_193,dim_194,dim_195,dim_196,dim_197,dim_198,dim_199,dim_200,dim_201,dim_202,dim_203,dim_204,dim_205,dim_206,dim_207,dim_208,dim_209,dim_210,dim_211,dim_212,dim_213,dim_214,dim_215,dim_216,dim_217,dim_218,dim_219,dim_220,dim_221,dim_222,dim_223,dim_224,dim_225,dim_226,dim_227,dim_228,dim_229,dim_230,dim_231,dim_232,dim_233,dim_234,dim_235,dim_236,dim_237,dim_238,dim_239,dim_240,dim_241,dim_242,dim_243,dim_244,dim_245,dim_246,dim_247,dim_248,dim_249,dim_250,dim_251,dim_252,dim_253,dim_254,dim_255,dim_256,dim_257,dim_258,dim_259,dim_260,dim_261,dim_262,dim_263,dim_264,dim_265,dim_266,dim_267,dim_268,dim_269,dim_270,dim_271,dim_272,dim_273,dim_274,dim_275,dim_276,dim_277,dim_278,dim_279,dim_280,dim_281,dim_282,dim_283,dim_284,dim_285,dim_286,dim_287,dim_288,dim_289,dim_290,dim_291,dim_292,dim_293,dim_294,dim_295,dim_296,dim_297,dim_298,dim_299,dim_300,dim_301,dim_302,dim_303,dim_304,dim_305,dim_306,dim_307,dim_308,dim_309,dim_310,dim_311,dim_312,dim_313,dim_314,dim_315,dim_316,dim_317,dim_318,dim_319,dim_320,dim_321,dim_322,dim_323,dim_324,dim_325,dim_326,dim_327,dim_328,dim_329,dim_330,dim_331,dim_332,dim_333,dim_334,dim_335,dim_336,dim_337,dim_338,dim_339,dim_340,dim_341,dim_342,dim_343,dim_344,dim_345,dim_346,dim_347,dim_348,dim_349,dim_350,dim_351,dim_352,dim_353,dim_354,dim_355,dim_356,dim_357,dim_358,dim_359,dim_360,dim_361,dim_362,dim_363,dim_364,dim_365,dim_366,dim_367,dim_368,dim_369,dim_370,dim_371,dim_372,dim_373,dim_374,dim_375,dim_376,dim_377,dim_378,dim_379,dim_380,dim_381,dim_382,dim_383,dim_384,dim_385,dim_386,dim_387,dim_388,dim_389,dim_390,dim_391,dim_392,dim_393,dim_394,dim_395,dim_396,dim_397,dim_398,dim_399,dim_400,dim_401,dim_402,dim_403,dim_404,dim_405,dim_406,dim_407,dim_408,dim_409,dim_410,dim_411,dim_412,dim_413,dim_414,dim_415,dim_416,dim_417,dim_418,dim_419,dim_420,dim_421,dim_422,dim_423,dim_424,dim_425,dim_426,dim_427,dim_428,dim_429,dim_430,dim_431,dim_432,dim_433,dim_434,dim_435,dim_436,dim_437,dim_438,dim_439,dim_440,dim_441,dim_442,dim_443,dim_444,dim_445,dim_446,dim_447,dim_448,dim_449,dim_450,dim_451,dim_452,dim_453,dim_454,dim_455,dim_456,dim_457,dim_458,dim_459,dim_460,dim_461,dim_462,dim_463,dim_464,dim_465,dim_466,dim_467,dim_468,dim_469,dim_470,dim_471,dim_472,dim_473,dim_474,dim_475,dim_476,dim_477,dim_478,dim_479,dim_480,dim_481,dim_482,dim_483,dim_484,dim_485,dim_486,dim_487,dim_488,dim_489,dim_490,dim_491,dim_492,dim_493,dim_494,dim_495,dim_496,dim_497,dim_498,dim_499,dim_500,dim_501,dim_502,dim_503,dim_504,dim_505,dim_506,dim_507,dim_508,dim_509,dim_510,dim_511,dim_512,dim_513,dim_514,dim_515,dim_516,dim_517,dim_518,dim_519,dim_520,dim_521,dim_522,dim_523,dim_524,dim_525,dim_526,dim_527,dim_528,dim_529,dim_530,dim_531,dim_532,dim_533,dim_534,dim_535,dim_536,dim_537,dim_538,dim_539,dim_540,dim_541,dim_542,dim_543,dim_544,dim_545,dim_546,dim_547,dim_548,dim_549,dim_550,dim_551,dim_552,dim_553,dim_554,dim_555,dim_556,dim_557,dim_558,dim_559,dim_560,dim_561,dim_562,dim_563,dim_564,dim_565,dim_566,dim_567,dim_568,dim_569,dim_570,dim_571,dim_572,dim_573,dim_574,dim_575,dim_576,dim_577,dim_578,dim_579,dim_580,dim_581,dim_582,dim_583,dim_584,dim_585,dim_586,dim_587,dim_588,dim_589,dim_590,dim_591,dim_592,dim_593,dim_594,dim_595,dim_596,dim_597,dim_598,dim_599,dim_600,dim_601,dim_602,dim_603,dim_604,dim_605,dim_606,dim_607,dim_608,dim_609,dim_610,dim_611,dim_612,dim_613,dim_614,dim_615,dim_616,dim_617,dim_618,dim_619,dim_620,dim_621,dim_622,dim_623,dim_624,dim_625,dim_626,dim_627,dim_628,dim_629,dim_630,dim_631,dim_632,dim_633,dim_634,dim_635,dim_636,dim_637,dim_638,dim_639,dim_640,dim_641,dim_642,dim_643,dim_644,dim_645,dim_646,dim_647,dim_648,dim_649,dim_650,dim_651,dim_652,dim_653,dim_654,dim_655,dim_656,dim_657,dim_658,dim_659,dim_660,dim_661,dim_662,dim_663,dim_664,dim_665,dim_666,dim_667,dim_668,dim_669,dim_670,dim_671,dim_672,dim_673,dim_674,dim_675,dim_676,dim_677,dim_678,dim_679,dim_680,dim_681,dim_682,dim_683,dim_684,dim_685,dim_686,dim_687,dim_688,dim_689,dim_690,dim_691,dim_692,dim_693,dim_694,dim_695,dim_696,dim_697,dim_698,dim_699,dim_700,dim_701,dim_702,dim_703,dim_704,dim_705,dim_706,dim_707,dim_708,dim_709,dim_710,dim_711,dim_712,dim_713,dim_714,dim_715,dim_716,dim_717,dim_718,dim_719,dim_720,dim_721,dim_722,dim_723,dim_724,dim_725,dim_726,dim_727,dim_728,dim_729,dim_730,dim_731,dim_732,dim_733,dim_734,dim_735,dim_736,dim_737,dim_738,dim_739,dim_740,dim_741,dim_742,dim_743,dim_744,dim_745,dim_746,dim_747,dim_748,dim_749,dim_750,dim_751,dim_752,dim_753,dim_754,dim_755,dim_756,dim_757,dim_758,dim_759,dim_760,dim_761,dim_762,dim_763,dim_764,dim_765,dim_766,dim_767
Adapter,0.511434018611908,-0.5801373720169067,-0.661691427230835,0.05049039050936699,0.23345115780830383,-0.12736216187477112,0.6412293314933777,-0.3977604806423187,-0.049723509699106216,-0.32127103209495544,0.47677719593048096,-0.02085280604660511,-0.4748186767101288,0.1348428875207901,-0.07705464959144592,0.6009346842765808,0.5023337006568909,-0.5021898746490479,0.19524060189723969,0.3721870481967926,-0.16119542717933655,0.6469834446907043,0.07609055936336517,0.13678652048110962,-0.38356831669807434,0.31495949625968933,0.2856730818748474,0.022651255130767822,0.5588712692260742,0.11112336814403534,-0.16585491597652435,0.19458730518817902,0.4761318862438202,-0.15072043240070343,-0.39070960879325867,-0.02277984470129013,-0.4088835120201111,0.129302978515625,0.8358219861984253,-0.09992189705371857,-0.3883729577064514,0.02150697074830532,0.001112877856940031,-0.5181334614753723,0.11975931376218796,0.6337932348251343,0.1445545107126236,-0.043762385845184326,-0.06531382352113724,-0.36108797788619995,-0.5548571348190308,0.6324315071105957,0.29141533374786377,0.19409307837486267,-0.38530397415161133,0.1656503975391388,0.3617080748081207,-0.24250897765159607,0.24618050456047058,-0.47932928800582886,-0.44455310702323914,-0.4184102714061737,0.06979234516620636,0.1922924965620041,-0.11439467966556549,-0.040138840675354004,0.5750447511672974,0.09915802627801895,-0.34659653902053833,0.25079259276390076,-0.3983185589313507,0.38978931307792664,0.1071917861700058,-0.7371619343757629,0.07416611909866333,0.19210848212242126,-0.5184181928634644,0.21935297548770905,0.5720221996307373,0.36394190788269043,-0.1069907546043396,0.3270763158798218,-0.24148759245872498,0.08705940842628479,-0.1253543198108673,-0.45275983214378357,0.5504490733146667,-0.14154618978500366,0.1067991703748703,0.4219609797000885,-0.35524019598960876,-0.771060585975647,0.003352279309183359,0.38061678409576416,-0.4023612439632416,0.4258195757865906,0.17137473821640015,0.17019645869731903,-0.17073386907577515,-0.02412717230618,0.41591548919677734,-0.11585178971290588,-0.07370173186063766,0.19116808474063873,0.6544367671012878,-0.22620707750320435,-0.29972001910209656,-0.1657431572675705,0.08863171190023422,-0.21197183430194855,0.023372281342744827,0.6603304147720337,0.3372204303741455,0.3716181516647339,0.07179059833288193,0.13722342252731323,-0.5458216071128845,-0.38718104362487793,0.3216177821159363,-0.34169310331344604,0.43259453773498535,-0.0594608299434185,0.14878959953784943,0.41334542632102966,-0.31705984473228455,0.09316350519657135,0.16281069815158844,0.2558281123638153,0.08572875708341599,-0.36000773310661316,-0.11566425114870071,-0.1945323646068573,-0.1225234717130661,0.1510094553232193,-0.013485254719853401,0.03387332707643509,0.20352481305599213,-0.7915022969245911,-0.3551889955997467,0.5559781193733215,0.8554174304008484,0.05054215341806412,0.43714138865470886,0.06819901615381241,0.5196176767349243,0.624772310256958,0.2790357768535614,-0.4152343273162842,0.24062009155750275,0.3471706807613373,-0.3307093381881714,-0.2268788069486618,-0.3021790087223053,-0.7145013809204102,-0.7041805386543274,0.11736371368169785,0.4032697379589081,-0.13794508576393127,-0.0501696914434433,0.5323863625526428,0.19073271751403809,-0.5121138095855713,-0.18920591473579407,-0.14945968985557556,-0.26036345958709717,-0.437852144241333,-0.15555106103420258,0.017111508175730705,-0.46379730105400085,-0.2898288071155548,-0.27235326170921326,-0.48064789175987244,-0.09623408317565918,0.4045903980731964,-0.40234872698783875,0.5805239081382751,-0.28099724650382996,0.16552652418613434,0.5539366602897644,-0.6283584237098694,0.03610914945602417,-0.6769141554832458,-0.06684422492980957,0.5068479180335999,-0.13838307559490204,0.15825827419757843,0.030577482655644417,0.44029414653778076,-0.19111047685146332,0.1494264155626297,0.23076292872428894,-0.05845404416322708,-0.20823410153388977,0.6072532534599304,-0.35939377546310425,0.13928863406181335,-0.24092519283294678,-0.24177555739879608,-0.35471081733703613,-0.5808298587799072,0.013354371301829815,-0.7691526412963867,-0.6971184015274048,-0.3869587779045105,-0.38202184438705444,-0.09850651770830154,-0.0712655782699585,-0.08684024214744568,-0.04098258540034294,-0.2885409891605377,0.35209086537361145,-0.41070887446403503,0.22640685737133026,0.025783812627196312,-0.11397808790206909,-0.12971019744873047,0.29798024892807007,0.4473489820957184,0.4426494836807251,-0.3678019046783447,-0.39717158675193787,-0.08825919777154922,0.33651259541511536,-0.02662297710776329,0.6600613594055176,-0.04488075152039528,-0.08180523663759232,0.060123853385448456,0.03925129026174545,0.07644291967153549,0.6522753834724426,-0.23830853402614594,-0.09267004579305649,-0.030044540762901306,-0.46170762181282043,-0.20687614381313324,-0.08677593618631363,0.31141504645347595,0.589442789554596,0.2230805605649948,0.04750879108905792,0.662317156791687,0.48892539739608765,-0.4473135471343994,0.49060559272766113,-0.24426233768463135,0.1862378865480423,-0.5778860449790955,-0.15195024013519287,-0.694945752620697,-0.17071957886219025,-0.3140708804130554,0.6345643401145935,-0.49518561363220215,0.559486448764801,0.5877230763435364,-0.40415874123573303,-0.3208407163619995,0.38062041997909546,0.13274270296096802,0.3414005935192108,-0.039271414279937744,0.07418353855609894,-0.17526644468307495,0.12407533824443817,0.1353292614221573,0.6941088438034058,0.08115651458501816,0.39820924401283264,0.006086661946028471,0.024641074240207672,0.6047372221946716,-0.28130728006362915,-0.33414211869239807,-0.2011691778898239,0.16019727289676666,-0.32406195998191833,-0.3865257799625397,0.0729251503944397,-0.06517884135246277,0.6092426776885986,0.16501350700855255,-0.3015305697917938,0.3529248535633087,0.30019837617874146,-0.5928924083709717,-0.011712116189301014,0.1905071884393692,0.23671883344650269,-0.3466874063014984,0.02517145313322544,-0.2682255506515503,-0.011557168327271938,-0.6288770437240601,-0.4827043116092682,0.5428752899169922,-0.02618292346596718,0.4004628360271454,0.2651914656162262,-0.431042343378067,-0.46873506903648376,0.7448188662528992,-0.24096210300922394,-0.6090810298919678,0.21266990900039673,0.3651682436466217,0.38650253415107727,0.25780168175697327,0.42081591486930847,0.3546121418476105,-0.15291255712509155,0.46570655703544617,0.24750997126102448,-0.6609508395195007,-0.5634752511978149,0.14281417429447174,0.11548209190368652,0.08905509859323502,-0.37522515654563904,-0.6419795155525208,-0.21104532480239868,0.2952156662940979,-0.05413081869482994,0.30446627736091614,0.16508105397224426,0.3453235626220703,-0.017505962401628494,0.311437726020813,-0.3718964457511902,0.6577926874160767,0.04542258381843567,0.5935654640197754,-0.5087434649467468,-0.14831072092056274,-0.24818450212478638,0.04335251823067665,-0.09106387197971344,0.010009021498262882,0.5548276901245117,-0.30802449584007263,-0.38471367955207825,0.22663183510303497,0.18848887085914612,0.18781830370426178,0.2709396481513977,0.39072489738464355,0.11358881741762161,0.21098901331424713,0.1720706820487976,0.2876672148704529,0.28404301404953003,-0.3132246136665344,-0.7002242207527161,0.5355649590492249,-0.508287250995636,-0.10408040136098862,-0.46014878153800964,-0.44253605604171753,0.5719444155693054,-0.5433392524719238,0.07918611168861389,0.46041399240493774,0.19939972460269928,0.2864239811897278,0.06974940001964569,0.5531275868415833,0.044527556747198105,-0.16375191509723663,0.24848909676074982,0.01385519653558731,-0.39880192279815674,-0.3584000766277313,-0.18337297439575195,0.19025786221027374,-0.30226656794548035,-0.6283538341522217,0.13068287074565887,0.6840776801109314,-0.02751813270151615,-0.2421732246875763,0.3697868287563324,0.38771355152130127,0.2288239300251007,-0.398679256439209,-0.20686672627925873,-0.1300029307603836,0.6805087327957153,-0.07803811132907867,0.0187825970351696,0.7344734072685242,0.36332428455352783,-0.4846395254135132,-0.07116533815860748,-0.30708420276641846,0.3236481547355652,0.2164825201034546,-0.48434025049209595,-0.06662584096193314,0.4691479802131653,0.22562327980995178,0.7229533791542053,0.13739554584026337,0.056399669498205185,0.20481732487678528,0.00402405159547925,-0.05956355854868889,0.15620769560337067,0.10599532723426819,0.4910966455936432,0.6415378451347351,-0.4217529892921448,0.19139817357063293,-0.1831350326538086,-0.12975116074085236,-0.08870778977870941,-0.2669694423675537,-0.2727247476577759,0.5233584642410278,-0.43648701906204224,0.09186256676912308,-0.014456427656114101,0.280405730009079,-0.12560133635997772,0.08787134289741516,-0.08139020204544067,-0.26949164271354675,0.6962104439735413,-0.15377472341060638,-0.1548372358083725,-0.6581422686576843,-0.1991465836763382,-0.02695353329181671,0.4288696050643921,-0.4781543016433716,-0.15300089120864868,0.6576967835426331,0.06024236977100372,-0.15193717181682587,-0.15790429711341858,0.41007310152053833,-0.3038555681705475,0.1597186028957367,0.48604872822761536,0.005965222604572773,-0.3354943096637726,0.10013753920793533,-0.3047085404396057,-0.23154304921627045,-0.401762992143631,0.46620479226112366,-0.3577161133289337,-0.22621609270572662,0.011280333623290062,-0.7001050710678101,-0.12835843861103058,0.3864348530769348,0.6157289743423462,-0.05731360986828804,0.2760181427001953,0.853417694568634,0.12923987209796906,-0.32282882928848267,0.160238578915596,0.30507925152778625,0.14800512790679932,0.6850552558898926,0.4425627887248993,-0.033583708107471466,0.14839111268520355,0.6705708503723145,0.11314205080270767,0.17728658020496368,-0.40463632345199585,0.39108309149742126,-0.2815109193325043,0.002188068116083741,-0.03659339249134064,0.05526486411690712,0.20398859679698944,-0.17781220376491547,0.4446478486061096,0.3804320693016052,-0.6764416098594666,-0.00011354312300682068,0.3960922360420227,-0.12952834367752075,-0.26426461338996887,-0.5820913910865784,-0.25588259100914,-0.1726914942264557,-0.09609488397836685,-0.04071731120347977,-0.26425135135650635,-0.4677351117134094,-0.06715946644544601,0.19833789765834808,-0.5358811616897583,0.11256972700357437,0.5158973336219788,-0.11749691516160965,0.08633021265268326,-0.11315596103668213,-0.005236309487372637,0.2549264430999756,-0.2009754478931427,-0.361307293176651,0.14107045531272888,0.90224289894104,-0.20765778422355652,-0.8360202312469482,-0.2050337940454483,0.34117233753204346,0.1746925711631775,0.056612201035022736,0.038014717400074005,-0.37754377722740173,-0.08935561031103134,0.026379862800240517,0.17720408737659454,-0.2353258728981018,-0.6686666011810303,-0.14138446748256683,0.5342365503311157,-0.7172324061393738,-0.022207750007510185,-0.19666630029678345,0.14830677211284637,-0.5445743799209595,0.3416594862937927,-0.37533804774284363,0.5633497834205627,-0.041522130370140076,-0.6480187773704529,0.4355677366256714,0.19412091374397278,-0.044465214014053345,-0.11492902040481567,-0.185414120554924,0.7828657031059265,-0.5632438063621521,-0.8599467873573303,0.1353551596403122,0.14405545592308044,0.6502190828323364,-0.2496674358844757,-0.019025413319468498,0.007655351888388395,0.18864543735980988,0.1552819013595581,0.06083027273416519,-0.2935716509819031,-0.18093277513980865,-0.5323601961135864,-0.2661694586277008,-0.3482128977775574,0.22396647930145264,0.1731250137090683,-0.6432141065597534,0.4678632318973541,-0.1852109581232071,0.19990026950836182,0.27197501063346863,-0.27611035108566284,0.055318061262369156,0.3954474925994873,0.4247771203517914,0.12543271481990814,0.4564271569252014,0.24155063927173615,0.3068828582763672,-0.1306953877210617,0.17498525977134705,0.19458605349063873,-0.18049661815166473,0.5234183073043823,0.2522219717502594,-0.5809202194213867,-0.09610161930322647,0.739646315574646,0.32562923431396484,-0.5003451704978943,-0.0538267120718956,0.6139227747917175,0.22493496537208557,0.04202476143836975,0.2257409244775772,-0.48579251766204834,-0.12213300913572311,-0.1589634269475937,-0.10747988522052765,-0.4227104187011719,-0.1342286914587021,0.05902368575334549,-0.142303004860878,-0.18996523320674896,0.17587685585021973,-0.1561656892299652,0.6239275336265564,-0.5431922078132629,-0.3350289762020111,-0.18779674172401428,-0.2240535467863083,-0.148829385638237,0.2798539102077484,0.13378314673900604,-0.007120608352124691,0.03477472811937332,0.7224403023719788,-0.302886426448822,-0.3465673327445984,-0.2511675953865051,-0.0187052134424448,0.019641783088445663,-0.0654321238398552,0.1500450223684311,-0.06554264575242996,0.3344825804233551,-0.7417945265769958,-0.3122599124908447,-0.14753508567810059,-0.21270930767059326,-0.4852374494075775,0.4984169006347656,0.26908624172210693,0.18300649523735046,0.6962158679962158,0.18540534377098083,0.18138337135314941,-0.5282905697822571,-0.5138453841209412,-0.0946313664317131,0.43809840083122253,-0.05236009508371353,-0.5021559000015259,-0.27410805225372314,0.5517919063568115,-0.5590903759002686,-0.22369708120822906,0.46738201379776,0.19277323782444,0.007419480010867119,-0.17655786871910095,-0.13581660389900208,-0.648113489151001,-0.01945415511727333,0.22036528587341309,-0.06356585770845413,-0.14894194900989532,0.13226133584976196,0.018730729818344116,0.04513920843601227,0.3145924508571625,0.13153962790966034,-0.050173256546258926,-0.4935101568698883,-0.4577712416648865,-0.38096684217453003,0.4247164726257324,0.5971614718437195,-0.3207426965236664,-0.3170250356197357,0.3367428183555603,0.6351885199546814,-0.04256674274802208,0.16329067945480347,0.18015070259571075,-0.8077731728553772,-0.2639099657535553,0.014779184013605118,0.2859790027141571,0.1711953729391098,-0.11327642947435379,-0.5031227469444275,0.5190111398696899,-0.11137323081493378,-0.30877962708473206,0.5893280506134033,-0.22312325239181519,0.34133395552635193,-0.022641148418188095,-0.32629328966140747,0.028489917516708374,0.5901062488555908,0.04706376791000366,0.33560916781425476,0.13272374868392944,-0.5999602675437927,-0.14668168127536774,-0.09682393074035645,-0.5970577597618103,-0.1934724599123001,-0.09641451388597488,0.0025488529354333878,0.4096173048019409,-0.6197826266288757,0.32787275314331055,0.35944610834121704,0.3019426465034485,0.4054068326950073,-0.4715210497379303,-0.2640485465526581,0.3066919147968292,0.442341685295105,-0.22197359800338745,-0.5089182257652283,-0.36049312353134155,-0.44783884286880493,-0.3907262980937958,-0.10338736325502396,0.5941822528839111,0.0580473430454731,-0.44200241565704346,-0.2692423164844513,0.44888874888420105,-0.02380518801510334,0.015095476992428303,0.23596219718456268,-0.03432155400514603,0.2506249248981476,0.20049668848514557,-0.8238471746444702,0.45145678520202637,-0.5501760244369507,-0.16155432164669037,-0.22346220910549164,0.20798534154891968,-0.03646852448582649,-0.11850971728563309,-0.24963703751564026,0.055829331278800964,0.33623093366622925,-0.23805813491344452,-0.004870629403740168,0.1819256693124771,0.2463224083185196,-0.1663471907377243,0.11343766003847122,0.2463090568780899,0.5794562697410583,0.08926618844270706,0.1852535903453827,0.6400721073150635,-0.5060098767280579,-0.061521608382463455,-0.2555561661720276,-0.549152672290802,0.15645983815193176,0.24579834938049316,0.2921076714992523,-0.07247195392847061,-0.373015820980072,0.6975398063659668,0.12910114228725433,-0.21569117903709412,0.31185078620910645,0.10447384417057037,0.09664720296859741,-0.23823952674865723,0.3778155446052551,0.7278963923454285,-0.0342281349003315,-0.3591799736022949,0.6590858697891235,-0.527891993522644,0.3935801088809967,-0.16247767210006714,-0.06880247592926025,0.10132517665624619
Observer,0.5114386081695557,-0.5329060554504395,-0.6152376532554626,0.11522252857685089,0.2310071438550949,-0.07723451405763626,0.5978975892066956,-0.3245021104812622,-0.006382739171385765,-0.3531002402305603,0.457241415977478,0.023304078727960587,-0.4522707760334015,0.13813740015029907,-0.052333343774080276,0.605280339717865,0.5041822195053101,-0.5218758583068848,0.16099698841571808,0.37355899810791016,-0.17100277543067932,0.6079583764076233,0.12841275334358215,0.17813993990421295,-0.40777772665023804,0.2619691789150238,0.27326738834381104,0.019637877121567726,0.5044897794723511,0.13880515098571777,-0.12116488814353943,0.16434155404567719,0.3641248345375061,-0.14082111418247223,-0.3936305344104767,-0.014479396864771843,-0.4041939079761505,0.12366453558206558,0.7820183038711548,-0.1046270877122879,-0.36580613255500793,0.008227018639445305,-0.00035297591239213943,-0.48826223611831665,0.05138184875249863,0.6366104483604431,0.1439020335674286,0.005725197494029999,-0.10190146416425705,-0.3449941873550415,-0.5201435089111328,0.6204448938369751,0.3043436110019684,0.16951709985733032,-0.3398280739784241,0.1654861569404602,0.27852800488471985,-0.23381909728050232,0.18938271701335907,-0.4264753758907318,-0.4174289107322693,-0.4422149658203125,0.09064587950706482,0.13975399732589722,-0.14361858367919922,-0.08253714442253113,0.5233417749404907,0.07401635497808456,-0.31471943855285645,0.2280595898628235,-0.3294309377670288,0.341175377368927,0.15024018287658691,-0.7415811419487,0.028072116896510124,0.179079070687294,-0.5486639142036438,0.18758231401443481,0.5587828159332275,0.3353782296180725,-0.06847098469734192,0.3213915526866913,-0.23360022902488708,0.060272619128227234,-0.1253463625907898,-0.43312767148017883,0.5248557925224304,-0.13347142934799194,0.13178421556949615,0.41633105278015137,-0.34817269444465637,-0.7622977495193481,-0.023193759843707085,0.3625871539115906,-0.3713776469230652,0.34750157594680786,0.16175352036952972,0.1400602012872696,-0.13053730130195618,-0.05463167279958725,0.3922196626663208,-0.12457364797592163,-0.0864708200097084,0.15794895589351654,0.5795064568519592,-0.23118895292282104,-0.2852507531642914,-0.08811809867620468,0.11546321213245392,-0.19562865793704987,-0.07738468796014786,0.6627405881881714,0.34589242935180664,0.3183084726333618,0.05300089344382286,0.13154985010623932,-0.4444759488105774,-0.3756011724472046,0.32477009296417236,-0.33674508333206177,0.39481207728385925,-0.05012663081288338,0.09943624585866928,0.40648752450942993,-0.2832353413105011,0.06686529517173767,0.1330745369195938,0.3374600410461426,0.1454935222864151,-0.27927255630493164,-0.07614809274673462,-0.1450568437576294,-0.1342560201883316,0.1037682443857193,-0.021464239805936813,0.003501986153423786,0.16317491233348846,-0.7646867036819458,-0.37331265211105347,0.4888058602809906,0.8485667109489441,0.050852950662374496,0.43213993310928345,0.119609534740448,0.5301035642623901,0.6111013889312744,0.3213735818862915,-0.42025065422058105,0.1454678773880005,0.337787389755249,-0.25983256101608276,-0.18464185297489166,-0.295776903629303,-0.6950586438179016,-0.6678683757781982,0.07323895394802094,0.44241565465927124,-0.06906118243932724,-0.03663990646600723,0.5541824102401733,0.17758534848690033,-0.5161938071250916,-0.1768137514591217,-0.10563668608665466,-0.22100377082824707,-0.4360896348953247,-0.16615015268325806,-0.010339636355638504,-0.44191673398017883,-0.3277415633201599,-0.22986532747745514,-0.49102357029914856,-0.06446817517280579,0.35416629910469055,-0.44556760787963867,0.5787246227264404,-0.32776325941085815,0.11114566028118134,0.5292208194732666,-0.5581415295600891,-0.0031721056438982487,-0.6567859053611755,0.007749453652650118,0.5145604610443115,-0.10476283729076385,0.17083147168159485,-0.07464431971311569,0.4426213800907135,-0.15161342918872833,0.12873612344264984,0.2148953676223755,-0.08571672439575195,-0.2743780314922333,0.5595951676368713,-0.3386089503765106,0.14583684504032135,-0.23659220337867737,-0.19194111227989197,-0.4320700168609619,-0.4810958504676819,0.07802949100732803,-0.7751020789146423,-0.6698920726776123,-0.29205334186553955,-0.319381982088089,-0.02481488510966301,-0.07993323355913162,-0.04614763334393501,-0.06409904360771179,-0.2684871554374695,0.28585100173950195,-0.38945066928863525,0.22459754347801208,-0.00903401430696249,-0.13085466623306274,-0.12299460172653198,0.29201826453208923,0.39717012643814087,0.4470672905445099,-0.3327588737010956,-0.410239577293396,-0.06025133654475212,0.3846578299999237,-0.04559380188584328,0.6084463000297546,-0.10559603571891785,-0.09086368978023529,0.09013018757104874,0.08407949656248093,0.12756188213825226,0.6053812503814697,-0.2571313679218292,-0.10250675678253174,-0.032066818326711655,-0.4715222120285034,-0.19656816124916077,-0.11069202423095703,0.24971726536750793,0.5466275811195374,0.1937730610370636,0.09826084971427917,0.6123390793800354,0.430901437997818,-0.35083073377609253,0.46784019470214844,-0.22169537842273712,0.2031821310520172,-0.5479663610458374,-0.13397513329982758,-0.6712472438812256,-0.18021290004253387,-0.35772964358329773,0.6452183723449707,-0.4802626967430115,0.5489851236343384,0.546959638595581,-0.39211079478263855,-0.27066734433174133,0.33859509229660034,0.15342000126838684,0.286082923412323,-0.061706218868494034,0.12101294845342636,-0.07198251783847809,0.10877737402915955,0.17939141392707825,0.6874094605445862,0.13706283271312714,0.4145148992538452,0.023243870586156845,0.023168887943029404,0.5764316320419312,-0.23682032525539398,-0.3525073826313019,-0.19883319735527039,0.17258299887180328,-0.28543826937675476,-0.3465844392776489,0.05317535251379013,-0.10871510207653046,0.5844368934631348,0.07790854573249817,-0.2998335063457489,0.35455015301704407,0.2653253376483917,-0.6203915476799011,0.04267357662320137,0.19185908138751984,0.2476367950439453,-0.38583850860595703,0.008027646690607071,-0.20607887208461761,0.06234496086835861,-0.5821491479873657,-0.4232337176799774,0.4938215911388397,-0.040340226143598557,0.3232908844947815,0.2254280149936676,-0.4187360107898712,-0.41125327348709106,0.7480571866035461,-0.27591556310653687,-0.5617812871932983,0.2553347051143646,0.3310818076133728,0.36819615960121155,0.2581392228603363,0.4219050705432892,0.3503595292568207,-0.18800953030586243,0.4385710656642914,0.21053004264831543,-0.6586647629737854,-0.5417309403419495,0.06775853037834167,0.08903539925813675,0.050623632967472076,-0.3826357126235962,-0.6357895731925964,-0.151242196559906,0.26036038994789124,-0.07954022288322449,0.29750970005989075,0.14315825700759888,0.33953753113746643,-0.041005704551935196,0.3667484521865845,-0.3088057041168213,0.6262741088867188,0.009435432031750679,0.6021409034729004,-0.47393879294395447,-0.17964090406894684,-0.1551455855369568,-0.044969651848077774,-0.10427532345056534,0.0023896778002381325,0.49039143323898315,-0.3034832179546356,-0.40613478422164917,0.2459772229194641,0.2707727551460266,0.15668542683124542,0.2642515003681183,0.4129888713359833,0.12292778491973877,0.23878227174282074,0.20532412827014923,0.32568293809890747,0.3486161231994629,-0.2761039137840271,-0.6581135988235474,0.5163979530334473,-0.4904397130012512,-0.07164689898490906,-0.3999269902706146,-0.4539654850959778,0.6108558773994446,-0.47591283917427063,0.10067033767700195,0.46266046166419983,0.23545053601264954,0.24082988500595093,0.06296895444393158,0.4967084527015686,0.0687774270772934,-0.11632385104894638,0.2377578765153885,-0.001707996241748333,-0.3482511639595032,-0.33145007491111755,-0.17875832319259644,0.12822234630584717,-0.3321070075035095,-0.5781680345535278,0.12235675752162933,0.6953250765800476,0.0028313123621046543,-0.2444474995136261,0.36893022060394287,0.40790361166000366,0.22163456678390503,-0.31491899490356445,-0.1768028736114502,-0.08059053868055344,0.6546127796173096,-0.06873512268066406,0.04380069673061371,0.7563974857330322,0.3504130244255066,-0.47192949056625366,-0.10714839398860931,-0.33525657653808594,0.24947521090507507,0.2701442539691925,-0.4759584069252014,0.0006290245801210403,0.4751911163330078,0.2341441810131073,0.7216818928718567,0.12615759670734406,0.040767110884189606,0.2149318903684616,0.04898583143949509,-0.07268468290567398,0.14770017564296722,0.11047396808862686,0.4841899573802948,0.6212479472160339,-0.4327167570590973,0.17236948013305664,-0.1868736743927002,-0.14028538763523102,-0.10841436684131622,-0.3157593607902527,-0.20382963120937347,0.4988196790218353,-0.44936123490333557,0.04859122261404991,-0.08756467700004578,0.24599015712738037,-0.10548262298107147,0.10556942224502563,-0.08330824971199036,-0.3191526532173157,0.6926014423370361,-0.10972213000059128,-0.13363111019134521,-0.6044982075691223,-0.2351130247116089,-0.06997422128915787,0.36747199296951294,-0.45943304896354675,-0.1196558028459549,0.6375734806060791,0.03543925657868385,-0.13961127400398254,-0.14534683525562286,0.39725229144096375,-0.2888910174369812,0.18801742792129517,0.4878104627132416,-0.0015882626175880432,-0.32790035009384155,0.11453008651733398,-0.3158416152000427,-0.23037976026535034,-0.3898346424102783,0.48009368777275085,-0.35894864797592163,-0.23538240790367126,0.014727607369422913,-0.6771674156188965,-0.13964411616325378,0.31488943099975586,0.5782396197319031,-0.1202213391661644,0.20958265662193298,0.8138927817344666,0.15684403479099274,-0.3732156753540039,0.13589635491371155,0.3254743218421936,0.08817600458860397,0.6813485622406006,0.4831199645996094,-0.0376930758357048,0.14211246371269226,0.6783357858657837,0.08234809339046478,0.17649725079536438,-0.3822200894355774,0.42021071910858154,-0.26177525520324707,0.0793355405330658,-0.02023410052061081,0.019002189859747887,0.13699479401111603,-0.17420947551727295,0.3981209993362427,0.36577537655830383,-0.7067546844482422,-0.08679746091365814,0.3481496572494507,-0.06565578281879425,-0.2490553855895996,-0.5613372325897217,-0.25198614597320557,-0.12237932533025742,-0.0912608727812767,-0.06178176775574684,-0.2282225489616394,-0.4420371651649475,-0.07975811511278152,0.1856473982334137,-0.5023719072341919,0.09805801510810852,0.5071684122085571,-0.1336926519870758,0.14007481932640076,-0.1055356115102768,-0.06496300548315048,0.2635252773761749,-0.1958593726158142,-0.3539755642414093,0.15755078196525574,0.8869400024414062,-0.19396309554576874,-0.8074713349342346,-0.1536981761455536,0.36060836911201477,0.09957648068666458,0.07958188652992249,-0.0043952977284789085,-0.36078324913978577,0.004514705389738083,0.06835848093032837,0.21532562375068665,-0.23356615006923676,-0.6551885604858398,-0.1545022428035736,0.5449619889259338,-0.6904283761978149,-0.01064362283796072,-0.1957857459783554,0.14963175356388092,-0.490204393863678,0.351190984249115,-0.34163323044776917,0.5380644798278809,-0.057114679366350174,-0.6165712475776672,0.38233432173728943,0.16357380151748657,-0.04075975343585014,-0.08918358385562897,-0.21264863014221191,0.7451104521751404,-0.5329241752624512,-0.8503121733665466,0.0682772621512413,0.09886060655117035,0.660686731338501,-0.2629816234111786,-0.01246093213558197,-0.03895135223865509,0.20635512471199036,0.14785073697566986,0.06439691036939621,-0.25235629081726074,-0.13434705138206482,-0.5192126035690308,-0.2708210349082947,-0.3583729863166809,0.21401949226856232,0.1602565199136734,-0.6057435274124146,0.4377889037132263,-0.17812314629554749,0.20638762414455414,0.25073668360710144,-0.3276958465576172,-0.021236402913928032,0.3833569288253784,0.421785444021225,0.1886555552482605,0.4374420940876007,0.2145356833934784,0.3337925374507904,-0.15756575763225555,0.14641165733337402,0.16884846985340118,-0.16434510052204132,0.514925479888916,0.21718928217887878,-0.5893030762672424,-0.06894891709089279,0.7461062669754028,0.22890529036521912,-0.47117066383361816,-0.10349356383085251,0.5837217569351196,0.2067139446735382,0.0773027315735817,0.21820518374443054,-0.4375307261943817,-0.12450259923934937,-0.1743057370185852,-0.11588145792484283,-0.4393836557865143,-0.14505697786808014,-0.04066470265388489,-0.1506391018629074,-0.17219391465187073,0.08027542382478714,-0.19935119152069092,0.5747541189193726,-0.5393266677856445,-0.3515358567237854,-0.19276577234268188,-0.19339168071746826,-0.21842212975025177,0.28364065289497375,0.09535565227270126,-0.013364254496991634,-0.0001932494342327118,0.7253310680389404,-0.2445947676897049,-0.2961004078388214,-0.19420893490314484,-0.02500799670815468,0.06623972207307816,-0.1292591691017151,0.10560151934623718,-0.05979110300540924,0.3496357798576355,-0.7232925891876221,-0.2986046075820923,-0.049225207418203354,-0.1792183816432953,-0.47444605827331543,0.44676244258880615,0.3045109510421753,0.1643020361661911,0.6697826385498047,0.1362122744321823,0.17421862483024597,-0.4850752055644989,-0.4954659640789032,-0.11035279929637909,0.42118051648139954,-0.010652733966708183,-0.46440762281417847,-0.24901124835014343,0.4668779969215393,-0.5394787788391113,-0.20298589766025543,0.44726133346557617,0.15118926763534546,0.05572469159960747,-0.184742271900177,-0.11295408755540848,-0.6426784992218018,0.04604976996779442,0.2081146389245987,-0.032445646822452545,-0.18267498910427094,0.16377143561840057,-0.0739545226097107,0.08302055299282074,0.304810106754303,0.11743892729282379,-0.10241098701953888,-0.4652911424636841,-0.4896756410598755,-0.3360871374607086,0.37847423553466797,0.5308689475059509,-0.1943199336528778,-0.33897799253463745,0.2444615215063095,0.5949002504348755,-0.14162908494472504,0.15118874609470367,0.09369738399982452,-0.7749423384666443,-0.31984344124794006,-0.01928309164941311,0.22571946680545807,0.14055989682674408,-0.11963077634572983,-0.5048971176147461,0.4644750654697418,-0.1131952553987503,-0.2953881025314331,0.6002031564712524,-0.23389235138893127,0.2876889705657959,0.019068991765379906,-0.33883172273635864,0.03256721794605255,0.5574171543121338,0.032330285757780075,0.37715965509414673,0.16989818215370178,-0.5914479494094849,-0.1274234652519226,-0.08716334402561188,-0.5384971499443054,-0.20956185460090637,-0.08920127153396606,-0.038431569933891296,0.4166680574417114,-0.5834087133407593,0.3445432782173157,0.2978573441505432,0.31397581100463867,0.34455373883247375,-0.45954108238220215,-0.2243579477071762,0.32917964458465576,0.4042664170265198,-0.19016163051128387,-0.4842054843902588,-0.3638578951358795,-0.3948587477207184,-0.4150378108024597,-0.10907240211963654,0.5723735094070435,0.010249139741063118,-0.3784499764442444,-0.2843445837497711,0.42194679379463196,-0.0347316712141037,0.02654058113694191,0.23130781948566437,0.0560302734375,0.22230416536331177,0.2318645566701889,-0.8019727468490601,0.43420684337615967,-0.5136677622795105,-0.11252764612436295,-0.18571290373802185,0.1909790337085724,-0.08159367740154266,-0.09431017935276031,-0.2439763844013214,0.07732972502708435,0.31473875045776367,-0.2653404474258423,-0.045062921941280365,0.21575678884983063,0.23015162348747253,-0.2188887596130371,0.09116385877132416,0.2735233008861542,0.5142180323600769,0.11580602079629898,0.16334520280361176,0.5986706018447876,-0.4601266086101532,-0.017066754400730133,-0.2389104962348938,-0.5524946451187134,0.11568257957696915,0.1937919557094574,0.3348778188228607,-0.060223232954740524,-0.3146853446960449,0.6643025875091553,0.09032414108514786,-0.18133383989334106,0.33607736229896545,0.1560368686914444,0.14175651967525482,-0.22200316190719604,0.36230364441871643,0.6946102380752563,-0.059293825179338455,-0.2582397162914276,0.642499566078186,-0.5327907800674438,0.37816786766052246,-0.14486491680145264,-0.0549885593354702,0.09356901794672012
Singleton,0.4588506519794464,-0.4930207133293152,-0.5745169520378113,0.1122637391090393,0.2591194808483124,-0.039641473442316055,0.5795177817344666,-0.3298432230949402,0.0372687429189682,-0.3111574351787567,0.43956121802330017,0.01617957279086113,-0.4263913631439209,0.10847257077693939,-0.0687936395406723,0.6003930568695068,0.4722508192062378,-0.5173707008361816,0.13957345485687256,0.36322271823883057,-0.21235054731369019,0.5896735787391663,0.19425615668296814,0.1818428784608841,-0.29538267850875854,0.25116562843322754,0.23702330887317657,0.05239613354206085,0.5194910764694214,0.16035979986190796,-0.06761786341667175,0.1438879817724228,0.30932796001434326,-0.09000316262245178,-0.3902130722999573,0.007581561803817749,-0.46494999527931213,0.14176823198795319,0.7528257966041565,-0.20640620589256287,-0.37687379121780396,0.05369270592927933,0.04513813555240631,-0.445418119430542,0.0384281724691391,0.6259199976921082,0.15145806968212128,0.006051770877093077,-0.1481429636478424,-0.2716054916381836,-0.540330708026886,0.5641688704490662,0.29454824328422546,0.19207973778247833,-0.3390522599220276,0.16696059703826904,0.21584662795066833,-0.17671836912631989,0.13360454142093658,-0.359810471534729,-0.4316815733909607,-0.4554760456085205,0.12768059968948364,0.1267116218805313,-0.10858471691608429,-0.12336799502372742,0.4854191541671753,0.02479088492691517,-0.324001669883728,0.19049622118473053,-0.36023128032684326,0.32057544589042664,0.12447050958871841,-0.7280066013336182,-0.025254784151911736,0.12133362889289856,-0.5765321254730225,0.15060818195343018,0.5702407360076904,0.36699140071868896,-0.08184847235679626,0.3498627841472626,-0.17127510905265808,0.1373165100812912,-0.11904406547546387,-0.35812270641326904,0.501520574092865,-0.13481485843658447,0.13908064365386963,0.4193498492240906,-0.33933913707733154,-0.7208385467529297,-0.03963545709848404,0.2840489447116852,-0.33716002106666565,0.33580920100212097,0.11304768919944763,0.1353771835565567,-0.19988279044628143,-0.09285981208086014,0.30885961651802063,-0.17208902537822723,-0.11107608675956726,0.19919365644454956,0.5149328708648682,-0.25069671869277954,-0.24869036674499512,-0.04915536567568779,0.11208438873291016,-0.20024992525577545,-0.04380347207188606,0.6563433408737183,0.4245549440383911,0.2753750681877136,0.09210366755723953,0.13923515379428864,-0.3559834361076355,-0.36284780502319336,0.36750441789627075,-0.37901729345321655,0.3613262176513672,-0.09150834381580353,0.12319076061248779,0.3430051803588867,-0.3530563712120056,0.11512991040945053,0.11712703108787537,0.365904301404953,0.16185051202774048,-0.25937339663505554,-0.05154061317443848,-0.0778987780213356,-0.08185383677482605,0.14000611007213593,-0.04986816644668579,0.0543234720826149,0.13050734996795654,-0.7551212310791016,-0.3633909821510315,0.5223946571350098,0.8193376660346985,0.09087593108415604,0.35805743932724,0.16790549457073212,0.4790976941585541,0.5844767093658447,0.27982109785079956,-0.43343910574913025,0.11939585208892822,0.3503240644931793,-0.17229537665843964,-0.15630584955215454,-0.30692553520202637,-0.6225074529647827,-0.6316746473312378,-0.004904480651021004,0.3715251684188843,-0.08522671461105347,-0.010997356846928596,0.5698860883712769,0.16351762413978577,-0.4817863702774048,-0.19691427052021027,-0.13434188067913055,-0.23299303650856018,-0.40700334310531616,-0.13697057962417603,-0.019747406244277954,-0.43128669261932373,-0.3102681040763855,-0.1674363613128662,-0.5502878427505493,-0.08032296597957611,0.31394141912460327,-0.4800981879234314,0.566072404384613,-0.3997272849082947,0.13553398847579956,0.5111528635025024,-0.47161534428596497,0.08026093244552612,-0.6079035997390747,-0.003151976503431797,0.4556730389595032,-0.04242662340402603,0.20490731298923492,-0.1563650220632553,0.4157385528087616,-0.09857024252414703,0.16955509781837463,0.24677500128746033,-0.06270837783813477,-0.24481716752052307,0.5127926468849182,-0.33680039644241333,0.1438244879245758,-0.2893024682998657,-0.15205520391464233,-0.4140613079071045,-0.4313659071922302,0.1288657784461975,-0.770687460899353,-0.5959348082542419,-0.2070891559123993,-0.25142642855644226,0.0049362871795892715,-0.0813535824418068,0.011203493922948837,-0.04729417711496353,-0.18494749069213867,0.2114415317773819,-0.4148431718349457,0.2799210548400879,-0.05615648999810219,-0.16716456413269043,-0.11050853878259659,0.2916038930416107,0.3879242241382599,0.3796629309654236,-0.3931514024734497,-0.3953540325164795,-0.013935582712292671,0.3876236379146576,-0.05781693011522293,0.6271026134490967,-0.1420932114124298,-0.1278882771730423,0.02935204654932022,0.13481378555297852,0.10403972119092941,0.5658985376358032,-0.31109344959259033,-0.09239473938941956,-0.011298663914203644,-0.5030567049980164,-0.24947990477085114,-0.17985787987709045,0.25513702630996704,0.5274073481559753,0.18550460040569305,0.11923466622829437,0.5358356833457947,0.4322768449783325,-0.2032773494720459,0.4077231287956238,-0.25069496035575867,0.22150471806526184,-0.5497944951057434,-0.12745022773742676,-0.6143303513526917,-0.22199958562850952,-0.3703516721725464,0.6337331533432007,-0.4314863681793213,0.5128185749053955,0.5510740876197815,-0.38516998291015625,-0.3061249554157257,0.32916662096977234,0.15435540676116943,0.28633439540863037,-0.03030579350888729,0.11924063414335251,0.01768505573272705,0.07685807347297668,0.21367838978767395,0.6121562719345093,0.17505958676338196,0.4001850187778473,0.003878254909068346,0.05998287349939346,0.5232692956924438,-0.22533631324768066,-0.29578471183776855,-0.15115703642368317,0.18159587681293488,-0.2762259840965271,-0.34118545055389404,0.06598339974880219,-0.07409114390611649,0.5673555135726929,0.043477270752191544,-0.3463488221168518,0.28699326515197754,0.32721537351608276,-0.5902273058891296,0.08602786064147949,0.1821918487548828,0.23831498622894287,-0.38810253143310547,-0.04630251228809357,-0.15028449892997742,0.08758868277072906,-0.5842872858047485,-0.4298306703567505,0.5218057632446289,-0.00898066721856594,0.31539565324783325,0.22695568203926086,-0.35859641432762146,-0.3750481605529785,0.7458802461624146,-0.230678990483284,-0.5071359872817993,0.28738340735435486,0.27629661560058594,0.26798999309539795,0.26274558901786804,0.3602032959461212,0.3918837308883667,-0.18198779225349426,0.4166748821735382,0.22410306334495544,-0.6482260227203369,-0.4919874370098114,-0.03555294871330261,0.07028892636299133,0.05092698708176613,-0.31685876846313477,-0.5942077040672302,-0.10031827539205551,0.2722803056240082,-0.112905353307724,0.26019713282585144,0.19706888496875763,0.3524954319000244,-0.010564328171312809,0.40482163429260254,-0.24493910372257233,0.5985622406005859,0.013141809962689877,0.5906780362129211,-0.4901180863380432,-0.13021735846996307,-0.1584358960390091,-0.08393298089504242,-0.08312422782182693,-0.016045644879341125,0.4619385302066803,-0.2771013081073761,-0.43419522047042847,0.2855108976364136,0.23074904084205627,0.17944979667663574,0.2544463276863098,0.4336792230606079,0.151910200715065,0.18007530272006989,0.17029577493667603,0.3257487714290619,0.2851888835430145,-0.22367726266384125,-0.664970874786377,0.44542378187179565,-0.4390675127506256,-0.08555372059345245,-0.32358497381210327,-0.3829028606414795,0.6279406547546387,-0.44028493762016296,0.12593168020248413,0.43584510684013367,0.25321972370147705,0.2296345829963684,0.09684770554304123,0.4410359561443329,0.08286408334970474,-0.019534572958946228,0.17573712766170502,-0.0028390511870384216,-0.3666441738605499,-0.34672868251800537,-0.19408725202083588,0.14871925115585327,-0.33197471499443054,-0.5707150101661682,0.1744391918182373,0.6398095488548279,-0.04396379739046097,-0.24922217428684235,0.39121565222740173,0.38170212507247925,0.20029768347740173,-0.21887433528900146,-0.18621763586997986,-0.10933564603328705,0.6355741024017334,-0.05212893337011337,0.09262315928936005,0.7331447005271912,0.3215133249759674,-0.4916304349899292,-0.05548867583274841,-0.3026537001132965,0.20924560725688934,0.23788507282733917,-0.4076806306838989,0.05479081720113754,0.4800902009010315,0.2768595218658447,0.7346809506416321,0.08872272074222565,0.06117994338274002,0.19826525449752808,0.1271563619375229,-0.06766404956579208,0.09608874469995499,0.04925982654094696,0.4822605848312378,0.568403422832489,-0.4232812821865082,0.11707908660173416,-0.21407464146614075,-0.11321638524532318,-0.13346156477928162,-0.35163408517837524,-0.1681802123785019,0.4524185359477997,-0.5154276490211487,0.06437776982784271,-0.1414753496646881,0.21820680797100067,-0.10655383765697479,0.03445687144994736,-0.16858935356140137,-0.3258289396762848,0.6701804995536804,-0.11272278428077698,-0.08571885526180267,-0.5429319143295288,-0.2701999247074127,-0.037433356046676636,0.3141633868217468,-0.392635703086853,-0.14652733504772186,0.6020521521568298,0.027857385575771332,-0.12020522356033325,-0.15866948664188385,0.3675313889980316,-0.22467365860939026,0.19842450320720673,0.41085684299468994,-0.08401509374380112,-0.3413611948490143,0.11854955554008484,-0.38901287317276,-0.24345088005065918,-0.4685625731945038,0.5129880905151367,-0.34260690212249756,-0.225320503115654,-0.08427293598651886,-0.6502994894981384,-0.10824761539697647,0.2936874330043793,0.5595902800559998,-0.19699306786060333,0.14652496576309204,0.8048975467681885,0.0663907453417778,-0.381792277097702,0.10031561553478241,0.35217514634132385,0.03000234067440033,0.6702693104743958,0.4565344452857971,-0.016054634004831314,0.17290747165679932,0.661994218826294,0.06921397894620895,0.21058028936386108,-0.2962137758731842,0.45036959648132324,-0.2292117029428482,0.14332644641399384,-0.03210296481847763,0.015229538083076477,0.12417018413543701,-0.17273616790771484,0.356099009513855,0.3994601368904114,-0.6931034326553345,-0.12842881679534912,0.25456732511520386,-0.03212234750390053,-0.2827187180519104,-0.48302268981933594,-0.2039511650800705,-0.22516795992851257,-0.07194042950868607,-0.07564875483512878,-0.15881633758544922,-0.48089760541915894,-0.06242180988192558,0.21763865649700165,-0.4879972040653229,0.1219078078866005,0.545884370803833,-0.0547330304980278,0.21461385488510132,-0.2073725014925003,-0.0675840973854065,0.25270938873291016,-0.17369116842746735,-0.31864699721336365,0.15788690745830536,0.8682732582092285,-0.20440088212490082,-0.7698627710342407,-0.1454954594373703,0.4063490033149719,0.0995001494884491,0.14759252965450287,-0.047398634254932404,-0.32095885276794434,0.07501471787691116,0.04909069091081619,0.16606223583221436,-0.2179468721151352,-0.6144870519638062,-0.17647811770439148,0.5630853772163391,-0.6464963555335999,0.020635806024074554,-0.24265263974666595,0.08995497226715088,-0.4567250609397888,0.3271099627017975,-0.370280385017395,0.582260251045227,0.029450107365846634,-0.6203240156173706,0.2866540551185608,0.17580880224704742,-0.034946441650390625,-0.16487091779708862,-0.23055057227611542,0.7389163970947266,-0.49972081184387207,-0.8238929510116577,0.12051619589328766,0.15729665756225586,0.6118541955947876,-0.2171151041984558,-0.03531016409397125,-0.06199938431382179,0.2400960624217987,0.17390255630016327,0.05534262955188751,-0.22017022967338562,-0.1656884104013443,-0.5167590379714966,-0.28826704621315,-0.3759617209434509,0.14175376296043396,0.16479921340942383,-0.592666745185852,0.38316330313682556,-0.1809183657169342,0.19104892015457153,0.22671064734458923,-0.3129156827926636,-0.0629018247127533,0.37341487407684326,0.44928187131881714,0.2360069751739502,0.4398125112056732,0.2044135481119156,0.2865443825721741,-0.16929951310157776,0.20218436419963837,0.16882967948913574,-0.16302122175693512,0.49120140075683594,0.1338493973016739,-0.5847498178482056,-0.09531641751527786,0.7441412210464478,0.2358868420124054,-0.4063364863395691,-0.07154938578605652,0.5494562387466431,0.1680615246295929,0.05596861243247986,0.24654477834701538,-0.383040189743042,-0.15820345282554626,-0.15033669769763947,-0.056838128715753555,-0.391577810049057,-0.1856706291437149,-0.037390537559986115,-0.12396007776260376,-0.20075109601020813,0.06522661447525024,-0.18966810405254364,0.5084826946258545,-0.5559595823287964,-0.2833649814128876,-0.15415701270103455,-0.09073378890752792,-0.23554028570652008,0.25967976450920105,0.09668298065662384,-0.024449383839964867,0.07752316445112228,0.6614457368850708,-0.2176186591386795,-0.2491183876991272,-0.20369674265384674,-0.0886303260922432,0.15793755650520325,-0.17109714448451996,0.09237824380397797,-0.09230048954486847,0.35663866996765137,-0.6809828281402588,-0.2812458574771881,-0.0661746934056282,-0.22119607031345367,-0.4791346490383148,0.4441569149494171,0.3190731406211853,0.14679297804832458,0.5941831469535828,0.18289196491241455,0.1436261385679245,-0.4377860426902771,-0.4835476875305176,-0.16231530904769897,0.3757839500904083,-0.005956725683063269,-0.42922401428222656,-0.24194760620594025,0.40612250566482544,-0.5167344212532043,-0.18807563185691833,0.41217929124832153,0.13174213469028473,-0.021733462810516357,-0.17421701550483704,-0.09491027146577835,-0.6219288110733032,0.07169266045093536,0.1685325801372528,0.0068810367956757545,-0.1931135058403015,0.10449804365634918,-0.08982942998409271,0.16694697737693787,0.28449109196662903,0.13764552772045135,-0.13724444806575775,-0.43278518319129944,-0.48820051550865173,-0.308832049369812,0.27750951051712036,0.4733598828315735,-0.1911262720823288,-0.293947696685791,0.2026107758283615,0.49214404821395874,-0.15227921307086945,0.1690266877412796,0.09987900406122208,-0.7241442799568176,-0.2614077925682068,0.0011936221271753311,0.23559734225273132,0.09986471384763718,-0.19438035786151886,-0.49575480818748474,0.3770890533924103,-0.10734198242425919,-0.3259802460670471,0.5851157903671265,-0.20784763991832733,0.3324187994003296,0.009930869564414024,-0.3434928357601166,0.014594439417123795,0.4914511442184448,-0.006565924733877182,0.3330700099468231,0.18454083800315857,-0.5943576097488403,-0.17058603465557098,-0.10057765990495682,-0.46624910831451416,-0.24315902590751648,-0.11803001165390015,-0.046404991298913956,0.39494624733924866,-0.5954855680465698,0.3635157644748688,0.208916574716568,0.2731284499168396,0.28602978587150574,-0.44838351011276245,-0.23880574107170105,0.30590155720710754,0.3908858597278595,-0.23040609061717987,-0.4877885580062866,-0.3969278037548065,-0.3855428695678711,-0.38477596640586853,-0.2022760510444641,0.585281491279602,-0.04588206857442856,-0.34640616178512573,-0.29376333951950073,0.47891032695770264,0.014221211895346642,0.06590026617050171,0.24545523524284363,0.029386382550001144,0.23485279083251953,0.20991840958595276,-0.7532474398612976,0.3952648341655731,-0.48688334226608276,-0.09261894226074219,-0.15651850402355194,0.19466632604599,-0.09409361332654953,-0.010594727471470833,-0.25890105962753296,0.03779346123337746,0.3238407373428345,-0.29956942796707153,-0.05345767363905907,0.19025205075740814,0.24151189625263214,-0.22998934984207153,0.07473883032798767,0.25770121812820435,0.5090736150741577,0.14000090956687927,0.14191102981567383,0.5209946632385254,-0.448255717754364,-0.03701942786574364,-0.2742423415184021,-0.5409900546073914,0.1536140888929367,0.1642443984746933,0.3453931510448456,-0.07784447818994522,-0.3513270318508148,0.6408423185348511,0.03670727089047432,-0.13936714828014374,0.3587202727794647,0.11139025539159775,0.07474137842655182,-0.18463875353336334,0.3027561902999878,0.6269629001617432,-0.04460971802473068,-0.1620246022939682,0.5751693248748779,-0.5501707792282104,0.3612159490585327,-0.1413474678993225,-0.045307457447052,0.06678873300552368
Factory,0.4865478277206421,-0.5062430500984192,-0.6215707659721375,0.10084381699562073,0.2946454882621765,-0.08638805896043777,0.5886901021003723,-0.3463894724845886,-0.0001129303127527237,-0.2675986886024475,0.44688722491264343,-0.012298964895308018,-0.40157151222229004,0.14703044295310974,-0.05031069368124008,0.5785447359085083,0.5114033222198486,-0.48529767990112305,0.1590014547109604,0.4064995348453522,-0.20459160208702087,0.617892324924469,0.13260318338871002,0.1276865303516388,-0.3015059530735016,0.28253811597824097,0.25436899065971375,0.038478098809719086,0.5189110040664673,0.08193621039390564,-0.09728964418172836,0.10191825777292252,0.3600873351097107,-0.08050265908241272,-0.3830503821372986,-0.02608535997569561,-0.42017531394958496,0.07906559109687805,0.7906140089035034,-0.15441618859767914,-0.4005710482597351,0.07810303568840027,0.016122523695230484,-0.4660069942474365,0.11896540969610214,0.6282562017440796,0.15038101375102997,-0.025394586846232414,-0.12676188349723816,-0.2912442982196808,-0.5590422749519348,0.5884890556335449,0.2831385135650635,0.16772161424160004,-0.34302854537963867,0.11311129480600357,0.282955527305603,-0.19348160922527313,0.15302246809005737,-0.41750383377075195,-0.4494064450263977,-0.42128774523735046,0.1499793380498886,0.18444332480430603,-0.1337348222732544,-0.11057817935943604,0.5447511672973633,0.07785843312740326,-0.38523659110069275,0.21064020693302155,-0.39162224531173706,0.35406073927879333,0.13536128401756287,-0.7459651827812195,0.008417141623795033,0.16379809379577637,-0.5195737481117249,0.1761370599269867,0.5819793939590454,0.38056495785713196,-0.058904632925987244,0.3426167964935303,-0.15183381736278534,0.0768594741821289,-0.11991021037101746,-0.36650604009628296,0.5565926432609558,-0.12001463770866394,0.1294640749692917,0.45033693313598633,-0.341910719871521,-0.7458892464637756,-0.06177893280982971,0.3451046049594879,-0.3386191129684448,0.32610058784484863,0.12427017092704773,0.1611311137676239,-0.21858009696006775,-0.0478266216814518,0.327903151512146,-0.11669519543647766,-0.1136125773191452,0.20775339007377625,0.579314112663269,-0.2464417815208435,-0.25688639283180237,-0.08430176973342896,0.14470192790031433,-0.1916806548833847,0.01111273281276226,0.6549256443977356,0.43116986751556396,0.29075053334236145,0.10485385358333588,0.16566503047943115,-0.4195127785205841,-0.3688715994358063,0.3298126757144928,-0.35381457209587097,0.4058516025543213,-0.10113692283630371,0.13953977823257446,0.3604046106338501,-0.3275412917137146,0.10976649820804596,0.098268523812294,0.33779940009117126,0.1414618343114853,-0.24459898471832275,-0.02294261008501053,-0.15958139300346375,-0.10167279839515686,0.13127262890338898,-0.07330165803432465,0.037260688841342926,0.2282428741455078,-0.792310893535614,-0.390602171421051,0.5356264114379883,0.8330141305923462,0.07578810304403305,0.38251808285713196,0.14084041118621826,0.5245261192321777,0.63104647397995,0.27617892622947693,-0.43896862864494324,0.1675732433795929,0.3077775835990906,-0.23727042973041534,-0.21431854367256165,-0.27129891514778137,-0.6437347531318665,-0.674124538898468,0.0809219554066658,0.35601505637168884,-0.07728490978479385,-0.013417957350611687,0.5664266347885132,0.17995113134384155,-0.5260845422744751,-0.2226705402135849,-0.14887088537216187,-0.28103357553482056,-0.4294588565826416,-0.14266231656074524,-0.061092376708984375,-0.4385268986225128,-0.3160947561264038,-0.18781188130378723,-0.5181220769882202,-0.08545541763305664,0.3436831533908844,-0.4796512722969055,0.6027862429618835,-0.36771297454833984,0.09335941821336746,0.541761577129364,-0.5434116125106812,0.05886879563331604,-0.5825487375259399,-0.03686007484793663,0.4610033929347992,-0.1004968136548996,0.173013836145401,-0.06328192353248596,0.4111374616622925,-0.11500395089387894,0.1840904951095581,0.23336027562618256,-0.012872976250946522,-0.2382035255432129,0.5279411673545837,-0.38454532623291016,0.0900813639163971,-0.26052433252334595,-0.18623895943164825,-0.34307727217674255,-0.4970349073410034,0.11992854624986649,-0.7920517921447754,-0.6590567827224731,-0.23505395650863647,-0.31220805644989014,-0.008931552991271019,-0.10447171330451965,-0.03259744867682457,-0.03256604075431824,-0.26570653915405273,0.297603964805603,-0.4240858256816864,0.2803012728691101,-0.02202710136771202,-0.15382473170757294,-0.1065676361322403,0.3194887042045593,0.4213554263114929,0.4078595042228699,-0.37914833426475525,-0.42113104462623596,-0.014036029577255249,0.40653955936431885,-0.09418008476495743,0.6416869759559631,-0.122079998254776,-0.1375216841697693,0.0881037563085556,0.1546519696712494,0.12304958701133728,0.6149359941482544,-0.3026888072490692,-0.09247933328151703,-0.02412353828549385,-0.49905961751937866,-0.22962164878845215,-0.1228378489613533,0.2422654926776886,0.5628913044929504,0.15336200594902039,0.09806700795888901,0.60111004114151,0.41906118392944336,-0.3284829258918762,0.48791953921318054,-0.2817346751689911,0.1982230395078659,-0.6108883023262024,-0.11693280935287476,-0.6764141321182251,-0.24499905109405518,-0.3639552593231201,0.6294447183609009,-0.3981994390487671,0.5185203552246094,0.5360066294670105,-0.39733487367630005,-0.29597902297973633,0.33351394534111023,0.1401829719543457,0.2846973240375519,-0.056633129715919495,0.11349774152040482,-0.02856466732919216,0.10821817815303802,0.16106444597244263,0.6419112682342529,0.12094683945178986,0.36908167600631714,0.012025807984173298,0.05966002494096756,0.5453469157218933,-0.23713654279708862,-0.293781042098999,-0.1922670304775238,0.16139626502990723,-0.3038462698459625,-0.39321398735046387,0.037581685930490494,-0.006412125658243895,0.6153815984725952,0.06489700824022293,-0.2764688730239868,0.31815996766090393,0.28055939078330994,-0.5815439820289612,0.0781933069229126,0.1522289365530014,0.21758757531642914,-0.41121262311935425,0.0020091314800083637,-0.1979941427707672,0.06624265015125275,-0.603992760181427,-0.46318793296813965,0.5164599418640137,-0.061061788350343704,0.34544822573661804,0.267189085483551,-0.4054911136627197,-0.41491901874542236,0.7492203712463379,-0.2288401871919632,-0.575275719165802,0.23425669968128204,0.32305288314819336,0.29723891615867615,0.20514020323753357,0.3787074089050293,0.3573738932609558,-0.18419229984283447,0.47009924054145813,0.2531582713127136,-0.6146715879440308,-0.5530383586883545,0.04561738297343254,0.1059255376458168,0.016110219061374664,-0.34408849477767944,-0.6052746176719666,-0.1447240114212036,0.22716237604618073,-0.05492261052131653,0.31091374158859253,0.2475089132785797,0.31301867961883545,0.02911186031997204,0.3830665946006775,-0.3163329064846039,0.6078131794929504,-0.019737500697374344,0.5848358869552612,-0.4841090440750122,-0.17789971828460693,-0.14448684453964233,-0.05934976041316986,-0.016980718821287155,-0.06823612004518509,0.521261990070343,-0.30193856358528137,-0.4102141857147217,0.18843239545822144,0.2545349597930908,0.2520441710948944,0.25452762842178345,0.4316312372684479,0.19898682832717896,0.21462740004062653,0.18500781059265137,0.31814512610435486,0.3044145703315735,-0.2899823486804962,-0.695054829120636,0.4903063178062439,-0.4669966399669647,-0.11634783446788788,-0.4027464985847473,-0.4246891140937805,0.6214863061904907,-0.49518677592277527,0.13445203006267548,0.4807218313217163,0.2395017445087433,0.2317964881658554,0.06187251955270767,0.46056067943573,0.12832441926002502,-0.06326323747634888,0.20956812798976898,0.010667890310287476,-0.4123912453651428,-0.38867121934890747,-0.2014215886592865,0.135853573679924,-0.340781033039093,-0.5720736980438232,0.1657414734363556,0.6658818125724792,0.013157650828361511,-0.24321958422660828,0.4425317645072937,0.3793244957923889,0.24496927857398987,-0.2328319251537323,-0.19697347283363342,-0.1156550869345665,0.6557290554046631,-0.03435119614005089,0.09023922681808472,0.7358750104904175,0.3568938672542572,-0.4939751625061035,-0.08241146802902222,-0.27424612641334534,0.19354481995105743,0.17758910357952118,-0.4308381676673889,0.06150894612073898,0.48591122031211853,0.2777306139469147,0.725594162940979,0.1421719342470169,0.08485797792673111,0.19410812854766846,0.09438920766115189,0.022164244204759598,0.16500496864318848,0.06396686285734177,0.5001326203346252,0.6088343858718872,-0.4441961944103241,0.2187107354402542,-0.17634952068328857,-0.1361917108297348,-0.1700761318206787,-0.28270354866981506,-0.2197331190109253,0.4832511842250824,-0.4642665386199951,0.04754999279975891,-0.060140855610370636,0.2553388476371765,-0.11016494780778885,-0.01735614612698555,-0.13471952080726624,-0.2761165201663971,0.6518628001213074,-0.13057594001293182,-0.12713462114334106,-0.5831321477890015,-0.23672735691070557,-0.012825345620512962,0.3888155221939087,-0.4517131745815277,-0.1432504504919052,0.6148520112037659,0.011491350829601288,-0.17385666072368622,-0.16532650589942932,0.4220549464225769,-0.21722230315208435,0.19961018860340118,0.4133611023426056,-0.028057849034667015,-0.2841823697090149,0.06236711144447327,-0.3361046016216278,-0.2422076165676117,-0.43740034103393555,0.47265809774398804,-0.33912673592567444,-0.2026803195476532,-0.05571424216032028,-0.6769571304321289,-0.09603514522314072,0.3381175994873047,0.5407501459121704,-0.1425548940896988,0.22052951157093048,0.8401352763175964,0.09923151880502701,-0.36967962980270386,0.10629081726074219,0.399432897567749,0.06847354024648666,0.6741054058074951,0.4686824083328247,-0.03213780000805855,0.18728655576705933,0.683488667011261,0.04751360043883324,0.19745323061943054,-0.32109135389328003,0.4573999047279358,-0.22960536181926727,0.062307197600603104,0.022444922477006912,0.08180972933769226,0.1303611397743225,-0.1958034634590149,0.3906742036342621,0.43189626932144165,-0.6987670660018921,-0.08423672616481781,0.31636112928390503,-0.09479035437107086,-0.27766960859298706,-0.51142817735672,-0.23960493505001068,-0.18073363602161407,-0.1400078535079956,-0.0376034677028656,-0.16133490204811096,-0.4794239401817322,-0.10042073577642441,0.2286667823791504,-0.4630866050720215,0.09423660486936569,0.5185967087745667,-0.04402046650648117,0.21385076642036438,-0.20860819518566132,-0.07543445378541946,0.288798987865448,-0.20737014710903168,-0.40826842188835144,0.10799260437488556,0.8844372630119324,-0.20330999791622162,-0.7954045534133911,-0.1913045048713684,0.38764265179634094,0.18994036316871643,0.059344105422496796,-0.05038771033287048,-0.3550761938095093,0.0070323944091796875,0.025131620466709137,0.17528188228607178,-0.2583548426628113,-0.6549843549728394,-0.13987357914447784,0.5516032576560974,-0.6930332183837891,0.05434156581759453,-0.26485976576805115,0.110152967274189,-0.49419280886650085,0.33264702558517456,-0.3399718701839447,0.579708993434906,0.061579957604408264,-0.6390208601951599,0.34127646684646606,0.1653096079826355,-0.031801071017980576,-0.12026382982730865,-0.2571195363998413,0.7600295543670654,-0.5310078859329224,-0.8209617137908936,0.16369961202144623,0.19278886914253235,0.6081082820892334,-0.24107591807842255,-0.054768677800893784,-0.030712099745869637,0.16702955961227417,0.1584024280309677,0.09152922034263611,-0.3160420358181,-0.1928316354751587,-0.5115348100662231,-0.281790554523468,-0.39117076992988586,0.199499249458313,0.12096962332725525,-0.6408584117889404,0.4050480127334595,-0.21161127090454102,0.2389390915632248,0.2517625093460083,-0.29553329944610596,-0.02920602448284626,0.3589847683906555,0.4850645661354065,0.20235508680343628,0.47494667768478394,0.17618857324123383,0.30418661236763,-0.12633509933948517,0.20356521010398865,0.16534008085727692,-0.09296449273824692,0.48432740569114685,0.17345619201660156,-0.614199161529541,-0.06722003221511841,0.7476532459259033,0.25284284353256226,-0.4206843078136444,-0.06564150750637054,0.5617498159408569,0.13947291672229767,0.06191736459732056,0.25140711665153503,-0.42620259523391724,-0.1592952013015747,-0.14161726832389832,-0.08773913234472275,-0.4346849322319031,-0.22365109622478485,-0.0426335334777832,-0.18878643214702606,-0.21209704875946045,0.08638492971658707,-0.19275690615177155,0.5624057054519653,-0.5524309873580933,-0.31438082456588745,-0.1848711222410202,-0.14423051476478577,-0.2188277691602707,0.2605995535850525,0.10934258997440338,-0.06542565673589706,0.07535947114229202,0.6838318109512329,-0.21942058205604553,-0.3095628321170807,-0.22256767749786377,-0.06570181250572205,0.15540921688079834,-0.11760732531547546,0.1890328824520111,-0.11043795943260193,0.33975207805633545,-0.7285458445549011,-0.278457373380661,-0.12806959450244904,-0.2609882652759552,-0.47462525963783264,0.4624623656272888,0.27529656887054443,0.16245882213115692,0.6535933613777161,0.18266981840133667,0.1573413908481598,-0.4906066656112671,-0.4870097041130066,-0.09667715430259705,0.3997494578361511,-0.008496706373989582,-0.4843902885913849,-0.2554807662963867,0.46959131956100464,-0.5514940619468689,-0.19351595640182495,0.4154356122016907,0.12639857828617096,-0.04081322252750397,-0.20785972476005554,-0.09962765127420425,-0.6485956311225891,-0.007223488762974739,0.21988976001739502,-0.016100451350212097,-0.18844792246818542,0.08727086335420609,-0.04919721186161041,0.05394294112920761,0.2845202088356018,0.07732830941677094,-0.049272570759058,-0.44492679834365845,-0.45922213792800903,-0.28544485569000244,0.3561161160469055,0.522499680519104,-0.23866118490695953,-0.2656218707561493,0.3347211480140686,0.5349226593971252,-0.08961470425128937,0.10183414071798325,0.1336207538843155,-0.7471009492874146,-0.2135031521320343,-0.021165652200579643,0.26558709144592285,0.1503937542438507,-0.17376109957695007,-0.49885931611061096,0.47552502155303955,-0.11262528598308563,-0.29881033301353455,0.5622269511222839,-0.294168621301651,0.2801953852176666,0.04402606561779976,-0.35314762592315674,-0.02599113993346691,0.5029187798500061,0.029985535889863968,0.3699150085449219,0.16488301753997803,-0.5964727401733398,-0.1891188621520996,-0.07154974341392517,-0.4901728630065918,-0.23926937580108643,-0.1303715705871582,-0.041697584092617035,0.3815271258354187,-0.5972801446914673,0.32962027192115784,0.29391565918922424,0.2171429693698883,0.3283006250858307,-0.4749949276447296,-0.2546579837799072,0.30247271060943604,0.41329026222229004,-0.21560677886009216,-0.46566468477249146,-0.3877716362476349,-0.397785484790802,-0.40876567363739014,-0.11613154411315918,0.5778067708015442,-0.005731008015573025,-0.4004001319408417,-0.2598380446434021,0.4496065378189087,0.026239030063152313,0.104350246489048,0.2687157690525055,0.08493975549936295,0.23528318107128143,0.21409189701080322,-0.7874175310134888,0.36768776178359985,-0.4928520917892456,-0.09238585084676743,-0.16516031324863434,0.15887276828289032,-0.04938146099448204,-0.028177635744214058,-0.27877628803253174,0.06759992986917496,0.37224507331848145,-0.3117818832397461,-0.04744434356689453,0.2167607843875885,0.24955254793167114,-0.20663240551948547,0.1140807718038559,0.25223422050476074,0.5409108400344849,0.13374780118465424,0.20617534220218658,0.5731645822525024,-0.43653416633605957,-0.032714951783418655,-0.28177958726882935,-0.5067375898361206,0.1457279622554779,0.24117553234100342,0.3779303729534149,-0.11268161237239838,-0.36159980297088623,0.6713184714317322,0.09013599157333374,-0.10461054742336273,0.352794885635376,0.13841195404529572,0.08329065144062042,-0.20429199934005737,0.36955711245536804,0.6781541109085083,-0.08028808236122131,-0.23088188469409943,0.6064921617507935,-0.5602998733520508,0.3925732970237732,-0.09105697274208069,-0.029839571565389633,0.06626769155263901
